#include <stdlib.h>
                            #include <stdint.h>
                            #include <math.h>
                            #include <string.h>
                            #pragma once
#include <stdarg.h>
namespace Eloquent {
    namespace ML {
        namespace Port {
            class PCA {
                public:
                    /**
                    * Apply dimensionality reduction
                    * @warn Will override the source vector if no dest provided!
                    */
                    void transform(float *x, float *dest = NULL) {
                        static float u[40] = { 0 };
                        u[0] = dot(x,   0.06394523  , 0.0378024  , 0.06911113  , 0.071019724  , 0.069662444  , -0.065091014  , -0.07115185  , -0.07171607  , 0.07172528  , 0.020626334  , 0.07700499  , 0.07758647  , 0.067433715  , -0.07454323  , -0.07989583  , -0.074638516  , 0.10974453  , 0.091947876  , 0.099978  , 0.07494765  , 0.021807775  , -0.112081155  , -0.10880692  , -0.084152795  , 0.10856956  , 0.08810916  , 0.092457674  , 0.062375143  , 0.012721216  , -0.11108524  , -0.0790879  , -0.03457479  , 0.10220082  , 0.043972187  , 0.10136862  , 0.082076244  , 0.040944915  , -0.10208985  , -0.06696013  , -0.019709269  , 0.102579996  , 0.010067081  , 0.100799315  , 0.07854944  , 0.03962216  , -0.10274343  , -0.09820539  , -0.043213166  , 0.11356982  , 0.014743661  , 0.11009299  , 0.09155607  , 0.086759426  , -0.11496885  , -0.112625904  , -0.08159236  , 0.11332126  , 0.012214265  , 0.10830395  , 0.08883867  , 0.084333934  , -0.11497181  , -0.11261012  , -0.074942395  , 0.073831946  , 0.06209903  , 0.080203585  , 0.08209577  , 0.07716741  , -0.07580957  , -0.08172909  , -0.07350941  , 0.07238239  , 0.06318536  , 0.0781931  , 0.07982993  , 0.0768287  , -0.073701486  , -0.08045173  , -0.07413317  , 0.11214291  , 0.09626742  , 0.105557784  , 0.090332985  , 0.09299856  , -0.11312313  , -0.11180304  , -0.0884427  , 0.11244127  , 0.09528808  , 0.10496457  , 0.0883633  , 0.08894255  , -0.113988824  , -0.11277159  , -0.08920065  , 0.11002932  , 0.08919739  , 0.10474384  , 0.08704769  , 0.06306775  , -0.11242773  , -0.11056431  , -0.062029514  , 0.10612386  , 0.08477317  , 0.10040854  , 0.08366167  , 0.05898629  , -0.10845905  , -0.1064334  , -0.06429611  , 0.11308587  , 0.09614174  , 0.1126392  , 0.09391193  , 0.092441835  , -0.11352374  , -0.111584455  , -0.08547102  , 0.1128668  , 0.09578052  , 0.11309256  , 0.09564774  , 0.09403553  , -0.11385007  , -0.1114579  , -0.0848986 );
                        u[1] = dot(x,   -0.16027199  , 0.018170206  , -0.15255514  , -0.14783253  , -0.13879247  , 0.15710808  , 0.15169474  , 0.13214324  , -0.15984847  , -0.0033166069  , -0.15152991  , -0.14626612  , -0.12313196  , 0.16030242  , 0.14855418  , 0.11933844  , 0.039536346  , 0.03645544  , 0.110115804  , 0.1392908  , 0.050191157  , -0.036710843  , -0.036629073  , -0.007941024  , 0.048301104  , 0.05249617  , 0.113865264  , 0.12333025  , 0.03885325  , -0.046061225  , -0.04829249  , -0.035144728  , -0.04531253  , 0.02714803  , 0.0039210026  , 0.056898065  , 0.06121736  , 0.042595375  , 0.01695341  , -0.0030984196  , -0.033329006  , 0.037171286  , 0.017853675  , 0.066519596  , 0.065498054  , 0.03133903  , 0.02234048  , 0.004681039  , 0.0073200436  , 0.038496625  , 0.077380806  , 0.13208663  , 0.13871172  , 0.0023792859  , 0.00301915  , 0.01324305  , 0.014286346  , 0.037991423  , 0.08544999  , 0.1368218  , 0.14365552  , -0.005413447  , -0.0072309  , 0.0028960865  , -0.1576429  , -0.04328094  , -0.1485293  , -0.1443287  , -0.13886818  , 0.1566975  , 0.14860113  , 0.11391215  , -0.15634686  , -0.049034204  , -0.14908059  , -0.14528744  , -0.14151452  , 0.15539  , 0.1524382  , 0.11885005  , 0.019782756  , 0.023172982  , 0.08928718  , 0.132134  , 0.1213688  , -0.012659897  , -0.007259433  , 0.02639663  , 0.025649732  , 0.029396152  , 0.09375984  , 0.1354016  , 0.12690143  , -0.019621693  , -0.015110402  , 0.02183037  , -0.005287158  , 0.010210397  , 0.047118895  , 0.08666415  , 0.08479017  , 0.004509141  , 0.00083875074  , 0.01772062  , 0.013073833  , 0.023916563  , 0.06491775  , 0.0988279  , 0.08967871  , -0.016729461  , -0.017781805  , 0.009158387  , -0.0116545  , 0.011514993  , 0.058228936  , 0.12306964  , 0.12277315  , 0.023903374  , 0.023343934  , 0.03633299  , -0.010310956  , 0.01200567  , 0.05572077  , 0.12076177  , 0.11758459  , 0.023248129  , 0.025503986  , 0.035941876 );
                        u[2] = dot(x,   0.08214361  , 0.2515363  , 0.087927476  , 0.08608422  , 0.04711174  , -0.056548823  , -0.0005978212  , 0.08848384  , 0.060547054  , 0.07943907  , 0.06840528  , 0.06770424  , 0.016756188  , -0.025238983  , 0.04432793  , 0.112103745  , -0.014009536  , -0.028079735  , -0.009504548  , 0.054345496  , 0.008367568  , 0.060865406  , 0.08341077  , 0.15462965  , -0.014858218  , 0.04121972  , -0.0006314668  , 0.05605949  , 0.06204006  , 0.057836913  , -0.007039611  , -0.08055755  , 0.0577162  , 0.2103252  , 0.088829875  , 0.16560975  , 0.2278591  , -0.017013019  , 0.005801331  , 0.028292341  , 0.06635537  , 0.22296895  , 0.09759195  , 0.16632085  , 0.22301245  , -0.03163264  , -0.0025948714  , 0.085484624  , 0.008567397  , 0.22221276  , -0.007157573  , -0.013224063  , 0.023033204  , 0.05324489  , 0.088717766  , 0.1554591  , 0.0050222464  , 0.22256169  , -0.010600878  , -0.016661135  , 0.009796152  , 0.05448545  , 0.08874369  , 0.15080489  , 0.077405  , 0.12627634  , 0.081859834  , 0.077468134  , 0.04004632  , -0.041254133  , 0.030099727  , 0.10893666  , 0.08850956  , 0.12566213  , 0.089982666  , 0.08433397  , 0.04917525  , -0.052594647  , 0.009277577  , 0.09997579  , -0.0061735967  , -0.012135579  , -0.021800531  , -0.026163323  , -0.034049526  , 0.06048259  , 0.092373595  , 0.15773128  , -0.0072603924  , -0.0059344564  , -0.021285353  , -0.025852257  , -0.036581397  , 0.058450934  , 0.08782426  , 0.15589306  , 0.048015073  , 0.014698721  , 0.05804328  , 0.094356366  , 0.14543049  , -0.007117159  , 0.02675202  , 0.12547444  , 0.04663539  , 0.0077976193  , 0.052232347  , 0.094860606  , 0.1511448  , -0.018691434  , 0.016056696  , 0.11785653  , 0.008542304  , 0.0071501606  , -0.009024008  , -0.018060561  , -0.014965259  , 0.057096418  , 0.08750254  , 0.15407407  , 0.01310898  , 0.010087473  , 0.0012846102  , 0.028119927  , -0.017680265  , 0.05201816  , 0.08614125  , 0.14964652 );
                        u[3] = dot(x,   -0.07343812  , 0.17182271  , -0.07190196  , -0.064340554  , -0.030084508  , 0.0329598  , -0.029678946  , -0.11110265  , -0.0603051  , 0.0248435  , -0.058372185  , -0.04912633  , -0.001979531  , 0.0061903354  , -0.07298153  , -0.12758176  , -0.08957182  , -0.058622375  , -0.059402544  , 0.020632878  , 0.010952403  , 0.02235798  , -0.028603684  , -0.13648635  , -0.086998165  , 0.0146988  , -0.041523516  , 0.04739379  , 0.071755886  , 0.013548212  , -0.1318444  , -0.22579569  , -0.047856458  , 0.19955774  , -0.010456789  , 0.058345392  , 0.19657864  , -0.017859913  , -0.09695689  , -0.13187891  , -0.06219155  , 0.22814487  , -0.021691289  , 0.053929072  , 0.18951139  , 0.017913941  , -0.05209789  , -0.18938828  , -0.085647434  , 0.22435124  , -0.06637253  , -0.0477848  , 0.012869228  , 0.0016330155  , -0.050507303  , -0.16374041  , -0.08555866  , 0.22637117  , -0.0664971  , -0.05166372  , -0.0031116386  , 0.0048570624  , -0.04406524  , -0.16041486  , -0.059727304  , -0.058526963  , -0.055301204  , -0.046480123  , -0.0140481675  , 0.0036697509  , -0.06708502  , -0.13264349  , -0.06767288  , -0.059554983  , -0.06185853  , -0.05296451  , -0.022443863  , 0.014345775  , -0.04865689  , -0.12681757  , -0.08404817  , -0.049508773  , -0.07799241  , -0.061639786  , -0.03631691  , 0.009738083  , -0.038287528  , -0.15363109  , -0.083869845  , -0.055172257  , -0.07551403  , -0.059351623  , -0.036921483  , 0.01320331  , -0.031348158  , -0.15015905  , -0.06812671  , -0.015012687  , -0.03977563  , -0.0059019374  , 0.09866437  , 0.0183206  , -0.036189456  , -0.18379398  , -0.077900164  , -0.015245427  , -0.052360382  , -0.008345967  , 0.10225801  , 0.04255659  , -0.015364652  , -0.17198656  , -0.07513374  , -0.05533718  , -0.061536845  , -0.051285256  , -0.030246891  , -0.013987245  , -0.057817653  , -0.1668661  , -0.079869404  , -0.05539987  , -0.060411833  , -0.010364896  , -0.038559753  , -0.009861007  , -0.06322854  , -0.16559845 );
                        u[4] = dot(x,   -0.09359064  , -0.038131792  , -0.090678334  , -0.09294477  , -0.10379367  , 0.08545806  , 0.08473512  , 0.05490431  , -0.08116443  , 0.004456765  , -0.08020724  , -0.08377403  , -0.08706327  , 0.074140936  , 0.05046689  , 0.020090368  , 0.0042338218  , 0.1647541  , -0.04129787  , -0.11093061  , -0.06610689  , 0.0095529435  , 0.021517368  , 0.063291125  , 0.012302952  , 0.1519593  , -0.041836906  , -0.08222651  , -0.049762942  , 0.00023190977  , -0.012873639  , -0.005786046  , 0.17918888  , 0.07206017  , 0.15220605  , 0.0564564  , -0.027554177  , -0.20656587  , -0.17291234  , -0.07323199  , 0.17615794  , -0.05362872  , 0.14468256  , 0.035948556  , -0.03754185  , -0.19918653  , -0.20897193  , -0.053582363  , -0.029823866  , -0.046566308  , -0.0470898  , -0.09231804  , -0.12084095  , 0.01351556  , 0.013343489  , 0.05991819  , -0.026874833  , -0.050653905  , -0.048321422  , -0.09620228  , -0.122690685  , 0.013832612  , 0.016608307  , 0.06830171  , -0.067702055  , 0.044950873  , -0.05616673  , -0.049493242  , -0.05638704  , 0.054067228  , 0.032043353  , -0.0042689187  , -0.052935485  , 0.054768566  , -0.038263313  , -0.031656977  , -0.040273067  , 0.039492227  , 0.026468584  , -0.002362279  , -0.03908752  , 0.13402723  , -0.05853896  , -0.091550894  , -0.098845094  , 0.02548711  , 0.020741452  , 0.020757927  , -0.024205353  , 0.14846645  , -0.048786033  , -0.094083995  , -0.098393746  , 0.02323438  , 0.017994652  , 0.014403128  , 0.08780917  , 0.26720226  , 0.035982486  , -0.047481544  , -0.057912696  , -0.12037335  , -0.12624201  , -0.04511892  , 0.09935134  , 0.27992597  , 0.04124428  , -0.05023822  , -0.062206004  , -0.13506861  , -0.14401798  , -0.062245138  , -0.05182161  , 0.12869798  , -0.061397243  , -0.10018406  , -0.115166254  , 0.017095586  , 0.006459297  , 0.019435704  , -0.053521864  , 0.13385835  , -0.05990971  , -0.10150178  , -0.106917664  , 0.019785833  , 0.00783746  , 0.023825446 );
                        u[5] = dot(x,   0.030036895  , 0.045872293  , 0.0039813635  , -0.013691478  , 0.015477587  , 0.0007206539  , -0.0072050365  , -0.043918278  , 0.0434586  , -0.049420077  , 0.008776662  , -0.015663372  , 0.019094577  , -0.005798287  , -0.02767305  , -0.06901695  , 0.08572365  , 0.17736278  , 0.053433437  , 0.06607365  , 0.052190214  , -0.08007082  , -0.04181134  , 0.034771476  , 0.08089728  , 0.22641103  , 0.07443542  , 0.07119019  , 0.0948924  , -0.08036317  , -0.10286216  , -0.10820969  , -0.023351759  , 0.18570212  , -0.10753261  , -0.12674992  , -0.00984895  , 0.023030143  , 0.031714637  , 0.039488714  , -0.019148283  , 0.18012777  , -0.10725512  , -0.12734829  , -0.023303326  , 0.016620437  , 0.041917097  , 0.12134221  , 0.04356688  , 0.18850349  , 0.0005759694  , -0.035272848  , -0.01265828  , -0.03916456  , -0.0035917806  , 0.089967266  , 0.04340545  , 0.1843509  , 0.0021450894  , -0.033616714  , -0.022046456  , -0.038881216  , -0.0020303496  , 0.11537236  , 0.0066867825  , -0.19946569  , -0.019179365  , -0.030837016  , -0.0020091317  , 0.030472077  , -0.0028590176  , -0.058721725  , 0.005459705  , -0.1866755  , -0.0100923525  , -0.017418722  , 0.007912125  , 0.02461486  , 0.0013482992  , -0.052126117  , 0.08182391  , 0.18200512  , 0.05264289  , 0.019717272  , 0.023579417  , -0.07291496  , -0.043822467  , 0.009748237  , 0.07218186  , 0.18209733  , 0.032553762  , -0.0077954815  , -0.010933979  , -0.062045634  , -0.036061563  , 0.012590251  , -0.07245871  , 0.03788165  , -0.17887807  , -0.22606039  , -0.18785158  , 0.057904202  , 0.090945154  , 0.17721811  , -0.06967409  , 0.038866747  , -0.17475994  , -0.22266151  , -0.17778145  , 0.057508115  , 0.08968487  , 0.17968455  , 0.03727502  , 0.16095424  , -0.0027969647  , -0.021877104  , -0.012902289  , -0.03878219  , -0.014732226  , 0.052882653  , 0.029085964  , 0.15543728  , -0.016595425  , -0.012842182  , -0.045915842  , -0.030021666  , 0.00074471795  , 0.06686379 );
                        u[6] = dot(x,   0.0456442  , -0.09680481  , 0.044286434  , 0.044189073  , 0.050343744  , -0.03232882  , -0.031435862  , 0.017486665  , 0.03640886  , -0.038594477  , 0.036342766  , 0.037678376  , 0.037596524  , -0.02150826  , -0.01710434  , 0.03982071  , -0.0007822947  , -0.0631821  , 0.031351544  , 0.079734646  , 0.29772073  , 0.025953278  , 0.023625657  , 0.034046274  , 0.0030658874  , -0.06557128  , 0.10897127  , 0.23295419  , 0.2922494  , -0.030898979  , -0.24769795  , -0.28881225  , 0.002325679  , -0.094983354  , -0.004564151  , -0.036399003  , -0.0879719  , -0.05639627  , -0.3422115  , -0.43555942  , 0.010569441  , -0.091154255  , 0.009240042  , -0.022060012  , -0.07774745  , 0.006965041  , -0.13239646  , -0.30016157  , 0.006377232  , -0.0938735  , 0.007538737  , 0.008459276  , 0.010168621  , 0.035763763  , 0.045721084  , 0.05639781  , 0.006936964  , -0.092456  , 0.008470127  , 0.008258924  , 0.02027399  , 0.03505128  , 0.04362692  , 0.049804226  , 0.029066432  , -0.042535927  , 0.023638966  , 0.01824697  , 0.015620651  , -0.0046889884  , 0.027699422  , 0.06078769  , 0.028728921  , -0.0432891  , 0.022918025  , 0.01776618  , 0.015743807  , -0.0060197064  , 0.020409284  , 0.0569191  , 0.0067544337  , -0.059569597  , 0.010174118  , 0.012210895  , 0.02103663  , 0.031790953  , 0.04392251  , 0.07194004  , 0.01036285  , -0.05579536  , 0.012663429  , 0.011135096  , 0.019839074  , 0.0271097  , 0.0377657  , 0.06800475  , 0.009374991  , -0.03832579  , -0.0033089598  , -0.022436744  , -0.059809394  , 0.012406885  , -0.0039253016  , 0.046553697  , 0.013428437  , -0.03650579  , 0.002613262  , -0.028525846  , -0.07678377  , -0.0010574718  , -0.012048999  , 0.03923326  , 0.004852525  , -0.06084393  , -0.003224952  , -0.008344826  , -0.012238449  , 0.04086493  , 0.05313834  , 0.07546195  , 0.0051062847  , -0.061931126  , -0.005237301  , -0.025505887  , -0.010472921  , 0.039457735  , 0.053093195  , 0.073292926 );
                        u[7] = dot(x,   -0.0048513855  , -0.03638587  , 0.0008774004  , 0.020785071  , 0.11154294  , 0.1083406  , 0.07511522  , 0.002318804  , 0.021888865  , 0.0007925752  , 0.023016375  , 0.039111815  , 0.118658096  , 0.11991185  , 0.060988955  , -0.013506689  , -0.054725938  , 0.14801042  , -0.0023227527  , 0.0973575  , 0.25241685  , 0.1326219  , 0.08445693  , -0.049046047  , -0.063278064  , 0.123438686  , 0.065578066  , 0.13195965  , 0.23301046  , 0.14493665  , 0.14759451  , 0.113267794  , 0.0075921863  , 0.008105518  , 0.0293653  , 0.0130878445  , -0.012849088  , 0.064452894  , 0.10290964  , 0.089847  , -0.01834427  , -0.0537098  , 0.005268713  , 0.0013081322  , -0.016519066  , 0.06054287  , 0.054303117  , -0.013729696  , -0.04630402  , -0.045406837  , 0.0017444764  , 0.026707465  , 0.03133198  , 0.13731715  , 0.08304467  , -0.09460763  , -0.0511767  , -0.050019845  , -0.0022866954  , 0.020417133  , 0.025330238  , 0.13830754  , 0.08648506  , -0.110739134  , 0.05718149  , 0.044845436  , 0.07569302  , 0.10321784  , 0.16731651  , 0.083087645  , 0.025582017  , -0.040333953  , 0.057430528  , 0.05328153  , 0.08634953  , 0.11594127  , 0.17866296  , 0.07068006  , 0.026441399  , -0.045612108  , -0.033498023  , 0.16724287  , -0.01461029  , 0.012328334  , 0.060669813  , 0.14396118  , 0.09590882  , -0.06885537  , -0.03789373  , 0.16186948  , -0.015875813  , 0.013477095  , 0.062984884  , 0.13921797  , 0.09507542  , -0.06507849  , -0.04809413  , 0.13032147  , -0.0037724639  , -0.00581644  , 0.013743135  , 0.08741816  , 0.031025577  , -0.19534305  , -0.09371182  , 0.10092477  , -0.0505286  , -0.032344364  , 0.00018384567  , 0.092645295  , 0.030475603  , -0.20145966  , -0.022860242  , 0.1711634  , 0.032800127  , 0.05136444  , 0.07561906  , 0.12824559  , 0.07644907  , -0.08815293  , -0.034254935  , 0.17353979  , 0.022994777  , 0.041294053  , 0.07631128  , 0.1334081  , 0.06940288  , -0.094641134 );
                        u[8] = dot(x,   -0.009632381  , -0.016632034  , -0.012612625  , -0.015741916  , -0.048320077  , -0.08861164  , -0.0714536  , -0.06386977  , -0.05697939  , -0.0043401686  , -0.058667444  , -0.06380726  , -0.09762584  , -0.06931566  , -0.047430072  , -0.04851745  , -0.04763921  , -0.06665441  , 0.021740312  , 0.16919674  , 0.43657088  , -0.046723776  , -0.051577244  , 0.018492563  , -0.03612081  , -0.05031466  , 0.15559432  , 0.23990943  , 0.4271923  , -0.023294518  , 0.09670324  , 0.18068147  , 0.031342078  , -0.022766085  , 0.044269834  , 0.047822207  , 0.0035962656  , -0.037938908  , 0.15771887  , 0.2568445  , 0.048233025  , -0.033331998  , 0.06322915  , 0.054654602  , 0.007980961  , -0.082664676  , 0.022408415  , 0.23213796  , -0.039985467  , -0.036404934  , -0.040981643  , -0.03914488  , -0.06868873  , -0.06542444  , -0.04972398  , 0.03225628  , -0.035808146  , -0.034828592  , -0.037316058  , -0.034642912  , -0.06604415  , -0.06372876  , -0.046313215  , 0.047206163  , -0.055890918  , 0.015943669  , -0.062100466  , -0.07310948  , -0.11907321  , -0.08306975  , -0.07872331  , -0.060337897  , -0.03468301  , 0.019005846  , -0.04655066  , -0.05976036  , -0.10612837  , -0.09172489  , -0.08916425  , -0.064423025  , -0.056024116  , -0.07130895  , -0.041717615  , -0.041619077  , -0.079117976  , -0.051611867  , -0.04417015  , -0.0072424607  , -0.048018377  , -0.06135316  , -0.03289494  , -0.037182443  , -0.07094335  , -0.047817566  , -0.04029789  , -0.007925945  , 0.022715008  , 0.016810233  , 0.018874696  , 0.009342633  , -0.0010409863  , -0.07008065  , -0.033222433  , 0.0487095  , 0.05286226  , 0.038349446  , 0.048227828  , 0.031439018  , 0.017966263  , -0.060816735  , -0.026083816  , 0.057714723  , -0.061408848  , -0.07224573  , -0.060669225  , -0.0522155  , -0.07281505  , -0.065268524  , -0.055983998  , -0.0049642767  , -0.054878827  , -0.06970506  , -0.05407473  , -0.05360448  , -0.065406285  , -0.06738737  , -0.055051714  , 0.001185423 );
                        u[9] = dot(x,   -0.070109375  , 0.06777326  , -0.07636669  , -0.077450335  , -0.12775375  , 0.0021014947  , 0.004171953  , 0.022317337  , -0.06563853  , 0.20738858  , -0.06989606  , -0.07231315  , -0.11366736  , -0.017840533  , -0.050895747  , -0.039911985  , -0.10175836  , 0.10308973  , -0.0690845  , -0.024337182  , 0.0150235575  , -0.030870585  , -0.017752724  , 0.05877191  , -0.12208021  , 0.059019458  , -0.08477312  , 0.004926474  , -0.0011110851  , -0.038566653  , -0.079138845  , -0.05820141  , -0.12244228  , -0.091765575  , -0.08420584  , 0.018345792  , -0.020977177  , 0.023817338  , -0.09376522  , -0.13684982  , -0.12395526  , -0.10588562  , -0.0796535  , 0.036861304  , -0.0058512846  , 0.06242648  , 0.019888872  , -0.017774714  , -0.07443367  , -0.09691449  , -0.036492955  , 0.03462824  , 0.018636947  , -0.059804253  , -0.040555123  , 0.052988485  , -0.08577338  , -0.101748  , -0.043944888  , 0.03085696  , 0.020902002  , -0.052009672  , -0.03178064  , 0.08667305  , 0.012284315  , 0.35471556  , 0.0154406605  , 0.01857559  , -0.047468286  , -0.10194666  , -0.112716995  , -0.095334254  , 0.027242571  , 0.34732002  , 0.026123624  , 0.02717183  , -0.04028639  , -0.10801905  , -0.113038264  , -0.09022904  , -0.05803642  , 0.13744764  , -0.025487855  , 0.031431675  , 0.011102631  , -0.058278237  , -0.044774745  , -0.006477019  , -0.09365591  , 0.12491699  , -0.0536509  , 0.020302817  , 0.0027956772  , -0.03733525  , -0.026169268  , 0.0110675935  , -0.12028214  , 0.004013999  , -0.05231283  , 0.08638744  , 0.0877575  , 0.06227056  , 0.072185926  , 0.15397227  , -0.15091062  , -0.031863976  , -0.08151982  , 0.067439735  , 0.06484244  , 0.12756005  , 0.1420693  , 0.19893163  , -0.046381295  , 0.1839922  , -0.008436454  , 0.05709052  , 0.044924527  , -0.077128015  , -0.06698311  , 0.0049676485  , -0.045124497  , 0.18990536  , -0.007048167  , 0.043981418  , 0.061885834  , -0.074223265  , -0.055814195  , 0.021357423 );
                        u[10] = dot(x,   0.03517756  , -0.24671617  , 0.04191605  , 0.039802622  , 0.10288724  , -0.051996052  , -0.08469274  , -0.14039366  , -0.04566482  , -0.37378448  , -0.043130364  , -0.05218199  , 0.013574464  , 0.028847126  , -0.029661125  , -0.10623216  , -0.041465037  , 0.073775165  , 0.034392662  , -0.022731116  , -0.06326652  , -0.00096651533  , -0.022825724  , 0.085824594  , -0.049986426  , 0.031599626  , -0.027151432  , -0.016506871  , -0.09460023  , -0.0017493872  , 0.0234667  , 0.05616527  , -0.022648668  , -0.10334347  , 0.06967021  , 0.17227447  , 0.19282056  , -0.055373292  , -0.0660098  , -0.03507374  , -0.026325084  , -0.12377928  , 0.07948913  , 0.1845433  , 0.22130956  , -0.048696127  , -0.05605819  , 0.028246414  , -0.07291559  , -0.12117732  , -0.0077442653  , 0.04240665  , 0.03423972  , -0.0013641407  , 0.01851341  , 0.12122215  , -0.07361623  , -0.122510985  , -0.00543976  , 0.045252707  , 0.046805974  , 0.001577529  , 0.025857627  , 0.15044698  , -0.036617454  , -0.28639266  , -0.021792037  , -0.011640116  , 0.059421618  , 0.007980948  , -0.05913684  , -0.12995915  , -0.011284914  , -0.268134  , 0.010135988  , 0.020935422  , 0.08878604  , -0.014062314  , -0.06869704  , -0.13816959  , -0.048166838  , 0.047349952  , -0.006023297  , 0.016016336  , 0.041045517  , -0.0058387932  , 0.0044707945  , 0.018872345  , -0.05398429  , 0.05205603  , -0.009294685  , 0.014234575  , 0.041431587  , -0.0001954554  , 0.0063184537  , 0.014020719  , -0.1021219  , 0.007873477  , -0.044743616  , 0.028449884  , 0.23121276  , 0.013309078  , 0.020955427  , 0.09140481  , -0.11175961  , 0.013835944  , -0.06148092  , 0.009562151  , 0.22303249  , 0.02937776  , 0.031638194  , 0.09672737  , -0.07474029  , 0.02420356  , -0.021882962  , 0.028749928  , 0.035761684  , -0.00022812777  , 0.007122648  , 0.058025166  , -0.080661036  , 0.023946429  , -0.02963068  , 0.0004866749  , 0.034713473  , 0.0021773414  , 0.013392831  , 0.074795865 );
                        u[11] = dot(x,   -0.17510681  , -0.05372205  , -0.14358264  , -0.12588166  , -0.0015755844  , 0.2693284  , 0.21801642  , 0.058406845  , 0.032737173  , 0.14960748  , 0.0668153  , 0.10655053  , 0.26534158  , 0.051489778  , -0.04935017  , -0.124173716  , 0.06424705  , -0.056758203  , 0.0028516403  , -0.09183762  , 0.07111762  , 0.0054270527  , -0.020260278  , -0.08408666  , 0.05204293  , -0.08893288  , 0.0034055875  , -0.010379013  , 0.11478201  , 0.02032858  , 0.041873306  , 0.019803442  , 0.072325215  , -0.08804287  , 0.09736438  , 0.09683658  , 0.15105492  , -0.008758918  , -0.0052798754  , -0.019301185  , 0.016270038  , -0.06280327  , 0.048515435  , 0.0698831  , 0.15330745  , 0.052331973  , 0.06079578  , -0.02625744  , 0.12212851  , -0.06496102  , 0.03279542  , -0.08934177  , -0.06494352  , -0.036505993  , 0.0004829248  , 0.00077588804  , 0.115982585  , -0.063860185  , 0.018965237  , -0.09540761  , -0.07176585  , -0.029878113  , 0.0129463775  , 0.056154884  , -0.015811577  , 0.042177323  , 0.01916196  , 0.037768394  , 0.1661766  , 0.130376  , 0.027093306  , -0.10367287  , -0.09991341  , 0.026489325  , -0.061710846  , -0.040793363  , 0.08539327  , 0.20231603  , 0.115889184  , -0.050520323  , 0.13177589  , 0.0043838574  , 0.012432803  , -0.118335016  , -0.058155376  , -0.05110975  , -0.016763788  , -0.060928836  , 0.121314384  , -0.033530343  , -0.0058143656  , -0.13532664  , -0.08300663  , -0.039278384  , -0.008450823  , -0.061196256  , 0.062951654  , -0.09496044  , 0.004958448  , -0.021665618  , 0.11086031  , 0.017741436  , 0.07937684  , 0.15652443  , 0.019787157  , -0.12676112  , -0.040857676  , -0.064177945  , 0.088107534  , 0.04683147  , 0.10923681  , 0.15999328  , 0.16029488  , -0.0051012314  , 0.057067066  , -0.091821164  , -0.081396915  , -0.07680739  , -0.040243283  , -0.01089889  , 0.1522224  , -0.011603534  , 0.055784687  , -0.09552795  , -0.08036752  , -0.07044512  , -0.026047613  , -0.0028025762 );
                        u[12] = dot(x,   -0.054954655  , -0.008696247  , -0.06430242  , -0.06923127  , 0.058212195  , 0.060428794  , 0.009067359  , -0.10648798  , -0.0383809  , 0.5935438  , -0.04119742  , -0.028564272  , 0.10590199  , 0.015807234  , -0.10409859  , -0.15845145  , -0.033074863  , -0.063562304  , 0.034698397  , 0.050746806  , -0.04437232  , 0.017551454  , 0.0577308  , -0.0036198436  , -0.015345643  , -0.059956253  , 0.03333756  , -0.004431667  , -0.087699145  , 0.012018041  , 0.057292115  , 0.0422291  , 0.03958706  , 0.057858795  , 0.03880293  , -0.04299348  , -0.056116734  , -0.083714746  , -0.023509061  , 0.027968977  , 0.016086984  , 0.023670679  , 0.0020166193  , -0.07588411  , -0.07844864  , -0.06570094  , -0.04711055  , 0.00072254153  , -0.07569129  , 0.016596995  , 0.018738115  , 0.058656815  , 0.090193264  , 0.023519525  , 0.049341727  , 0.11222053  , -0.06983678  , 0.020013647  , 0.02176522  , 0.054552052  , 0.08424096  , 0.026721738  , 0.06175276  , 0.1671536  , -0.018607572  , -0.11031561  , -0.009669843  , 0.00439337  , 0.11156934  , 0.0022912007  , -0.10247555  , -0.20018008  , -0.018916624  , -0.10950799  , -0.003033845  , 0.0112024695  , 0.11708986  , 0.004911935  , -0.0829794  , -0.1917395  , -0.07661492  , -0.09993598  , 0.0083905645  , 0.05213373  , 0.11203729  , 0.051725045  , 0.070499465  , 0.0034946701  , -0.036299653  , -0.0918017  , 0.053950805  , 0.094810314  , 0.16105315  , 0.020243892  , 0.032862835  , -0.03312498  , 0.009007083  , 0.11843936  , 0.03458176  , -0.03278638  , -0.0648467  , -0.07599453  , -0.028146213  , 0.08785281  , 0.0004392552  , 0.12956549  , 0.02059463  , -0.033237815  , -0.061542176  , -0.06940981  , -0.03950591  , 0.068065315  , -0.09628775  , -0.14661337  , -0.0049165464  , 0.048683353  , 0.09207787  , 0.03550206  , 0.05359344  , 0.09021547  , -0.098462515  , -0.14013487  , -0.008456388  , 0.050894547  , 0.087745234  , 0.034341592  , 0.057140004  , 0.109572046 );
                        u[13] = dot(x,   0.14290331  , -0.15054616  , 0.15441412  , 0.15814912  , 0.08140741  , -0.16583642  , -0.15079163  , -0.05443607  , 0.018701013  , 0.63983953  , 0.020087486  , 0.027983889  , -0.06361567  , -0.03476265  , -9.311635e-05  , 0.087913975  , 0.03385623  , 0.110124625  , 0.028216407  , -0.022461835  , 0.0017334975  , -0.013154128  , -0.05716066  , 0.030076519  , 0.025278887  , 0.08952983  , -0.0015579036  , 0.008817499  , -0.00056365284  , -0.013745656  , -0.027542073  , 0.008022704  , -0.038642902  , -0.09599538  , -0.014668074  , 0.07229187  , 0.09700865  , 0.05453509  , 0.008183236  , -0.022047408  , -0.0033968303  , -0.08195042  , 0.03660277  , 0.11183154  , 0.13194495  , 0.0224334  , 0.006939688  , 0.0055763503  , 0.025299272  , -0.07549228  , -0.017743321  , -0.01832666  , -0.053761266  , 0.008328349  , -0.011101958  , -0.048760798  , 0.027593035  , -0.07847824  , -0.010457842  , -0.008005457  , -0.03603997  , 0.00064959074  , -0.026345585  , -0.101254225  , -0.04380476  , -0.16968893  , -0.05727209  , -0.072883405  , -0.13324769  , 0.04240691  , 0.10782863  , 0.1596377  , -0.023704227  , -0.16317739  , -0.037962575  , -0.052674238  , -0.111018576  , 0.020001145  , 0.07313125  , 0.13733062  , 0.032503206  , 0.09144945  , 0.0037790695  , -0.008346765  , -0.052382257  , -0.019792808  , -0.036954716  , 0.014711973  , 0.014613581  , 0.09982499  , -0.023474822  , -0.042309593  , -0.0889697  , -0.0015812418  , -0.013329518  , 0.036339737  , -0.046857357  , -0.0646092  , -0.06359062  , -0.019783786  , 0.09812339  , 0.06965844  , 0.018350467  , -0.09330229  , -0.016538836  , -0.043009814  , -0.029453581  , -0.007748362  , 0.10703335  , 0.040378872  , 0.0018581277  , -0.093987204  , 0.01728859  , 0.09417684  , -0.02742462  , -0.02983621  , -0.06153387  , 0.017299851  , -0.0011565842  , -0.039176527  , 0.019958302  , 0.08804651  , -0.031682286  , -0.05483091  , -0.067633756  , 0.016845677  , -0.006369395  , -0.05425293 );
                        u[14] = dot(x,   -0.017303435  , -0.057611473  , -0.07852709  , -0.10804346  , -0.15699852  , 0.023984626  , 0.087655894  , 0.14120026  , 0.10694007  , 0.013526484  , 0.058135916  , 0.039824817  , 0.020034723  , -0.11452797  , -0.021349093  , 0.058255836  , 0.0059718946  , 0.03820778  , 0.009003234  , -0.08630992  , 0.00051594106  , -0.0055230185  , -0.07365298  , -0.08713823  , 0.020053582  , 0.0336043  , 0.023453817  , 0.015289103  , 0.1142567  , 0.0053258413  , 0.080887675  , 0.07953014  , -0.031382777  , 0.038366076  , -0.2209338  , -0.33169708  , 0.09099265  , 0.015436601  , 0.021784345  , 0.0057800007  , -0.038177878  , -0.026130987  , -0.2501962  , -0.3338519  , 0.11636714  , 0.008630088  , -0.028697122  , -0.14660564  , 0.00529795  , -0.02555643  , -0.041556124  , -0.07398355  , -0.015624992  , -0.008733821  , -0.006336458  , -0.03451395  , 0.0055252267  , -0.026173946  , -0.047433868  , -0.08698482  , -0.026585173  , -0.0032006488  , 0.00550102  , -0.010275488  , 0.118727244  , -0.08304098  , 0.056945488  , 0.029318841  , -0.014460641  , -0.124565564  , -0.044177193  , 0.04415741  , 0.086273  , -0.10878258  , 0.022561235  , -0.00062302407  , -0.04717739  , -0.093650706  , -0.03210586  , 0.057823338  , 0.017275406  , 0.011049165  , 0.006119796  , 0.005832682  , 0.033091392  , -0.011440749  , 0.010213396  , 0.049871784  , 0.031885616  , 0.01344133  , 0.027572256  , 0.030827692  , 0.0684908  , -0.029766476  , -0.016066948  , 0.027099842  , 0.0495297  , 0.16350648  , -0.00041986103  , 0.010313079  , 0.32396355  , -0.056560628  , -0.030618863  , 0.014023347  , 0.050804194  , 0.17865476  , 0.018346595  , 0.050237514  , 0.37201348  , -0.07614081  , -0.07231903  , -0.019006142  , 0.0053502503  , -0.007098875  , -0.026189093  , -0.031856064  , -0.010613731  , 0.0011300192  , 0.027293948  , 0.08157944  , -0.003091437  , -0.006199753  , -0.03336683  , -0.03968072  , -0.008034722  , 0.005152646  , 0.029326934  , 0.07597987 );
                        u[15] = dot(x,   -0.09403977  , -0.09945114  , -0.13209584  , -0.16928703  , -0.28730664  , 0.12571003  , 0.2511877  , 0.26795077  , 0.08039878  , 0.10140173  , 0.058984164  , 0.017502557  , -0.17402616  , -0.07305327  , 0.044831324  , 0.116612546  , -0.034466762  , -0.057622798  , -0.009594362  , 0.077162355  , 0.017246965  , -0.029753251  , -0.047342163  , 0.1744502  , -0.05899366  , -0.061389804  , -0.014964102  , 0.010742604  , -0.005250228  , -0.009959229  , 0.015945783  , 0.101996765  , -0.0021451865  , 0.010869987  , 0.071579106  , 0.14413726  , 0.046101898  , -0.029369175  , -0.01996397  , 0.018472377  , -0.02059092  , 0.01304319  , 0.07063362  , 0.15451188  , 0.047687363  , -0.035811093  , -0.071688235  , -0.018614296  , -0.020735476  , 0.011259231  , 0.0021321585  , 0.040869176  , 0.026609138  , -0.026001478  , -0.08842445  , 0.041761238  , -0.03362319  , 0.01215638  , -0.0013842275  , 0.041633755  , 0.028678378  , -0.021585736  , -0.089366324  , 0.004056795  , 0.14502482  , -0.17054933  , 0.13438627  , 0.12356384  , 0.07630991  , -0.13677278  , -0.031169485  , 0.059188224  , 0.15570381  , -0.17148648  , 0.14963259  , 0.14219666  , 0.090397365  , -0.14820424  , -0.06063453  , 0.042572323  , 0.0046403315  , -0.035378166  , 0.010912029  , 0.020161927  , -0.0019127935  , -0.034215424  , -0.089115225  , 0.08998085  , -0.030139677  , -0.04426028  , -0.011480846  , 0.008136081  , -0.014608268  , -0.021900875  , -0.08072306  , 0.10373395  , -0.08945044  , -0.07164001  , -0.10800414  , -0.09786971  , -0.11642439  , 0.019521747  , -0.06669726  , -0.16303252  , -0.12527087  , -0.10701057  , -0.13686174  , -0.10826386  , -0.11842957  , 0.04238493  , -0.055187248  , -0.12267833  , 0.009862173  , -0.0148927765  , 0.020328648  , 0.016971026  , 0.004130437  , -0.028602883  , -0.076560944  , -0.036813017  , 0.0065859193  , -0.016814433  , 0.018333554  , 0.018877214  , 0.0038352904  , -0.027023219  , -0.08058738  , -0.032711543 );
                        u[16] = dot(x,   -0.015691636  , -0.075245224  , -0.055450063  , -0.08453608  , -0.22019446  , -0.045049664  , 0.01034618  , 0.09854201  , 0.08572528  , -0.03109193  , 0.07706844  , 0.112234965  , 0.1417059  , -0.16561219  , -0.0940639  , 0.012410818  , -0.001568241  , 0.06874623  , 0.08792089  , 0.06756256  , -0.12689398  , -0.013733549  , 0.04199677  , -0.3494482  , 0.009412513  , 0.049805783  , 0.05748729  , 0.0723746  , -0.054013386  , 0.0071887258  , 0.08058985  , -0.054213356  , -0.0081157405  , 0.0058138887  , 0.07984957  , 0.13926604  , 0.0286699  , 0.026877094  , 0.04798196  , -0.018757846  , 0.011045375  , -0.040817488  , 0.13414635  , 0.20452687  , 0.060639378  , 0.014209269  , 0.062112853  , -0.06086345  , -0.045670647  , -0.039604913  , -0.012271298  , 0.059000727  , 0.084507205  , 0.018647445  , 0.1028383  , -0.2136735  , -0.03914429  , -0.04027018  , -0.0043551894  , 0.06003836  , 0.088888384  , 0.020711394  , 0.105059184  , -0.20748022  , 0.0576449  , -0.03253745  , 0.008954601  , -0.026903348  , -0.13060366  , -0.13654864  , -0.041496318  , 0.0754686  , 0.06884688  , -0.041970275  , 0.016628493  , -0.014569918  , -0.1384786  , -0.14046334  , -0.05445761  , 0.07696  , -0.037154872  , 0.011647203  , -3.5487454e-05  , 0.022876948  , -0.01662669  , -0.0023196326  , 0.08891083  , -0.13077684  , -0.025235036  , 0.020366963  , 0.016687274  , 0.035922233  , 0.00013059167  , -0.0037449799  , 0.09466603  , -0.127686  , 0.025282465  , 0.09563493  , 0.007740947  , -0.059592392  , -0.14561617  , 0.0295267  , 0.15517801  , 0.22919537  , 0.0682743  , 0.13129723  , 0.07031392  , -0.0058443975  , -0.11093552  , 0.013725681  , 0.14803073  , 0.16913666  , -0.0695328  , -0.017541373  , -0.06867957  , -0.038116064  , -0.048414066  , 0.018357605  , 0.10209988  , 0.021259796  , -0.07589157  , -0.020789573  , -0.07715198  , -0.05585261  , -0.051698394  , 0.028741356  , 0.110517494  , -0.0010135651 );
                        u[17] = dot(x,   -0.04122302  , -0.021908028  , -0.0032909175  , 0.018235765  , 0.0437825  , 0.011157141  , 0.004796765  , 0.097354606  , -0.08530122  , 0.0025829268  , -0.012808727  , 0.15243149  , 0.57393146  , 0.05483657  , 0.08182668  , 0.14116561  , -0.1272225  , -0.036634844  , -0.010612893  , -0.063244425  , -0.07871378  , -0.013171868  , -0.27222472  , -0.26219139  , -0.13432226  , 0.010385351  , -0.04534585  , 0.08413856  , 0.02669358  , -0.0010344066  , -0.24597049  , -0.17083965  , -0.07307406  , -0.01105153  , -0.03345193  , -0.0024850187  , -0.059697654  , 0.007841714  , 0.09285312  , 0.18412754  , -0.034445796  , -0.025536425  , 0.00941468  , 0.027672976  , -0.04999706  , -0.07870232  , -0.10291821  , 0.14788815  , -0.09176637  , -0.02308168  , -0.046241287  , -0.00027495399  , -0.023551088  , 0.0060652047  , -0.07966142  , 0.11493485  , -0.09579076  , -0.024350228  , -0.045519713  , 0.00015616108  , -0.02380734  , 0.0041659763  , -0.07784487  , 0.120429546  , -0.041531816  , -0.006156636  , -0.002251385  , 0.014870447  , 0.016775956  , 0.007939334  , 0.033505946  , 0.10626378  , -0.014935708  , -0.016080678  , 0.020014375  , 0.034243334  , 0.013697551  , -0.014768201  , 0.006886412  , 0.10975619  , -0.06588062  , -0.00510795  , -0.024598684  , 0.01591548  , -0.00996048  , -0.0119247055  , -0.09114623  , 0.06407346  , -0.07743538  , 0.01266068  , -0.03492593  , 0.0034236691  , -0.020142125  , -0.011429132  , -0.09641111  , 0.05070648  , -0.07638739  , -0.00768261  , -0.011642653  , 0.04268874  , -0.030180447  , -0.029332858  , -0.108613215  , -0.045942847  , -0.07118663  , -0.012745654  , -0.00022763663  , 0.055183586  , -0.021018159  , -0.042868137  , -0.13762365  , 0.008592148  , -0.07417346  , 0.048278954  , -0.020096563  , 0.025156787  , 0.010156199  , 0.014039122  , -0.05616693  , 0.027470078  , -0.07189717  , 0.050439537  , -0.020357067  , 0.022963416  , 0.013800968  , 0.012628226  , -0.058152504  , 0.03640535 );
                        u[18] = dot(x,   0.06883244  , 0.03109656  , 0.014375009  , 0.0033726762  , 0.0863094  , -0.021770116  , -0.020883549  , 0.022031846  , 0.023276675  , -0.023331033  , -0.044138838  , -0.07798048  , -0.031357754  , 0.058445413  , 0.07874241  , 0.059663095  , 0.121394396  , -0.00036257287  , 0.16033249  , 0.11570936  , 0.09052471  , -0.07069696  , -0.1484646  , -0.07843056  , 0.12863551  , -0.08251349  , 0.05337145  , 0.0043465327  , -0.20419042  , -0.098936155  , -0.13063349  , -0.031549346  , 0.014309704  , -0.043489378  , -0.012149188  , 0.033926938  , 0.1884151  , 0.005200786  , 0.021737298  , 0.033666067  , 0.0019344686  , -0.085306354  , -0.0362613  , 0.01605251  , 0.20223875  , 0.013371161  , 0.029539688  , 0.08252878  , 0.018168304  , -0.09077342  , -0.011003815  , -0.010432933  , 0.0077977907  , 0.014373127  , 0.006541465  , 0.04725971  , 0.030629424  , -0.08799511  , 0.0073084445  , 0.006197326  , 0.034070533  , 0.0020604047  , -0.0048520407  , 0.05938843  , 0.023870971  , 0.24593987  , -0.02721573  , -0.037488393  , 0.0198127  , 0.03652901  , 0.03611789  , 0.028465107  , 0.06402022  , 0.3011032  , 0.026391214  , 0.019091448  , 0.06727089  , -0.014670877  , -0.0020321666  , 0.018050717  , 0.018286573  , -0.09364074  , 0.024184925  , 0.045151968  , 0.10350272  , 0.0059205526  , -0.014463016  , -0.061191663  , 0.040725112  , -0.0864969  , 0.038034007  , 0.03642581  , 0.10039571  , -0.008058795  , -0.030136477  , -0.08366369  , -0.04713684  , 0.10725535  , -0.22075163  , -0.3181929  , 0.025357015  , 0.024581246  , -0.0119715445  , -0.082113974  , -0.013428163  , 0.12714264  , -0.19133446  , -0.2975455  , 0.061826088  , -0.019421484  , -0.051881135  , -0.11106319  , -0.0469761  , -0.13687517  , -0.069789626  , -0.063639686  , -0.03828331  , 0.061212063  , 0.04039215  , 0.015795669  , -0.054070458  , -0.14015718  , -0.09251271  , -0.10469415  , -0.06590863  , 0.06878143  , 0.051755678  , 0.017882643 );
                        u[19] = dot(x,   -0.04303164  , -0.104530364  , -0.05034369  , -0.028937273  , 0.059444644  , 0.08244286  , 0.067686595  , 0.10830118  , -0.014962887  , 0.049846534  , -0.034066804  , -0.07914002  , -0.2093893  , 0.061956637  , 0.052969776  , 0.018750845  , 0.03927222  , 0.007461756  , -0.0017246945  , 0.07616142  , 0.32665476  , 0.003782471  , -0.0035052358  , 0.007264766  , 0.038741574  , -0.0068685296  , -0.095544405  , -0.14016019  , -0.26389495  , -0.08299138  , -0.3836727  , -0.35183868  , 0.026842406  , -0.011825183  , 0.013770893  , -0.062035613  , -0.054513603  , 0.019702142  , 0.105242416  , 0.12004159  , 0.032826144  , -0.026209507  , 0.016243137  , -0.06466941  , -0.053499624  , -0.0054352307  , 0.090690814  , 0.2556128  , -0.003982009  , -0.025936805  , 0.017641773  , -0.029056918  , -0.056186687  , 0.020818546  , 0.038030557  , -0.10405021  , -0.0029696776  , -0.026226167  , 0.0119146705  , -0.03542364  , -0.06526464  , 0.025327101  , 0.050085194  , -0.08266154  , 0.060025714  , -0.1273083  , 0.06530256  , 0.077029176  , 0.05955985  , -0.016165234  , -0.011688741  , -0.0069845365  , 0.09328317  , -0.12146013  , 0.09623455  , 0.10712048  , 0.09482002  , -0.043973148  , -0.02830001  , -0.020802453  , -0.028296178  , -0.008923414  , -0.02082248  , -0.046236053  , -0.06251118  , 0.0306364  , 0.039901685  , -0.116822235  , -0.030596929  , -0.01503949  , -0.01985452  , -0.044202846  , -0.062102497  , 0.039527334  , 0.05485736  , -0.10662104  , 0.05388207  , 0.021027135  , 0.114780635  , 0.11794229  , 0.08910946  , -0.015991637  , 0.04871934  , 0.10765318  , 0.058580894  , 0.01737734  , 0.10903641  , 0.10705083  , 0.081432715  , -0.022211403  , 0.05199516  , 0.103635535  , -0.024306081  , 0.004197364  , 0.014580076  , -0.0024360928  , -0.016606165  , 0.016248534  , 0.022496052  , -0.072651036  , -0.034895774  , 0.0044336193  , 0.014576966  , 0.0012758207  , -0.008035984  , 0.024355318  , 0.024205616  , -0.08045681 );
                        u[20] = dot(x,   -0.07141027  , 0.06569273  , 0.0033666934  , 0.072404034  , 0.21439503  , 0.032215748  , 0.04841882  , 0.034008607  , 0.034727823  , -0.037716642  , 0.11791999  , 0.13611458  , 0.06776308  , -0.11020564  , -0.06157296  , -0.0112187965  , -0.04171569  , 0.0983191  , -0.0044850907  , 0.23360501  , 0.44585404  , -0.04085699  , -0.06941072  , 0.008583465  , -0.059657454  , -0.023192853  , -0.14870027  , -0.13878913  , -0.3759496  , -0.014634827  , 0.04598094  , 0.22265851  , -0.1125502  , 0.055162773  , 0.006656992  , 0.019657852  , 0.004760416  , 0.056535196  , 0.023631327  , -0.018325267  , -0.16230857  , 0.031122852  , -0.0038431576  , 0.05288533  , 0.01588621  , 0.10262876  , 0.007854914  , -0.30896726  , -0.0430415  , 0.033152927  , -0.007092813  , 0.007882073  , 0.07616684  , -0.03540483  , -0.071247816  , -0.008017569  , -0.04907845  , 0.03200604  , -0.01918466  , -0.010167469  , 0.053470008  , -0.025076201  , -0.054205604  , 0.023119535  , -0.024822535  , 0.009863605  , 0.014553899  , 0.011883399  , 0.022656491  , -0.030802984  , -0.010356772  , 0.014184683  , -0.121901944  , -0.047793064  , -0.091293685  , -0.0921802  , -0.08604082  , 0.066528395  , 0.06764575  , 0.07123742  , -0.040612247  , 0.021984033  , -0.02817996  , -0.057233773  , -0.03914362  , -0.029658666  , -0.03428816  , 0.12666376  , -0.034009684  , 0.009667194  , -0.015519674  , -0.037481185  , -0.012733185  , -0.041999444  , -0.06112925  , 0.102700144  , -0.006251169  , 0.11452198  , 0.054518256  , 0.015359158  , -0.081035666  , -0.009776589  , -0.008173343  , 0.015249512  , -0.020119017  , 0.13996525  , 0.0622862  , 0.043323997  , -0.06516861  , -0.0033690836  , -0.037256952  , 0.01542339  , -0.0077937604  , 0.021742601  , -0.010883591  , -0.059537496  , -0.040187467  , -0.0506097  , -0.03687049  , 0.06897326  , -0.0057277344  , 0.023336973  , -0.0024825102  , -0.04020143  , -0.02066743  , -0.05414538  , -0.042872027  , 0.07850252 );
                        u[21] = dot(x,   -0.005028655  , -0.046629567  , -0.056595337  , -0.10289624  , -0.21498613  , 0.023528997  , -0.03844281  , -0.09011027  , 0.18851186  , -0.042786263  , 0.14360435  , 0.12361672  , 0.077766255  , -0.16259125  , -0.16402233  , -0.18526885  , -0.024082193  , 0.03444382  , 0.023662902  , -0.022042334  , -0.08317092  , 0.087029204  , -0.014301596  , 0.2261399  , 0.0004965871  , 0.074892744  , 0.029026754  , 0.03127362  , -0.0001247692  , 0.028249782  , -0.24507119  , -0.21572417  , 0.033932935  , -0.04337059  , 0.08610138  , 0.03845691  , -0.0059993183  , 0.13585536  , 0.10161182  , 0.05582832  , -0.02979157  , -0.05045198  , 0.045084503  , 0.013628005  , -0.015213924  , 0.21537383  , 0.21254136  , 0.11119333  , 0.03722438  , -0.050925106  , 0.037988562  , 0.037415855  , 0.01602203  , 0.03765045  , -0.01824718  , 0.1319402  , 0.045313854  , -0.050638728  , 0.04638911  , 0.046884883  , 0.028893733  , 0.0342042  , -0.021346955  , 0.09538103  , 0.044626284  , 0.0351889  , -0.015598433  , -0.05928874  , -0.08164711  , -0.0096148355  , -0.047072515  , -0.13043258  , -0.028523274  , 0.020745268  , -0.08768331  , -0.12646347  , -0.14391956  , 0.060624577  , 0.0121025  , -0.12252439  , -0.026716227  , 0.024071539  , -0.010620934  , -0.009710215  , -0.017625988  , 0.056481835  , 0.000907844  , 0.18920639  , 0.011454608  , -0.00076898705  , 0.02017772  , 0.007845264  , -0.00092090806  , 0.037312422  , -0.022706648  , 0.19415508  , 0.07461796  , 0.12155898  , 0.07985452  , -0.014336345  , 0.010312179  , 0.10666404  , 0.0382174  , -0.24443138  , 0.08611164  , 0.15595554  , 0.0907071  , -0.00867683  , 0.0118275685  , 0.10333687  , 0.0265129  , -0.1978693  , 0.010907123  , -0.04717741  , -0.004506256  , -0.010277205  , -0.001829956  , 0.030704945  , -0.006567287  , -0.007838094  , 0.02440719  , -0.04497206  , 0.002681181  , -0.02695638  , -0.0064041666  , 0.02438967  , -0.021020774  , -0.004420106 );
                        u[22] = dot(x,   -0.029728869  , -0.014842124  , -0.12361113  , -0.12549756  , -0.020851478  , 0.021975983  , -0.041961133  , -0.038825624  , -0.055365402  , 0.012607361  , -0.17646919  , -0.16459994  , 0.06516656  , 0.071288906  , -0.04670893  , -0.03909829  , 0.20873886  , 0.09710695  , 0.10650595  , 0.0767866  , -0.0012081112  , -0.05319138  , -0.09594361  , -0.12049636  , 0.20974177  , 0.021548724  , 0.06848194  , 0.016420461  , -0.06479839  , -0.029066067  , 0.0029369718  , 0.050064504  , -0.12275742  , -0.08704845  , -0.1373142  , -0.02690859  , -0.020502772  , 0.16650024  , 0.086316295  , 0.021166375  , -0.011529906  , 0.026253374  , -0.00077176857  , 0.09978982  , 0.043323025  , 0.04330489  , -0.0424965  , -0.17936446  , 0.076907024  , 0.031944614  , 0.0154451495  , 0.02371686  , 0.042652037  , 0.05519835  , 0.0054436335  , 0.040447216  , 0.090264946  , 0.02953219  , 0.02286586  , 0.030766422  , 0.04417135  , 0.0515917  , -0.0065237107  , 0.014952542  , 0.032110594  , 0.004612731  , -0.053758547  , -0.04920656  , 0.022865804  , -0.031647943  , -0.12682135  , -0.11090484  , 0.11157449  , 0.026744293  , 0.026945617  , 0.032694742  , 0.086149536  , -0.10519164  , -0.18031535  , -0.15819193  , 0.023714274  , 0.06529684  , -0.048415042  , -0.05786841  , -0.100649476  , 0.06028789  , 0.028557003  , 0.10655527  , 0.0075118504  , 0.054160815  , -0.06549372  , -0.074908614  , -0.12552315  , 0.08216049  , 0.04422243  , 0.11075291  , 0.09061944  , -0.26641867  , 0.03709241  , 0.05511283  , -0.051375266  , -0.017179063  , -0.0748835  , -0.09035033  , 0.16053745  , -0.24787627  , 0.101280816  , 0.090290636  , -0.031985823  , -0.08811321  , -0.13408881  , -0.07890979  , -0.01583238  , 0.11335209  , -0.071609885  , -0.05389782  , -0.076300435  , 0.111991055  , 0.06851668  , 0.114216484  , -0.03354056  , 0.10076278  , -0.07475672  , -0.05206281  , -0.08748144  , 0.122752674  , 0.082749546  , 0.14268862 );
                        u[23] = dot(x,   -0.03283546  , 0.010211797  , -0.10376256  , -0.124824196  , -0.03634041  , 0.00065738376  , -0.037721958  , -0.09574624  , 0.09230648  , -0.025606526  , 0.03284861  , 0.02476209  , 0.1311337  , -0.1370969  , -0.13201691  , -0.07572782  , -0.0873114  , -0.07473814  , -0.016960293  , 0.07763079  , 0.20069651  , 0.07092782  , 0.04772493  , 0.07707388  , -0.09864709  , -0.03306777  , -0.121784195  , -0.017501608  , -0.19744445  , 0.05408445  , -0.044038087  , -0.038841385  , 0.16334622  , -0.020709699  , -0.037507866  , -0.06651188  , 0.027747748  , -0.16389136  , 0.041640244  , 0.118425734  , 0.23746401  , -0.008497545  , 0.020610211  , -0.03801928  , 0.04822083  , -0.28904447  , -0.16605802  , 0.0062929676  , -0.035139136  , -0.009074961  , -0.086958975  , -0.045869976  , -0.05325499  , 0.067326896  , 0.12903304  , -0.055775207  , -0.042675644  , -0.00882082  , -0.08491728  , -0.04479454  , -0.048894245  , 0.064435445  , 0.11059823  , -0.14287736  , 0.009315856  , 0.06147092  , -0.064841986  , -0.10162971  , -0.09536985  , -0.05275632  , -0.034560118  , 0.018508015  , -0.02629293  , 0.03023367  , -0.09449728  , -0.12673818  , -0.12627731  , -0.027450519  , -0.024532376  , 0.013634841  , 0.079249285  , 0.06171857  , 0.09217988  , 0.14410438  , 0.123748325  , -0.006872715  , 0.060136937  , 0.056991488  , 0.05203029  , 0.08127024  , 0.066444546  , 0.11656185  , 0.09481776  , 0.0009397281  , 0.079583876  , 0.09635345  , 0.014579282  , -0.20691243  , -0.11222447  , -0.07307973  , 0.011725557  , -0.052421868  , -0.0061066607  , -0.03661378  , -0.025106229  , -0.27833587  , -0.105982676  , -0.036374997  , 0.058259238  , -0.009167374  , 0.042264335  , -0.06204404  , 0.073930375  , 0.084622495  , 0.0317919  , 0.07112334  , 0.07087318  , 0.020503145  , 0.07672329  , 0.016084686  , 0.07694665  , 0.08445611  , 0.0217024  , 0.053521737  , 0.054423794  , 0.017716313  , 0.07248606  , -8.275647e-05 );
                        u[24] = dot(x,   0.042225517  , 0.03601392  , 0.08478725  , 0.07586594  , -0.22194768  , 0.061092485  , 0.028534472  , -0.034540504  , 0.14865713  , -0.014488092  , 0.20413662  , 0.19221382  , -0.2196287  , 0.009233882  , -0.10218179  , -0.09660522  , -0.024269931  , 0.022490248  , 0.064270794  , 0.06331119  , 0.062713906  , 0.065285005  , -0.06287739  , -0.18824027  , -0.029983016  , -0.040742505  , 0.03006497  , -0.020571722  , -0.08023233  , 0.077717796  , 0.043526504  , 0.061259937  , -0.039587736  , -0.032570317  , -0.0083356565  , -0.04090985  , -0.007152892  , 0.049770124  , -0.069173224  , -0.042658452  , 0.004208495  , 0.027005123  , 0.032885876  , -0.018181348  , 0.0045130034  , 0.019299963  , -0.10368655  , 0.07026574  , -0.06628736  , 0.026056185  , 0.0032482524  , -0.015222692  , -0.044097647  , 0.13077419  , -0.016039912  , 0.19460078  , -0.060914565  , 0.026595876  , 0.011988294  , -0.0104458425  , -0.041162863  , 0.12237487  , -0.0038446193  , 0.28809738  , 0.030149722  , 0.019174943  , 0.07182746  , 0.066155724  , -0.19531113  , 0.1545623  , 0.042438738  , -0.018237095  , 0.023216696  , -0.0032284833  , 0.07200886  , 0.06745236  , -0.16333951  , 0.14283156  , 0.0540046  , -0.048820645  , -0.020133102  , 0.062293414  , 0.053269103  , 0.036960345  , -0.0014383965  , 0.07430551  , -0.07284785  , -0.2412963  , 0.0030335847  , 0.049918815  , 0.07049639  , 0.04408067  , -0.0010718822  , 0.05611844  , -0.101498045  , -0.32499877  , -0.027759446  , -0.14080092  , 0.04911523  , 0.000712907  , -0.0018585953  , 0.029331075  , -0.107957914  , -0.01600354  , -0.016485803  , -0.14247628  , 0.081189625  , 0.032785438  , 0.02841266  , -0.02347452  , -0.18206847  , 0.063514665  , -0.02699331  , 0.027456174  , 0.024564836  , -0.00062148034  , -0.030257657  , 0.10161996  , -0.0377567  , 0.044493902  , -0.024905147  , 0.028379938  , 0.011711577  , -0.013954097  , -0.044041384  , 0.11270155  , -0.024141405  , 0.050774798 );
                        u[25] = dot(x,   -0.064096786  , -0.020081112  , 0.021396285  , 0.057396874  , 0.035964347  , 0.031739496  , -0.10775406  , -0.03435816  , 0.0088905115  , 0.002747077  , 0.081834726  , 0.025957072  , -0.31011206  , -0.00619159  , 0.01668661  , -0.00417363  , -0.11262101  , -0.12853558  , -0.10655145  , -0.042719085  , -0.1314065  , 0.060924765  , 0.13741434  , -0.013808337  , -0.08761864  , 0.09880944  , -0.010189926  , 0.008025204  , 0.15072434  , -0.017102296  , -0.132629  , -0.25220442  , -0.10403698  , -0.054035716  , -0.0535589  , 0.0041081994  , 0.029771859  , 0.050727442  , 0.2968112  , 0.36152795  , -0.083134644  , -0.0801931  , 0.009350037  , 0.11102987  , 0.09147592  , -0.06623806  , -0.10127384  , -0.3333241  , -0.0066006794  , -0.07973859  , -0.017158687  , 0.010639469  , 0.08507738  , -0.017482594  , 0.000659175  , -0.05435262  , -0.011158698  , -0.08027358  , -0.026343198  , -0.0001482524  , 0.07280814  , -0.015717315  , -0.006057854  , -0.034675866  , 0.0063373307  , 0.051597673  , 0.06627946  , 0.085022114  , 0.10999752  , 0.019512102  , -0.01052114  , -0.036173332  , -0.092858925  , 0.00096106995  , -0.031882416  , -0.012250548  , 0.03407829  , 0.10481406  , 0.065580785  , 0.0068742265  , 0.04048792  , 0.004099153  , -0.0007021736  , -0.039261054  , 0.003014724  , -0.027096322  , 0.021821974  , -0.020175893  , 0.06264028  , 0.021242926  , 0.021370573  , -0.017141411  , 0.038371272  , -0.06513878  , -0.02652401  , -0.0860041  , 0.014331319  , 0.030441882  , -0.022587152  , -0.063968346  , -0.086035565  , -0.11998555  , -0.08023224  , 0.04715327  , -0.037741154  , -0.0011103328  , -0.041350294  , -0.040836852  , -0.053796038  , -0.103459105  , -0.09477276  , -0.0064638667  , 0.05593659  , 0.025732737  , 0.012449141  , -0.03383185  , -0.0038591  , -0.02562324  , 0.023493964  , 0.19591652  , 0.054865193  , 0.030316532  , 0.012476761  , -0.041051812  , 0.011325488  , -0.0284059  , 0.030815432  , 0.20991874 );
                        u[26] = dot(x,   0.011243835  , 0.005825552  , 0.017083224  , 0.025078591  , 0.062260572  , 0.09078503  , 0.040020544  , -0.062269654  , 0.043479905  , -0.00420032  , 0.0414624  , 0.017764712  , -0.04434663  , 0.06917376  , -0.041430086  , -0.113110445  , -0.042138513  , -0.10222487  , 0.043376338  , -0.00485086  , -0.103436455  , 0.06521358  , -0.16195416  , 0.223204  , -0.011348196  , -0.03165741  , 0.050385203  , 0.065685585  , 0.014762396  , 0.07396124  , -0.04656356  , 0.07358377  , -0.029458508  , 0.0032453334  , -0.12689811  , -0.14187944  , 0.03465124  , 0.10985224  , 0.04936848  , 0.021453248  , 0.12310296  , -0.021218196  , 0.055039153  , 0.0235514  , 0.13129488  , -0.06585319  , -0.13234213  , -0.08026696  , -0.06386784  , -0.020930544  , -0.013899389  , 0.02351546  , 0.06769795  , 0.10537907  , -0.10840823  , -0.1347899  , -0.044681367  , -0.021121055  , 0.0030398185  , 0.028627515  , 0.07571939  , 0.10478742  , -0.093660995  , -0.15671024  , 3.4838456e-05  , 0.03358814  , 0.010069656  , 0.02551557  , -0.042072035  , 0.13138938  , 0.06061431  , -0.0024609026  , 0.035300266  , 0.030758439  , 0.07092368  , 0.09155078  , 0.033084214  , 0.08192373  , 0.03445835  , -0.01981338  , -0.088636644  , -0.058060303  , -0.027360778  , 0.016379863  , 0.011881402  , 0.070813194  , -0.109849915  , 0.17964533  , -0.0070823594  , 0.009911821  , 0.032809302  , 0.053991597  , 0.03622246  , 0.024393726  , -0.16116223  , 0.19634013  , 0.09168814  , 0.03097214  , 0.007975155  , -0.101524346  , -0.06457192  , 0.011368897  , 0.042594615  , 0.22821844  , 0.14177313  , 0.011107596  , 0.08722588  , -0.03367543  , 0.0048304903  , -0.040327784  , -0.046713218  , 0.31650192  , -0.09002215  , 0.03878939  , -0.03275602  , -0.0060852794  , -0.019000782  , 0.099429555  , -0.050790828  , -0.31711787  , -0.08802438  , 0.045107286  , -0.054786827  , -0.039261207  , -0.06099713  , 0.10423987  , -0.057834126  , -0.24161917 );
                        u[27] = dot(x,   -0.19048925  , 0.007887277  , 0.082734466  , 0.13206932  , -0.09356174  , 0.02989732  , 0.0765944  , -0.04298481  , -0.1821993  , -0.003968439  , 0.1207755  , 0.21284065  , -0.0048938817  , -0.013296505  , 0.027406298  , -0.07098816  , 0.03863642  , 0.09881545  , 0.19362313  , 0.012365726  , -0.063545994  , -0.15098462  , 0.017961739  , 0.09381651  , 0.048952043  , 0.046843685  , 0.16777326  , 0.029460456  , -0.027912289  , -0.14983915  , -0.004587953  , -0.01736562  , -0.07880355  , -0.022899115  , 0.057383187  , -0.07824148  , -0.0019734798  , -0.048248317  , 0.036912613  , 0.009529749  , -0.041084412  , 0.018401891  , 0.07222738  , -0.097791135  , -0.009117867  , -0.08491188  , 0.03227804  , -0.045228265  , -0.10334033  , 0.019123614  , 0.071189396  , -0.080503896  , -0.11326742  , -0.07245652  , 0.08353831  , -0.07355228  , -0.08782129  , 0.019156078  , 0.075471625  , -0.09185907  , -0.13308121  , -0.07601979  , 0.073715486  , -0.10141236  , -0.21615356  , 0.042230517  , 0.07698167  , 0.13973646  , -0.021290686  , 0.022243053  , 0.073956095  , -0.030850291  , -0.16053103  , 0.0571554  , 0.1375112  , 0.1920554  , 0.05453575  , -0.023329813  , 0.034893773  , -0.08202802  , -0.09786973  , 0.016282534  , 0.08827105  , 0.06203941  , 0.047300853  , -0.091018595  , 0.064689025  , 0.105335444  , -0.060276296  , 0.01928504  , 0.122874595  , 0.06453461  , 0.053914588  , -0.106331214  , 0.057508472  , 0.120552026  , -0.116106845  , -0.14048529  , 0.07930145  , -0.05010819  , 0.020722026  , -0.013646832  , 0.08242708  , -0.05802169  , -0.055429865  , -0.10579653  , 0.13546954  , -1.3875054e-05  , 0.06921778  , -0.015273576  , 0.11755136  , -0.15537217  , -0.16602896  , -0.019998867  , 0.020950021  , -0.08393206  , -0.115501426  , -0.061964378  , 0.059918962  , 0.059142597  , -0.16091065  , -0.02060234  , 0.024225447  , -0.0742969  , -0.1026742  , -0.0591226  , 0.06273989  , 0.023416074 );
                        u[28] = dot(x,   0.043076135  , -0.055631716  , 0.06322349  , 0.06395012  , 0.023380846  , -0.07632308  , -0.009146622  , 0.17510512  , -0.0755054  , 0.0074793175  , -0.07592428  , -0.085673064  , -0.059841182  , 0.014234655  , 0.054376468  , 0.050788656  , 0.054753285  , 0.030634085  , -0.0044435156  , -0.059439786  , 0.012549253  , 0.026336618  , -0.15173472  , -0.12904635  , 0.07446075  , 0.12969898  , 0.0031346802  , -0.016047759  , -0.0033665937  , 0.055461973  , -0.051803935  , 0.021656282  , 0.25276205  , 0.057369854  , 0.17657316  , -0.0034136097  , -0.00086955755  , 0.029076658  , 0.15184474  , 0.1883902  , 0.2054338  , 0.010679623  , 0.09011978  , -0.105358824  , -0.056759868  , 0.0005808574  , -0.076792404  , -0.4321899  , -0.0020772135  , 0.008316755  , -0.00806286  , -0.0761567  , -0.03462836  , 0.05248445  , -0.05768573  , 0.07809247  , -0.00078247197  , 0.009518581  , -0.01716778  , -0.09773251  , -0.06987951  , 0.07147772  , -0.0013265248  , 0.21935281  , -0.043403044  , -0.025220739  , -0.025470868  , -0.032850754  , -0.069657296  , -0.037220437  , -0.037395407  , -0.024595346  , 0.008372714  , 0.03515518  , 0.022513049  , 0.014718575  , -0.019537559  , -0.072277725  , -0.061572593  , -0.051342707  , 0.045981187  , -0.0144358585  , 0.023578515  , 0.020413252  , 0.079590805  , -0.016777137  , -0.09908122  , -0.010015846  , -0.0038352176  , -0.016824834  , 0.002191135  , 0.007141657  , 0.077092454  , 0.059597008  , -0.051839735  , 0.015888156  , 0.017426671  , -0.013999081  , 0.07913349  , 0.03268052  , 0.0071675833  , 0.21875125  , 0.15481916  , -0.033843454  , -0.022630187  , -0.04216711  , 0.03894534  , 0.023027848  , 0.005883337  , 0.32019106  , 0.22186302  , 0.04712905  , 0.004606124  , -0.09129904  , 0.025652973  , 0.0054952987  , 0.044394117  , -0.0120717455  , -0.08195819  , -0.045754813  , -0.046171904  , -0.115562834  , 0.0034422514  , 0.008562488  , 0.057158418  , 0.027412442  , -0.060943577  , -0.023821885 );
                        u[29] = dot(x,   0.13322733  , 0.03928806  , 0.105232626  , 0.054689568  , -0.32172847  , -0.038225077  , -0.05400425  , -0.17553121  , 0.013119706  , 0.018059557  , -0.0505999  , -0.010277938  , 0.046279415  , 0.21294267  , 0.2128193  , -0.024204  , -0.023488086  , -0.053919923  , 0.028205402  , -0.008300092  , 0.10588143  , -0.019377436  , -0.1422169  , -0.15497611  , -0.06024209  , -0.1992481  , -0.06010021  , -0.015742345  , -0.06010056  , 0.016540699  , -0.029732082  , 0.03362035  , 0.08063362  , 0.041476667  , 0.026640767  , -0.013698542  , 0.014086002  , -0.07601851  , 0.012267915  , 0.054130834  , 0.03825012  , 0.0001888275  , -0.017209437  , -0.04219509  , 0.0044428874  , -0.04082429  , -0.0047099427  , -0.11082155  , 0.08758254  , -0.0011818387  , 0.0990589  , 0.05972833  , -0.0060557965  , -0.07357714  , -0.01802165  , 0.016211886  , 0.07596708  , -0.00085569656  , 0.087669656  , 0.059975956  , -0.0036817838  , -0.07925172  , -0.092102736  , -0.2474476  , 0.08346312  , -0.038274422  , 0.0856138  , 0.07900446  , -0.20371234  , 0.124144234  , 0.08744978  , -0.14172886  , 0.07738118  , -0.013080622  , 0.09811676  , 0.08827688  , -0.13324074  , 0.10232265  , 0.07038426  , -0.22483939  , -0.0510261  , -0.032967288  , -0.048923396  , -0.064709485  , -0.14343514  , 0.05892289  , 0.08499081  , 0.10556811  , -0.048017994  , -0.037219904  , -0.044614643  , -0.036360502  , -0.12921351  , 0.045199372  , 0.08543249  , 0.1530469  , -0.027628008  , 0.12833281  , -0.02195714  , 0.0043240185  , 0.042064376  , -0.024323886  , 0.018864822  , 0.066441886  , -0.11087419  , 0.045892112  , -0.12012666  , -0.06774325  , -0.013272503  , 0.023831189  , 0.0697677  , 0.008994272  , 0.038257696  , 0.016649595  , 0.07911585  , 0.07198519  , 0.039544094  , -0.010931448  , 0.02163873  , 0.06690193  , 0.05651766  , 0.032559186  , 0.0932211  , 0.075916134  , 0.046836965  , -0.025864381  , 0.0304389  , 0.1814559 );
                        u[30] = dot(x,   -0.056560706  , -0.114618994  , -0.020454692  , 0.002577808  , 0.20181067  , 0.05840783  , 0.12435159  , 0.08950133  , 0.013212525  , -0.0121805  , 0.04918995  , 0.030726168  , -0.04780817  , -0.08887455  , -0.18270835  , -0.036734853  , -0.04961186  , -0.00047708454  , -0.065368794  , -0.101253204  , 0.012251217  , 0.064822264  , -0.091519244  , 0.04969649  , -0.010180098  , 0.24349165  , -0.03424235  , 0.015963435  , 0.024532251  , 0.056786425  , -0.0004437112  , 0.042399075  , 0.07235915  , 0.010080059  , 0.07510176  , 0.0029766047  , 0.02751939  , 0.013688492  , -0.05870815  , -0.032704145  , 0.04069739  , 0.026980972  , 0.022792215  , -0.09302824  , -0.02108564  , 0.05130994  , -0.0628149  , 0.11600614  , 0.038027037  , 0.028524358  , 0.06341685  , 0.019344926  , -0.016718168  , 0.005446918  , -0.058260094  , 0.1846563  , 0.051396836  , 0.028592685  , 0.08349515  , 0.039720025  , 0.0017371409  , -0.019553166  , -0.23701753  , -0.50690514  , -0.08910754  , 0.014220371  , -0.06258236  , -0.06344422  , -0.04854011  , 0.023396367  , -0.020527378  , 0.061778404  , -0.021415016  , 0.10143189  , 0.013909841  , 0.016491288  , 0.073848225  , -0.03211527  , -0.06129204  , -0.026974868  , -0.058292143  , -0.030004485  , -0.021710858  , 0.017092876  , 0.0026258833  , 0.028796365  , -0.097443536  , -0.123841584  , -0.07101988  , -0.026362583  , -0.035825443  , -0.014105081  , -0.051252007  , 0.05679201  , -0.057448663  , -0.0532423  , -0.0606965  , -0.068458036  , -0.014366512  , -0.03866116  , 0.021776747  , 0.11781542  , -0.006406196  , 0.03708286  , 0.013189229  , 0.0048388927  , 0.040962152  , -0.03274966  , 0.0146029135  , 0.06789993  , -0.07109336  , 0.03018152  , -0.04142474  , -0.06020193  , 0.032371163  , 0.04459099  , 0.031754576  , 0.051995747  , 0.015972983  , 0.11676848  , -0.038427595  , -0.0812719  , 0.025306705  , 0.029558012  , 0.004011829  , 0.04998538  , 0.039006047  , 0.41879925 );
                        u[31] = dot(x,   0.08847854  , -0.05542321  , 0.13347302  , 0.20033184  , 0.107220255  , -0.028735751  , 0.34547788  , 0.35124314  , -0.066543534  , -0.008472551  , -0.05188478  , 0.0497367  , 0.09790568  , -0.0016157659  , -0.08921419  , -0.10077056  , -0.03833462  , -0.13651302  , 0.04030753  , -0.06329531  , 0.026570482  , 0.076349266  , 0.1065004  , 0.115488656  , 0.0016909608  , 0.12210212  , -0.03417628  , 0.15760721  , -0.106545046  , 0.055622194  , 0.030495688  , -0.04882096  , -0.13473791  , 0.0018231957  , -0.22190048  , -0.025888592  , -0.034188315  , 0.06403688  , 0.056128122  , 0.01785019  , 0.025610318  , -0.0024950106  , -0.03537921  , 0.0983421  , 0.03565935  , -0.10471776  , -0.042887233  , -0.075354494  , 0.05611936  , -0.0021572849  , 0.035572365  , 0.073406614  , -0.03060866  , -0.028953059  , 0.11011729  , 0.060909986  , 0.06610722  , -0.0021812902  , 0.06022886  , 0.12023903  , 0.005106655  , -0.044800833  , 0.075890444  , 0.09995726  , -0.09007435  , -0.018195452  , -0.079726696  , -0.04840019  , -0.25011247  , 0.009112841  , -0.033578046  , -0.06834681  , -0.01403412  , 0.04755817  , 0.023131637  , 0.061014377  , -0.08076796  , -0.07069212  , -0.04317162  , -0.2430187  , 0.044768672  , -0.07422742  , 0.029282456  , -0.016388217  , -0.12591214  , -0.016631706  , 0.0882976  , -0.055910386  , 0.11189949  , 0.03918699  , 0.0455917  , -0.021725988  , -0.16119927  , -0.052707188  , 0.064465955  , -0.07040932  , -0.019166393  , 0.06668213  , -0.08969316  , 0.057381503  , 0.03900878  , -0.07231179  , -0.03861266  , -0.043946568  , 0.0057991208  , 0.06956408  , -0.09588001  , -0.0060663307  , -0.040169474  , -0.0680964  , 0.031292107  , -0.06868014  , 0.026944235  , -0.046413798  , -0.00044421642  , 0.07353047  , 0.0074802795  , -0.034612548  , 0.0087932125  , -0.09185328  , 0.05860106  , -0.03386984  , -0.0027123268  , 0.038547087  , -0.021054545  , -0.039939996  , 0.040532943  , -0.11042502 );
                        u[32] = dot(x,   0.21115196  , 0.15832175  , 0.17366242  , 0.15000449  , -0.023551611  , -0.04072587  , 0.3336399  , 0.18389148  , 0.103695236  , 0.00013169594  , 0.018817613  , -0.013628519  , -0.057253808  , -0.08440197  , 0.062190186  , -0.05038534  , -0.01860078  , 0.056323357  , -0.08440165  , 0.058472827  , -0.052384336  , -0.092719965  , -0.08471294  , -0.08373529  , -0.010961327  , 0.0071258927  , -0.04048813  , 0.014780108  , 0.050656117  , -0.07734263  , -0.032675475  , -0.012817039  , 0.14215177  , -0.14015326  , 0.036083736  , 0.0059504756  , -0.012083311  , -0.10044454  , -0.014255482  , -0.0036134643  , 0.069759786  , -0.02243178  , -0.027587708  , -0.02992752  , -0.035455633  , 0.00798577  , 0.11540623  , 0.03750468  , 0.008725764  , -0.019343907  , -0.10006719  , 0.008863422  , 0.110011965  , -0.08560938  , -0.019427707  , 0.026558474  , 0.02309154  , -0.020283941  , -0.090062946  , 0.0048573357  , 0.13475724  , -0.09253033  , -0.030616421  , -0.024514634  , 0.045126807  , -0.006700465  , -0.0027202186  , -0.015981955  , 0.11836643  , -0.019367887  , 0.07151702  , -0.0815179  , -0.06046335  , -0.07769193  , -0.095207706  , -0.10882842  , 0.020582195  , 0.08151336  , 0.17153257  , -0.14801843  , -0.16921288  , 0.07421718  , -0.20822266  , -0.025011085  , 0.07425306  , 0.01994545  , 0.041092757  , 0.010207258  , -0.120621845  , 0.01858063  , -0.15114027  , 0.02322548  , 0.1935325  , -0.013835507  , 0.0032052957  , -0.0028977126  , 0.15523669  , -0.15655302  , 0.021699052  , -0.053461224  , -0.009393675  , -0.09657587  , 0.004528153  , 0.0058096577  , 0.13702217  , -0.15608372  , -0.0015873977  , -0.019619394  , 0.04061303  , -0.03772259  , 0.056086987  , -0.060419578  , -0.10146912  , 0.06875168  , -0.18912293  , -0.043360103  , 0.07712458  , -0.026373485  , 0.02559748  , -0.0032406545  , -0.07676232  , 0.092708744  , -0.1720119  , -0.038889278  , 0.06975055  , -0.044647757  , 0.017849026  , 0.03055292 );
                        u[33] = dot(x,   -0.035437964  , 0.2417273  , -0.0025343383  , 0.0293339  , 0.098859735  , -0.012994254  , -0.017764976  , 0.036652494  , -0.12012084  , 0.010279912  , -0.103958875  , -0.115840614  , -0.021201076  , 0.040091503  , 0.12041919  , 0.14896631  , -0.15255249  , -0.25357345  , 0.0718616  , -0.0022331874  , -0.032614376  , 0.108925804  , 0.019552182  , -0.06296092  , -0.1060146  , -0.107644014  , -0.022406317  , 0.19095081  , -0.12831564  , 0.1110604  , 0.066089466  , -0.0163207  , -0.019365242  , -0.022400098  , -0.009590051  , -0.11508093  , 0.0009855351  , 0.17144819  , -0.01423801  , -0.16414711  , 0.06974016  , -0.05647025  , 0.11703814  , 0.048096124  , 0.10224085  , 0.083920434  , 0.021479694  , 0.12041914  , -0.01930722  , -0.05512305  , 0.022367613  , -0.03757893  , -0.06281973  , -0.0029488432  , 0.003348382  , 0.09017077  , -0.015352352  , -0.056530714  , 0.0152753955  , -0.054898065  , -0.093260296  , 0.0052546384  , -0.017350009  , -0.08249674  , 0.018606072  , -0.024847135  , 0.054690775  , 0.06456417  , 0.027270474  , -0.1105127  , -0.09863455  , -0.073507436  , -0.036013972  , -0.1933176  , -0.018456496  , -0.019820556  , -0.038764197  , -0.041450106  , -0.0540186  , -0.085110076  , -0.040915996  , 0.011326669  , 0.05157681  , 0.060456168  , 0.034737088  , -0.015770147  , -0.00024123749  , -0.014853793  , 0.062296897  , 0.042697094  , 0.12176398  , 0.09760446  , 0.089933276  , -0.089251585  , -0.07554661  , -0.06496774  , 0.1832655  , 0.100144394  , 0.09138657  , -0.14497063  , -0.044885922  , 0.06015798  , -3.8774007e-05  , -0.13974033  , 0.14850411  , -0.0049329256  , 0.106872015  , -0.09173992  , 0.018162671  , 0.15927757  , 0.11083528  , -0.0031334548  , 0.013197686  , 0.14444959  , 0.058435593  , -0.062018733  , -0.13821627  , -0.03887096  , -0.042188283  , 0.13214853  , 0.04878668  , 0.1843857  , 0.08502223  , -0.047398377  , -0.100911915  , -0.06507697  , -0.07689345  , 0.11252298 );
                        u[34] = dot(x,   0.02575905  , 0.058669977  , -0.04415969  , -0.06269898  , 0.08641882  , -0.014349648  , 0.009375493  , -0.05661766  , 0.038600557  , 0.0077757896  , -0.037190598  , -0.09352277  , -0.06114875  , -0.021483721  , 0.072880186  , 0.058718063  , -0.17767589  , -0.035275627  , 0.09846667  , -0.08462041  , 0.005049456  , 0.1569492  , -0.051303614  , -0.104814455  , -0.08787297  , 0.4072599  , -0.018338919  , 0.28722623  , -0.16840169  , 0.092624865  , 0.023876684  , 0.029082227  , 0.05089608  , -0.10268774  , 0.1787014  , 0.03685273  , 0.07404122  , -0.15475702  , -0.07595181  , 0.063396014  , -0.15809613  , -0.009684163  , -0.06744806  , -0.16027659  , -0.016979512  , 0.08266291  , 0.07579605  , -0.02785524  , 0.054144084  , -0.012532703  , 0.15406188  , 0.034273878  , -0.01916418  , -0.060072668  , -0.07742536  , -0.14910519  , 0.055426717  , -0.010584705  , 0.14755256  , 0.019983897  , -0.043812286  , -0.061689  , -0.020039942  , 0.12956065  , 0.09912512  , 0.028554522  , 0.041132394  , 0.011896964  , 0.02279882  , -0.06742011  , -0.017573046  , -0.016469134  , 0.05777546  , -0.0035780023  , -0.026632141  , -0.06908146  , -0.0495445  , -0.010052406  , 0.021652564  , 0.0133199515  , -0.078890145  , 0.120295644  , 0.025658216  , -0.020403152  , -0.08233066  , 0.10023241  , 0.09995432  , 0.11310353  , -0.06556028  , 0.014430264  , 0.06795623  , 0.018832738  , -0.05878926  , 0.05572662  , 0.048463725  , 0.045778044  , -0.049207263  , -0.17786239  , 0.052016784  , -0.08011437  , 0.005718066  , -0.09879626  , -0.03926512  , 0.092866756  , -0.057534475  , -0.09642939  , 0.021157246  , -0.09692552  , 0.0036676303  , -0.14310889  , -0.09413969  , 0.054431546  , -0.015499574  , -0.10372669  , 0.079485334  , -0.029694036  , -0.07029921  , 0.025321139  , 0.02085819  , -0.03138803  , -0.005277832  , -0.11605174  , 0.09821577  , -0.014502346  , -0.044898465  , 0.0040628235  , -0.019784216  , -0.1664274 );
                        u[35] = dot(x,   0.17139053  , 0.1622679  , -0.041528713  , -0.08342634  , 0.32421523  , 0.15869881  , 0.20835695  , -0.053499963  , 0.21767496  , 0.0018621706  , 0.0055580917  , -0.093700685  , -0.081869856  , 0.04497847  , -0.008187928  , -0.09816561  , 0.03645268  , -0.04467125  , 0.14362329  , -0.007860755  , -0.17689018  , -0.17963617  , -0.12452163  , 0.026519757  , -0.02913902  , -0.10467342  , 0.09538381  , 0.1273418  , 0.03384119  , -0.13871674  , -0.03128567  , 0.02212335  , -0.035315253  , 0.031073779  , 0.09383066  , 0.025661997  , -0.09251542  , -0.01949928  , 0.027420886  , 0.05865681  , -0.048366174  , -0.02969488  , 0.059371836  , 0.016552923  , -0.093953125  , -0.03933014  , -0.051826928  , -0.07037936  , -0.1160017  , -0.030132959  , -0.011962343  , 0.02697032  , -0.08485777  , 0.018043417  , 0.08194534  , 0.021294227  , -0.14360502  , -0.030343818  , -0.041124046  , -0.0076485714  , -0.14970905  , 0.036691517  , 0.081453755  , -0.05258903  , 0.26229087  , 0.043881353  , 0.027169356  , -0.058345485  , -0.020005785  , 0.013316666  , -0.034848403  , -0.027018387  , 0.18517739  , -0.07006261  , -0.073976316  , -0.15538873  , -0.1100942  , 0.07900145  , 0.05244524  , 0.015586169  , 0.09702949  , -0.024764782  , 0.12073238  , 0.061819274  , -0.040989786  , -0.14174508  , -0.08205261  , -0.04513959  , -0.07923725  , -0.08097369  , 0.00041804923  , -0.019123107  , -0.15435442  , -0.030003816  , 0.025668073  , 0.03691875  , -0.12575094  , 0.053435538  , 0.0038314112  , 0.07513044  , 0.014515261  , 0.05219623  , 0.078773655  , 0.02477672  , -0.13310252  , 0.043573484  , 0.026562247  , 0.12930346  , 0.040840015  , 0.0022272007  , 0.014116356  , -0.1004766  , -0.012555146  , 0.04931448  , 0.043029413  , 0.025388831  , -0.07896897  , -0.014151662  , 0.046613753  , -0.0022549313  , -0.071475156  , 0.045560956  , 0.015796345  , 0.024184175  , -0.042003773  , 0.0316643  , 0.090367645  , 0.056660585 );
                        u[36] = dot(x,   0.019056514  , 0.24378406  , 0.041041885  , 0.07068084  , 0.0296887  , -0.06764335  , -0.14194253  , 0.4219955  , -0.07056353  , -0.010790187  , -0.017871026  , 0.005527468  , 0.057302885  , -0.007931337  , -0.10513178  , 0.08183902  , 0.055112295  , 0.20811558  , 0.05327545  , 0.04679548  , -0.05779656  , 0.018848736  , 0.0743361  , 0.07960587  , -0.013959908  , -0.2861052  , 0.13630801  , -0.23979287  , 0.13496524  , 0.01580538  , -0.052337024  , -0.055700794  , -0.014718528  , -0.04402362  , 0.10535538  , 0.049895085  , 0.06683081  , -0.07823317  , -0.019807799  , 0.10010901  , -0.10178155  , -0.047161542  , -0.03120989  , -0.07912078  , 0.00498334  , 0.0069296705  , -0.017285474  , -0.023941068  , 0.0011954008  , -0.04895056  , 0.10389326  , 0.011942622  , -0.03856217  , 0.05693437  , -0.026981996  , 0.024521498  , -0.001461955  , -0.04785285  , 0.1001528  , 0.005413189  , -0.05140225  , 0.05520862  , -0.06924384  , -0.11834027  , -0.017355938  , 0.0038027973  , -0.02156402  , -0.01719592  , 0.042320076  , -0.060719207  , -0.16476811  , -0.038796954  , -0.07090058  , -0.10711209  , -0.10938916  , -0.11426052  , -0.13648097  , -0.0024450715  , -0.08738305  , -0.15910256  , -0.016825156  , 0.09019336  , 0.048967224  , -0.019981457  , 0.010309404  , 0.14234234  , 0.04699449  , 0.016959118  , -0.012342252  , 0.04767986  , 0.0715406  , 0.019599123  , 0.05272596  , 0.120744064  , 0.015583793  , 0.008485856  , -0.09501858  , -0.030634437  , 0.013880935  , -0.04788611  , 0.0072290553  , -0.03173628  , -0.07701329  , 0.082078025  , -0.12770882  , -0.01374865  , -0.009307909  , -0.06392949  , 0.0028101646  , -0.03928377  , -0.11766999  , 0.0927487  , 0.02210291  , 0.00031831305  , 0.11734982  , -0.024090245  , -0.06767826  , 0.080373  , 0.010370103  , -0.17383172  , 0.023175176  , 0.00056760584  , 0.117405154  , -0.021198398  , -0.060260396  , 0.076584935  , 0.026302593  , -0.01319282 );
                        u[37] = dot(x,   0.15463234  , 0.10996316  , -0.021943174  , -0.13688745  , -0.19429648  , -0.10149483  , -0.11206612  , 0.028028216  , 0.048635032  , 0.0022871  , -0.052420128  , -0.09641898  , 0.23305257  , 0.10398047  , 0.04163484  , -0.01582981  , -0.10569048  , -0.057732046  , -0.025458775  , -0.06437668  , 0.10792498  , -0.024395017  , 0.05837603  , 0.29045787  , -0.0935275  , 0.04590732  , -0.026590329  , -0.022210328  , -0.04029351  , -0.05138159  , -0.009793315  , 0.03612509  , -0.044408277  , -0.107098535  , 0.07700749  , 0.07750601  , 0.059478823  , 0.06621286  , 0.06289397  , 0.042367652  , -0.045187853  , 0.0134221455  , 0.016707182  , -0.0510195  , -0.024808468  , 0.096239336  , 0.17377523  , -0.26896533  , -0.06845437  , 0.012263986  , -0.015585264  , -0.046438176  , -0.09013756  , -0.017654909  , 0.10548801  , 0.23190627  , -0.070522405  , 0.012828604  , -0.0019158175  , -0.020963334  , -0.05382742  , -0.027519379  , 0.013637716  , -0.070766576  , 0.0024168321  , -0.039372664  , -0.09197276  , -0.091709785  , 0.0034888082  , 0.1447028  , 0.115152285  , 0.07501268  , 0.17835471  , -0.02282487  , 0.07122286  , 0.0718418  , 0.1010597  , -0.040060252  , -0.03875426  , 0.058378097  , -0.042490836  , 0.0984889  , 0.027204625  , -0.015238167  , 0.043926056  , -0.09358917  , -0.03474468  , -0.1410951  , 0.0050379746  , -0.003149823  , 0.054273255  , -0.0075019454  , 0.060204305  , -0.12262317  , -0.06075939  , -0.21843493  , 0.025643906  , -0.09336288  , 0.0252237  , -0.055555236  , -0.014265397  , -0.036513213  , 0.048604663  , 0.1711788  , 0.14386918  , 0.038910817  , 0.11128547  , -0.0359398  , -0.0020451918  , -0.1627661  , -0.05072628  , -0.121730246  , -0.046381418  , 0.022775136  , 0.015917625  , 0.02568985  , 0.039643023  , -0.070732564  , -0.019902417  , -0.17285527  , -0.018637307  , 0.010339919  , 0.007225313  , 0.0031207572  , -0.009710659  , -0.07057081  , 0.053676713  , 0.05759697 );
                        u[38] = dot(x,   0.061022718  , -0.08268655  , 0.068804055  , 0.05589844  , -0.31894857  , -0.08562209  , -0.2313747  , 0.17413186  , 0.026370885  , 0.0052376464  , 0.021422898  , 0.013055002  , 0.033572827  , 0.028075848  , 0.050293922  , 0.06187834  , 0.055341702  , -0.031102713  , 0.103084795  , 0.07822762  , 0.008012425  , -0.013736344  , 0.009451279  , 0.10584998  , 0.08479829  , 0.20570001  , -0.007068072  , 0.28117234  , -0.19651105  , -0.027467368  , 0.030213308  , 0.06881498  , -0.055940066  , 0.0754113  , -0.090551496  , -0.0392202  , -0.103650846  , 0.0030005313  , -0.03723651  , 0.013880511  , -0.00793784  , 0.013576464  , 0.0006431881  , 0.06324105  , -0.059133954  , -0.057526328  , -0.14742857  , 0.037090935  , -0.01825303  , 0.014135849  , -0.04233463  , 0.01450541  , -0.07931839  , 0.033705268  , 0.034070093  , 0.07374538  , -0.014270725  , 0.013913418  , -0.03154056  , 0.018476633  , -0.066777796  , 0.028272023  , -0.024062566  , -0.14147258  , 0.06500749  , 0.043929808  , 0.036876746  , 0.013068758  , 0.4774019  , 0.008523897  , -0.014272761  , -0.12916118  , -0.08624632  , 0.035140947  , -0.13134876  , -0.16065724  , -0.020665554  , 0.15374953  , 0.09479998  , -0.045018345  , 0.04563364  , -0.114679255  , -0.019644171  , 0.037915193  , 0.014993296  , -0.029497089  , -0.061522145  , -0.08011664  , 0.019618493  , -0.01225985  , -0.035494853  , 0.00096296123  , -0.054402586  , 0.015284612  , -0.00582741  , -0.019266447  , -0.029478831  , 0.04114609  , 0.018532768  , 0.11749785  , 0.04607301  , -0.0076021207  , -0.023988517  , -0.023525938  , -0.07850899  , -0.018152207  , -0.02999759  , 0.08272979  , 0.024196956  , 0.06722773  , 0.046728957  , 0.09375063  , 0.01414555  , -0.05130921  , -0.04837865  , -0.023810333  , -0.05881569  , 0.0020504491  , 0.0009907031  , -0.11757337  , -0.017358385  , -0.05446517  , -0.053567942  , -0.02383103  , -0.06705159  , 0.0321266  , 0.057216946  , 0.043504246 );
                        u[39] = dot(x,   -0.08044994  , 0.45792338  , -0.06489674  , -0.08131385  , -0.024618093  , 0.042375814  , -0.042532712  , -0.10529978  , -0.028998816  , -0.021398768  , 0.04002039  , 0.10185814  , 0.029875949  , -0.047538932  , -0.16163869  , 0.010909991  , 0.051355317  , 0.078440815  , 0.07995206  , 0.0121351015  , -0.011483998  , -0.04282645  , 0.098620534  , 0.11598314  , 0.037435126  , 0.0039884793  , 0.037360013  , 0.09891561  , -0.06377329  , -0.07610297  , -0.008589108  , 0.0045048636  , 0.09505115  , -0.095503986  , -0.078981176  , -0.08601903  , -0.084071025  , 0.02539821  , 0.060282785  , 0.06834063  , 0.1792919  , -0.096215546  , 0.023190927  , 0.009006059  , -0.033853907  , -0.090071455  , -0.10049089  , -0.10033269  , 0.11951495  , -0.093329385  , 0.07408663  , 0.11699653  , 0.006418709  , -0.10796208  , -0.08031744  , 0.057785932  , 0.11902834  , -0.093682334  , 0.0635641  , 0.1105603  , 0.0024613603  , -0.10954348  , -0.08617854  , 0.082422435  , -0.07080183  , -0.041960146  , -0.001570645  , 0.030606441  , 0.054864544  , 0.0093432525  , 0.010301674  , 0.06802194  , -0.05598343  , -0.15297383  , 0.026231559  , 0.046823464  , 0.08310769  , 0.009910827  , -0.021466626  , 0.2659165  , -0.15222912  , -0.030834874  , -0.081655666  , -0.034756165  , -0.19732095  , 0.09890398  , 0.07258643  , -0.09206999  , -0.10037579  , -0.032914333  , -0.07283894  , 0.0013940445  , -0.16644579  , 0.05553295  , 0.04508444  , -0.15538202  , -0.009682213  , 0.0005210515  , -0.12890549  , -0.023907686  , 0.0769343  , 0.09389999  , 0.059109267  , -0.053417057  , 0.009910219  , 0.037645996  , -0.10990023  , 0.009839694  , 0.08799969  , 0.097116835  , 0.07426878  , 0.03067732  , -0.096173726  , -0.022145139  , -0.0485321  , 0.07131347  , 0.017612536  , 0.060628835  , 0.008134063  , 0.043784887  , -0.02697259  , 0.006614264  , -0.016356006  , 0.07263809  , 0.05236851  , 0.01262667  , -0.027986594  , -0.061606977 );
                        memcpy(dest != NULL ? dest : x, u, sizeof(float) * 40);
                    }

                protected:
                    /**
                    * Compute dot product with varargs
                    */
                    float dot(float *x, ...) {
                        va_list w;
                        va_start(w, 128);
                        static float mean[] = {  8.292e-09 , -8.294e-09 , 2.1018e-08 , -4.0086e-08 , -3.857e-09 , 2.3075e-08 , -1.6883e-08 , 6.727e-09 , 2.271e-09 , -3.9778e-08 , -2.0932e-08 , -8.591e-09 , 3.21e-10 , 1.5233e-08 , 9.32e-09 , 2.357e-09 , 2.507e-09 , 2.574e-09 , -8.736e-09 , -7.29e-09 , 1.3925e-08 , -5.89e-10 , 5.546e-09 , 2.107e-09 , -2.228e-09 , -7.668e-09 , 4.87e-10 , -1.1634e-08 , 1.467e-08 , 4.001e-09 , -1.0161e-08 , 8.612e-09 , 1.93e-10 , 2.873e-09 , 2.4e-09 , 9.687e-09 , 7.2e-11 , -7.033e-09 , -8.056e-09 , 6.892e-09 , 1.263e-08 , -6.5e-11 , 5.479e-09 , 1.0331e-08 , -1.154e-08 , 9.673e-09 , 1.1302e-08 , 8.044e-09 , -3.021e-09 , 1.736e-09 , 4.282e-09 , 8.658e-09 , -2.769e-09 , 6.031e-09 , -8.763e-09 , 1.1402e-08 , 6.931e-09 , 7.77e-09 , -5.388e-09 , 9.481e-09 , -1.3209e-08 , -3.583e-09 , -4.237e-09 , -1.791e-09 , -2.3782e-08 , -2.6948e-08 , 1.1098e-08 , 2.5367e-08 , -5.206e-09 , -4.21e-08 , -1.985e-08 , 1.071e-09 , -7.37e-09 , 2.622e-09 , 1.0038e-08 , 8.227e-09 , -2.121e-09 , 3.8844e-08 , -3.0734e-08 , 4.296e-09 , -8.409e-09 , -1.1169e-08 , -2.531e-09 , -1.2441e-08 , -1.5907e-08 , 1.6363e-08 , -6.904e-09 , -2.1969e-08 , 1.5539e-08 , 5.931e-09 , -1.0536e-08 , -9.846e-09 , -9.13e-09 , 7.472e-09 , 8.318e-09 , -1.0658e-08 , 7.231e-09 , -1.77e-09 , 1.127e-08 , 9.19e-10 , -5.49e-10 , -9.625e-09 , -1.269e-09 , -3.67e-10 , -5.919e-09 , -2.3592e-08 , 1.4197e-08 , -3.01e-09 , 5.948e-09 , -9.706e-09 , -6.856e-09 , 3.879e-09 , -9.052e-09 , -1.8034e-08 , 9.092e-09 , 2.617e-09 , 1.401e-09 , 5.25e-10 , 1.5865e-08 , 7.729e-09 , -2.0011e-08 , -7.032e-09 , -6.701e-09 , -6.387e-09 , 4.866e-09 , -2.689e-09 , -5.346e-09 , 7.052e-09  };
                        float dot = 0.0;

                        for (uint16_t i = 0; i < 128; i++) {
                            dot += (x[i] - mean[i]) * va_arg(w, double);
                        }

                        return dot;
                    }
                };
            }
        }
    }