#include <stdlib.h>
#include <stdint.h>
#include <math.h>
#include <eml_net.h>
static const float model_layer0_weights[2805] = { -0.163597f, -0.347491f, 0.021004f, 0.214094f, -0.535870f, -0.393712f, -0.238055f, -0.146612f, -0.130355f, 0.203363f, -0.150097f, -0.047836f, -0.011982f, 0.226777f, -0.418095f, 0.547234f, -0.112955f, -0.040585f, -0.093500f, -0.240822f, 0.029703f, 0.099654f, -0.192458f, 0.325823f, 0.066989f, 0.338149f, -0.171395f, -0.269379f, 0.149025f, -0.197730f, 0.229240f, -0.135928f, 0.025691f, 0.100244f, -0.165512f, -0.087609f, 0.060970f, -0.092023f, 0.202592f, 0.054990f, 0.405461f, -0.061260f, -0.244167f, 0.270058f, -0.354675f, 0.574098f, -0.025453f, -0.097003f, -0.061025f, -0.277963f, 0.199058f, 0.036057f, -0.140766f, 0.007040f, -0.041948f, 1.121778f, 0.212098f, -0.312045f, -0.321281f, -0.198391f, -0.407151f, -0.083851f, 0.061117f, -0.062331f, -0.026292f, -0.271266f, -0.023716f, 0.116749f, -0.032550f, 0.053587f, -0.028059f, -0.007905f, -0.024355f, -0.143093f, 0.265838f, 0.170158f, 0.014263f, -0.152326f, 0.224188f, -0.130932f, 0.075654f, -0.210076f, 0.095951f, 0.058349f, -0.281818f, 0.096582f, 0.076853f, -0.008094f, 0.094458f, 0.151312f, -0.027236f, 0.008692f, -0.144928f, 0.177580f, -0.281281f, -0.155088f, -0.069327f, -0.072824f, 0.212012f, -0.213800f, 0.178441f, 0.124742f, -0.060632f, 0.126824f, 0.123375f, 0.499745f, -0.266008f, -0.184690f, 0.222719f, -0.166419f, -0.035270f, -0.039722f, 0.052060f, 0.567790f, -0.366338f, -0.277495f, -0.039842f, -0.372557f, 0.524373f, 0.060951f, -0.375069f, -0.196682f, -0.439884f, 0.518469f, -0.114874f, -0.443143f, 0.033958f, 0.288172f, -0.211345f, 0.102917f, 0.106436f, 0.067248f, 0.007808f, 0.089343f, -0.004098f, -0.000730f, 0.118455f, -0.204218f, 0.037440f, 0.299651f, -0.244837f, -0.039404f, -0.368192f, 0.029182f, -0.119077f, 0.064976f, -0.059880f, 0.090778f, -0.262090f, -0.106646f, -0.047988f, 0.084371f, -0.110562f, 0.055267f, 0.063434f, 0.003885f, -0.125066f, 0.038352f, 0.319671f, 0.032469f, -0.307407f, -0.160099f, -0.478771f, -0.059732f, 0.449856f, -0.120285f, -0.026355f, 0.195951f, -0.315493f, 0.086199f, -0.085460f, 0.140507f, -0.033791f, 0.291102f, -0.283862f, 0.078609f, 0.166538f, -0.184018f, 0.031671f, 0.094618f, 0.683254f, -0.252691f, -0.347532f, -0.758063f, 0.403685f, -0.142762f, 0.284477f, -1.036563f, 0.299587f, -0.376510f, 0.530245f, 0.013189f, -0.063849f, 0.003349f, -0.781416f, -0.682545f, -0.517322f, 0.525364f, 0.081568f, 0.697901f, -0.681733f, -1.844939f, 1.555712f, 0.418875f, -0.146129f, -0.192048f, 0.133366f, -1.581795f, 0.088235f, 1.332262f, 0.039796f, 0.120378f, -0.131779f, -0.135578f, 0.309922f, -0.464616f, 0.168581f, 0.207361f, 0.056368f, -0.145747f, -0.232721f, 0.097841f, -0.003923f, -0.154672f, 0.348438f, -0.011267f, 0.034405f, 0.227380f, -0.249376f, 0.097990f, -0.502271f, 0.256243f, 0.197754f, -0.023292f, -0.069948f, -0.135798f, 0.021726f, 0.115058f, -0.222864f, 0.408179f, -0.139083f, 0.069916f, 0.195253f, -0.382316f, 0.056751f, -0.751262f, -1.947781f, 1.473900f, 0.415343f, -0.036272f, -0.269499f, 0.226400f, -1.611526f, 0.058197f, 1.308420f, 0.155558f, 0.046652f, -0.031688f, -0.153273f, 0.430835f, -0.674190f, -1.788704f, 1.515021f, 0.424750f, -0.047106f, -0.168818f, 0.139830f, -1.578403f, -0.031447f, 1.187121f, 0.080382f, -0.019301f, -0.041661f, -0.076293f, 0.495462f, -0.010727f, -0.425315f, 1.180530f, -0.189972f, 0.330283f, -0.833087f, -1.560011f, 1.305504f, 0.454185f, -0.297072f, 1.173657f, 1.444745f, -0.700606f, -0.624074f, 0.207561f, 0.379248f, 1.384688f, -1.223180f, -0.175456f, 0.131935f, -0.690016f, 0.147368f, 0.109873f, 0.246250f, -0.188234f, -0.039410f, 0.164843f, 0.244954f, -0.164601f, 0.140896f, -0.137915f, -0.134324f, 0.198693f, -0.255654f, -0.104688f, 0.548472f, 0.468436f, 0.409252f, -0.409234f, 0.125060f, 0.445722f, -0.060506f, -0.520268f, -0.788498f, 1.250149f, -0.268744f, -0.241432f, 0.336902f, -0.027634f, -0.555041f, -0.704006f, -0.026688f, 0.139791f, 0.333458f, 0.168830f, 0.391725f, -0.040154f, -0.108261f, -0.149978f, -0.138561f, -0.305290f, 0.101832f, 0.057580f, 0.045151f, 0.262572f, 0.017591f, -0.087302f, 0.158743f, 0.276065f, -0.387979f, -0.201032f, -0.217353f, -0.250757f, 0.393693f, -0.013208f, 0.264498f, 0.281895f, 0.193290f, -0.356876f, -0.001663f, -0.219086f, -0.141381f, -0.215295f, 0.336785f, 0.067467f, 0.127759f, 0.091054f, 0.241250f, -0.239365f, 0.199430f, 0.087641f, 0.290167f, -0.228319f, 0.128771f, -0.325017f, -0.119458f, -0.313336f, 0.127553f, -0.045343f, 0.163359f, 0.089003f, 0.316214f, -0.113456f, 0.108809f, -0.332780f, -0.149813f, -0.247840f, 0.206808f, -0.106318f, 0.223191f, 0.017095f, 0.300066f, -0.388748f, 0.084600f, -0.183524f, 0.138589f, 0.249152f, 0.095346f, -0.269349f, 0.123987f, -0.300213f, -0.033599f, 0.122456f, -0.124519f, 0.598824f, 0.009777f, -0.034794f, -0.132707f, 0.118168f, -0.149018f, -0.120412f, 0.033732f, 0.099471f, -0.082948f, 0.030831f, 0.108238f, 0.111756f, -0.059884f, -0.023061f, 0.177492f, 0.165128f, 0.063674f, -0.066514f, 0.213284f, -0.114394f, -0.035732f, -0.092066f, -0.199681f, 0.174519f, -0.103145f, -0.021947f, -0.040265f, -0.157167f, 0.248968f, -0.239390f, 0.206275f, -0.015731f, -0.067998f, 0.129145f, -0.071475f, 0.076501f, 0.120339f, -0.214118f, 0.297523f, -0.134162f, 0.065022f, -0.022988f, -0.209326f, 0.171746f, -0.174675f, -0.489152f, -0.138412f, 0.035433f, 0.505217f, -0.427534f, 0.080722f, -0.044601f, 0.045143f, 0.260703f, -0.166176f, 0.254493f, 0.208845f, -0.195650f, 0.113800f, -0.435655f, -1.126618f, -0.194675f, -0.104149f, 0.304983f, -0.080555f, -0.039996f, 0.097820f, 0.026836f, -0.263752f, -0.019953f, 0.164636f, 0.015159f, 0.181541f, -0.332293f, 0.360249f, 0.038303f, 0.074768f, -0.043281f, 0.112947f, -0.143897f, -0.003897f, 0.061930f, 0.025638f, 0.086994f, -0.143365f, 0.132477f, -0.034838f, -0.188322f, 0.066320f, -0.043780f, 0.126171f, 0.219402f, -0.125565f, 0.025843f, -0.290233f, 0.366403f, 0.098150f, 0.014903f, 0.178213f, -0.154652f, 0.104920f, 0.056152f, -0.189669f, 0.139418f, 0.047621f, 0.032174f, 0.214336f, -0.299133f, 0.297119f, -0.288288f, -0.063629f, 0.028497f, -0.325872f, 0.528501f, -0.060764f, -0.182515f, -0.042178f, 0.002940f, 0.596146f, -0.167707f, -0.067773f, 0.001392f, -0.440056f, 0.647828f, 0.049707f, -0.280741f, -0.043264f, 0.310308f, -0.280797f, 0.009835f, -0.250440f, -0.146376f, 0.487152f, 0.124738f, 0.060750f, -0.290003f, -0.037246f, 0.341519f, -0.052159f, 0.098380f, -0.292553f, 0.012075f, -0.003493f, -0.012407f, 0.040697f, 0.101243f, 0.192465f, 0.195869f, -0.211132f, -0.242405f, 0.345324f, 0.009550f, 0.259608f, -0.249820f, -0.280136f, 0.084514f, 0.102875f, -0.047849f, 0.133858f, 0.085466f, 0.062957f, -0.231339f, 0.544012f, -0.139856f, -0.610496f, -0.051073f, 0.008299f, 0.464182f, -0.224522f, -0.103573f, -0.467312f, 0.248725f, 0.311450f, 0.322651f, -0.551057f, -0.156790f, 0.019821f, 0.341440f, 0.273334f, -0.173932f, -0.371148f, 0.280391f, -0.104757f, 0.131769f, -0.250324f, -0.668251f, 0.050512f, -0.560785f, 0.517135f, -0.362955f, -1.093388f, -0.054024f, -1.056274f, 0.678237f, -0.136296f, 0.251735f, -0.080256f, -0.048559f, -0.362530f, 0.768281f, 0.193707f, 0.058256f, 0.047862f, -0.097314f, -0.275576f, -0.318421f, -0.241606f, 0.340909f, 0.187085f, -0.120714f, 0.270570f, 0.158765f, 0.338958f, 0.081555f, -0.177034f, 0.412362f, -0.132551f, -0.043717f, 0.098808f, -0.456392f, 0.051290f, 0.083663f, -0.283499f, 0.287117f, -0.206347f, 0.260278f, 0.070266f, -0.089586f, 0.056507f, -0.002788f, 0.123898f, -0.046812f, 0.081034f, 0.210844f, -0.398406f, 0.019427f, 0.093148f, -0.313332f, 0.273332f, -0.308062f, 0.423090f, 0.165219f, -0.171327f, -0.074321f, 0.029556f, 0.832265f, 0.049065f, 0.078676f, -0.243644f, -0.344315f, 0.175576f, -0.081671f, -0.078501f, 0.046151f, -0.101643f, 0.436092f, 0.152176f, -0.155464f, 0.050489f, -0.023522f, -0.467353f, 0.059125f, -0.128358f, 0.107814f, 0.243040f, -0.300917f, -0.197526f, 0.018653f, 0.063026f, 0.008260f, 0.419695f, 0.174309f, 0.093714f, -0.293995f, 0.269370f, 0.224838f, -0.020460f, -0.373768f, 0.329021f, -0.043192f, -0.130988f, -0.162793f, -0.109897f, 0.321850f, -0.242273f, 0.049575f, 0.127605f, -0.119501f, 0.156222f, -0.212274f, 0.082847f, 0.122180f, -0.050662f, -0.161920f, 0.077794f, -0.178506f, -0.176774f, -0.042690f, 0.457466f, -0.499733f, 0.196550f, -0.041162f, -0.266965f, 0.222362f, -0.256780f, 0.904442f, 0.187889f, -0.171231f, -0.322240f, 0.154361f, -0.584031f, 0.195048f, 0.664210f, 0.705860f, -1.391887f, 0.536730f, -0.172679f, -0.145182f, 0.060443f, -0.044103f, -0.311587f, -0.162881f, -0.175215f, 0.616564f, 0.262669f, 0.152657f, -0.124578f, -0.989729f, -0.472260f, 1.587436f, 0.068834f, 0.140102f, 0.217920f, 0.266348f, -0.502378f, -0.432946f, -0.123347f, 0.782442f, 0.362580f, -0.674907f, -0.464167f, -0.164727f, -0.023759f, 0.056966f, -0.101100f, 0.427511f, 0.230241f, 0.716940f, -0.401103f, -0.407680f, 0.004683f, -0.030216f, -0.195560f, 0.222077f, 0.175156f, -0.258351f, 0.040602f, -0.191842f, 0.080934f, 0.281692f, -0.548888f, -0.235745f, 0.164556f, 0.313140f, -0.632778f, 0.283015f, 0.242392f, 0.250065f, -0.579644f, 0.107219f, 0.038542f, -0.127422f, -0.264042f, 0.462071f, -0.003176f, -0.475305f, 0.108776f, 0.159359f, -0.044193f, -0.154211f, -0.758788f, -0.092693f, 0.337463f, 0.493020f, -0.411747f, 0.906803f, 0.012520f, 0.529591f, -0.899582f, 0.298087f, -0.349961f, -0.089081f, -0.457568f, 0.039924f, 0.418604f, 0.442272f, 0.709580f, -0.318829f, 0.091998f, -0.697461f, 0.096760f, -0.233798f, 0.032863f, -0.016315f, 0.070265f, -0.134148f, -0.092895f, -0.014080f, 0.123320f, -0.056044f, -0.044933f, 0.079038f, -0.022216f, 0.069051f, 0.057024f, 0.070891f, 0.108719f, -0.020521f, 0.209942f, -0.031003f, -0.044362f, 0.101305f, 0.002360f, 0.157978f, -0.137418f, -0.292043f, -0.072920f, -0.179123f, 0.427828f, -0.067981f, 0.298109f, 0.190156f, -0.054917f, 0.031232f, -0.057455f, 0.018610f, 0.109022f, -0.075302f, 0.194362f, -0.136778f, -0.474386f, -0.085783f, -0.160126f, 0.569332f, -0.081119f, 0.398912f, 0.350678f, 0.048119f, -0.037120f, -0.055355f, -0.419092f, -0.013312f, 0.053038f, 0.352756f, -0.099470f, -0.526407f, 0.014383f, -0.036046f, 0.527011f, -0.125988f, -0.122317f, -0.047720f, -0.198732f, -0.125808f, 0.120605f, -0.205017f, -0.191298f, 0.080891f, -0.098283f, 0.177985f, -0.482321f, -0.082271f, 0.014823f, -0.018779f, -0.069817f, -0.131317f, 0.076988f, -0.146904f, 0.296287f, -0.085139f, 0.122802f, 0.095650f, -0.001929f, -0.073786f, 0.247220f, -0.041291f, 0.185564f, -0.103821f, 0.068710f, -0.069638f, -0.411431f, -0.093856f, -0.088470f, 0.250666f, 0.101336f, 0.629228f, 0.279090f, -0.030506f, -0.012035f, -0.051080f, -0.216706f, 0.270577f, -0.193314f, 0.377701f, -0.158187f, -0.615491f, 0.033153f, -0.237580f, 0.642078f, -0.289790f, -0.372555f, 0.042712f, 1.014941f, 0.823411f, -1.076610f, -0.112442f, 0.114606f, -0.400780f, 0.523995f, 0.052526f, 0.084336f, -0.101595f, -0.118938f, 0.422252f, -0.159342f, 0.578011f, -0.034978f, -1.064438f, -0.690752f, 1.526501f, 0.586444f, 0.244114f, -1.230642f, -0.234266f, 1.079134f, 0.225448f, -0.204783f, -0.517950f, -0.067207f, 0.903134f, -0.064414f, -0.144921f, 0.007664f, 0.119562f, 0.152046f, 0.721389f, 0.116238f, 0.574767f, -0.639471f, -0.324177f, 0.892821f, 0.394669f, 0.317555f, -0.574958f, -0.243051f, -0.030403f, 0.182206f, 0.205225f, -0.112694f, 0.009165f, 0.128011f, 0.423255f, 0.623637f, -0.023673f, -0.386241f, 0.763598f, 0.271707f, 0.054869f, -0.841322f, 0.350230f, 0.924637f, -0.014502f, -0.526827f, -0.033561f, 0.204987f, 0.055440f, 0.157579f, -0.088080f, -0.219637f, 0.234837f, -0.055185f, -0.115989f, 0.298481f, -0.091062f, -0.354777f, -0.961403f, -0.134699f, -0.766478f, 0.690646f, 0.477320f, -1.299150f, -0.495194f, -0.151740f, 0.683588f, -0.385390f, -0.655184f, -0.371757f, -0.149586f, 0.610229f, -0.588910f, 0.164409f, -0.000957f, -0.063916f, 0.241237f, -0.178701f, 0.297088f, -0.205220f, -0.012928f, -0.168745f, -0.105851f, 0.261546f, -0.120031f, 0.077596f, -0.010897f, -0.236273f, 0.307186f, -0.135451f, -0.050814f, -0.093363f, -0.106837f, 0.194420f, 0.080959f, -0.309778f, 0.432624f, -0.207634f, 0.100490f, -0.004409f, -0.083582f, 0.253669f, -0.079387f, -0.080685f, -0.207069f, -0.111735f, 0.090245f, -0.104478f, -0.188097f, -0.101010f, -0.050305f, 0.213132f, -0.067410f, -0.079980f, -0.004158f, -0.244371f, 0.486121f, -0.052584f, -0.541568f, 0.301363f, 0.037931f, 0.298073f, 0.142631f, 0.254328f, -0.127791f, 0.022697f, -0.190001f, -0.045506f, 0.254813f, -0.029886f, 0.054868f, -0.094520f, 0.044260f, 0.164881f, 0.109269f, -0.162050f, -0.094716f, -0.000528f, 0.206721f, -0.133062f, -0.157945f, 0.263900f, -0.188547f, 0.266955f, -0.029054f, -0.037319f, -0.006251f, -0.067155f, 0.223740f, -0.085438f, 0.028068f, 0.007392f, -0.068412f, 0.337528f, 0.006704f, -0.003035f, -0.080434f, -0.184698f, 0.211701f, 0.003118f, -0.371748f, 0.291394f, -0.127158f, 0.221320f, 0.014227f, -0.147525f, 0.206847f, -0.152033f, 0.035616f, -0.243289f, 0.029726f, 0.198672f, -0.172257f, -0.165254f, -0.043390f, -0.074649f, 0.121574f, -0.051722f, 0.032262f, 0.071775f, -0.169157f, 0.459373f, -0.065847f, -0.601891f, 0.126222f, 0.115448f, 0.203864f, 0.079237f, 0.327225f, -0.314098f, -0.076975f, -0.041041f, -0.222252f, 0.172850f, -0.150051f, 0.109459f, -0.026856f, -0.018980f, 0.188424f, 0.202551f, -0.095295f, -0.147138f, -0.073466f, 0.085597f, -0.006024f, -0.174581f, 0.230260f, -0.100833f, -0.187091f, 0.034175f, -0.008005f, 0.396635f, -0.147059f, -0.245005f, -0.091807f, -0.105060f, 0.409121f, -0.252196f, 0.132339f, 0.057233f, 0.040207f, 0.228695f, -0.145820f, -0.031600f, 0.192565f, -0.065926f, 0.232581f, -0.002496f, 0.103267f, -0.016544f, -0.056995f, 0.236228f, -0.087623f, 0.062948f, -0.052750f, -0.124680f, 0.033147f, -0.201633f, -0.132642f, -0.103467f, -0.103982f, 0.395529f, -0.378331f, -0.145173f, -0.068083f, -0.206204f, 0.406288f, -0.159170f, -0.045042f, 0.140509f, 0.445306f, -0.232857f, 0.056604f, 0.140190f, -0.050231f, 0.098048f, 0.109597f, 0.010073f, -0.324826f, -0.165619f, -0.036282f, 0.156180f, -0.105001f, 0.191664f, -0.030907f, -0.510862f, -0.010044f, 0.340941f, 0.113107f, -0.027877f, -0.330751f, 0.302668f, -0.084789f, 0.215048f, 0.054082f, -0.024052f, 0.130552f, -0.335286f, -0.008232f, -0.027285f, -0.062191f, 0.172025f, -0.176444f, 0.514075f, 0.019222f, -0.166466f, -0.093218f, -0.258763f, 0.308464f, 0.128253f, -0.293432f, 0.171621f, 0.118047f, 0.057048f, -0.003735f, -0.246412f, 0.332525f, -0.159042f, -0.068168f, -0.079594f, -0.082531f, 0.090707f, -0.127105f, -0.167309f, 0.043317f, -0.339973f, 0.369211f, -0.304597f, -0.245673f, 0.056825f, -0.137061f, 0.574707f, -0.135312f, -0.174373f, -0.007416f, 0.053171f, 0.083910f, 0.341452f, 0.162150f, 0.093371f, -0.094449f, -0.002480f, -0.301645f, -0.046324f, 0.034581f, 0.187053f, -0.025054f, 0.204381f, -0.091587f, -0.382774f, -0.239772f, 0.133181f, -0.269157f, -0.101780f, 0.208460f, -0.006078f, 0.259332f, -0.174745f, -0.022709f, 0.125021f, 0.008433f, 0.095115f, -0.020020f, -0.061524f, 0.183493f, -0.036779f, 0.212007f, -0.113045f, -0.146353f, -0.031520f, 0.026221f, 0.135883f, -0.145715f, 0.106649f, 0.225176f, -0.080204f, 0.139822f, -0.077624f, -0.022504f, 0.083655f, -0.123296f, 0.175824f, -0.050912f, 0.053334f, 0.241292f, -0.057399f, 0.113770f, 0.023408f, -0.090119f, 0.173328f, -0.019070f, 0.330210f, -0.200406f, -0.127061f, 0.032280f, 0.095125f, 0.621895f, -0.355296f, 0.390236f, 0.099125f, 0.383537f, -0.433838f, 0.023132f, -0.128109f, 0.114546f, -0.268303f, 0.110617f, -0.136290f, -0.158988f, -0.165009f, -0.002641f, 0.273553f, -0.125451f, -0.067744f, -0.037795f, -0.183205f, -0.006172f, 0.423483f, 0.400467f, 0.028514f, -0.129317f, 0.033665f, -0.265614f, -0.041774f, 0.004828f, -0.220344f, 0.229185f, -0.044509f, 0.119438f, 0.012275f, -0.180168f, 0.189028f, -0.220071f, 0.565838f, -0.066624f, -0.033235f, -0.062425f, -0.151999f, 0.028104f, 0.024579f, -0.062736f, 0.291821f, 0.061828f, 0.156839f, -0.068457f, -0.166948f, 0.138644f, -0.316425f, 0.542166f, -0.041918f, -0.177860f, -0.000263f, -0.130027f, 0.044467f, 0.048828f, -0.259418f, 0.241292f, 0.031910f, 0.301430f, -0.008999f, -0.142093f, 0.285177f, -0.152127f, 0.533896f, -0.140018f, -0.098035f, -0.091713f, -0.225621f, -0.008514f, 0.074000f, -0.031977f, 0.295067f, 0.144228f, 0.454517f, -0.217597f, -0.204418f, 0.200805f, -0.177461f, 0.034513f, -0.129699f, -0.210765f, 0.023612f, -0.094265f, -0.074474f, 0.081877f, -0.066336f, -0.032536f, 0.073764f, 0.300983f, 0.131274f, -0.040821f, -0.121074f, -0.014476f, 0.271752f, -0.056624f, -0.082788f, 0.124168f, -0.145010f, 0.101169f, -0.183322f, 0.006484f, 0.007811f, -0.299388f, 0.025535f, 0.036284f, -0.069410f, 0.194697f, 0.052217f, 0.154890f, -0.014588f, -0.035592f, 0.089698f, -0.364115f, 0.142923f, -0.021458f, -0.142794f, 0.082409f, -0.109938f, 0.425597f, 0.012448f, -0.133702f, 0.065433f, -0.029772f, 0.186629f, 0.182254f, -0.119523f, 0.181104f, -0.159069f, 0.067866f, -0.038299f, -0.079404f, 0.309162f, -0.188178f, -0.186899f, 0.035807f, 0.096686f, 0.541964f, -0.296788f, -0.004556f, -0.003888f, -0.346091f, 0.378026f, -0.225731f, -0.300100f, 0.031399f, 0.235328f, -0.002705f, 0.234180f, 0.064867f, -0.206013f, -0.384932f, 0.076982f, 0.220536f, 0.143110f, 0.110564f, -0.224900f, -0.094316f, -0.060135f, -0.764813f, 0.097072f, 0.128652f, 0.038400f, 0.187670f, -0.143173f, 0.109648f, 0.203473f, -0.185667f, 0.125249f, -0.618765f, 0.214950f, 0.181524f, 0.071634f, -0.205193f, 0.750083f, -0.009411f, -0.171893f, -0.158681f, 0.245744f, 0.651445f, 0.221180f, -0.102145f, -0.277189f, 0.164477f, -0.086034f, 0.268721f, 0.346066f, -0.228681f, -0.376359f, -0.048609f, 0.430438f, 0.331072f, -0.218331f, -0.336957f, 0.020053f, -0.120398f, 0.065745f, 0.060929f, -0.196382f, 0.355412f, -0.092497f, 0.147924f, -0.140586f, -0.186145f, -0.137063f, -0.251928f, 0.142997f, 0.069100f, -0.203284f, 0.236227f, -0.226914f, -0.020176f, 0.009395f, -0.043364f, 0.176104f, 0.284273f, 0.030840f, -0.016296f, 0.028689f, -0.090392f, 0.028581f, -0.078676f, 0.001759f, -0.144469f, 0.176850f, 0.003153f, -0.037146f, 0.033466f, -0.287918f, -0.038200f, -0.162606f, -0.050554f, 0.015487f, -0.125021f, -0.000743f, -0.156993f, -0.104375f, -0.050287f, -0.243824f, 0.166547f, -0.278273f, -0.088904f, -0.013310f, -0.200805f, 0.049943f, -0.193134f, 0.080673f, 0.161001f, -0.167308f, 0.143024f, 0.190503f, -0.027549f, 0.048427f, 0.056379f, 0.098635f, 0.014292f, 0.005823f, 0.092397f, -0.261839f, 0.020101f, -0.164383f, 0.011567f, 0.015427f, -0.249989f, 0.094821f, -0.331865f, -0.044540f, 0.117770f, -0.292967f, 0.009832f, 0.061539f, 0.050278f, -0.037605f, -0.194961f, 0.172625f, 0.144793f, -0.202394f, -0.011190f, 0.275936f, -0.260254f, -0.099927f, -0.052346f, 0.319047f, -0.036406f, -0.029444f, 0.170326f, -0.102623f, 0.092345f, 0.056364f, 0.204550f, 0.279630f, -0.056925f, 0.010434f, 0.094165f, -0.249552f, 0.044583f, -0.026647f, 0.164929f, -0.073350f, 0.076281f, -0.025020f, -0.000407f, -0.050608f, -0.099128f, 0.136470f, 0.067810f, -0.140570f, -0.045899f, 0.034632f, -0.096074f, 0.073885f, -0.151611f, 0.000585f, 0.106310f, 0.091287f, 0.125463f, -0.106454f, 0.118204f, 0.109163f, 0.121540f, 0.068347f, 0.029913f, 0.064197f, 0.040061f, -0.058535f, -0.020394f, -0.138441f, 0.081910f, 0.049408f, 0.065139f, -0.006681f, -0.044283f, 0.003418f, 0.121646f, 0.027923f, -0.036563f, -0.195265f, 0.181911f, 0.164757f, 0.173914f, 0.114724f, -0.023369f, 0.028965f, 0.017928f, 0.040230f, -0.240143f, -0.163767f, 0.247747f, -0.126075f, -0.077487f, 0.207197f, -0.161532f, 0.191816f, -0.344368f, 0.050333f, 0.031691f, -0.167888f, 0.229370f, -0.127751f, 0.162623f, 0.131057f, 0.030325f, 0.030076f, -0.132194f, 0.018701f, 0.135808f, -0.104076f, 0.038368f, -0.208397f, 0.001006f, -0.036048f, 0.001346f, 0.185736f, -0.208744f, -0.096349f, -0.038339f, -0.153012f, -0.009196f, -0.256570f, 0.001687f, -0.102848f, -0.100320f, 0.080481f, -0.000866f, 0.102867f, -0.043452f, -0.218446f, 0.279951f, -0.300563f, 0.111999f, 0.158021f, -0.040398f, 0.100307f, -0.130851f, -0.012097f, 0.132152f, -0.028468f, 0.142805f, -0.348940f, 0.019614f, 0.038927f, -0.069512f, -0.005980f, -0.199534f, 0.025713f, -0.180135f, -0.069879f, 0.192765f, -0.356410f, 0.168270f, 0.155805f, -0.010405f, 0.001441f, -0.231874f, 0.355857f, -0.086193f, 0.043225f, 0.197784f, -0.167639f, -0.041729f, 0.030019f, -0.153687f, 0.330643f, -0.149997f, -0.013914f, 0.143715f, -0.113465f, 0.283482f, -0.216834f, 0.099932f, 0.073542f, -0.072611f, 0.146162f, -0.229306f, 0.160794f, -0.024385f, -0.066642f, 0.286554f, -0.042747f, -0.000690f, 0.140642f, -0.135814f, 0.272979f, -0.191479f, 0.139470f, 0.045322f, -0.087407f, 0.187470f, -0.164932f, 0.128870f, -0.095627f, -0.204215f, 0.159236f, -0.158839f, 0.042214f, 0.148039f, -0.294178f, 0.300282f, -0.289427f, -0.160534f, -0.206286f, -0.103228f, 0.223019f, -0.160576f, 0.152321f, -0.034360f, -0.066825f, 0.131974f, -0.006562f, 0.143557f, 0.070973f, -0.258185f, 0.262891f, -0.276538f, -0.080727f, -0.071490f, -0.063687f, 0.266888f, -0.074922f, 0.113547f, 0.104723f, -0.013990f, 0.126833f, 0.022954f, 0.203331f, 0.072395f, -0.013461f, 0.185554f, -0.125135f, 0.047404f, 0.029963f, -0.019314f, 0.264052f, -0.191031f, 0.130474f, -0.062874f, -0.020590f, 0.141153f, -0.069823f, 0.188683f, -0.092204f, -0.111979f, -0.003983f, -0.047057f, 0.171963f, 0.179904f, -0.118285f, 0.050011f, -0.246312f, 0.172704f, 0.098944f, -0.043974f, 0.138034f, -0.089984f, -0.073583f, 0.046796f, 0.019687f, 0.171044f, -0.064492f, -0.152056f, 0.043471f, -0.166004f, 0.272346f, -0.207137f, 0.099652f, -0.109247f, 0.033660f, 0.320064f, -0.256664f, -0.179901f, -0.035856f, -0.040807f, 0.503629f, -0.218185f, -0.050790f, 0.005044f, -0.184187f, 0.520935f, -0.226740f, -0.717136f, -0.187793f, 0.278021f, 0.166857f, -0.018546f, 0.365747f, 0.385631f, 0.087615f, -0.151146f, -0.109484f, -0.467257f, 0.108656f, 0.154057f, 0.022671f, -0.001842f, -0.206973f, 0.187239f, 0.416034f, -0.295725f, 0.057481f, 0.304497f, 0.188432f, 0.341848f, -0.435352f, -0.212117f, -0.645246f, -0.021068f, 0.451033f, 0.055856f, -0.181693f, 0.027495f, -0.182061f, -0.302631f, 0.331552f, -0.146017f, 0.278163f, -0.315826f, -0.035426f, 0.175825f, -0.334687f, -0.037534f, -0.222451f, -0.097897f, 0.388330f, 0.023614f, -0.015854f, -0.127632f, -0.106496f, 0.118963f, -0.076069f, 0.365210f, -0.097655f, -0.134138f, 0.166627f, -0.155585f, 0.158511f, 0.032207f, -0.098378f, 0.178560f, -0.215258f, -0.672767f, -0.334180f, 0.009259f, 0.365239f, -0.469700f, 0.347077f, -0.149084f, 0.038870f, -0.080472f, -0.083739f, 0.255018f, 0.255816f, -0.011860f, -0.107717f, 0.119238f, -0.083691f, 0.235888f, 0.080101f, 0.054567f, 0.010511f, 0.029376f, 0.195549f, -0.045839f, 0.023133f, -0.106452f, 0.278812f, -0.024999f, -0.019898f, -0.074816f, -0.077822f, -0.033513f, 0.073659f, -0.008404f, 0.056144f, -0.080641f, 0.142522f, 0.014822f, 0.009917f, -0.064868f, -0.043959f, -0.147429f, -0.283302f, 0.060274f, 0.165914f, -0.149000f, 0.108509f, 0.307867f, 0.056807f, -0.014919f, -0.030679f, 0.125665f, 0.049866f, 0.038598f, -0.067515f, -0.174360f, 0.059590f, 0.072253f, 0.087782f, 0.104484f, -0.160610f, 0.142970f, -0.028361f, 0.028003f, 0.021438f, -0.102473f, -0.113009f, 0.048415f, -0.040128f, 0.038174f, -0.160127f, 0.124697f, -0.080780f, -0.134440f, 0.065750f, 0.114869f, 0.147713f, -0.141693f, -0.039114f, 0.058547f, -0.070407f, -0.075027f, 0.176580f, -0.104216f, 0.102103f, -0.057588f, 0.124730f, 0.163337f, 0.015045f, 0.078369f, 0.047733f, 0.001309f, 0.030225f, 0.030535f, -0.088725f, 0.060794f, -0.040955f, 0.047204f, -0.033899f, 0.047143f, -0.091787f, 0.090882f, 0.091774f, -0.147120f, 0.042519f, -0.102031f, -0.025263f, 0.113134f, -0.040351f, 0.042168f, -0.101744f, 0.154545f, -0.164524f, -0.105181f, 0.056248f, -0.090593f, 0.085830f, 0.181248f, 0.012149f, 0.223442f, 0.000024f, -0.011155f, 0.081541f, -0.044709f, 0.006696f, -0.122155f, 0.027535f, 0.057133f, -0.051326f, 0.110525f, -0.063944f, 0.071252f, 0.002541f, -0.142568f, -0.045547f, 0.085886f, 0.004162f, 0.106019f, 0.029087f, 0.131720f, -0.114663f, -0.582291f, -0.233218f, -0.090914f, 0.438797f, -0.154135f, 0.303121f, 0.278760f, -0.202165f, -0.003391f, -0.247820f, 0.153940f, 0.104518f, -0.070835f, -0.022495f, -0.283889f, 0.016522f, 0.112914f, 0.011610f, -0.082324f, -0.251711f, -0.066288f, 0.105256f, -0.106438f, 0.029322f, -0.318229f, 0.193653f, 0.043280f, -0.061964f, -0.060353f, -0.309748f, 0.036342f, -0.037106f, -0.069244f, 0.053734f, -0.237100f, 0.139331f, 0.130950f, -0.110443f, 0.018403f, -0.198263f, 0.063414f, 0.081922f, -0.053762f, 0.183352f, -0.292598f, 0.130029f, 0.070412f, -0.110178f, 0.121083f, -0.294178f, 0.060341f, 0.129538f, -0.021252f, -0.032428f, -0.285198f, -0.026337f, 0.067992f, -0.009963f, 0.171604f, -0.163770f, 0.070702f, 0.211832f, -0.073392f, 0.070528f, -0.309983f, 0.190363f, 0.063485f, -0.032690f, -0.040694f, -0.155591f, 0.334217f, 0.097208f, -0.005937f, 0.057584f, -0.209112f, 0.107399f, 0.053570f, -0.109811f, 0.220889f, -0.234301f, 0.327685f, 0.105079f, -0.051066f, 0.044754f, -0.008120f, 0.337797f, -0.017907f, -0.100121f, 0.122373f, -0.477449f, 0.136609f, -0.087640f, -0.272824f, 0.265498f, -0.300937f, 0.293718f, 0.091571f, -0.148717f, 0.073489f, -0.005070f, 0.206407f, -0.112938f, -0.053998f, 0.134490f, -0.445824f, 0.059623f, 0.126368f, -0.174588f, 0.226304f, -0.213746f, 0.142935f, -0.084108f, -0.099110f, 0.111255f, -0.061366f, 0.034850f, -0.263519f, -0.031494f, 0.308884f, -0.612032f, 0.056753f, -0.097482f, -0.251281f, 0.391939f, -0.337752f, 0.379991f, 0.100031f, -0.098896f, -0.072099f, 0.150230f, -0.060541f, -0.127177f, 0.074109f, 0.130813f, -0.274741f, -0.018459f, 0.110117f, -0.353459f, 0.279876f, 0.028078f, 0.004952f, -0.182496f, -0.295230f, -0.183103f, 0.230153f, 0.204932f, 0.054386f, -0.169147f, 0.087376f, -0.231115f, -0.039418f, -0.290455f, -0.112972f, 0.118999f, -0.299446f, 0.069862f, 0.055732f, -0.110158f, 0.116982f, -0.171309f, 0.136578f, 0.142582f, -0.134962f, -0.057371f, 0.120992f, 0.586741f, 0.335850f, 0.048273f, -0.020729f, 0.174380f, 0.364266f, 0.311462f, -0.089808f, -0.085378f, -0.102868f, 0.406924f, 0.027753f, -0.014056f, 0.038601f, 0.066928f, 0.109141f, 0.151548f, 0.735963f, 0.156060f, -0.843640f, 0.086371f, 0.012655f, -0.331338f, 0.385391f, 0.016849f, 0.096874f, -0.034981f, -0.015776f, 0.195435f, -0.071037f, -0.267815f, -0.132014f, 0.112459f, -0.002514f, 0.086544f, -0.271464f, 0.046626f, 0.106835f, 0.320026f, -0.359936f, -0.615229f, -0.366837f, -0.069148f, 0.545968f, -0.602730f, -0.063347f, -0.051362f, -0.761118f, -0.008076f, 1.516808f, -0.039367f, 0.354991f, 0.487159f, 0.010973f, -0.214807f, -0.202573f, 0.080636f, -0.303476f, -0.091117f, 0.112250f, 0.104339f, 0.184303f, -0.174932f, 0.075708f, -0.796394f, 0.223106f, 0.186843f, -0.540715f, 0.131025f, -0.250998f, 0.224696f, -0.271653f, -0.099119f, 0.176307f, -0.073197f, 0.645747f, -0.113081f, -0.001128f, -0.147920f, -0.219701f, -0.008493f, -0.148011f, -0.092441f, -0.174771f, 0.540916f, 0.101168f, -0.112863f, 0.000174f, -0.192387f, 0.449183f, -0.110681f, -0.296206f, -0.038020f, 0.182965f, -0.399171f, 0.029807f, 0.331145f, -0.105154f, 0.080413f, 0.133629f, 0.053417f, 0.321798f, -0.059316f, -0.049193f, 0.286588f, -0.070935f, -0.002815f, 0.014892f, 0.002181f, 0.220631f, -0.033076f, -0.214123f, 0.094965f, -0.095504f, 0.058848f, -0.319382f, -0.134391f, -0.063361f, 0.174204f, -0.063991f, 0.155953f, -0.085258f, -0.008361f, -0.099421f, 0.023367f, 0.126006f, -0.184695f, 0.058336f, -0.026086f, 0.013889f, -0.006860f, -0.191080f, -0.043817f, 0.122055f, -0.272730f, 0.060778f, 0.232011f, 0.019570f, 0.088187f, 0.369693f, -0.186770f, -0.119223f, -0.007371f, 0.107435f, 0.004859f, 0.007805f, -0.218484f, 0.000045f, 0.003052f, -0.028717f, 0.039472f, -0.225501f, -0.138955f, 0.237234f, -0.309503f, -0.040313f, -0.146601f, 0.052877f, 0.016257f, 0.080574f, -0.177967f, -0.185426f, -0.219669f, 0.231946f, -0.398268f, 0.163491f, 0.288259f, -0.046202f, -0.221380f, -0.066701f, -0.131901f, 0.188265f, 0.028868f, 0.004422f, -0.086074f, 0.120313f, 0.182669f, 0.108156f, -0.118222f, 0.019639f, 0.245065f, -0.014383f, -0.002076f, -0.077098f, -0.110823f, -0.162508f, 0.026501f, -0.143821f, 0.034428f, -0.080378f, 0.143686f, 0.114912f, -0.153304f, 0.083175f, -0.040303f, 0.146082f, 0.182336f, -0.065008f, -0.071900f, -0.030629f, 0.042244f, 0.108981f, -0.215005f, 0.227762f, -0.412364f, -0.061601f, 0.168645f, -0.063037f, -0.038183f, 0.047895f, -0.000937f, -0.022813f, -0.058708f, -0.095565f, -0.071342f, 0.161922f, 0.032378f, -0.126516f, 0.028144f, -0.097329f, 0.084850f, 0.086972f, -0.231748f, 0.126442f, -0.237650f, 0.115971f, 0.165057f, 0.091277f, -0.146507f, 0.081990f, 0.026423f, 0.005270f, -0.137976f, 0.054511f, 0.059126f, 0.239543f, -0.213068f, -0.115063f, -0.115053f, -0.084438f, 0.444731f, 0.245594f, 0.024548f, -0.259518f, 0.210395f, 0.084021f, 0.015760f, 0.128420f, -0.053048f, 0.076293f, -0.035031f, -0.124841f, 0.007569f, -0.081466f, -0.026916f, -0.045711f, -0.298014f, 0.045928f, 0.035065f, 0.083565f, -0.267368f, -0.193719f, -0.058848f, 0.160292f, 0.233955f, 0.101119f, -0.259246f, -0.093170f, -0.181635f, 0.193996f, 0.060097f, 0.074738f, -0.143032f, -0.053051f, 0.017528f, 0.366577f, 0.107457f, -0.064282f, -0.288859f, 0.257113f, -0.021001f, -0.245662f, -0.066353f, -0.098073f, 0.120003f, -0.159402f, -0.225313f, -0.034321f, -0.036950f, 0.151523f, 0.285538f, 0.067141f, -0.047511f, -0.056014f, 0.081877f, 0.090287f, -0.151178f, -0.009231f, -0.117643f, 0.030605f, 0.215970f, -0.120486f, 0.052981f, -0.017899f, -0.193994f, 0.407998f, -0.106447f, -0.043869f, -0.191435f, -0.107870f, 0.452350f, -0.129018f, 0.055851f, -0.124849f, -0.131834f, 0.264399f, -0.217391f, 0.072599f, -0.052622f, -0.111317f, -0.172704f, 0.223163f, -0.055478f, -0.160081f, 0.253531f, 0.332619f, 0.018082f, -0.095231f, -0.058166f, -0.225813f, -0.076865f, -0.143153f, 0.062590f, 0.107585f, -0.259907f, 0.202884f, -0.166027f, -0.095310f, 0.107232f, -0.157522f, 0.193173f, -0.131928f, -0.068844f, 0.201954f, -0.223808f, -0.302660f, -0.082668f, 0.112033f, 0.403971f, 0.009729f, -0.618747f, 0.038018f, 0.245566f, 0.246059f, 0.273338f, 0.200425f, 0.006740f, -0.149183f, -0.407450f, 0.302858f, 0.018244f, 0.015273f, -0.087914f, -0.224389f, 0.269821f, 0.013374f, -0.084177f, -0.146355f, 0.187540f, -0.226252f, -0.225970f, -0.055921f, -0.024260f, 0.387427f, -0.269524f, -0.283540f, -0.013402f, -0.094777f, 0.376041f, -0.299214f, 0.055643f, -0.141778f, -0.082504f, 0.236549f, -0.244579f, 0.179601f, 0.152123f, -0.068617f, 0.135796f, -0.047103f, -0.083406f, -0.065526f, -0.095553f, 0.201934f, -0.150252f, -0.175602f, 0.015106f, -0.022563f, 0.276820f, -0.240334f, -0.377614f, -0.112820f, 0.012850f, 0.479763f, -0.209297f, -0.051377f, -0.031728f, -0.005925f, 0.450638f, -0.267337f, 0.175139f, -0.190596f, -0.061764f, -0.035131f, 0.057720f, 0.033043f, 0.242638f, -0.041140f, -0.055917f, 0.116511f, -0.578544f, -0.199915f, 0.073792f, 0.506851f, -0.413686f, -0.229935f, -0.032329f, 0.149032f, 0.173815f, -0.372458f, 0.148615f, 0.180901f, 0.005557f, 0.035962f, -0.232558f, 0.250067f, -0.108482f, -0.147752f, 0.182774f, -0.404554f, 0.180840f, 0.065203f, -0.169072f, 0.223482f, -0.312768f, -0.036113f, -0.070061f, -0.172105f, 0.238673f, -0.507120f, -0.080274f, 0.088867f, -0.197357f, -0.063608f, 0.110679f, 0.014626f, 0.193381f, -0.086000f, 0.227807f, -0.160416f, -0.020381f, -0.032858f, -0.105850f, 0.070081f, -0.311866f, 0.397927f, 0.205554f, -0.112619f, -0.087985f, -0.114131f, -0.018167f, -0.046399f, -0.040757f, 0.444758f, -0.159855f, 0.312019f, -0.159689f, -0.323728f, 0.146704f, -0.077147f, -0.484489f, 0.156378f, 0.213781f, 0.360116f, 0.016233f, -0.186549f, -0.366161f, -0.172830f, -0.061812f, -0.038533f, -0.089774f, -0.168002f, -0.334522f, -0.179280f, 0.063559f, 0.055514f, 0.197294f, 0.131555f, 0.082103f, -0.165773f, -0.085313f, 0.130989f, 0.079478f, 0.313649f, -0.131717f, -0.217293f, 0.051623f, 0.004557f, 0.286313f, -0.082269f, -0.050798f, 0.151825f, 0.160870f, 0.107429f, -0.113956f, 0.248135f, 0.076620f, -0.024711f, 0.089060f, -0.034971f, 0.099110f, 0.086351f, -0.054342f, 0.095774f, -0.140581f, -0.183118f, -0.003016f, -0.001297f, 0.237458f, 0.019795f, -0.157036f, -0.024096f, 0.056453f, 0.304787f, -0.078553f, -0.001196f, 0.110512f, 0.199815f, 0.284149f, -0.371046f, -0.071382f, 0.160210f, 0.253457f, 0.117054f, -0.307002f, -0.206637f, -0.146220f, 0.151533f, 0.190131f, -0.387914f, -0.157308f, -0.027401f, 0.149250f, -0.091857f, 0.503531f, -0.162205f, 0.048210f, 0.408689f, -0.122335f, 0.364962f, -0.102338f, 0.077281f, -0.214769f, 0.088649f, 0.016123f, -0.121302f, -0.102832f, 0.070654f, -0.012575f, 0.033620f, -0.000840f, -0.097519f, 0.251979f, 0.088325f, -0.265697f, 0.230468f, -0.009948f, 0.141796f, -0.048779f, -0.288370f, 0.814067f, 1.814109f, -1.255961f, -0.570691f, 0.224046f, 0.164917f, -0.374423f, 1.487795f, 0.113843f, -1.147459f, -0.197081f, -0.105053f, 0.132493f, -0.008869f, -0.336516f };
static const float model_layer0_biases[5] = { -0.151397f, -0.199190f, -0.175629f, 0.560195f, -0.026607f };
static const float model_layer1_weights[30] = { -0.360681f, -0.310866f, -1.029800f, -0.630986f, -0.552193f, -0.309393f, -0.511462f, 2.498675f, -0.161666f, -1.185956f, -0.591543f, -0.340808f, -0.485744f, -1.326900f, -0.585865f, 1.983278f, 1.014344f, 0.928039f, -0.580037f, -1.004584f, 0.708640f, -0.475638f, -2.383092f, -0.638732f, -0.459341f, 0.315576f, -3.030853f, 0.984828f, 0.642631f, -0.254449f };
static const float model_layer1_biases[6] = { 0.323666f, 0.384669f, 0.247889f, -0.670708f, 0.575885f, 0.727964f };
static const float model_layer2_weights[36] = { -0.641114f, 0.633950f, -0.704959f, 0.162966f, 0.102449f, 0.447496f, -0.200560f, -1.281535f, -0.186465f, -0.162091f, -1.446058f, 2.469764f, 3.857613f, 1.931310f, 3.170048f, -3.061036f, -3.398878f, -1.390752f, -0.134525f, -1.822590f, -0.326591f, 1.169373f, 2.208165f, -0.417594f, -0.768949f, 1.857470f, -1.446278f, 1.125395f, -0.851912f, -0.290312f, -0.572654f, -1.465652f, -0.737068f, 1.133522f, 1.820640f, 0.630253f };
static const float model_layer2_biases[6] = { -5.810139f, 10.209941f, 5.801462f, -1.674667f, -4.750358f, -2.943505f };
static float model_buf1[561];
static float model_buf2[561];
static const EmlNetLayer model_layers[3] = { 
{ 5, 561, model_layer0_weights, model_layer0_biases, EmlNetActivationRelu }, 
{ 6, 5, model_layer1_weights, model_layer1_biases, EmlNetActivationRelu }, 
{ 6, 6, model_layer2_weights, model_layer2_biases, EmlNetActivationSoftmax } };
static EmlNet model = { 3, model_layers, model_buf1, model_buf2, 561 };

    int32_t
    model_predict(const float *features, int32_t n_features)
    {
        return eml_net_predict(&model, features, n_features);

    }
    
int main(void) {
    float features[1];
    int result = model_predict(features, 1);
    return result;
}
