#include <stdlib.h>
#include <stdint.h>
#include <math.h>

    // !!! This file is generated using emlearn !!!

    #include <eml_trees.h>
    

EmlTreesNode model_nodes[192] = {
  { 2, -0.6792522668838501, 1, 56 },
  { 10, -0.2934446632862091, 2, 27 },
  { 1, -0.4083818793296814, 3, 19 },
  { 0, -2.685184955596924, 4, 11 },
  { 23, 0.22203191369771957, 5, 10 },
  { 22, -0.02442653849720955, 6, 9 },
  { 1, -0.9876784384250641, 7, 8 },
  { -1, 4, -1, -1 },
  { -1, 2, -1, -1 },
  { -1, 3, -1, -1 },
  { -1, 5, -1, -1 },
  { 5, -1.444454312324524, 12, 13 },
  { 24, 1.761825978755951, 7, 9 },
  { 26, -1.478341668844223, 14, 15 },
  { -1, 1, -1, -1 },
  { 0, -0.8212533891201019, 16, 17 },
  { 28, -0.028151925653219223, 9, 7 },
  { 11, 1.1588129997253418, 7, 18 },
  { 20, 0.4914865707978606, 7, 14 },
  { 18, 0.1705564334988594, 20, 25 },
  { 4, -0.22504055500030518, 21, 8 },
  { 11, -0.7857559323310852, 7, 22 },
  { 6, -4.592873811721802, 23, 24 },
  { -1, 0, -1, -1 },
  { 2, -0.7846668660640717, 14, 9 },
  { 17, -0.1429075337946415, 26, 9 },
  { 14, -1.2302160859107971, 23, 14 },
  { 3, 1.2689469456672668, 28, 42 },
  { 1, -1.0252095460891724, 29, 30 },
  { 21, 0.05565749807283282, 23, 7 },
  { 20, -0.4378276616334915, 31, 34 },
  { 1, 1.57752126455307, 32, 33 },
  { 12, 0.08100880775600672, 23, 9 },
  { 9, 0.8996175229549408, 14, 8 },
  { 17, -0.30287472903728485, 35, 36 },
  { 29, 0.288601279258728, 8, 14 },
  { 6, -0.2674318850040436, 8, 37 },
  { 3, 1.218294084072113, 38, 41 },
  { 10, -0.21941661834716797, 39, 40 },
  { 23, -0.1406354010105133, 7, 14 },
  { 0, -10.87104320526123, 14, 14 },
  { 12, 0.09850107878446579, 8, 14 },
  { 25, 0.16631004959344864, 43, 53 },
  { 5, 0.7564769089221954, 44, 51 },
  { 1, -2.6619452238082886, 10, 45 },
  { 5, -2.9464361667633057, 46, 48 },
  { 19, 1.4447171986103058, 23, 47 },
  { 1, 2.047696590423584, 9, 14 },
  { 3, 5.47179114818573, 49, 7 },
  { 11, -0.10158476140350103, 50, 8 },
  { 2, -0.6962389647960663, 14, 10 },
  { 9, 0.5185414254665375, 14, 52 },
  { 25, -0.1187698021531105, 7, 8 },
  { 8, -0.02744787558913231, 54, 55 },
  { 24, -0.18810541555285454, 23, 9 },
  { 10, 0.010902345180511475, 7, 8 },
  { 6, 0.08198046684265137, 57, 128 },
  { 5, -1.08633154630661, 58, 81 },
  { 8, -0.2620009779930115, 59, 65 },
  { 4, 4.00596559047699, 60, 8 },
  { 12, 0.5965335071086884, 61, 64 },
  { 25, -0.012823083670809865, 62, 23 },
  { 8, -0.7610528767108917, 63, 10 },
  { 20, -0.05431833863258362, 14, 7 },
  { 20, 0.3942594453692436, 9, 7 },
  { 1, -1.0977730751037598, 66, 72 },
  { 23, 0.17783179134130478, 67, 70 },
  { 10, -0.15999840199947357, 68, 23 },
  { 7, 0.772983193397522, 69, 7 },
  { 6, -0.1877612005919218, 23, 7 },
  { 0, 3.4380184561014175, 9, 71 },
  { 19, -0.6898496001958847, 10, 23 },
  { 23, 0.4957728534936905, 73, 78 },
  { 1, 4.279401540756226, 74, 14 },
  { 12, 0.943213701248169, 75, 77 },
  { 3, 0.918487936258316, 76, 9 },
  { 12, 0.8312065899372101, 23, 23 },
  { 4, 3.658344805240631, 9, 23 },
  { 6, -0.42787395417690277, 79, 10 },
  { 25, -0.07608550507575274, 80, 23 },
  { 24, 0.058602139353752136, 9, 7 },
  { 8, -0.6942903399467468, 82, 89 },
  { 11, -0.1751858815550804, 83, 85 },
  { 20, 0.31436697393655777, 84, 7 },
  { 28, 0.10603731777518988, 9, 14 },
  { 12, -4.171836853027344, 23, 86 },
  { 1, -0.5393258631229401, 7, 87 },
  { 25, 0.4003124386072159, 8, 88 },
  { 18, -0.12078900169581175, 8, 14 },
  { 10, 0.42635659873485565, 90, 117 },
  { 17, -0.05986810475587845, 91, 102 },
  { 14, 0.1678265705704689, 92, 97 },
  { 10, 0.1864994317293167, 93, 96 },
  { 5, -0.04272492416203022, 94, 95 },
  { 5, -0.26187506318092346, 9, 10 },
  { 8, 0.41170652210712433, 8, 14 },
  { 3, 1.4432076811790466, 14, 8 },
  { 1, -1.427408754825592, 98, 99 },
  { 20, -0.18243340402841568, 23, 7 },
  { 16, -0.1910143941640854, 100, 101 },
  { 4, -0.3475624918937683, 14, 8 },
  { 9, 0.5902170538902283, 9, 23 },
  { 12, 0.10377783700823784, 103, 110 },
  { 8, 0.6735047996044159, 104, 107 },
  { 21, -0.010313540697097778, 105, 106 },
  { 12, -0.05294269323348999, 10, 9 },
  { 12, -0.24144399911165237, 9, 10 },
  { 9, 0.548350989818573, 108, 109 },
  { 16, -0.21268919110298157, 10, 9 },
  { 1, -2.0558472871780396, 7, 23 },
  { 7, 0.10506976395845413, 111, 114 },
  { 20, 0.3455337733030319, 112, 113 },
  { 21, 0.36647291481494904, 9, 10 },
  { 16, 0.6523966789245605, 9, 7 },
  { 5, 0.10264236479997635, 115, 116 },
  { 1, -0.49383170902729034, 10, 9 },
  { 2, -0.4459870755672455, 14, 9 },
  { 1, 2.100255608558655, 118, 14 },
  { 2, -0.10324024874716997, 119, 122 },
  { 21, 0.1316534075886011, 120, 10 },
  { 21, -0.07959824241697788, 121, 8 },
  { 13, -0.0022586435079574585, 14, 23 },
  { 16, -0.04610806703567505, 123, 126 },
  { 22, -0.04449695907533169, 124, 125 },
  { 18, -0.1718355268239975, 7, 9 },
  { 15, -1.0588700473308563, 9, 23 },
  { 10, 0.43471716344356537, 127, 23 },
  { 17, 0.1356985606253147, 23, 9 },
  { 28, 0.23781419545412064, 129, 175 },
  { 1, -0.7463211119174957, 130, 161 },
  { 18, 0.12828020751476288, 131, 143 },
  { 8, 1.1320393681526184, 132, 139 },
  { 27, 0.30993857979774475, 133, 138 },
  { 0, -10.241511821746826, 134, 135 },
  { 23, -0.391756147146225, 7, 10 },
  { 27, 0.1357959434390068, 136, 137 },
  { 8, 0.8313739597797394, 7, 9 },
  { 0, -1.9543207883834839, 10, 7 },
  { 23, 0.19852012395858765, 7, 10 },
  { 13, -0.095387052744627, 140, 142 },
  { 24, 0.1660904958844185, 141, 10 },
  { 15, -0.6402643173933029, 7, 9 },
  { 27, 0.026141716167330742, 9, 7 },
  { 21, -0.035412827506661415, 144, 154 },
  { 28, 0.04832749627530575, 145, 150 },
  { 14, 0.33200453221797943, 146, 148 },
  { 16, 2.936142086982727, 147, 7 },
  { 21, -0.06318218819797039, 9, 10 },
  { 0, 2.460073471069336, 149, 7 },
  { 26, -0.09485094994306564, 10, 9 },
  { 11, 0.3996269404888153, 151, 152 },
  { 14, -0.40236371755599976, 9, 23 },
  { 9, 0.2203112244606018, 153, 7 },
  { 6, 1.4503444731235504, 10, 9 },
  { 3, 0.6362053453922272, 155, 160 },
  { 11, 0.5283694863319397, 156, 159 },
  { 6, 0.08938538655638695, 157, 158 },
  { 12, -0.14889007806777954, 7, 10 },
  { 1, -0.9057345986366272, 7, 23 },
  { 26, -0.7710103094577789, 7, 10 },
  { 13, 0.1753908134996891, 10, 7 },
  { 8, 0.11163805425167084, 162, 167 },
  { 18, 0.05021192994900048, 163, 165 },
  { 4, -0.719079926609993, 164, 8 },
  { 3, -0.4071150869131088, 14, 7 },
  { 17, -0.13520780950784683, 166, 9 },
  { 7, 2.9405046105384827, 14, 7 },
  { 14, 0.074144147336483, 168, 172 },
  { 29, 0.612952072173357, 169, 171 },
  { 28, 0.16049417853355408, 170, 8 },
  { 6, 0.08305995911359787, 9, 14 },
  { 29, 1.177156150341034, 8, 23 },
  { 5, -0.3871237337589264, 23, 173 },
  { 23, 0.011520202737301588, 8, 174 },
  { 19, 0.3390824329108, 9, 14 },
  { 21, 0.4187958240509033, 176, 189 },
  { 1, -0.42596933245658875, 177, 188 },
  { 18, 0.19879100471735, 178, 184 },
  { 26, -0.1033831462264061, 179, 182 },
  { 25, -0.04021706059575081, 10, 180 },
  { 14, -1.1186174750328064, 9, 181 },
  { 16, 2.2905715107917786, 23, 7 },
  { 2, -0.6518653333187103, 8, 183 },
  { 0, -8.643852233886719, 23, 7 },
  { 6, 1.2059205174446106, 185, 186 },
  { 2, 0.0441260039806366, 9, 23 },
  { 0, 6.532594621181488, 10, 187 },
  { 13, -0.08685168623924255, 14, 7 },
  { 11, -0.007853317074477673, 14, 8 },
  { 2, 0.5922729969024658, 10, 190 },
  { 29, 0.7713843956589699, 7, 191 },
  { 12, -1.6434059739112854, 23, 14 } 
};

int32_t model_tree_roots[1] = { 0 };

EmlTrees model = {
        192,
        model_nodes,	  
        1,
        model_tree_roots,
    };

static inline int32_t model_predict_tree_0(const float *features, int32_t features_length) {
          if (features[2] < -0.6792522668838501) {
              if (features[10] < -0.2934446632862091) {
                  if (features[1] < -0.4083818793296814) {
                      if (features[0] < -2.685184955596924) {
                          if (features[23] < 0.22203191369771957) {
                              if (features[22] < -0.02442653849720955) {
                                  if (features[1] < -0.9876784384250641) {
                                      return 4;
                                  } else {
                                      return 2;
                                  }
                              } else {
                                  return 3;
                              }
                          } else {
                              return 5;
                          }
                      } else {
                          if (features[5] < -1.444454312324524) {
                              if (features[24] < 1.761825978755951) {
                                  return 4;
                              } else {
                                  return 3;
                              }
                          } else {
                              if (features[26] < -1.478341668844223) {
                                  return 1;
                              } else {
                                  if (features[0] < -0.8212533891201019) {
                                      if (features[28] < -0.028151925653219223) {
                                          return 3;
                                      } else {
                                          return 4;
                                      }
                                  } else {
                                      if (features[11] < 1.1588129997253418) {
                                          return 4;
                                      } else {
                                          if (features[20] < 0.4914865707978606) {
                                              return 4;
                                          } else {
                                              return 1;
                                          }
                                      }
                                  }
                              }
                          }
                      }
                  } else {
                      if (features[18] < 0.1705564334988594) {
                          if (features[4] < -0.22504055500030518) {
                              if (features[11] < -0.7857559323310852) {
                                  return 4;
                              } else {
                                  if (features[6] < -4.592873811721802) {
                                      return 0;
                                  } else {
                                      if (features[2] < -0.7846668660640717) {
                                          return 1;
                                      } else {
                                          return 3;
                                      }
                                  }
                              }
                          } else {
                              return 2;
                          }
                      } else {
                          if (features[17] < -0.1429075337946415) {
                              if (features[14] < -1.2302160859107971) {
                                  return 0;
                              } else {
                                  return 1;
                              }
                          } else {
                              return 3;
                          }
                      }
                  }
              } else {
                  if (features[3] < 1.2689469456672668) {
                      if (features[1] < -1.0252095460891724) {
                          if (features[21] < 0.05565749807283282) {
                              return 0;
                          } else {
                              return 4;
                          }
                      } else {
                          if (features[20] < -0.4378276616334915) {
                              if (features[1] < 1.57752126455307) {
                                  if (features[12] < 0.08100880775600672) {
                                      return 0;
                                  } else {
                                      return 3;
                                  }
                              } else {
                                  if (features[9] < 0.8996175229549408) {
                                      return 1;
                                  } else {
                                      return 2;
                                  }
                              }
                          } else {
                              if (features[17] < -0.30287472903728485) {
                                  if (features[29] < 0.288601279258728) {
                                      return 2;
                                  } else {
                                      return 1;
                                  }
                              } else {
                                  if (features[6] < -0.2674318850040436) {
                                      return 2;
                                  } else {
                                      if (features[3] < 1.218294084072113) {
                                          if (features[10] < -0.21941661834716797) {
                                              if (features[23] < -0.1406354010105133) {
                                                  return 4;
                                              } else {
                                                  return 1;
                                              }
                                          } else {
                                              if (features[0] < -10.87104320526123) {
                                                  return 1;
                                              } else {
                                                  return 1;
                                              }
                                          }
                                      } else {
                                          if (features[12] < 0.09850107878446579) {
                                              return 2;
                                          } else {
                                              return 1;
                                          }
                                      }
                                  }
                              }
                          }
                      }
                  } else {
                      if (features[25] < 0.16631004959344864) {
                          if (features[5] < 0.7564769089221954) {
                              if (features[1] < -2.6619452238082886) {
                                  return 5;
                              } else {
                                  if (features[5] < -2.9464361667633057) {
                                      if (features[19] < 1.4447171986103058) {
                                          return 0;
                                      } else {
                                          if (features[1] < 2.047696590423584) {
                                              return 3;
                                          } else {
                                              return 1;
                                          }
                                      }
                                  } else {
                                      if (features[3] < 5.47179114818573) {
                                          if (features[11] < -0.10158476140350103) {
                                              if (features[2] < -0.6962389647960663) {
                                                  return 1;
                                              } else {
                                                  return 5;
                                              }
                                          } else {
                                              return 2;
                                          }
                                      } else {
                                          return 4;
                                      }
                                  }
                              }
                          } else {
                              if (features[9] < 0.5185414254665375) {
                                  return 1;
                              } else {
                                  if (features[25] < -0.1187698021531105) {
                                      return 4;
                                  } else {
                                      return 2;
                                  }
                              }
                          }
                      } else {
                          if (features[8] < -0.02744787558913231) {
                              if (features[24] < -0.18810541555285454) {
                                  return 0;
                              } else {
                                  return 3;
                              }
                          } else {
                              if (features[10] < 0.010902345180511475) {
                                  return 4;
                              } else {
                                  return 2;
                              }
                          }
                      }
                  }
              }
          } else {
              if (features[6] < 0.08198046684265137) {
                  if (features[5] < -1.08633154630661) {
                      if (features[8] < -0.2620009779930115) {
                          if (features[4] < 4.00596559047699) {
                              if (features[12] < 0.5965335071086884) {
                                  if (features[25] < -0.012823083670809865) {
                                      if (features[8] < -0.7610528767108917) {
                                          if (features[20] < -0.05431833863258362) {
                                              return 1;
                                          } else {
                                              return 4;
                                          }
                                      } else {
                                          return 5;
                                      }
                                  } else {
                                      return 0;
                                  }
                              } else {
                                  if (features[20] < 0.3942594453692436) {
                                      return 3;
                                  } else {
                                      return 4;
                                  }
                              }
                          } else {
                              return 2;
                          }
                      } else {
                          if (features[1] < -1.0977730751037598) {
                              if (features[23] < 0.17783179134130478) {
                                  if (features[10] < -0.15999840199947357) {
                                      if (features[7] < 0.772983193397522) {
                                          if (features[6] < -0.1877612005919218) {
                                              return 0;
                                          } else {
                                              return 4;
                                          }
                                      } else {
                                          return 4;
                                      }
                                  } else {
                                      return 0;
                                  }
                              } else {
                                  if (features[0] < 3.4380184561014175) {
                                      return 3;
                                  } else {
                                      if (features[19] < -0.6898496001958847) {
                                          return 5;
                                      } else {
                                          return 0;
                                      }
                                  }
                              }
                          } else {
                              if (features[23] < 0.4957728534936905) {
                                  if (features[1] < 4.279401540756226) {
                                      if (features[12] < 0.943213701248169) {
                                          if (features[3] < 0.918487936258316) {
                                              if (features[12] < 0.8312065899372101) {
                                                  return 0;
                                              } else {
                                                  return 0;
                                              }
                                          } else {
                                              return 3;
                                          }
                                      } else {
                                          if (features[4] < 3.658344805240631) {
                                              return 3;
                                          } else {
                                              return 0;
                                          }
                                      }
                                  } else {
                                      return 1;
                                  }
                              } else {
                                  if (features[6] < -0.42787395417690277) {
                                      if (features[25] < -0.07608550507575274) {
                                          if (features[24] < 0.058602139353752136) {
                                              return 3;
                                          } else {
                                              return 4;
                                          }
                                      } else {
                                          return 0;
                                      }
                                  } else {
                                      return 5;
                                  }
                              }
                          }
                      }
                  } else {
                      if (features[8] < -0.6942903399467468) {
                          if (features[11] < -0.1751858815550804) {
                              if (features[20] < 0.31436697393655777) {
                                  if (features[28] < 0.10603731777518988) {
                                      return 3;
                                  } else {
                                      return 1;
                                  }
                              } else {
                                  return 4;
                              }
                          } else {
                              if (features[12] < -4.171836853027344) {
                                  return 0;
                              } else {
                                  if (features[1] < -0.5393258631229401) {
                                      return 4;
                                  } else {
                                      if (features[25] < 0.4003124386072159) {
                                          return 2;
                                      } else {
                                          if (features[18] < -0.12078900169581175) {
                                              return 2;
                                          } else {
                                              return 1;
                                          }
                                      }
                                  }
                              }
                          }
                      } else {
                          if (features[10] < 0.42635659873485565) {
                              if (features[17] < -0.05986810475587845) {
                                  if (features[14] < 0.1678265705704689) {
                                      if (features[10] < 0.1864994317293167) {
                                          if (features[5] < -0.04272492416203022) {
                                              if (features[5] < -0.26187506318092346) {
                                                  return 3;
                                              } else {
                                                  return 5;
                                              }
                                          } else {
                                              if (features[8] < 0.41170652210712433) {
                                                  return 2;
                                              } else {
                                                  return 1;
                                              }
                                          }
                                      } else {
                                          if (features[3] < 1.4432076811790466) {
                                              return 1;
                                          } else {
                                              return 2;
                                          }
                                      }
                                  } else {
                                      if (features[1] < -1.427408754825592) {
                                          if (features[20] < -0.18243340402841568) {
                                              return 0;
                                          } else {
                                              return 4;
                                          }
                                      } else {
                                          if (features[16] < -0.1910143941640854) {
                                              if (features[4] < -0.3475624918937683) {
                                                  return 1;
                                              } else {
                                                  return 2;
                                              }
                                          } else {
                                              if (features[9] < 0.5902170538902283) {
                                                  return 3;
                                              } else {
                                                  return 0;
                                              }
                                          }
                                      }
                                  }
                              } else {
                                  if (features[12] < 0.10377783700823784) {
                                      if (features[8] < 0.6735047996044159) {
                                          if (features[21] < -0.010313540697097778) {
                                              if (features[12] < -0.05294269323348999) {
                                                  return 5;
                                              } else {
                                                  return 3;
                                              }
                                          } else {
                                              if (features[12] < -0.24144399911165237) {
                                                  return 3;
                                              } else {
                                                  return 5;
                                              }
                                          }
                                      } else {
                                          if (features[9] < 0.548350989818573) {
                                              if (features[16] < -0.21268919110298157) {
                                                  return 5;
                                              } else {
                                                  return 3;
                                              }
                                          } else {
                                              if (features[1] < -2.0558472871780396) {
                                                  return 4;
                                              } else {
                                                  return 0;
                                              }
                                          }
                                      }
                                  } else {
                                      if (features[7] < 0.10506976395845413) {
                                          if (features[20] < 0.3455337733030319) {
                                              if (features[21] < 0.36647291481494904) {
                                                  return 3;
                                              } else {
                                                  return 5;
                                              }
                                          } else {
                                              if (features[16] < 0.6523966789245605) {
                                                  return 3;
                                              } else {
                                                  return 4;
                                              }
                                          }
                                      } else {
                                          if (features[5] < 0.10264236479997635) {
                                              if (features[1] < -0.49383170902729034) {
                                                  return 5;
                                              } else {
                                                  return 3;
                                              }
                                          } else {
                                              if (features[2] < -0.4459870755672455) {
                                                  return 1;
                                              } else {
                                                  return 3;
                                              }
                                          }
                                      }
                                  }
                              }
                          } else {
                              if (features[1] < 2.100255608558655) {
                                  if (features[2] < -0.10324024874716997) {
                                      if (features[21] < 0.1316534075886011) {
                                          if (features[21] < -0.07959824241697788) {
                                              if (features[13] < -0.0022586435079574585) {
                                                  return 1;
                                              } else {
                                                  return 0;
                                              }
                                          } else {
                                              return 2;
                                          }
                                      } else {
                                          return 5;
                                      }
                                  } else {
                                      if (features[16] < -0.04610806703567505) {
                                          if (features[22] < -0.04449695907533169) {
                                              if (features[18] < -0.1718355268239975) {
                                                  return 4;
                                              } else {
                                                  return 3;
                                              }
                                          } else {
                                              if (features[15] < -1.0588700473308563) {
                                                  return 3;
                                              } else {
                                                  return 0;
                                              }
                                          }
                                      } else {
                                          if (features[10] < 0.43471716344356537) {
                                              if (features[17] < 0.1356985606253147) {
                                                  return 0;
                                              } else {
                                                  return 3;
                                              }
                                          } else {
                                              return 0;
                                          }
                                      }
                                  }
                              } else {
                                  return 1;
                              }
                          }
                      }
                  }
              } else {
                  if (features[28] < 0.23781419545412064) {
                      if (features[1] < -0.7463211119174957) {
                          if (features[18] < 0.12828020751476288) {
                              if (features[8] < 1.1320393681526184) {
                                  if (features[27] < 0.30993857979774475) {
                                      if (features[0] < -10.241511821746826) {
                                          if (features[23] < -0.391756147146225) {
                                              return 4;
                                          } else {
                                              return 5;
                                          }
                                      } else {
                                          if (features[27] < 0.1357959434390068) {
                                              if (features[8] < 0.8313739597797394) {
                                                  return 4;
                                              } else {
                                                  return 3;
                                              }
                                          } else {
                                              if (features[0] < -1.9543207883834839) {
                                                  return 5;
                                              } else {
                                                  return 4;
                                              }
                                          }
                                      }
                                  } else {
                                      if (features[23] < 0.19852012395858765) {
                                          return 4;
                                      } else {
                                          return 5;
                                      }
                                  }
                              } else {
                                  if (features[13] < -0.095387052744627) {
                                      if (features[24] < 0.1660904958844185) {
                                          if (features[15] < -0.6402643173933029) {
                                              return 4;
                                          } else {
                                              return 3;
                                          }
                                      } else {
                                          return 5;
                                      }
                                  } else {
                                      if (features[27] < 0.026141716167330742) {
                                          return 3;
                                      } else {
                                          return 4;
                                      }
                                  }
                              }
                          } else {
                              if (features[21] < -0.035412827506661415) {
                                  if (features[28] < 0.04832749627530575) {
                                      if (features[14] < 0.33200453221797943) {
                                          if (features[16] < 2.936142086982727) {
                                              if (features[21] < -0.06318218819797039) {
                                                  return 3;
                                              } else {
                                                  return 5;
                                              }
                                          } else {
                                              return 4;
                                          }
                                      } else {
                                          if (features[0] < 2.460073471069336) {
                                              if (features[26] < -0.09485094994306564) {
                                                  return 5;
                                              } else {
                                                  return 3;
                                              }
                                          } else {
                                              return 4;
                                          }
                                      }
                                  } else {
                                      if (features[11] < 0.3996269404888153) {
                                          if (features[14] < -0.40236371755599976) {
                                              return 3;
                                          } else {
                                              return 0;
                                          }
                                      } else {
                                          if (features[9] < 0.2203112244606018) {
                                              if (features[6] < 1.4503444731235504) {
                                                  return 5;
                                              } else {
                                                  return 3;
                                              }
                                          } else {
                                              return 4;
                                          }
                                      }
                                  }
                              } else {
                                  if (features[3] < 0.6362053453922272) {
                                      if (features[11] < 0.5283694863319397) {
                                          if (features[6] < 0.08938538655638695) {
                                              if (features[12] < -0.14889007806777954) {
                                                  return 4;
                                              } else {
                                                  return 5;
                                              }
                                          } else {
                                              if (features[1] < -0.9057345986366272) {
                                                  return 4;
                                              } else {
                                                  return 0;
                                              }
                                          }
                                      } else {
                                          if (features[26] < -0.7710103094577789) {
                                              return 4;
                                          } else {
                                              return 5;
                                          }
                                      }
                                  } else {
                                      if (features[13] < 0.1753908134996891) {
                                          return 5;
                                      } else {
                                          return 4;
                                      }
                                  }
                              }
                          }
                      } else {
                          if (features[8] < 0.11163805425167084) {
                              if (features[18] < 0.05021192994900048) {
                                  if (features[4] < -0.719079926609993) {
                                      if (features[3] < -0.4071150869131088) {
                                          return 1;
                                      } else {
                                          return 4;
                                      }
                                  } else {
                                      return 2;
                                  }
                              } else {
                                  if (features[17] < -0.13520780950784683) {
                                      if (features[7] < 2.9405046105384827) {
                                          return 1;
                                      } else {
                                          return 4;
                                      }
                                  } else {
                                      return 3;
                                  }
                              }
                          } else {
                              if (features[14] < 0.074144147336483) {
                                  if (features[29] < 0.612952072173357) {
                                      if (features[28] < 0.16049417853355408) {
                                          if (features[6] < 0.08305995911359787) {
                                              return 3;
                                          } else {
                                              return 1;
                                          }
                                      } else {
                                          return 2;
                                      }
                                  } else {
                                      if (features[29] < 1.177156150341034) {
                                          return 2;
                                      } else {
                                          return 0;
                                      }
                                  }
                              } else {
                                  if (features[5] < -0.3871237337589264) {
                                      return 0;
                                  } else {
                                      if (features[23] < 0.011520202737301588) {
                                          return 2;
                                      } else {
                                          if (features[19] < 0.3390824329108) {
                                              return 3;
                                          } else {
                                              return 1;
                                          }
                                      }
                                  }
                              }
                          }
                      }
                  } else {
                      if (features[21] < 0.4187958240509033) {
                          if (features[1] < -0.42596933245658875) {
                              if (features[18] < 0.19879100471735) {
                                  if (features[26] < -0.1033831462264061) {
                                      if (features[25] < -0.04021706059575081) {
                                          return 5;
                                      } else {
                                          if (features[14] < -1.1186174750328064) {
                                              return 3;
                                          } else {
                                              if (features[16] < 2.2905715107917786) {
                                                  return 0;
                                              } else {
                                                  return 4;
                                              }
                                          }
                                      }
                                  } else {
                                      if (features[2] < -0.6518653333187103) {
                                          return 2;
                                      } else {
                                          if (features[0] < -8.643852233886719) {
                                              return 0;
                                          } else {
                                              return 4;
                                          }
                                      }
                                  }
                              } else {
                                  if (features[6] < 1.2059205174446106) {
                                      if (features[2] < 0.0441260039806366) {
                                          return 3;
                                      } else {
                                          return 0;
                                      }
                                  } else {
                                      if (features[0] < 6.532594621181488) {
                                          return 5;
                                      } else {
                                          if (features[13] < -0.08685168623924255) {
                                              return 1;
                                          } else {
                                              return 4;
                                          }
                                      }
                                  }
                              }
                          } else {
                              if (features[11] < -0.007853317074477673) {
                                  return 1;
                              } else {
                                  return 2;
                              }
                          }
                      } else {
                          if (features[2] < 0.5922729969024658) {
                              return 5;
                          } else {
                              if (features[29] < 0.7713843956589699) {
                                  return 4;
                              } else {
                                  if (features[12] < -1.6434059739112854) {
                                      return 0;
                                  } else {
                                      return 1;
                                  }
                              }
                          }
                      }
                  }
              }
          }
        }
        

int32_t model_predict(const float *features, int32_t features_length) {

        int32_t votes[6] = {0,};
        int32_t _class = -1;

        _class = model_predict_tree_0(features, features_length); votes[_class] += 1;
    
        int32_t most_voted_class = -1;
        int32_t most_voted_votes = 0;
        for (int32_t i=0; i<6; i++) {

            if (votes[i] > most_voted_votes) {
                most_voted_class = i;
                most_voted_votes = votes[i];
            }
        }
        return most_voted_class;
    }
    
int main(void) {
    float features[1];
    int result = model_predict(features, 1);
    return result;
}
