#include <stdlib.h>
#include <stdint.h>
#include <math.h>

    // !!! This file is generated using emlearn !!!

    #include <eml_trees.h>
    

EmlTreesNode model_nodes[5280] = {
  { 21, -0.07675186917185783, 1, 110 },
  { 67, -0.2626393586397171, 2, 36 },
  { 71, -1.1139089465141296, 3, 27 },
  { 40, -1.1637680232524872, 4, 5 },
  { -1, 5, -1, -1 },
  { 51, 0.23525428026914597, 6, 23 },
  { 55, -1.000278651714325, 7, 15 },
  { 74, 0.7411288619041443, 8, 9 },
  { -1, 4, -1, -1 },
  { 57, -0.6132435202598572, 10, 12 },
  { 14, 0.6767722368240356, 8, 11 },
  { -1, 3, -1, -1 },
  { 22, 0.10157438740134239, 13, 14 },
  { 41, -0.2463841438293457, 8, 11 },
  { 62, -0.75360968708992, 11, 8 },
  { 57, -0.5287719368934631, 16, 19 },
  { 1, -0.5459257960319519, 8, 17 },
  { 63, 1.411834955215454, 18, 8 },
  { 16, -0.6929395198822021, 8, 11 },
  { 39, -2.0316203832626343, 11, 20 },
  { 36, 0.5109381675720215, 8, 21 },
  { 15, 0.3307681828737259, 8, 22 },
  { -1, 1, -1, -1 },
  { 5, -0.6607011556625366, 11, 24 },
  { 63, -0.21118388511240482, 8, 25 },
  { 32, -0.9143757820129395, 26, 11 },
  { 37, -1.2353346347808838, 11, 8 },
  { 58, 0.875319242477417, 28, 35 },
  { 40, -0.9596703350543976, 4, 29 },
  { 42, 0.1446148380637169, 30, 11 },
  { 63, -0.035384416580200195, 31, 34 },
  { 32, -1.7045658230781555, 11, 32 },
  { 57, -0.6038120090961456, 11, 33 },
  { 54, -1.2593518495559692, 8, 8 },
  { 10, -0.48135559260845184, 11, 8 },
  { 56, -1.6403437852859497, 4, 11 },
  { 79, -1.4172329902648926, 37, 49 },
  { 56, -1.0800465792417526, 4, 38 },
  { 70, -0.17431621253490448, 39, 42 },
  { 9, -0.8722408711910248, 8, 40 },
  { 18, -0.6718591451644897, 41, 8 },
  { 67, 0.14248443767428398, 8, 11 },
  { 57, -0.5969037115573883, 43, 45 },
  { 26, -1.0838529467582703, 8, 44 },
  { 53, 0.030724243260920048, 11, 8 },
  { 53, 0.28822068125009537, 46, 11 },
  { 24, -0.7404737770557404, 47, 8 },
  { 30, 0.2736252322793007, 48, 11 },
  { 21, -0.9312129318714142, 11, 8 },
  { 44, -0.46109357476234436, 50, 68 },
  { 67, 1.0198237299919128, 51, 58 },
  { 49, -1.0101608633995056, 4, 52 },
  { 53, -0.43708883225917816, 53, 54 },
  { 58, -0.2001930996775627, 8, 11 },
  { 18, -0.68329918384552, 55, 8 },
  { 52, 0.580760270357132, 56, 57 },
  { 9, -0.8756511211395264, 8, 11 },
  { 10, -0.9362330734729767, 11, 8 },
  { 61, -0.5271172523498535, 59, 64 },
  { 51, 0.7564917206764221, 60, 63 },
  { 51, 0.21630505472421646, 61, 11 },
  { 49, -0.600230485200882, 4, 62 },
  { 41, -0.22382911294698715, 8, 11 },
  { 40, -0.7105408255010843, 4, 11 },
  { 40, -1.0133413970470428, 4, 65 },
  { 56, 0.4124982953071594, 11, 66 },
  { 9, -0.8732187449932098, 8, 67 },
  { 57, -0.5793041288852692, 11, 8 },
  { 77, -0.8450091481208801, 69, 87 },
  { 63, -0.40609070658683777, 70, 81 },
  { 69, -0.15425507724285126, 71, 76 },
  { 50, -0.26094310730695724, 72, 73 },
  { 41, -1.1170941591262817, 4, 8 },
  { 36, -0.9477064609527588, 74, 75 },
  { 79, 0.7707288265228271, 4, 8 },
  { 12, 0.7577366530895233, 8, 11 },
  { 32, -1.1758711338043213, 77, 78 },
  { 51, -0.4014422446489334, 11, 8 },
  { 29, 0.251907154917717, 79, 80 },
  { 44, -0.4462212771177292, 11, 8 },
  { 5, -0.920864462852478, 8, 11 },
  { 50, -0.08284943178296089, 82, 83 },
  { 59, -0.4171055555343628, 11, 8 },
  { 78, 1.3937681913375854, 84, 86 },
  { 40, -0.9335996955633163, 4, 85 },
  { 3, -0.8760952651500702, 8, 11 },
  { 52, 0.45354168117046356, 11, 8 },
  { 63, -0.383645623922348, 88, 101 },
  { 51, -0.4180298298597336, 89, 96 },
  { 51, -0.7884231209754944, 90, 93 },
  { 58, 0.02734380681067705, 91, 92 },
  { 15, -0.15310588479042053, 8, 22 },
  { 57, -0.5678813457489014, 11, 8 },
  { 57, -0.5418936312198639, 94, 95 },
  { 50, -0.14395274221897125, 11, 8 },
  { 66, -1.0161163210868835, 8, 8 },
  { 52, 0.22911211429163814, 97, 98 },
  { 23, -0.8251011669635773, 4, 11 },
  { 38, -0.9868842661380768, 99, 100 },
  { 77, 0.9786417186260223, 11, 8 },
  { 41, -0.23597264289855957, 8, 8 },
  { 75, 0.5043317675590515, 102, 108 },
  { 57, -0.6035797595977783, 103, 106 },
  { 49, 0.574180006980896, 104, 105 },
  { 77, 0.24779856204986572, 8, 11 },
  { 42, -0.2653569132089615, 11, 8 },
  { 41, 1.4174515008926392, 107, 4 },
  { 42, 1.984013557434082, 11, 4 },
  { 51, 1.1684260666370392, 109, 4 },
  { 38, -1.029848039150238, 8, 11 },
  { 16, 1.3091934323310852, 111, 203 },
  { 69, -0.05263213999569416, 112, 149 },
  { 3, 0.1338423639535904, 113, 124 },
  { 49, -0.32483839243650436, 4, 114 },
  { 9, -0.32596735656261444, 115, 121 },
  { 37, -0.42098264396190643, 116, 118 },
  { 54, -0.6477674543857574, 117, 11 },
  { 9, -0.6120697110891342, 8, 11 },
  { 6, -0.7522397339344025, 119, 8 },
  { 19, -0.8217494785785675, 8, 120 },
  { 25, 0.10723319370299578, 11, 8 },
  { 71, -1.2060532569885254, 122, 123 },
  { 67, -1.5307651162147522, 11, 22 },
  { -1, 0, -1, -1 },
  { 75, -0.4392818659543991, 125, 133 },
  { 73, -0.23551874607801437, 126, 130 },
  { 42, 0.5958045423030853, 127, 131 },
  { 30, -2.2134265899658203, 4, 128 },
  { 59, -0.3404834568500519, 123, 129 },
  { 11, -0.22016818821430206, 130, 22 },
  { -1, 2, -1, -1 },
  { 52, 0.39607493579387665, 132, 130 },
  { 44, 0.45562849938869476, 123, 4 },
  { 4, 1.1036710739135742, 134, 144 },
  { 46, -0.21351218223571777, 135, 139 },
  { 12, -1.1529924869537354, 136, 137 },
  { 75, 0.15529978275299072, 22, 130 },
  { 20, 0.05955049116164446, 130, 138 },
  { 39, 0.6269886791706085, 123, 22 },
  { 58, 0.0596031304448843, 140, 143 },
  { 72, 0.6244301497936249, 141, 142 },
  { 45, -0.32759495079517365, 22, 130 },
  { 20, 0.4740813076496124, 130, 22 },
  { 55, 1.1279252171516418, 22, 123 },
  { 57, -0.46613338589668274, 145, 146 },
  { 36, 0.6697420626878738, 130, 123 },
  { 38, -0.9820869565010071, 130, 147 },
  { 72, 0.24683356285095215, 148, 22 },
  { 56, 0.5853654742240906, 22, 123 },
  { 67, -0.45254290103912354, 150, 173 },
  { 75, -0.752162516117096, 151, 159 },
  { 33, -0.3977087736129761, 152, 155 },
  { 57, -0.5389425456523895, 153, 154 },
  { 65, -0.8446334004402161, 130, 123 },
  { 17, 2.41314959526062, 22, 130 },
  { 44, -0.1961131989955902, 156, 157 },
  { 69, 0.010954752564430237, 22, 123 },
  { 39, 0.5341504961252213, 22, 158 },
  { 2, 3.790990710258484, 130, 8 },
  { 37, -0.3088146150112152, 160, 168 },
  { 65, -0.3684893846511841, 161, 164 },
  { 50, -0.8124598264694214, 22, 162 },
  { 75, -0.39159615337848663, 163, 130 },
  { 65, -0.45678986608982086, 130, 123 },
  { 70, -0.7266876995563507, 165, 166 },
  { 47, 0.18087544292211533, 123, 130 },
  { 43, -0.011194097809493542, 167, 130 },
  { 61, 0.11281729489564896, 22, 123 },
  { 9, 1.2775810360908508, 169, 172 },
  { 20, 1.7904497385025024, 170, 171 },
  { 53, 0.10936987400054932, 123, 22 },
  { 55, 0.17762451618909836, 22, 123 },
  { 8, 1.7397619485855103, 130, 123 },
  { 45, 0.14231086522340775, 174, 188 },
  { 73, -0.6506304144859314, 175, 176 },
  { 55, -0.9669600278139114, 123, 22 },
  { 5, 1.6124253869056702, 177, 182 },
  { 41, -1.0560677647590637, 178, 179 },
  { 36, 0.5968471765518188, 22, 123 },
  { 41, -0.82725590467453, 180, 181 },
  { 55, 0.05880767945200205, 22, 123 },
  { 17, -0.30631469190120697, 130, 123 },
  { 9, 1.2316139340400696, 183, 185 },
  { 20, 2.032594680786133, 184, 22 },
  { 8, 1.5622661113739014, 130, 123 },
  { 48, 0.019628843292593956, 186, 187 },
  { 69, 1.3976933360099792, 130, 123 },
  { 23, 0.8112716972827911, 130, 123 },
  { 15, 0.9256464242935181, 189, 193 },
  { 37, -0.8078458607196808, 190, 191 },
  { 4, 0.8738618791103363, 130, 22 },
  { 11, -0.17613914608955383, 8, 192 },
  { 44, 0.9165273904800415, 123, 130 },
  { 74, 0.057139783166348934, 194, 199 },
  { 22, 1.0304945707321167, 195, 197 },
  { 53, -0.958720475435257, 22, 196 },
  { 67, 0.2107730135321617, 130, 123 },
  { 57, -0.557586669921875, 130, 198 },
  { 1, -0.8486628830432892, 22, 123 },
  { 40, 0.5453837215900421, 200, 202 },
  { 22, 0.707606315612793, 201, 22 },
  { 58, -0.15707966685295105, 22, 130 },
  { 2, 2.0219863057136536, 123, 130 },
  { 53, -0.80458202958107, 204, 210 },
  { 76, 0.4053489565849304, 205, 207 },
  { 38, -0.15039391070604324, 130, 206 },
  { 31, 0.10738205909729004, 130, 22 },
  { 72, -0.3006092272698879, 130, 208 },
  { 38, -1.0783614814281464, 130, 209 },
  { 22, 0.6282928586006165, 130, 22 },
  { 66, -0.9235866963863373, 211, 212 },
  { 31, -0.4685623347759247, 130, 123 },
  { 1, -1.864500343799591, 22, 213 },
  { 76, 1.3096108436584473, 214, 22 },
  { 45, -0.42396847903728485, 215, 216 },
  { 64, 0.35938626527786255, 130, 123 },
  { 79, -1.0938422083854675, 217, 220 },
  { 48, -0.2604057788848877, 218, 219 },
  { 2, -0.06495357304811478, 130, 123 },
  { 47, -0.2816578149795532, 123, 130 },
  { 22, 1.530895173549652, 221, 222 },
  { 23, 0.7932177484035492, 130, 130 },
  { 27, -0.3630208149552345, 123, 130 },
  { 16, -0.4578045755624771, 224, 309 },
  { 77, -0.6730173826217651, 225, 263 },
  { 50, 1.4391245245933533, 226, 262 },
  { 62, -0.6977407038211823, 227, 256 },
  { 51, 0.16399379819631577, 228, 245 },
  { 57, -0.5440292358398438, 229, 238 },
  { 57, -0.6164951622486115, 230, 233 },
  { 24, -0.668980211019516, 8, 231 },
  { 42, -0.08932255394756794, 8, 232 },
  { 47, -0.3306749165058136, 11, 8 },
  { 41, -0.2581219971179962, 234, 235 },
  { 76, 1.5090163350105286, 8, 11 },
  { 9, -0.8338921368122101, 236, 237 },
  { 42, -0.519723653793335, 11, 11 },
  { 38, 0.5357985347509384, 8, 11 },
  { 49, 0.5336975455284119, 239, 242 },
  { 58, -0.5810379385948181, 11, 240 },
  { 42, -1.9495103359222412, 4, 241 },
  { 56, 0.25225401669740677, 11, 8 },
  { 78, 1.3361842036247253, 243, 11 },
  { 35, -1.1067681908607483, 11, 244 },
  { 28, 1.2532763481140137, 8, 8 },
  { 41, -0.2557486221194267, 246, 248 },
  { 17, -0.2575554773211479, 247, 4 },
  { 27, -0.7564177066087723, 11, 8 },
  { 41, 1.065673828125, 249, 255 },
  { 10, -0.6720148026943207, 250, 253 },
  { 55, -1.0506284832954407, 251, 252 },
  { 21, -0.8396584391593933, 11, 8 },
  { 56, -1.2076061069965363, 4, 11 },
  { 41, -0.17234226316213608, 4, 254 },
  { 44, 0.6864379942417145, 8, 11 },
  { 32, -0.03711754083633423, 4, 11 },
  { 42, 1.93706476688385, 257, 4 },
  { 50, -0.1971617192029953, 258, 260 },
  { 38, -0.5433504581451416, 259, 8 },
  { 34, -0.7934509515762329, 8, 11 },
  { 54, -0.9917676746845245, 261, 11 },
  { 46, 0.6240683495998383, 11, 8 },
  { 55, 2.293172001838684, 4, 11 },
  { 57, -0.0363573282957077, 264, 301 },
  { 50, -0.3338738828897476, 265, 280 },
  { 52, -1.307665969710797, 4, 266 },
  { 9, -0.27400556206703186, 267, 123 },
  { 60, -0.4412001371383667, 268, 273 },
  { 8, -0.8828758001327515, 269, 271 },
  { 43, -0.4534652978181839, 11, 270 },
  { 54, 0.5364629775285721, 8, 11 },
  { 50, -0.6090984642505646, 272, 8 },
  { 59, -0.4035942852497101, 11, 8 },
  { 54, -0.398377925157547, 274, 277 },
  { 49, 0.5577400922775269, 275, 276 },
  { 54, -0.6117524206638336, 8, 8 },
  { 43, -0.3705139756202698, 11, 8 },
  { 51, 0.47796450555324554, 278, 279 },
  { 14, 0.46241964399814606, 8, 8 },
  { 15, -0.9472535252571106, 11, 8 },
  { 52, -1.1016615368425846, 4, 281 },
  { 56, 0.6782619953155518, 282, 291 },
  { 24, -0.09468575194478035, 283, 288 },
  { 27, -0.5789585411548615, 284, 285 },
  { 69, -0.8569245338439941, 8, 11 },
  { 61, -0.0648762546479702, 286, 287 },
  { 63, 1.1256321668624878, 11, 11 },
  { 61, -0.024308220483362675, 8, 11 },
  { 32, -1.0761831402778625, 8, 289 },
  { 60, -0.4512264281511307, 8, 290 },
  { 3, -0.7194736897945404, 11, 8 },
  { 0, 0.03377891331911087, 292, 296 },
  { 54, -0.38346077501773834, 293, 294 },
  { 57, -0.6155208945274353, 8, 11 },
  { 51, 0.08028452470898628, 295, 11 },
  { 22, -0.107517059892416, 8, 11 },
  { 39, -0.45727939903736115, 297, 299 },
  { 29, -0.39860234782099724, 298, 11 },
  { 77, 1.0866886973381042, 8, 11 },
  { 50, 0.030636055395007133, 300, 11 },
  { 78, 0.5173452645540237, 8, 11 },
  { 39, -0.11738575249910355, 302, 306 },
  { 1, 0.7765093445777893, 303, 304 },
  { 40, -0.97841677069664, 4, 11 },
  { 64, 1.7101584672927856, 305, 4 },
  { 2, 0.6778682768344879, 11, 8 },
  { 57, 1.084940254688263, 307, 4 },
  { 40, -1.1877398192882538, 4, 308 },
  { 47, -0.11234035715460777, 11, 8 },
  { 75, -0.5863313972949982, 310, 335 },
  { 50, 0.8786293864250183, 311, 333 },
  { 9, 1.6787275671958923, 312, 330 },
  { 54, 0.4411541074514389, 313, 329 },
  { 69, 0.3368937522172928, 314, 325 },
  { 53, -0.5180170238018036, 315, 320 },
  { 36, -1.82505202293396, 316, 317 },
  { 28, -0.010961204767227173, 123, 22 },
  { 24, 1.5765454173088074, 318, 319 },
  { 74, 0.6761354207992554, 22, 22 },
  { 74, 0.8704233467578888, 130, 22 },
  { 55, -0.1384204477071762, 321, 324 },
  { 52, 0.5459898114204407, 322, 323 },
  { 32, 0.8290936164557934, 130, 123 },
  { 28, 1.0202006101608276, 123, 130 },
  { 60, -0.29407544434070587, 130, 22 },
  { 56, 0.466317355632782, 326, 328 },
  { 19, 0.3701971024274826, 123, 327 },
  { 31, 1.366387963294983, 22, 130 },
  { 50, -0.24141694605350494, 123, 130 },
  { 3, 0.3064882718026638, 123, 130 },
  { 50, -0.8687895238399506, 22, 331 },
  { 68, 0.20184015482664108, 332, 130 },
  { 40, 0.4999926686286926, 130, 22 },
  { 37, -2.2513095140457153, 334, 4 },
  { 4, 0.178633414208889, 11, 4 },
  { 66, 0.24595515429973602, 336, 372 },
  { 38, -0.7209216952323914, 337, 346 },
  { 71, 0.3892563432455063, 338, 341 },
  { 75, 2.169441878795624, 339, 123 },
  { 70, -0.521540492773056, 123, 340 },
  { 40, 0.24217792600393295, 22, 130 },
  { 36, 0.19593395292758942, 342, 344 },
  { 57, -0.5194459855556488, 343, 123 },
  { 37, -0.15259188041090965, 130, 123 },
  { 71, 0.47570548951625824, 345, 130 },
  { 51, -0.6550746262073517, 123, 130 },
  { 0, -1.4743024110794067, 347, 348 },
  { 9, 1.079013854265213, 123, 130 },
  { 3, 1.2225952744483948, 349, 361 },
  { 37, -0.6627480089664459, 350, 356 },
  { 71, 0.28386978805065155, 351, 354 },
  { 43, -0.22263985127210617, 352, 353 },
  { 57, -0.41553714871406555, 130, 22 },
  { 69, 0.4988599568605423, 22, 130 },
  { 48, 0.11818044143728912, 355, 130 },
  { 4, 1.7215364575386047, 123, 22 },
  { 23, 0.4278494417667389, 357, 359 },
  { 13, -0.8092570006847382, 22, 358 },
  { 77, 0.013725101947784424, 130, 123 },
  { 55, 1.7241892218589783, 360, 22 },
  { 13, -2.465464234352112, 130, 123 },
  { 36, 0.26901762187480927, 362, 368 },
  { 3, 1.3817518949508667, 363, 366 },
  { 50, -0.810043066740036, 364, 365 },
  { 70, -0.8377188146114349, 123, 22 },
  { 37, -0.544358104467392, 130, 123 },
  { 77, 1.0937927961349487, 130, 367 },
  { 34, 0.581465482711792, 123, 22 },
  { 22, 0.9832581877708435, 130, 369 },
  { 48, 0.0170767642557621, 370, 371 },
  { 34, 2.398234009742737, 123, 22 },
  { 53, -0.6400502324104309, 123, 130 },
  { 41, -0.8456174433231354, 373, 380 },
  { 19, 1.44206303358078, 374, 378 },
  { 16, 1.3556493520736694, 375, 377 },
  { 5, 1.3200752139091492, 22, 376 },
  { 66, 0.9308821558952332, 22, 130 },
  { 56, 0.41241131722927094, 130, 22 },
  { 75, -0.33701200783252716, 22, 379 },
  { 9, 1.4424643516540527, 22, 130 },
  { 19, 0.9933501482009888, 381, 400 },
  { 47, -0.10695861652493477, 382, 389 },
  { 46, 0.24454186111688614, 383, 388 },
  { 28, 0.6112523078918457, 384, 386 },
  { 37, -0.6095540225505829, 385, 123 },
  { 17, 0.37494294345378876, 22, 130 },
  { 70, 0.3095433861017227, 387, 22 },
  { 22, 0.49934858083724976, 130, 123 },
  { 24, 0.753203421831131, 22, 130 },
  { 75, -0.03075437806546688, 390, 395 },
  { 6, 0.9350368082523346, 391, 394 },
  { 12, -1.0475164651870728, 392, 393 },
  { 23, 1.00676628947258, 22, 123 },
  { 54, 0.4764348119497299, 123, 130 },
  { 60, 0.8301288485527039, 130, 22 },
  { 16, 0.1231667771935463, 396, 398 },
  { 50, -0.2569981664419174, 123, 397 },
  { 34, 0.38817737996578217, 4, 130 },
  { 56, 0.6898561716079712, 399, 123 },
  { 48, -0.3949154168367386, 123, 130 },
  { 70, -0.987367570400238, 401, 404 },
  { 16, 1.4721645712852478, 402, 130 },
  { 67, -0.49464714527130127, 123, 403 },
  { 77, 0.23362146317958832, 123, 130 },
  { 22, 1.1750290989875793, 405, 409 },
  { 54, -1.2405781745910645, 123, 406 },
  { 44, 2.231885850429535, 407, 408 },
  { 16, 0.5095137059688568, 123, 130 },
  { 3, 1.2687965035438538, 4, 123 },
  { 18, 0.4372396916151047, 410, 412 },
  { 30, 2.254949986934662, 411, 123 },
  { 7, 0.7958850860595703, 123, 130 },
  { 2, 0.6185992062091827, 123, 130 },
  { 56, -1.5896425247192383, 4, 414 },
  { 15, 0.11286776512861252, 415, 489 },
  { 41, -0.25651438534259796, 416, 459 },
  { 36, 0.23679307103157043, 417, 441 },
  { 42, -0.43019405007362366, 418, 433 },
  { 50, -0.3359007388353348, 419, 429 },
  { 28, -0.1966393068432808, 420, 424 },
  { 29, -1.9230482578277588, 11, 421 },
  { 55, -0.7284995913505554, 422, 423 },
  { 2, -0.003470245748758316, 11, 8 },
  { 43, -0.40765100717544556, 8, 8 },
  { 56, 0.6197746396064758, 425, 428 },
  { 79, -1.4933529496192932, 426, 427 },
  { 2, 0.12776049599051476, 8, 11 },
  { 43, -0.4118703603744507, 8, 8 },
  { 69, -1.0696873664855957, 8, 11 },
  { 44, -0.3248554766178131, 11, 430 },
  { 40, 0.4445672482252121, 11, 431 },
  { 58, -0.4738263934850693, 432, 8 },
  { 2, -1.4621933102607727, 8, 11 },
  { 7, -0.9620576500892639, 434, 435 },
  { 44, -0.4154055416584015, 11, 8 },
  { 16, -0.5530575066804886, 436, 123 },
  { 44, 2.3043307065963745, 437, 440 },
  { 51, 0.47215254604816437, 438, 439 },
  { 18, -0.5960935354232788, 8, 8 },
  { 35, -0.07212171098217368, 11, 8 },
  { 3, -0.7014384567737579, 11, 8 },
  { 2, 0.3076595216989517, 442, 452 },
  { 44, 0.8581277132034302, 443, 451 },
  { 79, -1.4787526726722717, 444, 446 },
  { 33, 0.6054015755653381, 445, 8 },
  { 57, -0.41240765154361725, 11, 8 },
  { 59, -0.43865931034088135, 447, 448 },
  { 42, -0.3559403419494629, 11, 8 },
  { 54, 0.5413334667682648, 449, 450 },
  { 49, 0.35799388587474823, 8, 8 },
  { 4, -0.9398163557052612, 11, 8 },
  { 54, -0.45660705864429474, 11, 8 },
  { 42, -0.43045182526111603, 453, 458 },
  { 52, 0.568496823310852, 454, 457 },
  { 34, 0.0991426520049572, 455, 8 },
  { 70, 1.0156680345535278, 8, 456 },
  { 16, -0.692393571138382, 8, 11 },
  { 42, -0.757451981306076, 8, 11 },
  { 58, -0.3183084726333618, 8, 11 },
  { 17, -0.7747872471809387, 460, 475 },
  { 55, -1.850682258605957, 461, 462 },
  { 51, -0.3214985132217407, 11, 8 },
  { 52, 0.6137958467006683, 463, 471 },
  { 15, -0.9300417900085449, 464, 468 },
  { 2, -0.18223991245031357, 465, 466 },
  { 19, -0.8440684378147125, 8, 11 },
  { 73, -0.49109888076782227, 467, 11 },
  { 29, 0.07435646373778582, 8, 11 },
  { 50, 0.11603998392820358, 469, 11 },
  { 39, -1.8436983227729797, 8, 470 },
  { 53, 0.1687563955783844, 11, 8 },
  { 52, 0.6166233122348785, 472, 474 },
  { 68, -1.5571600794792175, 11, 473 },
  { 9, -0.8655556440353394, 8, 11 },
  { 26, -1.812747061252594, 8, 11 },
  { 54, 0.304477334022522, 476, 487 },
  { 57, -0.5692028403282166, 477, 486 },
  { 68, -2.1006561517715454, 478, 479 },
  { 31, -1.249082863330841, 11, 8 },
  { 15, -0.9063551127910614, 480, 483 },
  { 28, 0.5226903259754181, 481, 482 },
  { 66, -1.197815716266632, 11, 8 },
  { 33, 0.8333316743373871, 11, 8 },
  { 63, 1.9546617269515991, 484, 485 },
  { 48, 1.449398398399353, 11, 8 },
  { 45, 5.05741286277771, 11, 8 },
  { 65, -2.195935010910034, 8, 11 },
  { 22, 0.7881235778331757, 11, 488 },
  { 47, 0.6466054916381836, 11, 8 },
  { 19, 1.2114328742027283, 490, 543 },
  { 74, 0.5586634576320648, 491, 521 },
  { 22, 0.5890292525291443, 492, 503 },
  { 9, 0.9472351372241974, 493, 496 },
  { 41, -0.9271672368049622, 22, 494 },
  { 16, 0.366839274764061, 495, 130 },
  { 13, -0.19113081693649292, 123, 22 },
  { 20, 0.7823825478553772, 130, 497 },
  { 13, -1.0020535588264465, 498, 501 },
  { 24, 0.872037947177887, 499, 500 },
  { 41, -0.7919272780418396, 22, 130 },
  { 37, -0.6226962208747864, 130, 130 },
  { 43, -0.09379404038190842, 502, 130 },
  { 56, 0.6161328256130219, 123, 130 },
  { 71, -0.444534495472908, 504, 510 },
  { 8, 0.3810802847146988, 505, 507 },
  { 66, 0.2918156161904335, 123, 506 },
  { 26, 0.07079003006219864, 22, 130 },
  { 57, -0.572997123003006, 130, 508 },
  { 22, 0.6711585521697998, 123, 509 },
  { 53, -0.45891761779785156, 22, 123 },
  { 16, 0.913536787033081, 511, 517 },
  { 53, -0.2822762429714203, 512, 515 },
  { 55, 0.7031689584255219, 513, 514 },
  { 69, -0.2901300936937332, 130, 123 },
  { 69, 0.36101168394088745, 22, 123 },
  { 6, 0.7969197928905487, 516, 130 },
  { 68, 0.6290625333786011, 123, 130 },
  { 57, -0.26271824538707733, 518, 520 },
  { 74, -1.7939719557762146, 123, 519 },
  { 48, 1.060049831867218, 130, 130 },
  { 6, 1.1124968528747559, 123, 22 },
  { 71, 0.1422654166817665, 522, 535 },
  { 16, -0.3653266131877899, 523, 526 },
  { 67, -0.36030228435993195, 524, 123 },
  { 17, 0.001317659392952919, 525, 11 },
  { 34, -0.15044370293617249, 11, 22 },
  { 38, -1.2098351120948792, 527, 529 },
  { 75, -1.0016593933105469, 22, 528 },
  { 67, -0.9940272271633148, 22, 130 },
  { 71, -0.18058928847312927, 530, 532 },
  { 38, 1.690365493297577, 531, 130 },
  { 38, 0.8080629706382751, 22, 22 },
  { 62, -0.6599662899971008, 533, 534 },
  { 64, 0.6342264711856842, 130, 123 },
  { 57, -0.527974471449852, 130, 22 },
  { 49, 0.44962385296821594, 536, 540 },
  { 5, 1.510706603527069, 537, 538 },
  { 25, 0.3352314531803131, 22, 123 },
  { 39, -0.3221455216407776, 123, 539 },
  { 6, 1.1258202195167542, 22, 130 },
  { 9, 1.292603224515915, 541, 130 },
  { 37, -0.34032581746578217, 542, 123 },
  { 7, 0.6530567109584808, 123, 22 },
  { 50, -0.7698038220405579, 544, 556 },
  { 24, 1.0997639894485474, 545, 553 },
  { 61, -0.4327777475118637, 546, 547 },
  { 65, -0.3207169473171234, 130, 123 },
  { 66, 0.10264104977250099, 548, 550 },
  { 11, 1.2972674369812012, 549, 22 },
  { 32, -0.07664667069911957, 130, 123 },
  { 6, 2.069936513900757, 551, 130 },
  { 23, 1.3403420448303223, 22, 552 },
  { 8, 0.8671225607395172, 130, 22 },
  { 9, 1.0839864611625671, 554, 555 },
  { 24, 1.4980584979057312, 123, 22 },
  { 74, 0.880847841501236, 130, 22 },
  { 68, 0.030499042943120003, 557, 561 },
  { 60, -0.0999993234872818, 123, 558 },
  { 26, 1.3423026204109192, 559, 560 },
  { 16, 1.1951634883880615, 123, 130 },
  { 10, 1.0421324670314789, 130, 123 },
  { 75, -1.1207928657531738, 562, 563 },
  { 43, 11.247604966163635, 22, 4 },
  { 3, 1.3915081024169922, 564, 569 },
  { 37, -0.6383650004863739, 565, 567 },
  { 45, -0.28991685807704926, 123, 566 },
  { 23, 0.3423585593700409, 22, 130 },
  { 75, -0.6690582633018494, 22, 568 },
  { 22, 0.9243501722812653, 130, 123 },
  { 28, -0.7048641443252563, 570, 572 },
  { 48, -0.31724634766578674, 123, 571 },
  { 23, 0.6762373745441437, 22, 130 },
  { 65, -1.06235671043396, 573, 574 },
  { 17, 1.6527288556098938, 130, 22 },
  { 3, 1.4570003151893616, 130, 130 },
  { 14, 0.31032705307006836, 576, 694 },
  { 72, 0.4915909320116043, 577, 658 },
  { 6, 1.2704397439956665, 578, 633 },
  { 37, -0.2690266966819763, 579, 610 },
  { 56, 0.5287435948848724, 580, 592 },
  { 54, 0.41672948002815247, 581, 130 },
  { 24, 1.568817138671875, 582, 589 },
  { 20, 1.115057647228241, 583, 586 },
  { 9, 1.4424812197685242, 584, 585 },
  { 69, 0.5730536878108978, 22, 123 },
  { 73, 0.9690040946006775, 130, 22 },
  { 65, 0.4741358906030655, 587, 588 },
  { 50, -0.5389169603586197, 22, 123 },
  { 48, 0.47862399742007256, 123, 130 },
  { 3, 0.9838965535163879, 590, 130 },
  { 5, 1.1815747618675232, 591, 123 },
  { 38, -1.1605325043201447, 130, 22 },
  { 43, -0.2167959362268448, 593, 597 },
  { 39, -1.0835754871368408, 130, 594 },
  { 65, -0.2727971002459526, 595, 596 },
  { 71, -0.11498451977968216, 22, 130 },
  { 67, 3.041156768798828, 123, 8 },
  { 16, 0.5277709066867828, 598, 603 },
  { 51, -0.40636521577835083, 599, 601 },
  { 73, -0.26226700469851494, 22, 600 },
  { 3, 0.6187095642089844, 123, 130 },
  { 57, -0.507441908121109, 602, 123 },
  { 65, -0.20615316182374954, 130, 123 },
  { 4, 1.2504109740257263, 604, 607 },
  { 22, 1.399301528930664, 605, 606 },
  { 28, -1.591151475906372, 123, 130 },
  { 57, -0.4843827039003372, 123, 22 },
  { 52, 0.54569873213768, 608, 609 },
  { 75, 0.20152579247951508, 22, 130 },
  { 65, 0.16818885505199432, 130, 123 },
  { 74, 0.6949523985385895, 611, 625 },
  { 62, 0.9940550625324249, 612, 617 },
  { 50, 0.3110545203089714, 613, 22 },
  { 20, -0.3423682823777199, 8, 614 },
  { 47, 0.5762085318565369, 615, 616 },
  { 26, 3.149741291999817, 123, 130 },
  { 24, 1.006074994802475, 123, 130 },
  { 37, -0.005846253130584955, 618, 623 },
  { 74, -0.15318410098552704, 619, 621 },
  { 40, 0.4881080240011215, 123, 620 },
  { 24, 0.8918635547161102, 123, 130 },
  { 45, 0.11049688421189785, 22, 622 },
  { 10, 1.527336299419403, 123, 22 },
  { 27, -0.9998273849487305, 624, 123 },
  { 10, 0.8793336153030396, 123, 22 },
  { 55, 0.7010653913021088, 626, 630 },
  { 74, 1.1733302474021912, 627, 628 },
  { 11, -0.23280112445354462, 8, 123 },
  { 61, 2.189923107624054, 629, 4 },
  { 61, 1.3156458139419556, 22, 8 },
  { 59, -0.24065304547548294, 631, 632 },
  { 13, -0.4265488851815462, 123, 22 },
  { 66, 0.28895799815654755, 123, 22 },
  { 55, -0.42673414945602417, 634, 643 },
  { 22, 1.2032225728034973, 635, 639 },
  { 60, 3.1239205598831177, 636, 638 },
  { 25, 0.19218622148036957, 130, 637 },
  { 59, 0.19138184934854507, 123, 130 },
  { 8, 0.5852798819541931, 22, 123 },
  { 60, -0.3112749308347702, 123, 640 },
  { 3, 1.4657745361328125, 641, 130 },
  { 27, -1.3521402478218079, 130, 642 },
  { 43, 0.4678923487663269, 123, 22 },
  { 68, 0.023912277072668076, 644, 647 },
  { 38, -1.1904032826423645, 130, 645 },
  { 10, 2.6264936923980713, 646, 130 },
  { 62, 0.7086825966835022, 123, 22 },
  { 22, 1.2626389265060425, 648, 656 },
  { 25, -0.9407733082771301, 649, 653 },
  { 42, -0.4647142291069031, 650, 651 },
  { 69, 0.9242101609706879, 130, 123 },
  { 16, 1.5263468623161316, 22, 652 },
  { 37, -1.669607162475586, 4, 130 },
  { 74, -2.0831021666526794, 123, 654 },
  { 34, -1.2806342244148254, 22, 655 },
  { 16, 1.4206398129463196, 130, 130 },
  { 53, -0.8196340203285217, 657, 123 },
  { 69, 1.1981566548347473, 22, 130 },
  { 53, -0.5334543287754059, 659, 680 },
  { 19, 1.4380430579185486, 660, 674 },
  { 20, 0.05114103476807941, 661, 663 },
  { 24, -0.40892770886421204, 662, 8 },
  { 79, 1.1061955094337463, 4, 11 },
  { 75, 0.6607114374637604, 664, 672 },
  { 69, -1.6618936657905579, 665, 666 },
  { 69, -1.9928072690963745, 4, 8 },
  { 69, -0.20918526500463486, 667, 670 },
  { 16, 1.4143041372299194, 668, 669 },
  { 37, -1.6109696626663208, 130, 22 },
  { 1, 0.04874435439705849, 22, 130 },
  { 14, 0.00678147841244936, 671, 123 },
  { 6, 0.5890026986598969, 123, 22 },
  { 65, -0.15887103974819183, 673, 123 },
  { 52, 0.5150551199913025, 22, 130 },
  { 69, -0.07551513612270355, 675, 130 },
  { 50, -0.7990110814571381, 676, 677 },
  { 38, -0.8169643878936768, 130, 22 },
  { 36, 1.595145046710968, 678, 22 },
  { 42, -0.9921980202198029, 22, 679 },
  { 73, -1.2202700972557068, 22, 130 },
  { 40, -0.6662295442074537, 4, 681 },
  { 12, -0.15219626016914845, 682, 691 },
  { 37, -0.4258815199136734, 683, 687 },
  { 49, 0.4601906090974808, 22, 684 },
  { 70, 0.07412213832139969, 685, 686 },
  { 23, 0.787562370300293, 123, 130 },
  { 77, 1.0702990293502808, 130, 22 },
  { 58, -0.38327041268348694, 688, 22 },
  { 45, 1.4318426847457886, 689, 690 },
  { 10, 1.526080071926117, 123, 130 },
  { 55, -1.2657787799835205, 11, 22 },
  { 41, -0.06680615618824959, 692, 11 },
  { 45, 1.9707355499267578, 693, 11 },
  { 8, -0.43008334934711456, 11, 8 },
  { 54, 0.9095601141452789, 695, 783 },
  { 60, -0.4331836849451065, 696, 720 },
  { 57, 1.717968761920929, 697, 4 },
  { 40, 0.45381399989128113, 698, 704 },
  { 56, -1.2312939167022705, 4, 699 },
  { 45, -0.42155061662197113, 700, 703 },
  { 38, 0.7530743181705475, 11, 701 },
  { 9, -0.8722100555896759, 8, 702 },
  { 25, 0.48011866211891174, 8, 11 },
  { 78, 0.23702174425125122, 11, 8 },
  { 57, -0.5198385119438171, 705, 713 },
  { 12, 0.9056995213031769, 706, 712 },
  { 40, 0.603673666715622, 707, 710 },
  { 51, 0.1168181486427784, 708, 709 },
  { 54, -0.02941986918449402, 11, 8 },
  { 23, -0.22365782596170902, 11, 8 },
  { 48, -0.46205075085163116, 8, 711 },
  { 38, 0.04280756413936615, 8, 11 },
  { 30, -0.5157314538955688, 8, 11 },
  { 17, -0.7765562236309052, 714, 715 },
  { 51, -0.030586719512939453, 8, 11 },
  { 71, 1.0954529643058777, 716, 718 },
  { 50, -0.050719499588012695, 717, 11 },
  { 8, -0.9067369997501373, 8, 8 },
  { 54, 0.11837035277858377, 8, 719 },
  { 54, 0.5040442943572998, 11, 8 },
  { 43, -0.3162989169359207, 721, 752 },
  { 63, -0.40609070658683777, 722, 740 },
  { 28, -0.4943260997533798, 723, 729 },
  { 56, -0.8746390119194984, 4, 724 },
  { 50, -0.3323182314634323, 725, 727 },
  { 70, 1.7779513597488403, 726, 11 },
  { 20, -0.9370522499084473, 8, 8 },
  { 27, 1.8333173990249634, 728, 8 },
  { 58, -0.46456271409988403, 8, 11 },
  { 77, -1.5652175545692444, 730, 733 },
  { 69, -0.8609703779220581, 8, 731 },
  { 7, -0.8291549980640411, 732, 8 },
  { 51, -0.7182571291923523, 8, 11 },
  { 29, 1.0795108675956726, 734, 737 },
  { 13, 0.8967099487781525, 735, 736 },
  { 57, -0.6038262248039246, 11, 8 },
  { 27, 0.5560970455408096, 11, 8 },
  { 23, -0.9017151594161987, 738, 739 },
  { 66, 0.4801294356584549, 8, 4 },
  { 40, -1.128855139017105, 4, 11 },
  { 57, -0.5807813107967377, 741, 748 },
  { 67, -0.3680840730667114, 11, 742 },
  { 22, -1.0587920546531677, 743, 745 },
  { 22, -1.1937087774276733, 744, 11 },
  { 35, 0.013438164256513119, 8, 11 },
  { 41, -0.061276091262698174, 746, 747 },
  { 51, -0.34838520735502243, 11, 8 },
  { 9, -0.8568557798862457, 8, 11 },
  { 42, -0.5824382454156876, 749, 751 },
  { 62, -0.842106431722641, 8, 750 },
  { 56, -0.8989056572318077, 4, 11 },
  { 52, -0.7888255007565022, 4, 11 },
  { 63, -0.13847768679261208, 753, 766 },
  { 16, -0.4667479693889618, 754, 764 },
  { 41, -0.43114718794822693, 755, 759 },
  { 51, -2.2513571977615356, 4, 756 },
  { 61, -0.4220779091119766, 757, 758 },
  { 32, -1.3109121918678284, 11, 8 },
  { 5, -0.7979186177253723, 8, 8 },
  { 67, 0.7206313908100128, 760, 763 },
  { 49, 0.5856770277023315, 761, 762 },
  { 71, -2.1016334295272827, 8, 11 },
  { 34, 1.5538357496261597, 8, 11 },
  { 53, -0.1802438348531723, 8, 11 },
  { 78, -0.5615711212158203, 123, 765 },
  { 49, 0.530952125787735, 22, 11 },
  { 39, 0.664458692073822, 767, 778 },
  { 6, -0.7724857926368713, 768, 774 },
  { 72, 0.8635241687297821, 769, 772 },
  { 10, -0.7676369249820709, 770, 771 },
  { 49, -0.5902388840913773, 4, 11 },
  { 59, -0.25786861032247543, 8, 11 },
  { 47, -0.1338793709874153, 773, 11 },
  { 58, -0.42046788334846497, 8, 11 },
  { 73, -1.9427990913391113, 775, 777 },
  { 57, 1.6202883273363113, 776, 4 },
  { 27, 0.6107486165128648, 8, 11 },
  { 15, -0.3719091862440109, 4, 11 },
  { 51, -0.7495855391025543, 4, 779 },
  { 57, 2.132519096136093, 780, 4 },
  { 21, 1.2762954235076904, 781, 782 },
  { 41, -0.09313885495066643, 11, 11 },
  { 67, -1.8431482315063477, 11, 8 },
  { 55, 1.934008002281189, 784, 790 },
  { 39, 0.25622449815273285, 785, 787 },
  { 50, 0.6660799086093903, 786, 4 },
  { 52, -0.8091921210289001, 4, 11 },
  { 12, 0.8512814939022064, 788, 789 },
  { 52, -0.7031012177467346, 4, 11 },
  { 40, -0.5968942791223526, 4, 11 },
  { 53, 1.7286189794540405, 11, 4 },
  { 56, -1.5982551574707031, 4, 792 },
  { 4, 0.00416155532002449, 793, 855 },
  { 37, 0.028231344185769558, 794, 815 },
  { 41, -0.257144495844841, 795, 804 },
  { 42, 0.4932040721178055, 796, 802 },
  { 46, 0.3638520836830139, 797, 801 },
  { 53, -0.26437824964523315, 798, 800 },
  { 44, -0.48570261895656586, 799, 8 },
  { 48, -0.44910819828510284, 8, 11 },
  { 57, -0.5911693572998047, 8, 11 },
  { 16, -0.685295969247818, 11, 8 },
  { 44, -0.46296918392181396, 11, 803 },
  { 39, -0.6618871986865997, 11, 8 },
  { 49, 0.5237812399864197, 11, 805 },
  { 41, 0.1689126044511795, 806, 814 },
  { 55, -0.8018071055412292, 807, 813 },
  { 7, -0.9406614899635315, 808, 811 },
  { 57, -0.6168971061706543, 809, 810 },
  { 12, 0.9022032618522644, 8, 11 },
  { 26, -0.11006714403629303, 11, 8 },
  { 29, 1.2227372527122498, 812, 8 },
  { 45, 0.41996781527996063, 11, 11 },
  { 15, -0.64277783036232, 8, 11 },
  { 49, 0.5251309871673584, 8, 11 },
  { 51, 0.16072392463684082, 816, 845 },
  { 50, -0.27318553626537323, 817, 829 },
  { 3, -0.8787925243377686, 11, 818 },
  { 8, -0.9033351838588715, 819, 824 },
  { 75, -1.6115056276321411, 820, 821 },
  { 39, -0.7428624182939529, 11, 8 },
  { 78, 1.5578873753547668, 822, 823 },
  { 2, 0.3087710589170456, 8, 8 },
  { 60, -0.33764807879924774, 8, 11 },
  { 8, -0.9019041657447815, 825, 826 },
  { 60, -0.2604675590991974, 11, 8 },
  { 71, -0.06758326292037964, 827, 828 },
  { 14, 0.6574583649635315, 8, 8 },
  { 49, 0.5377639830112457, 8, 8 },
  { 58, -0.5380129516124725, 830, 838 },
  { 50, 0.13841566443443298, 831, 11 },
  { 58, -0.545683354139328, 832, 835 },
  { 3, -0.825827032327652, 833, 834 },
  { 5, -0.9191968441009521, 8, 11 },
  { 31, -1.1545047760009766, 11, 8 },
  { 37, 0.7999244630336761, 836, 837 },
  { 32, 1.177501916885376, 8, 11 },
  { 18, -0.6907811760902405, 8, 11 },
  { 12, 0.6843891143798828, 839, 840 },
  { 23, -1.2336854934692383, 8, 11 },
  { 65, -0.061273581348359585, 841, 842 },
  { 13, 0.8895165026187897, 11, 8 },
  { 8, -0.5556106865406036, 843, 844 },
  { 23, -1.4424071311950684, 11, 11 },
  { 22, -0.03431902825832367, 8, 11 },
  { 53, -0.43917790055274963, 8, 846 },
  { 40, 0.559074193239212, 847, 851 },
  { 36, -1.2087443470954895, 848, 849 },
  { 41, -0.07498960942029953, 8, 11 },
  { 54, 0.7478941082954407, 11, 850 },
  { 42, 0.7476246953010559, 8, 11 },
  { 18, -0.6690084934234619, 852, 8 },
  { 22, -1.1787420511245728, 8, 853 },
  { 9, -0.8570342361927032, 854, 11 },
  { 78, -1.1670739650726318, 11, 8 },
  { 6, 1.346589207649231, 856, 918 },
  { 72, 0.27628831565380096, 857, 897 },
  { 74, 0.5558142066001892, 858, 883 },
  { 47, -0.10879209637641907, 859, 870 },
  { 3, 0.985278844833374, 860, 864 },
  { 69, -0.12959132716059685, 22, 861 },
  { 53, -1.0412976741790771, 862, 863 },
  { 71, 0.839406430721283, 22, 123 },
  { 37, -0.7784855365753174, 123, 123 },
  { 20, 1.003110021352768, 865, 867 },
  { 22, 0.9403648972511292, 130, 866 },
  { 26, -0.43929101526737213, 130, 123 },
  { 15, 1.1085360050201416, 868, 869 },
  { 11, 0.5192808657884598, 130, 22 },
  { 56, 0.28107670694589615, 22, 123 },
  { 28, -0.11640376597642899, 871, 877 },
  { 43, 0.40847907960414886, 872, 875 },
  { 58, -0.5803771913051605, 873, 874 },
  { 37, -0.6055476069450378, 130, 123 },
  { 18, 2.651723861694336, 123, 130 },
  { 8, 0.7968331575393677, 876, 130 },
  { 17, 1.1759994626045227, 123, 22 },
  { 49, 0.38717807829380035, 878, 880 },
  { 19, 0.41442613303661346, 123, 879 },
  { 78, 1.4289833307266235, 22, 130 },
  { 65, -0.19840481132268906, 881, 882 },
  { 29, -0.34911997616291046, 130, 123 },
  { 3, 0.8620855212211609, 123, 130 },
  { 42, -0.6833233535289764, 884, 891 },
  { 23, 1.2562530636787415, 885, 890 },
  { 28, -0.41777679324150085, 886, 887 },
  { 75, -0.8021666705608368, 22, 123 },
  { 3, 0.3247213214635849, 888, 889 },
  { 28, 0.9628874957561493, 123, 22 },
  { 55, -0.2795633152127266, 123, 22 },
  { 30, 0.9556597620248795, 130, 22 },
  { 56, 0.4656602740287781, 892, 894 },
  { 48, 0.3336467742919922, 893, 22 },
  { 66, 0.66783107817173, 22, 130 },
  { 72, 0.1855946034193039, 895, 22 },
  { 39, -0.5412564054131508, 130, 896 },
  { 10, 0.2913494110107422, 130, 123 },
  { 15, 0.36724087595939636, 898, 901 },
  { 71, -0.6771049201488495, 899, 123 },
  { 63, 1.1218621134757996, 900, 11 },
  { 60, 1.4689919352531433, 22, 8 },
  { 74, 0.3104775696992874, 902, 910 },
  { 53, -0.6330365538597107, 903, 907 },
  { 0, 2.131197929382324, 904, 130 },
  { 72, 0.6988272070884705, 905, 906 },
  { 52, 0.5432121157646179, 22, 123 },
  { 39, -0.032543811947107315, 22, 22 },
  { 43, -0.1952507495880127, 123, 908 },
  { 37, -0.5764002203941345, 130, 909 },
  { 29, 0.5380736291408539, 123, 130 },
  { 41, -0.4161648154258728, 911, 916 },
  { 37, -1.5512250065803528, 912, 913 },
  { 49, 0.4266381859779358, 130, 22 },
  { 62, -0.842106431722641, 914, 915 },
  { 44, 0.09698309749364853, 123, 22 },
  { 9, 0.04791918210685253, 123, 22 },
  { 8, 1.0553846955299377, 130, 917 },
  { 62, -0.35554296523332596, 123, 22 },
  { 22, 1.2344123125076294, 919, 930 },
  { 69, -0.3655548393726349, 920, 923 },
  { 0, -1.8399474620819092, 22, 921 },
  { 3, 1.5092309713363647, 922, 130 },
  { 68, 1.0204401016235352, 22, 130 },
  { 57, -0.2817320078611374, 924, 928 },
  { 20, 1.3112791776657104, 130, 925 },
  { 20, 1.317642331123352, 123, 926 },
  { 37, -0.08255006279796362, 130, 927 },
  { 39, 0.03787945210933685, 123, 130 },
  { 54, -0.5334286689758301, 929, 22 },
  { 2, -0.667380690574646, 22, 130 },
  { 55, -0.03324445988982916, 931, 938 },
  { 69, 0.5111275166273117, 932, 934 },
  { 53, -0.7186686098575592, 22, 933 },
  { 33, -0.9716858267784119, 123, 130 },
  { 43, -0.05770581541582942, 935, 936 },
  { 63, 0.8373731523752213, 123, 130 },
  { 45, 0.0631649699062109, 937, 130 },
  { 14, -0.5318042561411858, 123, 130 },
  { 49, 0.3244607448577881, 130, 939 },
  { 71, 1.2065485119819641, 22, 123 },
  { 16, -0.45058149099349976, 941, 1034 },
  { 16, -0.6931034922599792, 942, 974 },
  { 42, 0.20659007877111435, 943, 967 },
  { 55, -1.06638103723526, 944, 957 },
  { 41, -0.20257674902677536, 8, 945 },
  { 53, 0.0765078105032444, 946, 955 },
  { 51, -0.39640483260154724, 947, 951 },
  { 22, -1.2927298545837402, 948, 950 },
  { 10, -0.9301981031894684, 949, 11 },
  { 49, 0.5712088942527771, 11, 8 },
  { 13, 0.9022759795188904, 11, 8 },
  { 28, 0.6733630001544952, 952, 954 },
  { 14, 0.7897948920726776, 11, 953 },
  { 66, -1.4256165623664856, 8, 8 },
  { 23, -1.4870418310165405, 8, 11 },
  { 79, -1.3991438746452332, 956, 11 },
  { 36, 0.23463914170861244, 11, 8 },
  { 40, -0.5746457576751709, 4, 958 },
  { 40, 0.4400975704193115, 959, 961 },
  { 8, -0.9284137785434723, 11, 960 },
  { 53, -0.3991944193840027, 8, 11 },
  { 53, -0.23717543482780457, 962, 966 },
  { 3, -0.8786585628986359, 11, 963 },
  { 33, 0.34293554723262787, 964, 965 },
  { 72, -0.44574935734272003, 8, 8 },
  { 42, -0.5525134801864624, 8, 8 },
  { 65, 0.024812493415083736, 8, 11 },
  { 58, 0.4726931005716324, 968, 972 },
  { 40, -0.8040365278720856, 4, 969 },
  { 50, -0.3150542974472046, 970, 11 },
  { 38, -0.44735756516456604, 11, 971 },
  { 4, -0.9532290399074554, 11, 8 },
  { 50, 1.427183210849762, 973, 4 },
  { 51, 1.776470422744751, 11, 4 },
  { 17, -0.7745977342128754, 975, 998 },
  { 50, 0.9966146051883698, 976, 994 },
  { 54, -0.6611784100532532, 977, 983 },
  { 13, 0.8796630203723907, 978, 979 },
  { 72, 1.0003589391708374, 8, 11 },
  { 2, 0.11910375952720642, 980, 8 },
  { 73, 0.0709698535501957, 8, 981 },
  { 5, -0.9140690267086029, 4, 982 },
  { 6, -0.8552089035511017, 11, 8 },
  { 53, -0.24654723703861237, 984, 988 },
  { 54, 1.4922342896461487, 985, 4 },
  { 44, -0.4677800387144089, 11, 986 },
  { 54, -0.5836926400661469, 11, 987 },
  { 31, -1.5738995671272278, 11, 8 },
  { 68, 0.5785634219646454, 989, 993 },
  { 52, -0.9766259081661701, 4, 990 },
  { 11, -0.7805003225803375, 991, 992 },
  { 33, -0.6148368418216705, 8, 11 },
  { 46, -0.24028178304433823, 8, 11 },
  { 2, 0.15495232492685318, 4, 11 },
  { 58, 1.6119813323020935, 995, 4 },
  { 58, 1.5829308032989502, 996, 11 },
  { 77, -1.6936441659927368, 11, 997 },
  { 40, -1.162585586309433, 4, 11 },
  { 52, -1.156715989112854, 4, 999 },
  { 77, -0.6907617449760437, 1000, 1016 },
  { 54, 0.286508172750473, 1001, 1011 },
  { 50, -0.07915759086608887, 1002, 1005 },
  { 75, -1.9881262183189392, 11, 1003 },
  { 12, 0.9028665721416473, 1004, 11 },
  { 69, -2.063889980316162, 11, 8 },
  { 12, 0.8844029605388641, 1006, 1009 },
  { 51, -0.5785148739814758, 1007, 1008 },
  { 42, -0.8092018365859985, 11, 8 },
  { 45, -0.4477244168519974, 11, 11 },
  { 53, 0.1149362362921238, 11, 1010 },
  { 26, -0.0036953873932361603, 8, 11 },
  { 65, 3.0247654914855957, 1012, 8 },
  { 57, -0.616656482219696, 8, 1013 },
  { 8, -0.90933758020401, 1014, 1015 },
  { 56, 0.2814033702015877, 11, 8 },
  { 65, 0.9313077628612518, 11, 11 },
  { 42, 0.39892785251140594, 1017, 1029 },
  { 50, -0.33483341336250305, 1018, 1022 },
  { 42, -0.44853411614894867, 1019, 8 },
  { 58, -0.5586945712566376, 1020, 1021 },
  { 42, -0.45314233005046844, 11, 8 },
  { 61, -0.5259416997432709, 11, 8 },
  { 50, 0.02358310855925083, 1023, 1026 },
  { 41, -0.11486330255866051, 1024, 1025 },
  { 42, -0.24073535203933716, 11, 8 },
  { 68, 0.10119337594369426, 8, 11 },
  { 19, -0.8372130692005157, 1027, 1028 },
  { 59, -0.3944224864244461, 11, 8 },
  { 77, -0.44772422313690186, 8, 11 },
  { 24, 0.37687768042087555, 1030, 1033 },
  { 33, 0.6764156520366669, 1031, 1032 },
  { 18, -0.6923246085643768, 8, 11 },
  { 79, -0.6826154738664627, 11, 8 },
  { 15, -0.10283469408750534, 8, 123 },
  { 65, -0.2362862378358841, 1035, 1097 },
  { 73, -0.5092492997646332, 1036, 1053 },
  { 57, -0.5531222522258759, 1037, 1040 },
  { 4, 0.678092360496521, 130, 1038 },
  { 65, -0.66264209151268, 1039, 123 },
  { 64, 2.8334490060806274, 130, 123 },
  { 42, 0.7193966805934906, 1041, 4 },
  { 38, -1.348950445652008, 1042, 1043 },
  { 24, 1.227276623249054, 22, 130 },
  { 12, -1.6669809222221375, 1044, 1048 },
  { 6, 1.6795143485069275, 1045, 1046 },
  { 18, -0.053316143341362476, 4, 22 },
  { 14, -0.5998713374137878, 1047, 130 },
  { 43, 0.6901374310255051, 130, 22 },
  { 71, -0.5334311425685883, 1049, 1051 },
  { 37, -1.6351297497749329, 130, 1050 },
  { 3, 1.5373439192771912, 22, 22 },
  { 9, 1.6477632522583008, 1052, 130 },
  { 16, -0.033204611390829086, 123, 22 },
  { 6, 1.3709083795547485, 1054, 1079 },
  { 70, -0.36094145476818085, 1055, 1062 },
  { 61, 0.0639779157936573, 1056, 1058 },
  { 29, -0.9878719747066498, 130, 1057 },
  { 43, 0.28299346566200256, 123, 130 },
  { 19, 0.4405812472105026, 130, 1059 },
  { 5, 0.9243856370449066, 1060, 1061 },
  { 15, 0.7849083542823792, 123, 130 },
  { 70, -1.1335318684577942, 22, 123 },
  { 72, 0.5115639567375183, 1063, 1071 },
  { 50, -0.7898330986499786, 22, 1064 },
  { 53, -0.267806738615036, 1065, 1068 },
  { 52, 0.5808956623077393, 1066, 1067 },
  { 19, 0.36198101937770844, 123, 130 },
  { 37, -0.4145209416747093, 130, 123 },
  { 49, 0.38992641866207123, 1069, 1070 },
  { 41, 1.19570292532444, 22, 4 },
  { 68, 0.6689642071723938, 130, 130 },
  { 62, 0.13480028323829174, 1072, 1075 },
  { 57, -0.4493373781442642, 130, 1073 },
  { 37, -0.6167032420635223, 22, 1074 },
  { 42, 1.1679440005682409, 123, 4 },
  { 18, -0.11034871637821198, 1076, 1077 },
  { 58, -0.35047709941864014, 22, 130 },
  { 25, 0.3384350687265396, 1078, 123 },
  { 23, 1.2508440613746643, 22, 130 },
  { 76, 0.566675066947937, 1080, 1093 },
  { 41, -0.7636740207672119, 1081, 1088 },
  { 42, -0.512049064040184, 1082, 1085 },
  { 69, 0.9007290005683899, 1083, 22 },
  { 30, 1.1663262248039246, 130, 1084 },
  { 22, 1.1652221977710724, 130, 22 },
  { 72, -0.19358455389738083, 1086, 1087 },
  { 57, -0.18153078481554985, 123, 22 },
  { 26, 0.5783993005752563, 130, 22 },
  { 47, 3.4854401350021362, 1089, 22 },
  { 49, 0.5588255226612091, 130, 1090 },
  { 54, -0.4403967708349228, 1091, 1092 },
  { 32, 1.0621961951255798, 130, 123 },
  { 33, 0.7922008633613586, 130, 130 },
  { 16, 1.6647216081619263, 1094, 1096 },
  { 70, 0.16310145147144794, 1095, 22 },
  { 76, 0.6135981976985931, 22, 130 },
  { 43, -0.1353648640215397, 22, 130 },
  { 62, 0.4346831440925598, 1098, 1138 },
  { 60, 0.02952039148658514, 1099, 1120 },
  { 69, -0.05622338317334652, 1100, 1106 },
  { 15, 0.7556079626083374, 1101, 1102 },
  { 58, 0.17746085673570633, 123, 22 },
  { 28, -1.210747241973877, 123, 1103 },
  { 3, 1.5266762971878052, 1104, 130 },
  { 53, -0.4124755635857582, 1105, 130 },
  { 19, 0.3611571788787842, 123, 22 },
  { 37, -1.033097267150879, 1107, 1111 },
  { 40, 0.4017304480075836, 1108, 1109 },
  { 31, -0.5345316976308823, 22, 130 },
  { 30, 0.5119227319955826, 1110, 130 },
  { 75, 0.6664332449436188, 130, 123 },
  { 19, 1.4255374073982239, 1112, 1116 },
  { 74, 1.0475199222564697, 1113, 22 },
  { 37, -0.5828478336334229, 1114, 1115 },
  { 70, -0.8160130083560944, 123, 123 },
  { 28, -1.4227022528648376, 123, 123 },
  { 16, 1.8086333274841309, 1117, 1119 },
  { 48, 0.6462313234806061, 123, 1118 },
  { 42, -0.35826341807842255, 22, 130 },
  { 50, -0.5093008577823639, 123, 130 },
  { 19, 0.7978989779949188, 1121, 1129 },
  { 36, 0.9959746301174164, 1122, 1128 },
  { 57, -0.574213832616806, 1123, 1124 },
  { 29, -0.32854801416397095, 123, 130 },
  { 69, -0.5766545385122299, 1125, 1126 },
  { 68, 0.21801599115133286, 22, 123 },
  { 60, 0.32637710869312286, 123, 1127 },
  { 16, 0.46170908212661743, 123, 130 },
  { 52, 0.42379622161388397, 22, 130 },
  { 15, 1.4016744494438171, 1130, 130 },
  { 71, -0.03006204590201378, 1131, 1134 },
  { 52, 0.5436443984508514, 1132, 1133 },
  { 32, 1.6215810179710388, 22, 123 },
  { 51, -0.09504447365179658, 130, 123 },
  { 22, 1.0149753391742706, 1135, 123 },
  { 48, -0.11227107048034668, 1136, 1137 },
  { 8, 0.5252065807580948, 22, 123 },
  { 67, -0.39534053206443787, 123, 130 },
  { 69, 0.031110032461583614, 1139, 1150 },
  { 57, -0.5169779658317566, 130, 1140 },
  { 46, -0.23650122433900833, 130, 1141 },
  { 39, 0.4551340192556381, 1142, 1146 },
  { 61, -0.2834373712539673, 130, 1143 },
  { 0, -1.604741632938385, 1144, 1145 },
  { 68, -0.22595158219337463, 4, 130 },
  { 14, -1.4964761137962341, 22, 22 },
  { 40, 0.3676203340291977, 22, 1147 },
  { 7, 1.3605968356132507, 1148, 1149 },
  { 35, -1.8717355728149414, 130, 123 },
  { 78, -0.6218847036361694, 130, 22 },
  { 9, 1.2041139006614685, 1151, 1163 },
  { 70, -0.48548759520053864, 1152, 1157 },
  { 58, 0.019668605644255877, 1153, 22 },
  { 58, -0.5800133645534515, 1154, 1155 },
  { 12, -1.5213127434253693, 130, 22 },
  { 1, 0.9767783582210541, 123, 1156 },
  { 8, 1.286330759525299, 123, 130 },
  { 1, -0.6082282364368439, 1158, 1159 },
  { 44, 0.4890599995851517, 22, 123 },
  { 75, 1.0388769507408142, 1160, 1162 },
  { 48, 0.2911628186702728, 1161, 22 },
  { 37, -0.7134432196617126, 22, 123 },
  { 61, -0.28459666669368744, 130, 22 },
  { 72, 0.045633045956492424, 1164, 1169 },
  { 43, -0.2417902871966362, 22, 1165 },
  { 66, 0.4237721115350723, 1166, 123 },
  { 37, -0.13470498844981194, 1167, 1168 },
  { 36, -1.460263043642044, 130, 130 },
  { 55, -0.6082437634468079, 130, 123 },
  { 15, 1.289928138256073, 1170, 1172 },
  { 4, 1.2758764028549194, 1171, 22 },
  { 38, 0.01293257251381874, 123, 22 },
  { 44, -0.2987089306116104, 123, 130 },
  { 9, -0.2710666209459305, 1174, 1226 },
  { 50, 1.0520220398902893, 1175, 1225 },
  { 50, -0.29200537502765656, 1176, 1195 },
  { 59, -0.17123130708932877, 1177, 1185 },
  { 41, -1.1035426259040833, 4, 1178 },
  { 40, -1.1670912355184555, 4, 1179 },
  { 20, -0.9475385546684265, 11, 1180 },
  { 17, -0.7765769958496094, 1181, 1182 },
  { 54, -0.1831037700176239, 8, 11 },
  { 53, -0.269497275352478, 1183, 1184 },
  { 5, -0.9005085527896881, 8, 8 },
  { 65, 1.8452102541923523, 8, 11 },
  { 57, 0.019958768039941788, 1186, 4 },
  { 43, -0.20872249454259872, 1187, 1189 },
  { 44, -0.30862607061862946, 4, 1188 },
  { 19, -0.8230082988739014, 11, 8 },
  { 42, -2.383510947227478, 4, 1190 },
  { 37, -0.6780819296836853, 1191, 1192 },
  { 42, -0.8112751394510269, 11, 8 },
  { 57, -0.5295390486717224, 1193, 1194 },
  { 59, 0.9439491033554077, 8, 11 },
  { 61, -0.12368261814117432, 8, 8 },
  { 60, -0.3540850281715393, 1196, 1206 },
  { 51, 1.6750953197479248, 1197, 4 },
  { 40, 0.6030637621879578, 1198, 1204 },
  { 31, 2.1149742603302, 1199, 8 },
  { 79, -1.3569350838661194, 1200, 1202 },
  { 30, -1.186450183391571, 8, 1201 },
  { 70, 0.4595920108258724, 11, 8 },
  { 54, 0.3232237249612808, 1203, 11 },
  { 3, -0.8756943643093109, 8, 11 },
  { 58, -0.5744073987007141, 1205, 11 },
  { 41, -0.1527969390153885, 11, 8 },
  { 42, 1.7022969722747803, 1207, 4 },
  { 57, -0.5782048106193542, 1208, 1220 },
  { 63, 2.082181692123413, 1209, 1216 },
  { 35, -0.24663254618644714, 1210, 1213 },
  { 71, 0.5354352444410324, 1211, 1212 },
  { 37, 1.8775987029075623, 8, 11 },
  { 29, -0.014841221272945404, 8, 11 },
  { 58, -0.28369349241256714, 1214, 1215 },
  { 38, 0.13840565085411072, 8, 11 },
  { 73, -1.9793610572814941, 8, 11 },
  { 41, 0.16440758854150772, 1217, 8 },
  { 14, 0.8012712895870209, 1218, 1219 },
  { 41, -0.11112532764673233, 8, 11 },
  { 22, -0.9301900267601013, 11, 8 },
  { 61, 9.191815614700317, 1221, 8 },
  { 26, -2.6841483116149902, 8, 1222 },
  { 46, 3.0156490802764893, 1223, 1224 },
  { 65, 2.032122015953064, 11, 11 },
  { 60, 7.924201488494873, 11, 8 },
  { 40, -1.1301061809062958, 4, 11 },
  { 71, -0.26363058388233185, 1227, 1269 },
  { 50, -0.47910891473293304, 1228, 1252 },
  { 16, 1.6506096124649048, 1229, 1245 },
  { 59, -0.3153037875890732, 123, 1230 },
  { 9, 1.3790865540504456, 1231, 1238 },
  { 52, 0.5576626360416412, 1232, 1237 },
  { 9, 0.20211953669786453, 1233, 1235 },
  { 78, 0.7104726731777191, 123, 1234 },
  { 70, 0.46323855221271515, 123, 22 },
  { 13, -2.4289650917053223, 130, 1236 },
  { 37, 0.2315770536661148, 22, 22 },
  { 22, 1.077282190322876, 123, 22 },
  { 75, -1.1364357471466064, 22, 1239 },
  { 41, -0.8242609798908234, 1240, 1242 },
  { 39, 1.023297369480133, 22, 1241 },
  { 3, 1.3570318818092346, 22, 130 },
  { 28, -0.01897078799083829, 1243, 1244 },
  { 9, 1.7894715070724487, 22, 130 },
  { 15, 0.8397354185581207, 22, 130 },
  { 9, 1.491287887096405, 1246, 1250 },
  { 46, 0.6521340608596802, 1247, 22 },
  { 58, -0.5719983875751495, 22, 1248 },
  { 57, -0.13780496269464493, 130, 1249 },
  { 11, 1.0955594778060913, 130, 22 },
  { 73, -0.4384067505598068, 1251, 130 },
  { 28, 0.3531663119792938, 22, 130 },
  { 71, -0.689583420753479, 1253, 1261 },
  { 68, 1.4920811653137207, 1254, 1260 },
  { 5, 0.4291374981403351, 1255, 1256 },
  { 16, -0.12041791528463364, 4, 130 },
  { 74, 0.6127832531929016, 1257, 1258 },
  { 64, 0.5518395900726318, 130, 123 },
  { 52, 0.58613720536232, 22, 1259 },
  { 46, -0.12726577511057258, 123, 22 },
  { 49, -0.15547436475753784, 4, 11 },
  { 37, -0.5927036106586456, 1262, 1263 },
  { 21, 1.6931208372116089, 130, 22 },
  { 3, 1.0715989470481873, 1264, 1267 },
  { 14, -1.233213722705841, 1265, 1266 },
  { 74, 0.28928568959236145, 123, 22 },
  { 62, 0.8260440826416016, 123, 130 },
  { 53, -0.46542592346668243, 22, 1268 },
  { 36, 1.030597746372223, 123, 130 },
  { 16, 1.013116180896759, 1270, 1313 },
  { 73, -0.408324733376503, 1271, 1284 },
  { 52, 0.5320004820823669, 1272, 1282 },
  { 51, 0.08533872663974762, 1273, 1281 },
  { 3, 0.3247213214635849, 1274, 1275 },
  { 55, 0.010212739929556847, 22, 123 },
  { 52, 0.22582340985536575, 1276, 1279 },
  { 39, -0.27826475724577904, 1277, 1278 },
  { 33, -0.012410670518875122, 123, 22 },
  { 2, -1.6032607555389404, 130, 22 },
  { 32, -2.265465259552002, 123, 1280 },
  { 77, 1.1224700212478638, 22, 123 },
  { 6, 0.4417922645807266, 123, 130 },
  { 0, 1.5164688229560852, 1283, 130 },
  { 76, 0.4037948399782181, 130, 123 },
  { 69, 0.3470524549484253, 1285, 1298 },
  { 44, -0.21738504618406296, 1286, 1288 },
  { 17, 0.011754623148590326, 1287, 123 },
  { 68, 0.19370266795158386, 123, 130 },
  { 50, -0.8187291920185089, 1289, 1292 },
  { 41, -0.9836322665214539, 1290, 22 },
  { 18, 0.6557923555374146, 1291, 123 },
  { 30, 1.6646497249603271, 22, 123 },
  { 43, -0.041609255596995354, 1293, 1296 },
  { 50, -0.37653544545173645, 1294, 1295 },
  { 37, -0.6263857185840607, 130, 123 },
  { 54, 0.05695134401321411, 130, 123 },
  { 79, 1.0140324532985687, 1297, 123 },
  { 23, 0.6504494845867157, 123, 130 },
  { 47, -0.06811097636818886, 1299, 1305 },
  { 2, -1.3022411465644836, 1300, 1302 },
  { 30, 0.6780328750610352, 1301, 123 },
  { 30, 0.18911071121692657, 22, 130 },
  { 65, -0.6251396238803864, 130, 1303 },
  { 57, -0.006767534796381369, 1304, 22 },
  { 2, 1.2172136902809143, 123, 123 },
  { 9, 1.2192864418029785, 1306, 1309 },
  { 54, -1.2796767950057983, 22, 1307 },
  { 56, 0.22852221131324768, 22, 1308 },
  { 53, -1.0504453778266907, 22, 123 },
  { 75, 1.7136441469192505, 1310, 123 },
  { 75, 0.45845629274845123, 1311, 1312 },
  { 10, 1.717926800251007, 123, 130 },
  { 59, -0.21817366033792496, 22, 130 },
  { 71, 0.863889753818512, 1314, 1332 },
  { 57, -0.2609802335500717, 1315, 1330 },
  { 65, 0.12994088977575302, 1316, 1322 },
  { 74, 0.9815867841243744, 1317, 22 },
  { 20, 2.2195245027542114, 1318, 1321 },
  { 32, 1.3980322480201721, 1319, 1320 },
  { 50, -0.8320034444332123, 123, 130 },
  { 12, -1.5733562707901, 130, 130 },
  { 12, -1.3171928524971008, 130, 123 },
  { 49, 0.5042895972728729, 1323, 1325 },
  { 51, -0.47506843507289886, 130, 1324 },
  { 6, 1.8629655241966248, 123, 130 },
  { 3, 1.5405393838882446, 1326, 1328 },
  { 69, 0.15225275605916977, 130, 1327 },
  { 37, -1.1386891603469849, 130, 123 },
  { 28, -0.7400234937667847, 123, 1329 },
  { 46, -0.28628385066986084, 123, 130 },
  { 6, 1.9200303554534912, 1331, 130 },
  { 78, -1.0468533635139465, 130, 22 },
  { 22, 1.1870021224021912, 1333, 1335 },
  { 38, -1.0858761072158813, 1334, 130 },
  { 52, 0.5202192664146423, 130, 123 },
  { 0, 1.3444064855575562, 123, 130 },
  { 56, -1.5896425247192383, 4, 1337 },
  { 9, -0.2773011326789856, 1338, 1403 },
  { 15, -0.9382144510746002, 1339, 1363 },
  { 42, 0.13686909899115562, 1340, 1358 },
  { 55, -0.9922948181629181, 1341, 1350 },
  { 53, -0.18654607236385345, 8, 1342 },
  { 52, 0.6119785904884338, 1343, 1346 },
  { 77, -1.6771517992019653, 8, 1344 },
  { 21, -0.9005917608737946, 11, 1345 },
  { 52, 0.5996704399585724, 8, 11 },
  { 11, -0.9009045362472534, 11, 1347 },
  { 68, -1.6391392946243286, 1348, 1349 },
  { 37, -0.2713900953531265, 8, 11 },
  { 14, 0.7839337289333344, 11, 8 },
  { 51, -1.245743989944458, 11, 1351 },
  { 28, -2.5035898685455322, 11, 1352 },
  { 69, 0.7342461049556732, 1353, 1355 },
  { 53, -0.34056997299194336, 8, 1354 },
  { 65, 1.057577759027481, 11, 8 },
  { 31, -0.5149354934692383, 1356, 1357 },
  { 10, -0.9388259649276733, 8, 11 },
  { 49, 0.3374515622854233, 11, 8 },
  { 17, -0.7753553688526154, 1359, 1362 },
  { 50, -0.34084081649780273, 1360, 11 },
  { 40, 0.4575317054986954, 8, 1361 },
  { 42, 0.4906751215457916, 8, 11 },
  { 25, 1.0559338331222534, 8, 11 },
  { 77, -1.0548177361488342, 1364, 1381 },
  { 50, 0.13093411177396774, 1365, 1379 },
  { 50, -0.2828589379787445, 1366, 1371 },
  { 42, 0.5025903582572937, 1367, 1370 },
  { 36, 0.8589704632759094, 1368, 1369 },
  { 69, -1.6736382246017456, 11, 8 },
  { 38, 0.26082833111286163, 11, 8 },
  { 17, -0.7754000723361969, 11, 8 },
  { 13, 0.7573097050189972, 1372, 1374 },
  { 32, -2.125646233558655, 11, 1373 },
  { 25, -0.25119803845882416, 11, 8 },
  { 53, 0.16567163169384003, 1375, 1378 },
  { 19, -0.8377506136894226, 1376, 1377 },
  { 5, -0.901443749666214, 8, 11 },
  { 25, 1.42007976770401, 11, 11 },
  { 12, 0.873645007610321, 11, 8 },
  { 54, -0.6701226830482483, 1380, 11 },
  { 49, 0.5028308928012848, 11, 8 },
  { 55, 1.4836018085479736, 1382, 1402 },
  { 69, 0.2072949856519699, 1383, 1394 },
  { 54, 0.302752286195755, 1384, 1391 },
  { 73, -1.4361565709114075, 1385, 1388 },
  { 63, -0.22405407764017582, 1386, 1387 },
  { 53, -0.27831195294857025, 8, 11 },
  { 47, -0.12593121454119682, 8, 11 },
  { 53, -0.2519913762807846, 1389, 1390 },
  { 54, -0.39617832005023956, 8, 8 },
  { 52, 0.6056755483150482, 11, 8 },
  { 5, -0.9162604510784149, 8, 1392 },
  { 53, -0.2766893655061722, 8, 1393 },
  { 15, -0.47206366062164307, 11, 8 },
  { 41, -0.30770106613636017, 1395, 1398 },
  { 43, -0.40501727163791656, 1396, 8 },
  { 54, -0.35449419915676117, 1397, 8 },
  { 53, -0.8128077387809753, 8, 11 },
  { 6, -0.8637672066688538, 1399, 1400 },
  { 10, -0.8591076731681824, 8, 11 },
  { 20, -0.8262012004852295, 11, 1401 },
  { 24, -0.48862968012690544, 11, 8 },
  { 47, 1.3823557794094086, 11, 8 },
  { 40, 0.5019247829914093, 1404, 1447 },
  { 74, 0.41116659343242645, 1405, 1430 },
  { 9, 1.208931028842926, 1406, 1414 },
  { 57, -0.23289262503385544, 1407, 1413 },
  { 50, -0.2807748168706894, 1408, 130 },
  { 21, 2.007346510887146, 1409, 1412 },
  { 43, 0.05170324072241783, 1410, 1411 },
  { 50, -0.37892739474773407, 123, 123 },
  { 69, -0.010121917352080345, 130, 123 },
  { 31, 0.8278656005859375, 22, 123 },
  { 66, -0.039525194093585014, 123, 22 },
  { 15, 1.323856234550476, 1415, 1424 },
  { 45, 0.20829947292804718, 1416, 1421 },
  { 14, -1.1113112568855286, 1417, 1419 },
  { 41, -0.9167352616786957, 123, 1418 },
  { 20, 1.4363819360733032, 130, 123 },
  { 41, -0.8071154356002808, 22, 1420 },
  { 27, -0.05885643698275089, 130, 123 },
  { 58, -0.5618698298931122, 1422, 1423 },
  { 12, -1.5320942997932434, 130, 22 },
  { 74, 0.23935534805059433, 130, 22 },
  { 71, 1.3819925785064697, 1425, 1429 },
  { 57, -0.27684614062309265, 130, 1426 },
  { 34, 1.3567959666252136, 1427, 1428 },
  { 14, -0.477067306637764, 130, 22 },
  { 14, -1.1725168824195862, 130, 22 },
  { 48, -0.16696158051490784, 123, 130 },
  { 14, -1.9078008532524109, 1431, 1435 },
  { 69, -0.5494532287120819, 22, 1432 },
  { 55, 1.795181155204773, 1433, 22 },
  { 16, 0.6037258356809616, 1434, 130 },
  { 48, -0.10154608264565468, 123, 22 },
  { 42, 0.5727946162223816, 1436, 1446 },
  { 24, 1.5452476739883423, 1437, 1443 },
  { 70, -0.3715727627277374, 1438, 1440 },
  { 67, -0.32750631123781204, 1439, 123 },
  { 49, 0.4319457858800888, 22, 130 },
  { 16, -0.24251725524663925, 1441, 1442 },
  { 54, 0.07008489221334457, 123, 22 },
  { 22, 0.5459812581539154, 22, 22 },
  { 59, 0.1542184865102172, 22, 1444 },
  { 52, 0.32008326053619385, 1445, 130 },
  { 76, 1.566368043422699, 22, 11 },
  { 78, -1.1790702939033508, 123, 130 },
  { 9, 1.1533594131469727, 1448, 1472 },
  { 70, 0.34389056265354156, 1449, 1462 },
  { 47, 2.2306705117225647, 1450, 22 },
  { 9, 0.978408545255661, 1451, 1457 },
  { 37, -0.8151344656944275, 1452, 1454 },
  { 74, -0.28120414167642593, 123, 1453 },
  { 51, -0.27905361354351044, 22, 130 },
  { 65, -0.6350875794887543, 1455, 1456 },
  { 41, -0.42449620366096497, 123, 130 },
  { 74, 1.3184447884559631, 123, 22 },
  { 73, -0.1708226278424263, 1458, 1460 },
  { 2, 1.2925475239753723, 1459, 123 },
  { 75, -0.34487342834472656, 22, 130 },
  { 12, -1.8324854969978333, 130, 1461 },
  { 52, 0.5199923813343048, 130, 123 },
  { 73, 0.12121396511793137, 1463, 1468 },
  { 53, -0.5179427117109299, 1464, 1467 },
  { 28, -1.534199833869934, 123, 1465 },
  { 39, 1.0565053224563599, 1466, 123 },
  { 68, -0.10164491273462772, 22, 22 },
  { 65, -1.019394427537918, 130, 123 },
  { 48, -0.2776755094528198, 123, 1469 },
  { 71, -0.4824354350566864, 1470, 130 },
  { 28, -0.865090936422348, 123, 1471 },
  { 70, 0.536313533782959, 22, 130 },
  { 22, 1.031603217124939, 1473, 1485 },
  { 3, 1.3579871654510498, 1474, 1482 },
  { 72, 0.5616898834705353, 1475, 1480 },
  { 49, 0.5419740378856659, 1476, 1478 },
  { 70, 0.09451986104249954, 1477, 22 },
  { 39, -0.10651827976107597, 123, 130 },
  { 44, 1.5944809913635254, 1479, 22 },
  { 48, -0.31893500685691833, 123, 130 },
  { 56, 0.6578567326068878, 22, 1481 },
  { 49, 0.618969738483429, 130, 22 },
  { 73, -1.1216716170310974, 22, 1483 },
  { 20, 1.9575773477554321, 130, 1484 },
  { 17, 1.5505538582801819, 123, 130 },
  { 70, 0.12836724519729614, 1486, 1493 },
  { 46, 0.46717073023319244, 1487, 130 },
  { 0, 1.2909671664237976, 1488, 1491 },
  { 66, 0.26885925978422165, 1489, 1490 },
  { 53, -0.33407317101955414, 123, 130 },
  { 43, 0.3143215775489807, 130, 123 },
  { 56, 0.6828146576881409, 1492, 123 },
  { 52, 0.4990885704755783, 22, 130 },
  { 76, -0.07063660398125648, 1494, 1495 },
  { 53, -0.8047997355461121, 22, 130 },
  { 26, -0.28114183247089386, 1496, 1497 },
  { 70, 0.4320817291736603, 130, 22 },
  { 73, -0.00047476962208747864, 1498, 123 },
  { 1, 0.4132649451494217, 22, 130 },
  { 20, -0.0030510449432767928, 1500, 1532 },
  { 54, 0.9101293087005615, 1501, 1531 },
  { 50, -0.2912667989730835, 1502, 1515 },
  { 40, -1.1306639313697815, 4, 1503 },
  { 17, -0.3384200930595398, 1504, 1514 },
  { 6, -0.8700021207332611, 1505, 1506 },
  { 58, -0.5586889684200287, 8, 11 },
  { 20, -0.9433191418647766, 1507, 1508 },
  { 42, 0.3579771965742111, 8, 11 },
  { 53, -0.269497275352478, 1509, 1512 },
  { 11, -0.8590184152126312, 1510, 1511 },
  { 51, 0.46493960916996, 8, 8 },
  { 64, -0.6765520870685577, 8, 8 },
  { 67, 1.5670257806777954, 1513, 11 },
  { 74, 0.8063008189201355, 8, 11 },
  { 35, 1.5205572247505188, 123, 130 },
  { 49, -0.2787182219326496, 4, 1516 },
  { 53, 0.22332730144262314, 1517, 1530 },
  { 40, 0.5398817956447601, 1518, 1522 },
  { 19, -0.6619774699211121, 1519, 1521 },
  { 1, -0.6871428489685059, 1520, 11 },
  { 73, -1.9128430485725403, 8, 11 },
  { 41, -0.003708433359861374, 8, 11 },
  { 56, 0.6077307164669037, 1523, 1524 },
  { 11, 0.3144380748271942, 8, 123 },
  { 16, -0.6932120025157928, 1525, 1527 },
  { 52, 0.610444962978363, 11, 1526 },
  { 2, 0.210634745657444, 8, 11 },
  { 20, -0.9306298196315765, 1528, 1529 },
  { 53, 0.17189229279756546, 11, 11 },
  { 16, -0.6782522201538086, 11, 8 },
  { 22, 1.0734000504016876, 11, 123 },
  { 40, -1.1595360934734344, 4, 11 },
  { 3, 1.4115150570869446, 1533, 1619 },
  { 73, -0.4569726437330246, 1534, 1563 },
  { 9, 0.023916196078062057, 1535, 1543 },
  { 75, -1.4166553616523743, 1536, 1541 },
  { 50, 1.4510104060173035, 1537, 4 },
  { 52, -0.8865494653582573, 4, 1538 },
  { 41, -0.35178908705711365, 1539, 11 },
  { 56, 0.6378701031208038, 8, 1540 },
  { 34, 0.49243485927581787, 11, 123 },
  { 40, -0.2334286868572235, 4, 1542 },
  { 38, -0.5710740685462952, 8, 123 },
  { 38, 1.536251723766327, 1544, 130 },
  { 72, -0.30123159289360046, 1545, 1549 },
  { 42, -1.6297781467437744, 22, 1546 },
  { 22, 0.3953278660774231, 1547, 1548 },
  { 61, 1.0081190168857574, 130, 123 },
  { 37, -0.4803868681192398, 22, 123 },
  { 27, 0.41213347017765045, 1550, 1556 },
  { 26, -0.47119656205177307, 1551, 1553 },
  { 27, -0.18595761992037296, 123, 1552 },
  { 42, -0.5985141545534134, 22, 130 },
  { 9, 1.6916176676750183, 1554, 1555 },
  { 57, -0.5572362840175629, 123, 22 },
  { 22, 1.009240597486496, 130, 22 },
  { 7, 0.828534722328186, 1557, 1560 },
  { 36, -0.6478210687637329, 1558, 1559 },
  { 35, 1.0140516757965088, 123, 22 },
  { 45, 7.437788367271423, 22, 11 },
  { 69, -0.22162223607301712, 1561, 1562 },
  { 66, 0.08537503518164158, 123, 22 },
  { 62, 0.8272334933280945, 123, 130 },
  { 69, -0.05221365764737129, 1564, 1585 },
  { 50, -0.59556645154953, 1565, 1575 },
  { 3, 0.43145138025283813, 123, 1566 },
  { 14, -1.3464543223381042, 1567, 1571 },
  { 61, -0.0031997542828321457, 1568, 1569 },
  { 41, -0.7257419228553772, 123, 22 },
  { 65, -0.5843823254108429, 1570, 22 },
  { 14, -2.0659464597702026, 130, 22 },
  { 48, 1.1700534224510193, 1572, 1574 },
  { 77, 1.1053098440170288, 1573, 123 },
  { 4, 0.5854720324277878, 130, 22 },
  { 71, -0.27341247349977493, 130, 22 },
  { 48, -0.1101713590323925, 1576, 1581 },
  { 38, 1.3047481179237366, 1577, 130 },
  { 3, 0.9274453520774841, 1578, 1580 },
  { 72, 1.1937853395938873, 1579, 22 },
  { 56, 0.2385664638131857, 22, 123 },
  { 20, 1.0949304103851318, 130, 123 },
  { 74, 0.32324355840682983, 1582, 123 },
  { 17, 1.134074091911316, 1583, 123 },
  { 37, 0.16917702555656433, 130, 1584 },
  { 52, -0.9247950315475464, 4, 123 },
  { 66, 0.4472241550683975, 1586, 1608 },
  { 37, -0.558303713798523, 1587, 1597 },
  { 69, 1.3611972332000732, 1588, 1595 },
  { 55, -0.35560986399650574, 1589, 1592 },
  { 22, 1.128942847251892, 1590, 1591 },
  { 8, 1.441889762878418, 130, 130 },
  { 1, 0.04785718023777008, 123, 130 },
  { 8, 1.5462808012962341, 1593, 1594 },
  { 53, -0.803958386182785, 22, 123 },
  { 18, 1.7758715152740479, 123, 130 },
  { 26, -0.5243693888187408, 1596, 123 },
  { 15, 0.9387293457984924, 123, 22 },
  { 48, 0.39387747645378113, 1598, 1604 },
  { 6, 1.0095038414001465, 1599, 1601 },
  { 43, 0.11706807464361191, 123, 1600 },
  { 78, -0.5100616961717606, 130, 123 },
  { 22, 1.0767184495925903, 1602, 1603 },
  { 45, -0.08478915877640247, 22, 130 },
  { 43, 0.901800274848938, 123, 130 },
  { 16, 0.7492449283599854, 1605, 1606 },
  { 37, -0.37504227459430695, 130, 123 },
  { 79, 0.5209734886884689, 130, 1607 },
  { 45, 1.7616927027702332, 123, 130 },
  { 18, 0.6571975350379944, 1609, 1616 },
  { 50, -0.6193719804286957, 1610, 1613 },
  { 42, -0.2954360097646713, 1611, 123 },
  { 40, 0.49759092926979065, 22, 1612 },
  { 47, -0.1276424564421177, 123, 130 },
  { 12, -0.16750534996390343, 1614, 123 },
  { 47, -0.2664352208375931, 1615, 130 },
  { 25, -0.0887070894241333, 123, 130 },
  { 59, 0.12176584452390671, 1617, 1618 },
  { 16, 1.030301034450531, 123, 130 },
  { 13, -1.7209491729736328, 130, 123 },
  { 55, -0.5448651313781738, 1620, 1625 },
  { 0, -3.585313558578491, 22, 1621 },
  { 44, 2.313358187675476, 1622, 22 },
  { 66, 0.17035692930221558, 1623, 130 },
  { 22, 1.4623787999153137, 1624, 123 },
  { 55, -0.5685251653194427, 130, 123 },
  { 53, -0.8273435831069946, 1626, 1629 },
  { 37, -1.3672866821289062, 130, 1627 },
  { 50, -0.8376283943653107, 22, 1628 },
  { 1, 0.07611554116010666, 22, 130 },
  { 6, 1.252035915851593, 123, 1630 },
  { 69, 0.7154842913150787, 1631, 1636 },
  { 22, 1.3325159549713135, 1632, 123 },
  { 49, 0.34924279153347015, 1633, 1634 },
  { 23, 0.638024628162384, 22, 130 },
  { 62, -0.842106431722641, 1635, 130 },
  { 10, 0.8146612048149109, 123, 130 },
  { 55, 0.04249079618602991, 1637, 130 },
  { 10, 1.8575711846351624, 1638, 130 },
  { 27, -0.32135059661231935, 1639, 1640 },
  { 18, 0.32184898853302, 130, 123 },
  { 65, 1.020832359790802, 130, 123 },
  { 19, -0.1303892284631729, 1642, 1704 },
  { 52, -1.1453022360801697, 4, 1643 },
  { 63, -0.43157510459423065, 1644, 1682 },
  { 50, -0.23670653253793716, 1645, 1667 },
  { 6, -0.4274272546172142, 1646, 1663 },
  { 53, -0.4425036460161209, 1647, 1656 },
  { 0, -0.530561238527298, 1648, 1649 },
  { 32, -0.3644658923149109, 11, 8 },
  { 29, 0.18013295531272888, 1650, 1653 },
  { 4, -0.8428777754306793, 1651, 1652 },
  { 75, -0.7890729010105133, 8, 8 },
  { 31, 0.9134263098239899, 8, 8 },
  { 41, -0.8282505869865417, 1654, 1655 },
  { 32, -1.888892948627472, 11, 8 },
  { 47, -0.4715883731842041, 8, 8 },
  { 4, -0.9543659389019012, 1657, 1659 },
  { 46, -0.44069473445415497, 8, 1658 },
  { 78, 1.507382571697235, 11, 8 },
  { 0, 0.26672258228063583, 1660, 1662 },
  { 46, 0.2611009478569031, 1661, 11 },
  { 37, 1.330928087234497, 8, 11 },
  { 47, -0.34795624017715454, 8, 11 },
  { 69, -1.0197235345840454, 1664, 1665 },
  { 66, 1.7492716312408447, 22, 11 },
  { 37, -0.15205851756036282, 1666, 123 },
  { 54, -1.3457397818565369, 22, 130 },
  { 57, -0.6164128482341766, 1668, 1672 },
  { 51, -0.12264306098222733, 8, 1669 },
  { 17, -0.7694558203220367, 1670, 8 },
  { 73, -0.5275576114654541, 1671, 11 },
  { 32, -1.5832136869430542, 8, 11 },
  { 17, -0.7693122327327728, 1673, 1678 },
  { 59, -0.4412970691919327, 8, 1674 },
  { 1, 0.32864348590373993, 1675, 1677 },
  { 49, 0.5519843101501465, 11, 1676 },
  { 39, -2.1913291215896606, 8, 11 },
  { 71, -0.3713771030306816, 8, 11 },
  { 47, -0.34573911130428314, 8, 1679 },
  { 61, 3.4369839429855347, 1680, 8 },
  { 35, -0.3633212149143219, 1681, 11 },
  { 77, 0.42964594811201096, 8, 11 },
  { 55, -0.5579860508441925, 1683, 1702 },
  { 41, -0.06092597171664238, 1684, 1690 },
  { 78, 1.1716551184654236, 1685, 11 },
  { 38, 0.23752564191818237, 1686, 1689 },
  { 35, -1.2417609691619873, 1687, 1688 },
  { 73, -1.5333248376846313, 8, 11 },
  { 24, 1.0848798155784607, 8, 11 },
  { 1, 0.8183881058357656, 11, 8 },
  { 41, 0.17347200214862823, 1691, 1701 },
  { 79, -1.322007954120636, 1692, 1695 },
  { 77, 0.1598551869392395, 1693, 11 },
  { 57, -0.59351646900177, 1694, 8 },
  { 1, 0.2991199195384979, 11, 8 },
  { 39, -0.3207043558359146, 1696, 1699 },
  { 22, -0.8064768612384796, 1697, 1698 },
  { 74, -0.15794260427355766, 8, 11 },
  { 1, -0.43329790234565735, 8, 11 },
  { 6, -0.8678552806377411, 8, 1700 },
  { 29, -0.6798913776874542, 11, 11 },
  { 42, -0.5973442643880844, 8, 11 },
  { 32, -2.039284646511078, 1703, 11 },
  { 7, -0.16478370875120163, 11, 8 },
  { 66, 0.10530242696404457, 1705, 1747 },
  { 37, -0.5006463080644608, 1706, 1728 },
  { 15, 1.2754088044166565, 1707, 1719 },
  { 74, 0.3554976135492325, 1708, 1717 },
  { 37, -1.0846282839775085, 1709, 1710 },
  { 50, -0.9376111626625061, 22, 130 },
  { 48, 0.08950384333729744, 1711, 1715 },
  { 38, -0.7918357849121094, 1712, 1713 },
  { 28, -1.7622928619384766, 123, 130 },
  { 12, -0.9178659319877625, 1714, 123 },
  { 45, -0.3088895082473755, 123, 22 },
  { 9, 1.1673278212547302, 1716, 130 },
  { 70, -0.6580268144607544, 123, 22 },
  { 54, -0.16223099827766418, 1718, 123 },
  { 6, 1.31917804479599, 22, 130 },
  { 14, -0.9508091509342194, 1720, 1726 },
  { 16, 0.9328761994838715, 1721, 1722 },
  { 72, -0.4856851068325341, 123, 22 },
  { 22, 1.4431384205818176, 1723, 1725 },
  { 69, 1.0329537391662598, 130, 1724 },
  { 3, 1.4822154641151428, 130, 123 },
  { 70, -0.12096293270587921, 123, 130 },
  { 52, 0.5076231062412262, 22, 1727 },
  { 32, 0.13398248702287674, 130, 123 },
  { 47, 0.11301105841994286, 1729, 1737 },
  { 16, 1.7776550650596619, 1730, 130 },
  { 40, 0.28698617219924927, 1731, 1733 },
  { 14, -1.2841426730155945, 123, 1732 },
  { 74, 0.5175306051969528, 123, 22 },
  { 0, -2.43317186832428, 130, 1734 },
  { 14, -3.8874449729919434, 130, 1735 },
  { 59, 0.6258313059806824, 1736, 130 },
  { 62, 1.18325275182724, 123, 123 },
  { 14, -1.3880369663238525, 1738, 1740 },
  { 28, -1.2293183207511902, 123, 1739 },
  { 10, 0.15000761300325394, 123, 130 },
  { 41, -0.872279167175293, 1741, 1742 },
  { 61, 1.080159217119217, 22, 123 },
  { 10, 2.114762544631958, 1743, 130 },
  { 6, 1.7108445167541504, 1744, 130 },
  { 15, 1.2708327770233154, 1745, 1746 },
  { 73, 0.09795890375971794, 123, 123 },
  { 66, -0.20276204170659184, 123, 22 },
  { 69, -0.13185694813728333, 1748, 1769 },
  { 74, 0.29783980548381805, 1749, 1759 },
  { 38, -0.7502945065498352, 130, 1750 },
  { 42, -0.16256503760814667, 1751, 1756 },
  { 37, -1.142770230770111, 1752, 1753 },
  { 9, 0.8500582277774811, 22, 130 },
  { 40, 0.5664447247982025, 1754, 130 },
  { 41, -0.7020184695720673, 22, 1755 },
  { 50, -0.6234173476696014, 130, 22 },
  { 19, 0.3484896048903465, 1757, 1758 },
  { 47, 0.8749745842069387, 123, 4 },
  { 29, -1.6018201112747192, 123, 130 },
  { 57, -0.5708537399768829, 130, 1760 },
  { 50, 0.8786293864250183, 1761, 1768 },
  { 38, -1.4395465850830078, 1762, 1763 },
  { 40, 0.3314496725797653, 130, 22 },
  { 53, -0.780348926782608, 1764, 1766 },
  { 44, 1.7801585793495178, 22, 1765 },
  { 1, 0.594286173582077, 22, 123 },
  { 3, 1.6359953880310059, 1767, 130 },
  { 13, -1.7509407997131348, 130, 22 },
  { 30, -2.228620946407318, 11, 4 },
  { 41, -0.8457585573196411, 1770, 1773 },
  { 75, 0.026377067901194096, 22, 1771 },
  { 42, -0.6171551942825317, 1772, 22 },
  { 71, 0.1017751693725586, 130, 22 },
  { 3, 1.08705335855484, 1774, 1782 },
  { 76, 0.8687247335910797, 1775, 1779 },
  { 67, -1.0699763298034668, 130, 1776 },
  { 9, 1.1466736197471619, 1777, 130 },
  { 17, 2.346685767173767, 1778, 22 },
  { 5, 0.3991321325302124, 123, 123 },
  { 3, 0.42236781120300293, 123, 1780 },
  { 54, -0.08041093125939369, 22, 1781 },
  { 75, -0.9394045174121857, 130, 123 },
  { 71, 1.235065758228302, 1783, 1791 },
  { 61, -0.4167482405900955, 1784, 1785 },
  { 58, -0.47684986889362335, 123, 130 },
  { 51, -1.361542284488678, 1786, 1788 },
  { 73, -0.6715942025184631, 22, 1787 },
  { 39, 0.18089111149311066, 22, 130 },
  { 9, 1.1419097185134888, 1789, 1790 },
  { 27, 0.6474720686674118, 123, 22 },
  { 16, 1.0385077595710754, 130, 130 },
  { 57, -0.5595380365848541, 130, 123 },
  { 40, -1.0742898881435394, 4, 1793 },
  { 8, -0.12465022504329681, 1794, 1880 },
  { 13, 0.8705915808677673, 1795, 1842 },
  { 50, -0.25734980404376984, 1796, 1820 },
  { 42, -0.43019405007362366, 1797, 1813 },
  { 69, -0.1630631983280182, 1798, 1808 },
  { 50, -0.46699486672878265, 1799, 1804 },
  { 55, -0.3456336408853531, 1800, 1801 },
  { 41, -0.5982890427112579, 11, 8 },
  { 32, -1.4267508387565613, 1802, 1803 },
  { 25, -0.3711927533149719, 11, 8 },
  { 2, -1.7555691599845886, 11, 8 },
  { 53, -0.3345671147108078, 1805, 1806 },
  { 14, 0.8216576874256134, 11, 8 },
  { 35, 0.8012880682945251, 8, 1807 },
  { 1, 0.029441402293741703, 11, 8 },
  { 40, 0.5552034676074982, 1809, 1812 },
  { 41, -0.2964000850915909, 1810, 11 },
  { 42, -0.7190695106983185, 8, 1811 },
  { 41, -0.7966201305389404, 11, 8 },
  { 42, -0.7493620812892914, 8, 11 },
  { 53, -0.20745783299207687, 1814, 11 },
  { 9, -0.8736820816993713, 1815, 1816 },
  { 39, 1.219671905040741, 8, 11 },
  { 20, -0.9427882730960846, 11, 1817 },
  { 39, -1.589299499988556, 1818, 1819 },
  { 24, -0.2123319823294878, 8, 11 },
  { 54, -0.4169895648956299, 8, 8 },
  { 69, -0.03227937966585159, 1821, 1835 },
  { 51, 0.279633492231369, 1822, 1833 },
  { 33, 1.0350261926651, 1823, 1830 },
  { 69, -1.6867994666099548, 1824, 1827 },
  { 5, -0.8792452812194824, 1825, 1826 },
  { 64, -0.45109743624925613, 11, 8 },
  { 32, -1.4202133417129517, 11, 11 },
  { 44, -0.2162371501326561, 1828, 1829 },
  { 39, -0.3046281635761261, 8, 11 },
  { 0, 0.13774693757295609, 8, 11 },
  { 54, 0.29774899780750275, 1831, 11 },
  { 70, 1.9522604942321777, 1832, 11 },
  { 5, -0.9190137386322021, 11, 8 },
  { 21, -0.26518841087818146, 11, 1834 },
  { 6, -0.7308460772037506, 11, 8 },
  { 67, 3.0172544717788696, 1836, 1841 },
  { 50, -0.25069600343704224, 8, 1837 },
  { 14, 0.8524027764797211, 1838, 1840 },
  { 52, 0.6061117053031921, 11, 1839 },
  { 47, -0.2803795635700226, 11, 8 },
  { 70, -0.7913382947444916, 8, 11 },
  { 42, 0.18739689514040947, 8, 11 },
  { 52, 0.48078374564647675, 1843, 1851 },
  { 42, -0.870519369840622, 1844, 1846 },
  { 57, -0.5524025559425354, 11, 1845 },
  { 57, -0.06237410008907318, 8, 11 },
  { 35, -1.7159283757209778, 8, 1847 },
  { 1, -0.04221908189356327, 1848, 1850 },
  { 63, -0.27868377417325974, 1849, 11 },
  { 36, -1.4611784219741821, 11, 8 },
  { 41, -0.4853917956352234, 8, 11 },
  { 3, -0.8753982782363892, 1852, 1860 },
  { 46, -0.44709497690200806, 11, 1853 },
  { 75, 0.36599647998809814, 1854, 1857 },
  { 41, 0.0796684455126524, 1855, 11 },
  { 0, 0.1078386940062046, 1856, 11 },
  { 22, -1.5099570751190186, 11, 8 },
  { 47, -0.4921400845050812, 11, 1858 },
  { 11, -0.8518106639385223, 8, 1859 },
  { 49, 0.5754694640636444, 11, 8 },
  { 42, 0.13269422948360443, 1861, 1874 },
  { 21, -0.895371824502945, 1862, 1868 },
  { 57, -0.5439130663871765, 1863, 1866 },
  { 17, -0.7759697437286377, 1864, 1865 },
  { 57, -0.6163504123687744, 8, 11 },
  { 26, -0.7645090222358704, 8, 8 },
  { 60, -0.4664362818002701, 1867, 8 },
  { 67, 1.998257339000702, 8, 11 },
  { 55, -1.097950041294098, 1869, 1871 },
  { 41, -0.3300369158387184, 8, 1870 },
  { 27, 0.9316378235816956, 11, 11 },
  { 53, -0.23190730810165405, 1872, 1873 },
  { 32, -1.845471203327179, 11, 8 },
  { 59, -0.39551518857479095, 11, 8 },
  { 33, 2.242875099182129, 1875, 1879 },
  { 16, -0.6932081580162048, 8, 1876 },
  { 50, -0.3886831998825073, 1877, 1878 },
  { 32, 0.20938637107610703, 8, 11 },
  { 39, -1.3246110081672668, 11, 11 },
  { 39, -0.35540060698986053, 11, 8 },
  { 6, 1.34782075881958, 1881, 1950 },
  { 70, 0.1278548315167427, 1882, 1920 },
  { 75, -0.4868799149990082, 1883, 1897 },
  { 74, 0.777919739484787, 1884, 1891 },
  { 18, 2.5784038305282593, 1885, 130 },
  { 40, 0.5186005234718323, 1886, 1888 },
  { 24, 1.634879469871521, 1887, 130 },
  { 6, 0.6783272922039032, 123, 22 },
  { 14, -1.3504633903503418, 1889, 1890 },
  { 1, -1.0475624799728394, 123, 130 },
  { 0, 1.4274896383285522, 123, 130 },
  { 57, -0.5208137035369873, 1892, 1894 },
  { 17, 0.4552450329065323, 1893, 123 },
  { 37, -0.05514344573020935, 130, 8 },
  { 16, -0.16428906470537186, 123, 1895 },
  { 52, 0.5485804378986359, 1896, 123 },
  { 65, 0.35707636177539825, 22, 123 },
  { 47, -0.10695861652493477, 1898, 1909 },
  { 16, 0.7094444334506989, 1899, 1903 },
  { 55, 1.7670378684997559, 1900, 22 },
  { 65, -0.7521803975105286, 1901, 1902 },
  { 13, -1.022499829530716, 123, 130 },
  { 48, 0.122224360704422, 123, 123 },
  { 43, 0.03482168447226286, 1904, 1907 },
  { 11, 0.6463609933853149, 1905, 1906 },
  { 17, 0.8077336996793747, 130, 123 },
  { 38, -1.222679078578949, 130, 123 },
  { 77, 0.6731349229812622, 1908, 123 },
  { 45, -0.37661367654800415, 123, 130 },
  { 16, 0.7432418763637543, 1910, 1915 },
  { 67, -1.0274853706359863, 1911, 1912 },
  { 5, 0.6706304252147675, 130, 22 },
  { 20, 0.08880407363176346, 1913, 1914 },
  { 36, 0.22523460537195206, 130, 22 },
  { 16, 0.49782034754753113, 123, 123 },
  { 56, 0.3689924478530884, 1916, 1917 },
  { 39, 0.5847896635532379, 22, 123 },
  { 24, 0.690152496099472, 1918, 1919 },
  { 19, 1.0803041458129883, 130, 123 },
  { 19, 1.086743712425232, 130, 130 },
  { 57, -0.5389316380023956, 1921, 1933 },
  { 67, -0.5555044710636139, 1922, 1928 },
  { 9, 0.1686187982559204, 1923, 1925 },
  { 71, -1.7178223133087158, 11, 1924 },
  { 30, 0.7223840095102787, 8, 123 },
  { 58, -0.07867548801004887, 1926, 22 },
  { 70, 1.2102643251419067, 1927, 22 },
  { 31, -1.1145655810832977, 123, 130 },
  { 51, -0.790428638458252, 1929, 1930 },
  { 62, -0.03635761886835098, 123, 130 },
  { 59, -0.38919444382190704, 8, 1931 },
  { 20, -0.06126609444618225, 11, 1932 },
  { 37, -0.7292917966842651, 130, 123 },
  { 73, -1.7552435398101807, 1934, 1936 },
  { 41, -0.144026979804039, 1935, 11 },
  { 17, -0.14101862162351608, 8, 11 },
  { 18, -0.07015236467123032, 1937, 1943 },
  { 37, -0.4218132793903351, 1938, 1940 },
  { 40, 0.28425516188144684, 11, 1939 },
  { 11, -0.22016818821430206, 130, 22 },
  { 52, 0.5097032636404037, 1941, 1942 },
  { 52, 0.4180232435464859, 8, 22 },
  { 59, -0.3747536391019821, 8, 123 },
  { 9, 0.14956779032945633, 1944, 1947 },
  { 61, 0.1781240776181221, 1945, 1946 },
  { 12, -0.2545536532998085, 22, 123 },
  { 66, 1.143376350402832, 8, 22 },
  { 9, 1.775954782962799, 1948, 1949 },
  { 74, 0.3441608399152756, 22, 22 },
  { 37, -0.7536521255970001, 130, 22 },
  { 9, 1.450779676437378, 1951, 1963 },
  { 50, -0.8354139029979706, 1952, 1955 },
  { 71, 0.45877858996391296, 1953, 123 },
  { 16, 1.778885543346405, 22, 1954 },
  { 58, -0.504811093211174, 22, 130 },
  { 71, 0.5048871785402298, 1956, 1961 },
  { 43, 0.4513942301273346, 1957, 1960 },
  { 29, -1.5902065634727478, 22, 1958 },
  { 67, -0.10300821857526898, 1959, 123 },
  { 57, -0.3168025463819504, 130, 123 },
  { 20, 0.8920625448226929, 123, 22 },
  { 16, 1.5093930959701538, 123, 1962 },
  { 39, 0.5628913342952728, 130, 123 },
  { 3, 1.589174747467041, 1964, 1972 },
  { 53, -0.8245137631893158, 1965, 1967 },
  { 41, -1.006373941898346, 1966, 22 },
  { 26, 1.0044007897377014, 130, 22 },
  { 22, 1.211230456829071, 1968, 1970 },
  { 40, 0.5781267881393433, 130, 1969 },
  { 51, -0.36760643124580383, 123, 130 },
  { 40, 0.5192601084709167, 1971, 123 },
  { 11, 1.361079216003418, 22, 130 },
  { 68, -0.964908093214035, 123, 1973 },
  { 27, -2.60187566280365, 1974, 1975 },
  { 49, 0.5152095258235931, 123, 130 },
  { 3, 1.6805033683776855, 1976, 130 },
  { 10, 1.7839969992637634, 130, 1977 },
  { 22, 1.3697296977043152, 130, 123 },
  { 49, -0.98844975233078, 4, 1979 },
  { 11, -0.17926527559757233, 1980, 2051 },
  { 42, 0.27607741951942444, 1981, 2037 },
  { 49, 0.5475740730762482, 1982, 2006 },
  { 39, 0.2604650557041168, 1983, 1999 },
  { 70, -0.35866692662239075, 1984, 1990 },
  { 19, -0.8434477150440216, 8, 1985 },
  { 53, -0.2743293344974518, 1986, 1988 },
  { 74, 0.4034661799669266, 1987, 11 },
  { 2, 0.163382388651371, 8, 11 },
  { 63, 1.4563701152801514, 11, 1989 },
  { 66, -0.11834847182035446, 11, 8 },
  { 55, -0.7299825251102448, 1991, 1993 },
  { 58, -0.4586777240037918, 1992, 8 },
  { 18, -0.45903992652893066, 11, 130 },
  { 42, -0.9837679266929626, 1994, 1997 },
  { 10, -0.9277062118053436, 1995, 1996 },
  { 5, -0.9347535967826843, 8, 11 },
  { 76, 0.8376321494579315, 8, 11 },
  { 52, 0.37474866211414337, 11, 1998 },
  { 14, 0.6615996062755585, 8, 8 },
  { 53, -0.17255163937807083, 2000, 2005 },
  { 15, 0.5801552087068558, 2001, 130 },
  { 36, -2.7514055967330933, 11, 2002 },
  { 44, -0.463289812207222, 2003, 2004 },
  { 24, -0.5373782515525818, 8, 11 },
  { 57, -0.5455280244350433, 8, 8 },
  { 8, -0.784503698348999, 11, 8 },
  { 77, -0.7536048591136932, 2007, 2020 },
  { 41, -0.24823139607906342, 2008, 2011 },
  { 11, -0.9476855099201202, 2009, 2010 },
  { 46, -0.3745764344930649, 8, 11 },
  { 73, -1.8240304589271545, 11, 8 },
  { 51, -0.5038437843322754, 2012, 2016 },
  { 57, -0.5918978750705719, 2013, 2015 },
  { 33, 0.583479255437851, 11, 2014 },
  { 2, 0.10640769824385643, 11, 8 },
  { 67, 1.6526203155517578, 8, 11 },
  { 50, 0.05923143960535526, 2017, 11 },
  { 70, 0.3990047425031662, 2018, 2019 },
  { 3, -0.8757502138614655, 8, 11 },
  { 73, -1.2304373979568481, 11, 8 },
  { 42, -0.39314600825309753, 2021, 2030 },
  { 75, 1.522070825099945, 2022, 2029 },
  { 52, 0.5972651839256287, 2023, 2026 },
  { 66, -1.4232380390167236, 2024, 2025 },
  { 48, 0.39976248145103455, 11, 8 },
  { 30, 0.19731605798006058, 8, 11 },
  { 66, 1.0337271392345428, 2027, 2028 },
  { 19, -0.8481282293796539, 8, 11 },
  { 14, 0.7166809439659119, 8, 11 },
  { 47, -0.471783384680748, 11, 8 },
  { 41, 0.0511913076043129, 2031, 11 },
  { 54, 0.17415180057287216, 2032, 2035 },
  { 57, -0.6112517714500427, 2033, 2034 },
  { 57, -0.6165592074394226, 8, 11 },
  { 55, -1.702091932296753, 123, 8 },
  { 78, -1.2469331622123718, 8, 2036 },
  { 49, 0.5529398322105408, 8, 11 },
  { 40, 0.4287589192390442, 11, 2038 },
  { 42, 0.7082539200782776, 2039, 8 },
  { 7, -0.9356681704521179, 2040, 2045 },
  { 3, -0.8753057420253754, 2041, 2042 },
  { 60, -0.4180179238319397, 11, 8 },
  { 54, 0.6516586244106293, 2043, 2044 },
  { 1, -0.23895517736673355, 8, 11 },
  { 79, 0.784416526556015, 11, 8 },
  { 68, -0.24862783402204514, 2046, 11 },
  { 11, -0.8889244496822357, 2047, 2048 },
  { 31, -0.5629897899925709, 11, 8 },
  { 20, -0.8552038967609406, 2049, 2050 },
  { 70, -1.7033917903900146, 8, 11 },
  { 73, -1.8985520005226135, 11, 8 },
  { 76, 0.5514482855796814, 2052, 2112 },
  { 46, -0.07333117350935936, 2053, 2084 },
  { 62, 0.5499131381511688, 2054, 2071 },
  { 50, -0.27316993474960327, 2055, 2068 },
  { 15, 1.3060787916183472, 2056, 2063 },
  { 55, -1.2339856624603271, 2057, 2060 },
  { 16, 0.7100579738616943, 2058, 2059 },
  { 44, 0.08152861148118973, 123, 130 },
  { 4, 1.2346399426460266, 130, 123 },
  { 9, 1.141899824142456, 2061, 2062 },
  { 37, -0.9347472190856934, 22, 123 },
  { 22, 0.7443523705005646, 130, 123 },
  { 20, 1.780566394329071, 2064, 2067 },
  { 5, 1.4124878644943237, 2065, 2066 },
  { 6, 1.5316632390022278, 123, 130 },
  { 56, 0.4723806381225586, 130, 123 },
  { 5, 1.0895212888717651, 130, 123 },
  { 3, 0.6230639815330505, 2069, 2070 },
  { 21, 0.20734615623950958, 130, 123 },
  { 29, -1.7554211616516113, 123, 130 },
  { 3, 1.4551600813865662, 2072, 2083 },
  { 9, 1.0591232776641846, 2073, 2078 },
  { 45, 0.1283123418688774, 2074, 2077 },
  { 57, -0.23065010458230972, 2075, 2076 },
  { 42, 0.6296556890010834, 123, 130 },
  { 45, -0.3875437378883362, 123, 22 },
  { 45, 1.1915086209774017, 22, 123 },
  { 18, 1.0120232701301575, 2079, 2081 },
  { 43, -0.07094516605138779, 2080, 130 },
  { 6, 0.9055526852607727, 123, 22 },
  { 17, 1.4853329062461853, 130, 2082 },
  { 12, -1.6746478080749512, 130, 123 },
  { 22, 1.4544705152511597, 130, 123 },
  { 68, 0.15904605388641357, 2085, 2092 },
  { 9, 1.637003779411316, 2086, 2091 },
  { 0, 1.0453090071678162, 2087, 2090 },
  { 59, -0.1419440433382988, 130, 2088 },
  { 66, -0.06951859220862389, 2089, 130 },
  { 70, 0.24830614030361176, 123, 130 },
  { 78, 0.17026520520448685, 123, 22 },
  { 68, 0.14731646329164505, 130, 123 },
  { 6, 1.3597147464752197, 2093, 2103 },
  { 37, -0.13353405892848969, 2094, 2099 },
  { 72, 0.6496101915836334, 2095, 2097 },
  { 53, -0.8527626991271973, 22, 2096 },
  { 47, -0.18125253915786743, 123, 130 },
  { 9, 1.5427663326263428, 2098, 130 },
  { 47, -0.24066569656133652, 123, 22 },
  { 41, -0.8535293936729431, 2100, 2101 },
  { 24, 1.2116844058036804, 22, 123 },
  { 73, -0.634171336889267, 8, 2102 },
  { 58, -0.5846640765666962, 130, 123 },
  { 6, 1.6564029455184937, 2104, 2109 },
  { 19, 1.6409735083580017, 2105, 2107 },
  { 59, 1.7714295983314514, 2106, 22 },
  { 24, 0.3376358300447464, 22, 130 },
  { 44, -0.31249576807022095, 123, 2108 },
  { 4, 1.3842645287513733, 130, 123 },
  { 16, 1.7542288899421692, 2110, 130 },
  { 40, 0.4323972314596176, 22, 2111 },
  { 12, -1.5804345607757568, 123, 130 },
  { 37, -0.07514610514044762, 2113, 2139 },
  { 41, -0.38643212616443634, 2114, 2133 },
  { 3, 1.5147600769996643, 2115, 2128 },
  { 16, 0.9784590899944305, 2116, 2123 },
  { 66, 0.07928698882460594, 2117, 2120 },
  { 70, -0.21508217602968216, 2118, 2119 },
  { 51, -0.6371123641729355, 123, 123 },
  { 75, -0.6213660538196564, 22, 123 },
  { 40, 0.5533252358436584, 2121, 2122 },
  { 70, 0.014646975789219141, 22, 22 },
  { 74, 0.5350693017244339, 123, 22 },
  { 24, 1.3963529467582703, 2124, 2127 },
  { 36, -0.22818652540445328, 2125, 2126 },
  { 10, 0.6336795389652252, 130, 22 },
  { 18, 4.153829574584961, 22, 130 },
  { 74, 1.087476670742035, 130, 22 },
  { 24, 0.483666256070137, 2129, 2131 },
  { 55, -0.5448651313781738, 130, 2130 },
  { 30, -0.4076071232557297, 130, 22 },
  { 23, 0.6580663323402405, 22, 2132 },
  { 50, -0.8487410843372345, 22, 130 },
  { 3, 0.3960698992013931, 2134, 2136 },
  { 52, -0.7809734269976616, 4, 2135 },
  { 47, 0.3628072142601013, 8, 11 },
  { 60, 4.905703902244568, 2137, 4 },
  { 32, 0.7604145109653473, 130, 2138 },
  { 21, 0.8380805850028992, 123, 130 },
  { 70, 0.35755737125873566, 2140, 2147 },
  { 6, 1.0818339586257935, 2141, 2146 },
  { 76, 1.1080726981163025, 2142, 2145 },
  { 49, 0.3605300337076187, 2143, 123 },
  { 26, 0.08489003591239452, 123, 2144 },
  { 72, -0.4394521340727806, 123, 22 },
  { 68, -0.005083233118057251, 8, 22 },
  { 58, -0.5794950127601624, 22, 130 },
  { 9, 0.1948327198624611, 2148, 2153 },
  { 7, 0.32750730216503143, 2149, 123 },
  { 19, -0.7763231992721558, 2150, 2151 },
  { 42, -0.25140759348869324, 8, 11 },
  { 11, 0.7357115745544434, 8, 2152 },
  { 61, 6.167252063751221, 4, 11 },
  { 73, -0.6681531071662903, 22, 2154 },
  { 18, 1.5679592490196228, 22, 123 },
  { 9, -0.280240073800087, 2156, 2217 },
  { 53, 0.9223172068595886, 2157, 2209 },
  { 50, -0.3010357916355133, 2158, 2180 },
  { 52, -0.8733860217034817, 4, 2159 },
  { 20, -0.9430678188800812, 2160, 2162 },
  { 53, -0.46351177990436554, 8, 2161 },
  { 73, -0.0673279482871294, 8, 11 },
  { 4, -0.9588563740253448, 2163, 2167 },
  { 37, -0.1402503252029419, 2164, 2165 },
  { 28, 0.07551424205303192, 11, 8 },
  { 40, 0.46246005594730377, 11, 2166 },
  { 39, 0.7894392907619476, 8, 11 },
  { 51, -0.42810748517513275, 2168, 2175 },
  { 52, 0.5746879279613495, 2169, 2172 },
  { 13, 0.42645010352134705, 2170, 2171 },
  { 51, -0.9356153905391693, 11, 8 },
  { 53, -0.25937584042549133, 8, 11 },
  { 29, -0.09883345477283001, 2173, 2174 },
  { 9, -0.8677864968776703, 8, 11 },
  { 71, 0.27788256853818893, 8, 11 },
  { 58, -0.27060090005397797, 2176, 2178 },
  { 14, 0.45803023874759674, 2177, 8 },
  { 13, 0.6505832672119141, 8, 11 },
  { 3, -0.8721546232700348, 2179, 8 },
  { 10, -0.9219426512718201, 8, 11 },
  { 55, -0.4114399403333664, 2181, 2201 },
  { 51, 1.5801377296447754, 2182, 4 },
  { 14, 0.7281409204006195, 2183, 2191 },
  { 61, -0.4100884348154068, 11, 2184 },
  { 63, 0.4184560626745224, 2185, 2188 },
  { 77, 0.5734808593988419, 2186, 2187 },
  { 24, -1.3771017789840698, 11, 8 },
  { 61, 1.6326398849487305, 11, 8 },
  { 57, -0.6158904433250427, 2189, 2190 },
  { 42, -0.35217057168483734, 11, 8 },
  { 6, -0.832622766494751, 11, 11 },
  { 39, -1.0317973494529724, 2192, 2195 },
  { 15, -0.8937667608261108, 2193, 11 },
  { 15, -0.9383604526519775, 11, 2194 },
  { 58, -0.5768430233001709, 11, 8 },
  { 40, 0.5869127511978149, 2196, 2198 },
  { 29, 2.2721762657165527, 2197, 8 },
  { 74, 1.958247721195221, 11, 8 },
  { 18, -0.6935600936412811, 2199, 2200 },
  { 52, 0.6126629710197449, 11, 8 },
  { 1, -0.2677878066897392, 8, 11 },
  { 4, -0.029300332069396973, 2202, 2205 },
  { 51, 2.0838767290115356, 2203, 4 },
  { 1, -1.40615975856781, 8, 2204 },
  { 78, 1.561239242553711, 11, 8 },
  { 6, -0.27865055203437805, 2206, 4 },
  { 73, -1.4182937741279602, 2207, 4 },
  { 14, 0.38751736283302307, 2208, 11 },
  { 56, -0.644056037068367, 4, 11 },
  { 69, -2.050442934036255, 2210, 2211 },
  { 43, 1.6737049221992493, 11, 4 },
  { 41, 1.3290334939956665, 2212, 2213 },
  { 49, -0.8076696693897247, 4, 11 },
  { 79, 0.9889177083969116, 2214, 2215 },
  { 55, 2.4458463191986084, 4, 11 },
  { 49, -1.1722578406333923, 4, 2216 },
  { 63, 2.5962154269218445, 11, 4 },
  { 75, -0.6238572597503662, 2218, 2250 },
  { 69, -0.06058105640113354, 2219, 2234 },
  { 6, 2.0194023847579956, 2220, 130 },
  { 59, 3.661628484725952, 2221, 2232 },
  { 24, 1.5603856444358826, 2222, 2231 },
  { 16, -0.24251725524663925, 2223, 2224 },
  { 74, 0.9696052074432373, 123, 22 },
  { 41, -0.4182894378900528, 2225, 2228 },
  { 28, -1.534199833869934, 2226, 2227 },
  { 76, 1.1181648075580597, 22, 123 },
  { 38, -1.5716463923454285, 130, 22 },
  { 38, 0.005311496555805206, 2229, 2230 },
  { 17, -0.034180976334027946, 130, 22 },
  { 29, -0.26358383521437645, 130, 123 },
  { 1, -1.334328055381775, 22, 130 },
  { 5, 0.7069722712039948, 4, 2233 },
  { 24, 0.8787576705217361, 22, 11 },
  { 76, 1.1361794471740723, 2235, 2247 },
  { 37, -0.5082030892372131, 2236, 2239 },
  { 57, -0.284601166844368, 2237, 22 },
  { 28, -0.6855234205722809, 22, 2238 },
  { 16, 0.3573674261569977, 22, 130 },
  { 69, 0.08826182037591934, 2240, 2241 },
  { 16, -0.043906514532864094, 123, 22 },
  { 20, 1.3411300778388977, 2242, 2245 },
  { 16, 1.2303259074687958, 2243, 130 },
  { 2, -2.3186761140823364, 22, 2244 },
  { 17, -0.147775586694479, 22, 123 },
  { 57, -0.47269968688488007, 130, 2246 },
  { 67, 0.039616480469703674, 22, 123 },
  { 7, 1.105949878692627, 2248, 2249 },
  { 14, -0.10520650586113334, 22, 130 },
  { 60, 0.0011656619608402252, 123, 130 },
  { 6, 1.2574658393859863, 2251, 2293 },
  { 41, -0.8640187680721283, 2252, 2260 },
  { 67, -0.045029643923044205, 2253, 2255 },
  { 65, 0.09430785104632378, 2254, 123 },
  { 2, 1.4944337606430054, 22, 130 },
  { 15, 0.5999657809734344, 22, 2256 },
  { 73, -0.30028635263442993, 22, 2257 },
  { 3, 1.1332694292068481, 123, 2258 },
  { 24, 1.3794734477996826, 2259, 123 },
  { 65, 0.3306678980588913, 130, 22 },
  { 9, 1.1532110571861267, 2261, 2279 },
  { 67, -0.8264281749725342, 2262, 2270 },
  { 51, -0.026089070364832878, 2263, 2268 },
  { 24, 0.9110477864742279, 2264, 2266 },
  { 71, -0.783320426940918, 22, 2265 },
  { 6, 1.025057703256607, 123, 22 },
  { 42, -1.3065102100372314, 22, 2267 },
  { 67, -0.9493683874607086, 123, 130 },
  { 57, -0.5712920129299164, 130, 2269 },
  { 37, 0.689139798283577, 123, 4 },
  { 0, -1.5699575543403625, 2271, 2273 },
  { 69, -0.010003939270973206, 2272, 123 },
  { 19, 0.806933730840683, 22, 130 },
  { 37, -0.7361632883548737, 2274, 2276 },
  { 39, 0.7221981883049011, 2275, 123 },
  { 22, 0.9568711817264557, 130, 22 },
  { 15, 1.264585793018341, 2277, 2278 },
  { 66, 0.6324552297592163, 123, 123 },
  { 40, 0.3267211765050888, 22, 123 },
  { 37, -0.5006463080644608, 2280, 2286 },
  { 12, -1.3300353288650513, 2281, 2283 },
  { 11, 1.2627242803573608, 2282, 130 },
  { 76, 0.05955824628472328, 123, 22 },
  { 58, -0.5784449875354767, 2284, 130 },
  { 75, -0.06012461893260479, 22, 2285 },
  { 33, 0.6038253605365753, 130, 123 },
  { 60, 0.510249674320221, 2287, 2292 },
  { 47, -0.10515781491994858, 2288, 2290 },
  { 70, -0.35813529789447784, 123, 2289 },
  { 70, -0.3226564973592758, 22, 123 },
  { 37, -0.04767250455915928, 2291, 123 },
  { 14, -0.5709728896617889, 130, 22 },
  { 72, 0.5418682396411896, 130, 22 },
  { 57, -0.2636600732803345, 2294, 2306 },
  { 72, -0.9188461601734161, 2295, 2297 },
  { 53, -0.4547673910856247, 2296, 130 },
  { 22, 1.048387348651886, 130, 123 },
  { 9, 1.0794267058372498, 2298, 2299 },
  { 66, 0.816576361656189, 123, 130 },
  { 67, 0.6728128492832184, 2300, 2305 },
  { 23, 0.5234001874923706, 2301, 2302 },
  { 23, 0.4632209539413452, 130, 123 },
  { 26, 3.039034843444824, 2303, 2304 },
  { 67, 0.5309271812438965, 130, 130 },
  { 70, -0.6386412307620049, 123, 130 },
  { 6, 1.506784439086914, 130, 123 },
  { 38, -0.7696980535984039, 2307, 22 },
  { 71, -0.14974404871463776, 130, 22 },
  { 56, -1.5896425247192383, 4, 2309 },
  { 19, -0.21723733842372894, 2310, 2353 },
  { 50, -0.29099027812480927, 2311, 2330 },
  { 51, 0.46850304305553436, 2312, 2326 },
  { 54, -0.398377925157547, 2313, 8 },
  { 62, -0.8825173079967499, 2314, 2322 },
  { 65, 1.7595958709716797, 2315, 2321 },
  { 41, -0.801773875951767, 2316, 2319 },
  { 6, -0.8617663681507111, 2317, 2318 },
  { 44, -0.3398214876651764, 8, 11 },
  { 10, -0.5959570854902267, 11, 8 },
  { 49, 0.5382148623466492, 8, 2320 },
  { 65, 1.0132272839546204, 8, 11 },
  { 49, 0.5310537815093994, 8, 11 },
  { 50, -0.33638906478881836, 2323, 11 },
  { 9, -0.02700096368789673, 2324, 123 },
  { 68, -0.1514955312013626, 8, 2325 },
  { 57, -0.5270314812660217, 11, 8 },
  { 40, 0.45833322405815125, 8, 2327 },
  { 3, -0.868981271982193, 2328, 2329 },
  { 2, 0.13648318499326706, 11, 8 },
  { 0, -0.18301011994481087, 11, 8 },
  { 57, -0.5782048106193542, 2331, 2347 },
  { 56, 0.5846015810966492, 2332, 2334 },
  { 20, -0.5578857660293579, 11, 2333 },
  { 16, -0.6795256435871124, 11, 8 },
  { 51, -0.7286932170391083, 8, 2335 },
  { 54, -0.5098169445991516, 2336, 2341 },
  { 39, -1.4064669609069824, 2337, 2338 },
  { 60, -0.03570958971977234, 8, 11 },
  { 74, 1.7035844326019287, 2339, 2340 },
  { 41, 0.12505464628338814, 11, 11 },
  { 20, -0.7816965281963348, 8, 11 },
  { 55, -1.8687999248504639, 2342, 2344 },
  { 53, -0.027534409426152706, 2343, 11 },
  { 41, -0.04634984489530325, 8, 11 },
  { 9, -0.7929566502571106, 2345, 2346 },
  { 50, 0.11603998392820358, 11, 11 },
  { 54, 0.07854355871677399, 8, 11 },
  { 22, 0.8744911551475525, 2348, 2352 },
  { 48, 12.710863590240479, 2349, 8 },
  { 50, 0.1741957888007164, 2350, 11 },
  { 54, -0.641026496887207, 2351, 11 },
  { 21, -0.7120782434940338, 8, 11 },
  { 9, -0.6292433440685272, 8, 11 },
  { 61, 0.004122512182220817, 2354, 2403 },
  { 3, 1.4109322428703308, 2355, 2389 },
  { 76, 0.5706005990505219, 2356, 2373 },
  { 53, -0.8691954016685486, 2357, 2362 },
  { 45, -0.34871186316013336, 2358, 2359 },
  { 58, -0.23625332117080688, 123, 22 },
  { 66, -0.1874472051858902, 2360, 22 },
  { 13, -0.9867992103099823, 2361, 123 },
  { 12, -1.0248016715049744, 22, 123 },
  { 3, 1.0434148907661438, 2363, 2369 },
  { 67, -0.8264281749725342, 2364, 2366 },
  { 57, -0.5065469443798065, 130, 2365 },
  { 12, -1.0598611235618591, 22, 123 },
  { 37, -0.7273119688034058, 2367, 2368 },
  { 13, -0.875253826379776, 123, 22 },
  { 0, 1.7826657891273499, 123, 123 },
  { 50, -0.3719845414161682, 2370, 2372 },
  { 33, -1.340858280658722, 22, 2371 },
  { 19, 1.1050513982772827, 130, 123 },
  { 11, 0.38289107382297516, 123, 130 },
  { 3, 0.594607949256897, 2374, 2380 },
  { 74, 0.6122062802314758, 2375, 2376 },
  { 31, 2.0057678818702698, 123, 22 },
  { 70, -0.3095084875822067, 2377, 2378 },
  { 49, 0.17407766729593277, 22, 123 },
  { 43, -0.3064468652009964, 123, 2379 },
  { 5, 1.324857473373413, 22, 123 },
  { 69, 0.04285324178636074, 2381, 2384 },
  { 50, -0.39320969581604004, 2382, 2383 },
  { 75, -0.5185930132865906, 22, 123 },
  { 58, -0.3450372666120529, 123, 130 },
  { 16, 0.7910113036632538, 2385, 2388 },
  { 67, -0.3496134430170059, 2386, 2387 },
  { 39, -0.16284463554620743, 130, 22 },
  { 21, 0.6450615525245667, 123, 123 },
  { 57, -0.2640436142683029, 130, 22 },
  { 22, 1.2168678641319275, 2390, 2397 },
  { 57, -0.03806560207158327, 2391, 22 },
  { 47, -0.34530965983867645, 2392, 2393 },
  { 1, -0.626342236995697, 123, 130 },
  { 15, 1.0439741015434265, 2394, 2395 },
  { 1, 0.041596557945013046, 22, 130 },
  { 49, 0.6317388713359833, 2396, 22 },
  { 65, 1.6063427925109863, 130, 123 },
  { 26, 0.5986701846122742, 2398, 2400 },
  { 11, 1.7344123125076294, 22, 2399 },
  { 44, -0.016269391402602196, 123, 130 },
  { 62, 0.9043405055999756, 2401, 22 },
  { 76, 0.4321231096982956, 2402, 22 },
  { 17, 1.7317482829093933, 123, 130 },
  { 70, 0.2915167659521103, 2404, 2435 },
  { 41, -0.8452212512493134, 2405, 2409 },
  { 52, 0.5043289661407471, 2406, 123 },
  { 39, 0.8349948227405548, 22, 2407 },
  { 30, 0.8172497525811195, 2408, 22 },
  { 74, -0.5419980920851231, 130, 123 },
  { 44, -0.1372791826725006, 2410, 2422 },
  { 16, 0.8873814642429352, 2411, 2417 },
  { 76, 0.8242524862289429, 2412, 2414 },
  { 16, 0.4375339150428772, 123, 2413 },
  { 70, -0.3570494381710887, 123, 22 },
  { 60, -0.27312541007995605, 2415, 2416 },
  { 38, 0.6196791976690292, 130, 123 },
  { 42, -0.059600938111543655, 22, 123 },
  { 9, 1.4475489854812622, 2418, 2420 },
  { 23, 1.0306691527366638, 2419, 123 },
  { 0, -0.3444201648235321, 22, 130 },
  { 20, 1.6027207970619202, 130, 2421 },
  { 41, -0.6008012890815735, 130, 123 },
  { 3, 0.9787724912166595, 2423, 2429 },
  { 65, -0.32093505561351776, 2424, 2427 },
  { 9, 0.8039001524448395, 2425, 2426 },
  { 49, 0.4501621872186661, 22, 123 },
  { 74, 0.8158641457557678, 130, 22 },
  { 11, 2.1257015466690063, 2428, 130 },
  { 21, 0.2760044187307358, 130, 123 },
  { 16, 1.2506380677223206, 2430, 2433 },
  { 22, 1.1259436011314392, 2431, 2432 },
  { 10, 1.612027645111084, 130, 130 },
  { 52, 0.5046130418777466, 22, 123 },
  { 9, 1.0179043114185333, 123, 2434 },
  { 45, 1.77961266040802, 130, 130 },
  { 9, 1.628968596458435, 2436, 2453 },
  { 50, -0.3082745373249054, 2437, 2447 },
  { 11, 0.4350181370973587, 2438, 2442 },
  { 53, -0.5919966995716095, 2439, 2441 },
  { 14, -2.004464089870453, 130, 2440 },
  { 19, 1.273904025554657, 22, 130 },
  { 74, 0.4893001914024353, 130, 123 },
  { 28, 1.5544177889823914, 2443, 2445 },
  { 37, -1.4410110116004944, 130, 2444 },
  { 74, 0.21012082695960999, 22, 22 },
  { 25, -0.6615647673606873, 2446, 130 },
  { 54, -1.3643065094947815, 123, 22 },
  { 59, 0.26095693185925484, 2448, 2449 },
  { 57, -0.5697687268257141, 130, 123 },
  { 78, -0.40836088359355927, 2450, 2452 },
  { 19, 1.1435503959655762, 2451, 4 },
  { 55, 0.948361873626709, 130, 11 },
  { 55, -1.2215036749839783, 130, 22 },
  { 48, 0.026405119337141514, 22, 2454 },
  { 34, 1.2820649147033691, 130, 2455 },
  { 13, -1.5036276578903198, 22, 130 },
  { 40, -0.9647329747676849, 4, 2457 },
  { 9, -0.2773011326789856, 2458, 2527 },
  { 56, 0.22968534380197525, 2459, 2461 },
  { 42, -1.0925031304359436, 8, 2460 },
  { 51, 2.044274926185608, 11, 4 },
  { 57, -0.5350934863090515, 2462, 2504 },
  { 56, 0.6801852285861969, 2463, 2483 },
  { 17, -0.7760054171085358, 2464, 2472 },
  { 61, -0.36615729331970215, 2465, 2469 },
  { 10, -0.8947838842868805, 2466, 8 },
  { 0, 0.10793498530983925, 2467, 2468 },
  { 67, 2.283361077308655, 11, 11 },
  { 11, -0.8306302428245544, 8, 11 },
  { 79, 1.0947200655937195, 2470, 11 },
  { 53, 0.14839473366737366, 2471, 11 },
  { 46, -0.42631790041923523, 11, 8 },
  { 41, -0.24996402114629745, 2473, 2477 },
  { 55, 0.5332485288381577, 2474, 11 },
  { 79, 1.2907803058624268, 2475, 2476 },
  { 65, 2.70254909992218, 8, 11 },
  { 45, -0.3894912451505661, 8, 11 },
  { 51, -0.5554065406322479, 2478, 2480 },
  { 52, 0.5981147885322571, 2479, 11 },
  { 57, -0.6044795513153076, 11, 8 },
  { 21, -0.7332971692085266, 2481, 2482 },
  { 52, 0.6057342886924744, 11, 8 },
  { 66, -1.650425672531128, 8, 11 },
