#include <stdlib.h>
                            #include <stdint.h>
                            #include <math.h>
                            #include <string.h>
                            #pragma once
#include <stdarg.h>
namespace Eloquent {
    namespace ML {
        namespace Port {
            class PCA {
                public:
                    /**
                    * Apply dimensionality reduction
                    * @warn Will override the source vector if no dest provided!
                    */
                    void transform(float *x, float *dest = NULL) {
                        static float u[40] = { 0 };
                        u[0] = dot(x,   0.06152058  , 0.05789791  , 0.06658256  , 0.06854107  , 0.06576489  , -0.06227744  , -0.06831891  , -0.06866681  , 0.06874826  , 0.018890262  , 0.07394288  , 0.074638784  , 0.0652263  , -0.07105111  , -0.07678989  , -0.07174862  , 0.10785455  , 0.091719404  , 0.098785914  , 0.079172716  , 0.028800221  , -0.10990255  , -0.10582448  , -0.082287006  , 0.106497124  , 0.089342356  , 0.09673958  , 0.07238123  , 0.028478684  , -0.10870424  , -0.07665143  , -0.03289883  , 0.10043838  , 0.083656885  , 0.0999977  , 0.08529795  , 0.0723087  , -0.100253634  , -0.06490474  , -0.020055227  , 0.10090098  , 0.08110861  , 0.09968096  , 0.08162952  , 0.06838526  , -0.101109125  , -0.09069045  , -0.027847465  , 0.111319885  , 0.09359249  , 0.10842651  , 0.09089631  , 0.08646297  , -0.11252924  , -0.11004206  , -0.07861942  , 0.11108536  , 0.09319179  , 0.10666379  , 0.08817412  , 0.08346674  , -0.112563536  , -0.11003555  , -0.072698206  , 0.0711406  , 0.061374985  , 0.077421114  , 0.07935848  , 0.07462305  , -0.07256816  , -0.078453586  , -0.070706576  , 0.069894485  , 0.062293123  , 0.075650364  , 0.0773277  , 0.07440491  , -0.07072607  , -0.07721985  , -0.07159537  , 0.10996046  , 0.0955541  , 0.10390156  , 0.089426465  , 0.09157163  , -0.11073097  , -0.10935923  , -0.08584202  , 0.11025209  , 0.094852224  , 0.103381015  , 0.08761082  , 0.08700807  , -0.11158112  , -0.11027171  , -0.085309185  , 0.10806227  , 0.08848926  , 0.10305137  , 0.0865207  , 0.07879297  , -0.110353366  , -0.10528826  , -0.044123545  , 0.10423472  , 0.084066786  , 0.098877676  , 0.08318773  , 0.07626617  , -0.10656541  , -0.10115517  , -0.042668138  , 0.11071246  , 0.095697  , 0.110782325  , 0.09298504  , 0.090794325  , -0.1109778  , -0.108980596  , -0.082880475  , 0.1105166  , 0.09537599  , 0.111149944  , 0.09519133  , 0.09283134  , -0.1112547  , -0.108730406  , -0.081619084 );
                        u[1] = dot(x,   -0.16286424  , -0.029214436  , -0.1551289  , -0.15009807  , -0.13485721  , 0.15905592  , 0.15323192  , 0.1332334  , -0.16272151  , -0.009924977  , -0.15443279  , -0.1492164  , -0.1246564  , 0.16234773  , 0.14972441  , 0.120676436  , 0.0383827  , 0.038153633  , 0.10646632  , 0.13750453  , 0.057557475  , -0.036237143  , -0.035370387  , -0.007405264  , 0.046728708  , 0.04476499  , 0.112405606  , 0.13005085  , 0.05519362  , -0.04570325  , -0.04062162  , -0.020292422  , -0.04796714  , -0.016047124  , -0.0007333602  , 0.045769874  , 0.05951805  , 0.04363093  , 0.015042834  , -0.005510388  , -0.036280293  , -0.011183563  , 0.013113756  , 0.056517456  , 0.068760954  , 0.03303897  , 0.020335065  , -0.00017579678  , 0.0049824994  , 0.025300547  , 0.075008206  , 0.1298953  , 0.13271229  , 0.0033679912  , 0.0038939454  , 0.013394756  , 0.011994742  , 0.029298974  , 0.08339062  , 0.1352182  , 0.13852924  , -0.0046404647  , -0.0065992502  , 0.003143988  , -0.16055718  , -0.044570006  , -0.15170978  , -0.14757416  , -0.14082222  , 0.1590554  , 0.15074521  , 0.11602855  , -0.15930058  , -0.05001217  , -0.15235606  , -0.14858711  , -0.14482825  , 0.15783545  , 0.15467978  , 0.120509505  , 0.01771281  , 0.022620201  , 0.087605335  , 0.1302817  , 0.11787631  , -0.011795168  , -0.0066342875  , 0.026505226  , 0.023626836  , 0.028676609  , 0.092061944  , 0.13371164  , 0.12380085  , -0.018773383  , -0.014370631  , 0.02084451  , -0.007230395  , 0.009441068  , 0.04451096  , 0.08091597  , 0.08629094  , 0.005315762  , 0.00026774016  , 0.009445793  , 0.011646137  , 0.023617217  , 0.06319414  , 0.09332537  , 0.09548408  , -0.016182967  , -0.017392244  , 0.0032699585  , -0.014070495  , 0.010848844  , 0.05604193  , 0.120825104  , 0.11858802  , 0.02508736  , 0.024286523  , 0.03711838  , -0.012576882  , 0.011329594  , 0.053103153  , 0.11477226  , 0.11511346  , 0.024431283  , 0.026476327  , 0.03560389 );
                        u[2] = dot(x,   -0.08556007  , -0.15344732  , -0.09251026  , -0.089022286  , -0.03616753  , 0.052748587  , -0.027922396  , -0.13961025  , -0.06164711  , -0.053630773  , -0.070835054  , -0.06788151  , 0.0041938717  , 0.016061977  , -0.08356778  , -0.16313362  , -0.027236516  , -0.01050108  , -0.009974191  , -0.01976396  , 0.015728911  , -0.03700837  , -0.09923844  , -0.18479557  , -0.02804537  , -0.0045069125  , -0.008137643  , 0.020680096  , 0.0662112  , -0.03993397  , -0.10049529  , -0.115731  , -0.07675613  , -0.037138283  , -0.09037422  , -0.11319101  , -0.088103  , 0.01087573  , -0.0836983  , -0.14171983  , -0.0890596  , -0.034035098  , -0.10152757  , -0.11469738  , -0.08679181  , 0.040496558  , -0.06296693  , -0.18831354  , -0.043003935  , -0.02592366  , -0.02860618  , -0.019631641  , -0.0056685605  , -0.037841946  , -0.09350096  , -0.2141318  , -0.040317327  , -0.023923513  , -0.02602696  , -0.019256216  , -0.0058137123  , -0.03707625  , -0.089437045  , -0.20569423  , -0.08096571  , -0.16218907  , -0.08592584  , -0.07957145  , -0.02732959  , 0.035056002  , -0.058076393  , -0.15527159  , -0.0946934  , -0.16069102  , -0.09546477  , -0.087637395  , -0.039191633  , 0.04896909  , -0.033205394  , -0.1477129  , -0.026413564  , -0.0092772385  , -0.017339235  , -0.009947837  , 0.012501943  , -0.04450984  , -0.09539779  , -0.21495111  , -0.026968086  , -0.016720863  , -0.019094398  , -0.012597464  , 0.008577633  , -0.04016548  , -0.09085509  , -0.21934533  , -0.08223053  , -0.033983357  , -0.08613396  , -0.09688711  , -0.07523562  , 0.027564531  , -0.0560758  , -0.20522046  , -0.08649143  , -0.029957065  , -0.087916434  , -0.09804922  , -0.07826945  , 0.047343764  , -0.040949374  , -0.19255126  , -0.036418486  , -0.028294683  , -0.023898048  , -0.015430653  , -0.0032147767  , -0.049402572  , -0.095735416  , -0.21104836  , -0.04354136  , -0.031666018  , -0.032532252  , -0.02392375  , -0.0122896815  , -0.042566046  , -0.09778562  , -0.2102156 );
                        u[3] = dot(x,   -0.07708677  , -0.014827563  , -0.080154  , -0.08473851  , -0.08853716  , 0.079332516  , 0.075353034  , 0.043785248  , -0.06758647  , 0.0016180058  , -0.07330436  , -0.07899809  , -0.070367455  , 0.07394942  , 0.04671934  , 0.013219552  , -0.005541328  , 0.16887659  , -0.03760696  , -0.08769739  , -0.043280534  , 0.019204225  , 0.016302217  , 0.06594336  , -0.0018199703  , 0.18226856  , -0.031321846  , -0.050044887  , 0.007803922  , 0.013095263  , -0.0197499  , -0.032441292  , 0.13854915  , 0.26721308  , 0.10781464  , 0.041707978  , 0.015692709  , -0.16178031  , -0.14149818  , -0.0726532  , 0.13527824  , 0.2755098  , 0.10142254  , 0.024169317  , -0.004975831  , -0.15732805  , -0.17385852  , -0.070975274  , -0.039614275  , 0.16519141  , -0.055953268  , -0.09216186  , -0.11074661  , 0.028916096  , 0.02726817  , 0.05126301  , -0.03786583  , 0.17105503  , -0.057571575  , -0.09646798  , -0.11537108  , 0.029724143  , 0.03133576  , 0.061978336  , -0.056536857  , 0.010585663  , -0.05137679  , -0.0461011  , -0.045050617  , 0.057056382  , 0.032352537  , -0.0075327978  , -0.042555045  , 0.021695226  , -0.032413453  , -0.026425838  , -0.028364547  , 0.041582137  , 0.026271276  , -0.0077432655  , -0.040321186  , 0.14641085  , -0.059132807  , -0.08478654  , -0.08891138  , 0.034470957  , 0.028356057  , 0.010843703  , -0.030411856  , 0.15957943  , -0.054367777  , -0.09123652  , -0.09473179  , 0.03438033  , 0.0257216  , -0.0012536295  , 0.044839576  , 0.24092498  , -0.008643655  , -0.07632287  , -0.071141824  , -0.076129705  , -0.0948845  , -0.06514338  , 0.051221386  , 0.24917814  , -0.0073238793  , -0.07926285  , -0.07639789  , -0.08675247  , -0.10899576  , -0.07655282  , -0.056928802  , 0.14114149  , -0.066250585  , -0.09502778  , -0.105504975  , 0.030788373  , 0.019788686  , 0.018677663  , -0.06070273  , 0.14515594  , -0.06759288  , -0.09350208  , -0.10357262  , 0.03499008  , 0.022017691  , 0.020379324 );
                        u[4] = dot(x,   -0.025676953  , 0.17862384  , -0.0038924254  , 0.011492702  , -0.0030877541  , -0.0030675381  , -0.0077205086  , 0.021746222  , -0.03849746  , 0.06647072  , -0.00998743  , 0.011521948  , -0.007476084  , 0.0033602442  , 0.0038650353  , 0.041197192  , -0.105900764  , -0.155274  , -0.060974155  , -0.0138234105  , 0.04881409  , 0.09057925  , 0.039170094  , -0.006356006  , -0.10443088  , -0.14240132  , -0.05581458  , 0.05522684  , 0.13126335  , 0.07479805  , -0.047962558  , -0.118743  , 0.019419441  , -0.025740748  , 0.104080364  , 0.16575342  , 0.19955966  , -0.0533022  , -0.17131242  , -0.21573186  , 0.014353121  , -0.03124135  , 0.10579003  , 0.1681495  , 0.20313205  , -0.023211548  , -0.13546006  , -0.23071843  , -0.06807245  , -0.13244894  , -0.034300063  , -0.0021607757  , 0.0127257025  , 0.05570107  , 0.023385635  , -0.072462544  , -0.0695076  , -0.13486172  , -0.03648641  , -0.005809117  , 0.011237753  , 0.057349063  , 0.026228422  , -0.0817148  , -0.0054142564  , 0.16534421  , 0.016683955  , 0.026123589  , 0.0051071947  , -0.027925279  , -0.0058122203  , 0.034264557  , -0.003161216  , 0.15551196  , 0.011368913  , 0.017485915  , -0.00037953258  , -0.024455234  , -0.010859939  , 0.02802607  , -0.09708068  , -0.14365579  , -0.07829107  , -0.05083814  , -0.044935796  , 0.08398811  , 0.055548087  , -0.018503623  , -0.09116671  , -0.14306912  , -0.06459142  , -0.033166204  , -0.022888787  , 0.077212654  , 0.046387568  , -0.037967753  , 0.035129867  , -0.020043185  , 0.116378576  , 0.16338125  , 0.19005714  , -0.034049768  , -0.1049302  , -0.1985802  , 0.028174179  , -0.02395509  , 0.10608854  , 0.15726379  , 0.1824842  , -0.02802432  , -0.10006394  , -0.19794494  , -0.05964484  , -0.12476206  , -0.033170033  , -0.01983508  , -0.016934477  , 0.05083502  , 0.028816072  , -0.04063461  , -0.054442268  , -0.11961457  , -0.020420937  , -0.0011673912  , 0.0031537784  , 0.044925917  , 0.01478795  , -0.0576023 );
                        u[5] = dot(x,   0.09524694  , -0.109222524  , 0.083127014  , 0.07631119  , 0.0871236  , -0.057134286  , -0.035964806  , 0.033356715  , 0.07811458  , -0.050901774  , 0.06342414  , 0.05568367  , 0.053402785  , -0.030675717  , -0.0040199924  , 0.062273387  , 0.045725707  , 0.002650729  , 0.063735664  , 0.05755974  , 0.21317104  , -0.0011771563  , -0.009650492  , 0.09254864  , 0.043650184  , 0.027196134  , 0.075529024  , 0.20362324  , 0.37477463  , -0.05228652  , -0.26869854  , -0.3319919  , -0.0124501  , -0.03430152  , -0.049335115  , -0.06710399  , -0.08866798  , -0.02272253  , -0.2678137  , -0.3379516  , 0.004306594  , -0.03032636  , -0.029379096  , -0.048324674  , -0.06730819  , 0.015296799  , -0.10524101  , -0.15852287  , 0.037951916  , 0.010264502  , 0.01670505  , 0.0037784711  , 0.016124796  , 0.026882755  , 0.06164267  , 0.12374498  , 0.0378311  , 0.011795244  , 0.01896573  , 0.006201029  , 0.02407949  , 0.024883782  , 0.057733748  , 0.124976434  , 0.055953957  , -0.105985574  , 0.037497807  , 0.024144063  , 0.018057492  , 0.0013235282  , 0.050695814  , 0.09188089  , 0.060231786  , -0.10109041  , 0.044679303  , 0.033025227  , 0.026751757  , -0.00797757  , 0.034688767  , 0.0851653  , 0.05200615  , 0.009960204  , 0.0430312  , 0.0331325  , 0.038149226  , 0.0052912794  , 0.038078982  , 0.11098937  , 0.049514152  , 0.015543263  , 0.035142247  , 0.019419143  , 0.024146153  , 0.0049834177  , 0.031923726  , 0.09624221  , -0.016719919  , -0.04842754  , -0.06711962  , -0.08646964  , -0.10142277  , 0.040255252  , 0.025541672  , 0.040252868  , -0.008756213  , -0.04702935  , -0.057108458  , -0.08868801  , -0.11759035  , 0.019294005  , 0.010180069  , 0.02067294  , 0.03311585  , 0.005967679  , 0.005814848  , -0.0028723283  , 1.777816e-05  , 0.03637711  , 0.0683042  , 0.13625595  , 0.03214489  , 0.002527809  , -0.00037382112  , -0.014213906  , -0.014447523  , 0.036670964  , 0.073876105  , 0.13336657 );
                        u[6] = dot(x,   0.013279828  , 0.05414614  , 0.013806079  , 0.03109271  , 0.10735531  , 0.07051774  , 0.038821265  , -0.0059654205  , 0.024206622  , 0.031815924  , 0.020474894  , 0.032721598  , 0.102560565  , 0.09297924  , 0.034477804  , -0.021331588  , -0.07810716  , 0.15052953  , -0.022097547  , 0.04725625  , 0.062189117  , 0.10794988  , 0.06520613  , -0.018168928  , -0.100268655  , 0.14013642  , -0.041661236  , 0.05090585  , 0.055036325  , 0.11822866  , 0.07683979  , 0.02650517  , -0.100188866  , 0.040182576  , -0.054319628  , 0.022123039  , 0.08297184  , 0.12469036  , 0.060501076  , -0.020629227  , -0.12264773  , 0.040251102  , -0.07000725  , 0.026793832  , 0.08918357  , 0.13353159  , 0.06410075  , -0.084090404  , -0.064445406  , 0.18223557  , -0.0058265226  , 0.057236467  , 0.08403126  , 0.11050036  , 0.07394868  , -0.06662853  , -0.07442119  , 0.17211701  , -0.01114792  , 0.05147538  , 0.07613442  , 0.11400103  , 0.08050879  , -0.06632662  , 0.07244872  , 0.0794545  , 0.08357655  , 0.10661207  , 0.15626515  , 0.04358794  , -0.004928999  , -0.048330233  , 0.07468341  , 0.08394314  , 0.0953016  , 0.12034855  , 0.16570427  , 0.031815078  , -0.004391858  , -0.056665484  , -0.036440115  , 0.18435915  , -0.0060551483  , 0.04513416  , 0.09066996  , 0.10496623  , 0.072735354  , -0.06212512  , -0.060874365  , 0.17228515  , -0.024598151  , 0.03799327  , 0.08477185  , 0.11098132  , 0.07841298  , -0.059806123  , -0.13891105  , 0.034225486  , -0.06917921  , 0.008459065  , 0.06925792  , 0.15492262  , 0.08366458  , -0.112330474  , -0.19495562  , -0.00698021  , -0.12473609  , -0.02277948  , 0.046763748  , 0.18248193  , 0.10550144  , -0.1044645  , -0.027076831  , 0.20300522  , 0.033320967  , 0.08653345  , 0.11809335  , 0.09730184  , 0.062012445  , -0.059484467  , -0.03803832  , 0.20475847  , 0.023003856  , 0.0838231  , 0.114531696  , 0.103256404  , 0.06059736  , -0.06488915 );
                        u[7] = dot(x,   0.087848246  , -0.089945845  , 0.08240164  , 0.07553369  , 0.051525675  , -0.0064711687  , 0.035765957  , 0.08936982  , 0.087473094  , -0.05998137  , 0.080228224  , 0.07040971  , 0.022711314  , 0.0206497  , 0.10417133  , 0.14136693  , 0.09018363  , -0.023296751  , 0.054660045  , -0.046062734  , -0.17550808  , 0.034587458  , 0.000357024  , 0.045642573  , 0.089657545  , -0.016915772  , 0.042699277  , -0.05550483  , -0.15545632  , 0.06506125  , 0.18718357  , 0.22679923  , 0.045661192  , -0.013339817  , -0.02618073  , -0.115017705  , -0.15245421  , 0.0555983  , 0.08431129  , 0.014662864  , 0.05757041  , -0.010175013  , -0.02620618  , -0.1243814  , -0.16031867  , -0.00021714876  , -0.08456088  , -0.26932198  , 0.08212297  , -0.02867154  , 0.045504324  , 0.0043955613  , -0.007946875  , 0.06532709  , 0.04980391  , -0.0544657  , 0.08629168  , -0.024947114  , 0.048554968  , 0.0069409385  , -0.0074887155  , 0.05793802  , 0.04020659  , -0.07866169  , 0.0549818  , -0.097857215  , 0.04280138  , 0.035594996  , 0.030714372  , 0.058401287  , 0.12802547  , 0.18129574  , 0.050018825  , -0.096958354  , 0.03920491  , 0.033289064  , 0.030102925  , 0.054239824  , 0.10906353  , 0.1669637  , 0.0751955  , -0.025586706  , 0.05313573  , 0.030310273  , 0.022081628  , 0.057090256  , 0.047258787  , 0.017944966  , 0.08877884  , -0.016512424  , 0.06306733  , 0.0349338  , 0.024668667  , 0.042994995  , 0.023033142  , -0.035838123  , 0.07839817  , -0.008857974  , 0.03728452  , -0.023460994  , -0.05867756  , -0.011338555  , -0.11220429  , -0.32878193  , 0.09301499  , 0.0018968536  , 0.055240463  , -0.0080178995  , -0.037408497  , -0.063159384  , -0.16751997  , -0.36207557  , 0.07103708  , -0.035461027  , 0.045151934  , 0.017162364  , 0.011424206  , 0.084125645  , 0.08040721  , 0.025359208  , 0.07237038  , -0.03865005  , 0.043354604  , 0.012692354  , 0.0070888516  , 0.080381095  , 0.06978111  , -0.010506955 );
                        u[8] = dot(x,   0.019872162  , -0.34066102  , 0.039649572  , 0.05574684  , 0.18004946  , 0.0241145  , -0.024582505  , -0.122958936  , 0.00019366265  , -0.2570902  , 0.017564697  , 0.031831685  , 0.14547932  , 0.05306084  , -0.0072860676  , -0.09815634  , 0.0035990032  , -0.019601826  , 0.05053371  , 0.07734843  , 0.107024424  , 0.05371316  , 0.05637412  , -0.046835836  , 0.013800755  , -0.021403745  , 0.054798298  , 0.042043548  , 0.014691457  , 0.058026016  , 0.08821205  , 0.079061575  , 0.0843862  , 0.043541458  , 0.1728369  , 0.18641764  , 0.22304827  , -0.058417946  , 0.046442803  , 0.11269566  , 0.06393063  , 0.060784213  , 0.16468461  , 0.17471683  , 0.21086258  , -0.05976885  , 0.01073446  , 0.109058924  , -0.026517719  , -0.07747047  , 0.017619535  , 0.016941903  , 0.036243826  , 0.06171285  , 0.053032186  , 0.008143324  , -0.020776223  , -0.06825624  , 0.02293168  , 0.01954074  , 0.038344067  , 0.06080126  , 0.0567505  , 0.007877261  , -0.034068074  , -0.3519479  , -0.011317092  , 0.005687794  , 0.12797202  , 0.086077385  , 0.00831202  , -0.08751866  , -0.0338499  , -0.3348956  , -0.002949165  , 0.015157829  , 0.13043824  , 0.08127063  , 0.01738433  , -0.089558065  , -0.021951742  , -0.053949624  , -0.0077764145  , -0.02864125  , 0.02385699  , 0.06616589  , 0.055642817  , -0.027521227  , -0.0012765877  , -0.04829936  , 0.011066339  , -0.019303672  , 0.036089327  , 0.055720765  , 0.04992985  , -0.020541953  , 0.012897564  , 0.0390518  , 0.028190523  , -0.04085302  , -0.011713894  , -0.022717815  , 0.008218284  , 0.04363603  , 0.011293478  , 0.058468565  , 0.0197319  , -0.05167287  , -0.01935036  , -0.04119938  , -0.01534746  , 0.03992129  , -0.03495285  , -0.10065858  , -0.006213794  , -0.018829737  , 0.0125836395  , 0.061083227  , 0.050109737  , -0.014511352  , -0.042946286  , -0.10375376  , -0.011525407  , -0.022357786  , 0.0037917427  , 0.06300944  , 0.046921715  , -0.004505975 );
                        u[9] = dot(x,   0.14742409  , -0.04101886  , 0.11992881  , 0.10552237  , 0.013265424  , -0.27972704  , -0.22799583  , -0.10026892  , -0.057316814  , -0.19045356  , -0.08725213  , -0.12606366  , -0.26604018  , -0.08287356  , 0.0025902838  , 0.053613238  , -0.09115977  , 0.03374635  , 0.0215413  , 0.1424479  , 0.13918325  , -0.03505489  , -0.038549196  , 0.14703304  , -0.08539424  , 0.054135073  , 0.023504077  , 0.108869694  , -0.0016551951  , -0.024998048  , 0.04894906  , 0.16059077  , -0.08856391  , 0.04460879  , -0.0817779  , -0.030342737  , -0.09730377  , 0.0030400243  , 0.067003176  , 0.09155738  , -0.035296503  , 0.07249209  , -0.029831214  , 0.006161352  , -0.06875648  , -0.070917085  , -0.06834872  , -0.01683468  , -0.13678303  , 0.037727024  , -0.051603913  , 0.06412758  , 0.03533145  , -0.013945877  , -0.023775367  , 0.076455556  , -0.13268304  , 0.044546586  , -0.039046932  , 0.07279732  , 0.048026837  , -0.016127622  , -0.02801466  , 0.061941583  , -0.011460709  , -0.080773465  , -0.04246262  , -0.063348085  , -0.18194407  , -0.16151012  , -0.086055644  , 0.019045161  , 0.06932508  , -0.065225974  , 0.033673465  , 0.0100544235  , -0.103393815  , -0.22549403  , -0.16519731  , -0.024100259  , -0.13866372  , -0.015166324  , -0.02366729  , 0.088457435  , 0.030108612  , -0.0022343863  , -0.016286986  , 0.070665315  , -0.13567702  , 0.018046396  , -0.012694201  , 0.10022055  , 0.052576058  , -0.004648896  , -0.023489628  , 0.048632305  , -0.09441577  , 0.05581757  , -0.027334353  , 0.04256437  , 0.028831856  , -0.026556006  , -0.07755144  , -0.10647507  , -0.052921847  , 0.08694068  , 0.015675167  , 0.08371173  , 0.069759935  , -0.032924682  , -0.0901263  , -0.10651413  , -0.17043702  , -0.0077807857  , -0.07598467  , 0.06625873  , 0.057625398  , 0.015891638  , 0.0020515642  , 0.053234536  , -0.16211908  , -0.0017229348  , -0.0740339  , 0.061057795  , 0.055349816  , 0.01032272  , -0.0056696483  , 0.051899053 );
                        u[10] = dot(x,   -0.042513613  , 0.10213211  , -0.056538787  , -0.040132463  , 0.07963878  , 0.07604023  , 0.04943765  , -0.0039276946  , 0.007007099  , 0.20090118  , -0.002519615  , 0.015919639  , 0.11807452  , 0.026148353  , -0.010257117  , -0.038209815  , -0.026941242  , -0.057183668  , 0.030556865  , 0.09257088  , 0.37305275  , 0.0673798  , 0.037220657  , -0.16877696  , 0.005743545  , -0.052282937  , 0.06128306  , 0.09828188  , 0.16784622  , 0.049377132  , 0.02702747  , 0.017905826  , 0.06863122  , 0.1629082  , -0.03299836  , -0.22850128  , -0.21882868  , -0.032962993  , 0.06511505  , 0.11958408  , 0.053570908  , 0.1703136  , -0.07206775  , -0.26450753  , -0.24902198  , -0.031004766  , 0.05257221  , 0.14191239  , -0.036686655  , -0.089853466  , 0.00070708134  , -0.019626392  , 0.013700935  , 0.063907094  , 0.0439771  , -0.081158414  , -0.029014915  , -0.08429628  , 0.0020591298  , -0.027780568  , 0.0029676587  , 0.06398388  , 0.049174797  , -0.081786595  , 0.02336293  , 0.066530205  , 0.01627721  , 0.024372436  , 0.056392793  , 0.009618114  , -0.026891802  , -0.056375183  , 0.012322934  , 0.060569394  , 0.0073586027  , 0.015558969  , 0.047204625  , 0.018517526  , -0.010657208  , -0.047819346  , -0.05812462  , -0.08757252  , -0.007901449  , 0.014704061  , 0.06633742  , 0.093135856  , 0.08031909  , -0.046612464  , -0.013057212  , -0.07703814  , 0.03943777  , 0.054190233  , 0.1152766  , 0.058498014  , 0.053717706  , -0.04361327  , 0.09445963  , 0.19163437  , 0.0954629  , 0.00071296614  , 0.028829372  , -0.074178986  , -0.009016259  , 0.07550922  , 0.09680832  , 0.20263645  , 0.10003745  , 0.01887513  , 0.057480615  , -0.0955933  , -0.037254743  , 0.07498704  , -0.05408626  , -0.11154942  , 0.0011673409  , 0.0049617933  , 0.04195481  , 0.07264977  , 0.057410862  , -0.0374558  , -0.05778744  , -0.10593838  , -0.0018870631  , 0.008340709  , 0.041729208  , 0.07314342  , 0.051642764  , -0.034857217 );
                        u[11] = dot(x,   0.023348857  , 0.015121767  , 0.03341811  , 0.046231546  , 0.029393831  , -0.039117325  , -0.0024025694  , 0.026448542  , 0.018326484  , 0.37864313  , 0.022187365  , 0.03022103  , -0.02230973  , -0.038623523  , 0.007213067  , 0.043072175  , 0.032879625  , 0.013905582  , 0.061452564  , 0.18303303  , 0.51352453  , -0.038615797  , -0.086555175  , 0.018797735  , 0.02281034  , 0.016232228  , 0.0366766  , 0.13387157  , 0.13595486  , -0.004698094  , 0.079104416  , 0.22567111  , 0.0021468792  , -0.07026082  , 0.049334772  , 0.12843344  , 0.09389757  , 0.062912986  , 0.17085966  , 0.15838447  , 0.017653214  , -0.07673318  , 0.08499602  , 0.15765552  , 0.117328204  , 0.010812273  , 0.030149763  , -0.033450764  , 0.04213627  , 0.03577617  , -0.012683865  , -0.042704705  , -0.08028044  , -0.026001742  , -0.025512105  , -0.034397732  , 0.042255055  , 0.036263656  , -0.010076322  , -0.034632474  , -0.07344739  , -0.029196063  , -0.032776523  , -0.04716258  , -0.026798144  , 0.03841328  , -0.031969458  , -0.045087516  , -0.08894246  , 0.013583384  , 0.053177357  , 0.082670435  , -0.025257818  , 0.04163945  , -0.031382073  , -0.04350922  , -0.087314904  , 0.010694691  , 0.043633286  , 0.07889651  , 0.038977068  , 0.03300681  , -0.0052152043  , -0.049698398  , -0.099352404  , -0.044182513  , -0.046753276  , -0.017330509  , 0.02412825  , 0.029011441  , -0.027671088  , -0.07905996  , -0.1339012  , -0.026245644  , -0.031288918  , -0.024546918  , -0.007838395  , -0.088096686  , -0.06799059  , -0.09792551  , -0.16335253  , 0.038801152  , -0.0010640033  , -0.12285269  , 0.012629471  , -0.084023446  , -0.043093346  , -0.084634416  , -0.1494442  , 0.032384105  , -0.0018479627  , -0.12609534  , 0.037496325  , 0.044914715  , -0.02362456  , -0.07260572  , -0.10556358  , -0.030139552  , -0.030500488  , -0.035398986  , 0.04171493  , 0.04027601  , -0.022983987  , -0.078656614  , -0.11162751  , -0.029296167  , -0.030262135  , -0.051467318 );
                        u[12] = dot(x,   0.015094273  , -0.13115567  , 0.007017327  , -0.007126589  , 0.015975824  , -0.028131494  , -0.04650409  , -0.075500704  , -0.011569518  , 0.8034596  , -0.017325087  , -0.015135744  , 0.0061631114  , -0.024928343  , -0.08751214  , -0.069680184  , -0.013259617  , -0.0010354209  , 0.018038731  , -0.035914194  , -0.27238563  , -0.00907526  , 0.02554874  , 0.07928863  , -0.011212001  , -0.0003135664  , 0.020607198  , -0.019567477  , -0.08700874  , -0.007313732  , 0.03963676  , 0.026126454  , -0.01417185  , 0.016400067  , -0.0010199466  , 0.010349906  , 0.04378835  , -0.038150758  , -0.067232415  , -0.06455548  , -0.01834825  , 0.03040334  , -0.008448866  , 0.003303579  , 0.03846185  , -0.027282264  , -0.06275454  , -0.070815474  , -0.03996421  , -0.031466283  , 0.0062806527  , 0.047108456  , 0.06688836  , -0.0017237897  , 0.016101442  , 0.10903522  , -0.037935544  , -0.02679801  , 0.010828485  , 0.049680196  , 0.070730515  , -0.0012995126  , 0.019789692  , 0.13519868  , -0.015517962  , -0.15801966  , -0.01824292  , -0.01847135  , 0.024762291  , -0.008065245  , -0.04393937  , -0.07917817  , -0.008176449  , -0.15557602  , -0.006502033  , -0.006071999  , 0.03576852  , -0.013997452  , -0.045679107  , -0.082884185  , -0.026686676  , -0.02429966  , 0.018483438  , 0.048712716  , 0.07612555  , 0.001031082  , 0.013844072  , 0.039268047  , -0.015550279  , -0.017279724  , 0.030637266  , 0.060545273  , 0.093423046  , -0.009124322  , -0.003613175  , 0.016361367  , -0.043902397  , 0.027156496  , -0.032516576  , -0.031230329  , 0.0073315795  , -0.013843955  , -0.019697722  , -0.003537786  , -0.04507888  , 0.03739045  , -0.03558299  , -0.03148714  , 0.006935383  , -0.01016401  , -0.02574243  , -0.017673796  , -0.048917964  , -0.05326397  , -0.008700643  , 0.03878544  , 0.06469912  , 0.008682869  , 0.02278418  , 0.08227665  , -0.04901266  , -0.05162259  , -0.012577801  , 0.032500234  , 0.05629337  , 0.0072979536  , 0.025739469  , 0.09643529 );
                        u[13] = dot(x,   -0.15633696  , 0.089608066  , -0.17117934  , -0.18008888  , -0.06458514  , 0.18842298  , 0.1934972  , 0.057104126  , -0.004656952  , -0.18475199  , -0.015578262  , -0.03735281  , 0.036092997  , 0.012900338  , -0.029411348  , -0.122082956  , -0.008123325  , -0.07947956  , 0.029997803  , 0.044165377  , 0.14657758  , -0.044743586  , -0.034306806  , 0.1688316  , -0.018947093  , -0.09641335  , 0.0128596695  , 0.047372434  , 0.043701593  , -0.0048911152  , 0.16721953  , 0.3113098  , 0.009287637  , -0.0015826224  , -0.00070868793  , -0.016926674  , 0.05389854  , -0.05640421  , -0.03103911  , -0.02859995  , -0.037594605  , -0.010536123  , -0.059742942  , -0.05980542  , 0.010958284  , -0.024470517  , -0.10070479  , -0.20442514  , 0.0059134536  , -0.074876055  , 0.017152533  , -0.0025460545  , 0.021718744  , -0.067327894  , -0.024670012  , 0.22400437  , -0.0014681367  , -0.080392845  , 0.008767024  , -0.0070661935  , 0.012439075  , -0.057348292  , -0.0045564477  , 0.31862918  , 0.037998877  , 0.097097285  , 0.04898243  , 0.057788257  , 0.149692  , -0.035259627  , -0.118951924  , -0.20560259  , 0.0042551127  , 0.09091161  , 0.020958297  , 0.030768327  , 0.119150154  , -0.0025716845  , -0.07352552  , -0.1770233  , 0.02669437  , -0.035894256  , 0.028810276  , 0.004147584  , 0.05573324  , -0.05884981  , -0.027168095  , 0.056809973  , 0.025435498  , -0.054680776  , 0.032304637  , 0.015807455  , 0.069839664  , -0.06441933  , -0.057469565  , 0.00026238267  , -0.03201824  , -0.008329208  , -0.069230564  , -0.08087795  , -0.025617741  , -0.044485725  , -0.06119473  , -0.07149587  , -0.07642219  , -0.04058033  , -0.11658621  , -0.1055265  , -0.038514245  , 0.0046191597  , -0.037764195  , -0.0977884  , 0.025293723  , -0.04732702  , 0.03093477  , 0.008330245  , 0.03669921  , -0.07980034  , -0.041224644  , 0.13675372  , 0.022776345  , -0.0441974  , 0.030047324  , 0.011152751  , 0.036931526  , -0.07894761  , -0.025164604  , 0.16706224 );
                        u[14] = dot(x,   -0.06692903  , -0.13561179  , -0.13784346  , -0.1908351  , -0.3816707  , 0.0663765  , 0.19155982  , 0.29090026  , 0.14587371  , 0.0042974236  , 0.10638085  , 0.07927118  , -0.09027346  , -0.16876794  , -0.0069324714  , 0.12839185  , -0.012034167  , -0.015151931  , 0.028408693  , 0.12249029  , -0.019379122  , -0.029793466  , -0.024692256  , -0.12419112  , -0.015615579  , -0.0351769  , 0.027654912  , 0.02019608  , -0.10197315  , -0.028736023  , -0.030871116  , -0.06493758  , -0.03341171  , 0.12849787  , -0.007818357  , 0.024570007  , 0.10008259  , 0.023240456  , 0.01524518  , -0.011083633  , -0.043086775  , 0.114577055  , 0.0025651767  , 0.06556188  , 0.14391358  , 0.025767937  , 0.02682423  , 0.0041646953  , -0.038854513  , -0.03727718  , -0.011558015  , 0.05412051  , 0.07144413  , 0.0027216428  , -0.010153389  , -0.13883536  , -0.0426897  , -0.032369714  , -0.010855197  , 0.05004342  , 0.06497351  , 0.0069498695  , -0.0075724926  , -0.16160975  , 0.18845488  , -0.077415876  , 0.1316493  , 0.0963406  , -0.021491244  , -0.21217571  , -0.04945502  , 0.11515076  , 0.18981534  , -0.08980815  , 0.13341066  , 0.1043836  , -0.017992176  , -0.2123251  , -0.077742025  , 0.11575042  , -0.018988553  , -0.059040714  , 0.010025049  , 0.04592663  , 0.0038603274  , -0.008442162  , -0.003614904  , -0.0074261697  , -0.023930501  , -0.05448964  , 0.019254962  , 0.060081676  , 0.009040664  , -0.014592534  , -0.006788573  , -0.0008478935  , -0.027072577  , 0.09615946  , -0.06640764  , -0.10892639  , -0.1165456  , 0.020742325  , 0.041741848  , 0.029943291  , -0.029546943  , 0.09359355  , -0.047988232  , -0.07431991  , -0.07702303  , 0.017658716  , 0.03099039  , 0.031955697  , -0.03406263  , -0.065785326  , -0.027888719  , -0.0059470157  , -0.03713006  , 0.009128394  , 0.01755388  , -0.016618265  , -0.042391445  , -0.06793175  , -0.036560163  , -0.0136495  , -0.026486617  , 0.017148793  , 0.017192338  , -0.03926906 );
                        u[15] = dot(x,   0.04459397  , 0.19563216  , 0.030530863  , 0.024195453  , 0.03850881  , -0.09883642  , -0.095381446  , -0.03966553  , -0.014361835  , -0.093174696  , -0.014718843  , 0.061639324  , 0.3283517  , -0.036335535  , -0.008384699  , 0.020337675  , -0.02541052  , -0.03829345  , 0.10370794  , -0.0653206  , -0.41394287  , -0.020944413  , -0.07914637  , -0.26268983  , -0.0020125492  , 0.036240518  , 0.105020806  , 0.23616305  , 0.30593604  , 0.021987624  , 0.117808975  , 0.06615514  , -0.020111568  , 0.04353637  , -0.01596136  , 0.037886895  , 0.07111315  , 0.02523121  , 0.09956131  , 0.092867866  , 0.010957342  , 0.05616649  , 0.020079622  , 0.071026355  , 0.09867556  , -0.02491541  , -0.0058343327  , -0.028410474  , -0.02475519  , -0.023819875  , -0.030029282  , 0.011900627  , 0.054291572  , -0.009054134  , 0.033755198  , 0.0032383383  , -0.015578145  , -0.014372934  , -0.014653671  , 0.024700359  , 0.07183568  , -0.015690519  , 0.026979048  , 0.019548751  , -0.053009875  , 0.16274045  , -0.07954837  , -0.095725544  , -0.11334644  , -0.010205736  , 0.0063209785  , 0.043573726  , -0.03306069  , 0.1734933  , -0.05819064  , -0.07360034  , -0.102045596  , -0.028616846  , -0.009051213  , 0.042423755  , -0.016201055  , -0.040995006  , 0.012026814  , 0.045043834  , 0.070492044  , -0.026311476  , 0.011145815  , -0.033677623  , 0.0070532616  , -0.0202914  , 0.027166305  , 0.045450572  , 0.09602477  , -0.039268684  , -0.0039619794  , -0.05861226  , -0.020282406  , 0.053103503  , -0.10429843  , -0.16970237  , -0.1884841  , 0.0058458527  , 0.030510597  , 0.013313309  , 0.022932775  , 0.07853796  , -0.053178478  , -0.1263487  , -0.14804785  , -0.01512177  , 0.012727448  , -0.015451999  , -0.058004584  , -0.055973478  , -0.06637588  , -0.029926127  , 0.018889103  , 0.010598865  , 0.044795442  , 0.060671084  , -0.053620312  , -0.05557613  , -0.074779294  , -0.047290694  , -0.013572749  , 0.012001801  , 0.051831007  , 0.05584626 );
                        u[16] = dot(x,   -0.0826523  , -0.19915882  , -0.060462426  , -0.046980496  , -0.07557111  , 0.03810655  , 0.087842196  , 0.124800555  , 0.003767694  , 0.0301183  , 0.052081328  , 0.16072886  , 0.3704498  , -0.08129583  , -0.01374927  , 0.06793553  , -0.117543064  , -0.0003574556  , -0.071843356  , -0.1425305  , -0.03316182  , 0.008779662  , -0.14250241  , -0.13220668  , -0.123966664  , 0.066780135  , -0.084779635  , 0.08358434  , 0.31063983  , 0.059783608  , 0.04620547  , 0.106424585  , -0.065669  , -0.007982974  , -0.063633546  , -0.07042341  , -0.046487767  , 0.024638511  , 0.08506252  , 0.11128791  , -0.062149134  , -0.031088153  , -0.051570088  , -0.04593285  , -0.019316738  , -0.014513735  , -0.0504706  , -0.032529157  , -0.031038158  , 0.085594945  , -0.048514098  , -0.05456742  , -0.047582086  , -0.039524045  , -0.066944234  , 0.048962668  , -0.042753916  , 0.077110715  , -0.05978153  , -0.06290827  , -0.05587718  , -0.029288251  , -0.049770106  , 0.07175136  , 0.017002547  , -0.17098989  , 0.029596172  , 0.025731923  , -0.011484524  , -0.08252316  , -0.026185602  , 0.05738154  , -0.018662356  , -0.2135921  , -0.01831107  , -0.021803143  , -0.06371139  , -0.039300017  , -0.0022992967  , 0.07554065  , -0.011760539  , 0.058904078  , -0.040126525  , -0.062105767  , -0.08636769  , -0.05246314  , -0.06284967  , 0.10279638  , -0.041618958  , 0.05138823  , -0.06040208  , -0.06801494  , -0.084248595  , -0.035267573  , -0.05588863  , 0.098893404  , -0.0036062496  , -0.033978745  , 0.091306485  , 0.19990972  , 0.20446149  , -0.037485085  , -0.052509617  , -0.0060863337  , -0.020181473  , -0.037239756  , 0.08488917  , 0.20780809  , 0.22050995  , -0.020717757  , -0.055970065  , 0.0051333634  , 0.017684922  , 0.0979076  , -0.0027861346  , -0.014128895  , -0.016286537  , -0.06589357  , -0.065990426  , 0.05545083  , 0.016976636  , 0.09790213  , 0.008656258  , 0.0033112112  , 0.00349601  , -0.06732407  , -0.069407836  , 0.058099642 );
                        u[17] = dot(x,   -0.014673101  , 0.01593282  , -0.000416739  , 0.015801832  , 0.09521632  , 0.071630225  , 0.065792486  , 0.088780336  , -0.0854956  , 0.04287183  , -0.06864848  , -0.025286082  , 0.093093164  , 0.16134167  , 0.14549717  , 0.13233167  , -0.07007973  , -0.11001936  , -0.02053492  , -0.026700372  , -0.07860048  , 0.014174836  , -0.21019675  , 0.09812841  , -0.083474554  , -0.06078607  , -0.03573596  , -0.0033703921  , -0.0070037576  , -0.020674001  , -0.32228175  , -0.25511608  , 0.025894409  , 0.009642678  , 0.044482056  , 0.06478248  , -0.056408096  , -0.01566847  , 0.16471976  , 0.3064263  , 0.051553734  , 0.024982162  , 0.05669316  , 0.04953404  , -0.08258295  , -0.11611452  , -0.05771498  , 0.20838962  , -0.051546667  , -0.03761217  , -0.011307123  , 0.00835043  , -0.036197633  , 0.029475352  , -0.11364544  , 0.12713844  , -0.055098157  , -0.03447319  , -0.0049680723  , 0.018864844  , -0.027657716  , 0.021927737  , -0.12645316  , 0.07919436  , -0.0021643725  , 0.020733707  , 0.03514343  , 0.06762388  , 0.10286743  , 0.068478525  , 0.05757022  , 0.055295244  , 0.056793157  , 0.04924817  , 0.102286495  , 0.13095239  , 0.15838207  , 0.0053760777  , 0.0032853512  , 0.02714157  , -0.04442026  , -0.06880467  , -0.0098722  , 0.031501792  , 0.03964029  , 0.029308122  , -0.1173364  , 0.07126791  , -0.05423184  , -0.04981231  , -0.021707378  , 0.01238789  , 0.028197756  , 0.027991759  , -0.117348455  , 0.08038275  , -0.08464289  , -0.046052314  , -0.073001295  , -0.058832075  , -0.09466954  , -0.015436549  , -0.14908588  , -0.14176133  , -0.10243506  , -0.08396945  , -0.10065987  , -0.08101568  , -0.107618906  , -0.021561237  , -0.16151017  , -0.077217184  , -0.04465451  , -0.012969617  , 0.026050562  , 0.05926096  , 0.06483291  , 0.044621326  , -0.09654898  , -0.1085693  , -0.041837998  , -0.00997451  , 0.022756673  , 0.05833963  , 0.051340885  , 0.041119885  , -0.10567435  , -0.08622816 );
                        u[18] = dot(x,   0.0032541398  , 0.07428219  , 0.006241659  , 0.003850211  , 0.011085339  , -0.02246533  , -0.09495128  , -0.03641417  , 0.0315148  , -0.038621686  , 0.04238761  , 0.060703065  , 0.18251686  , -0.04792357  , -0.082747035  , -0.041721236  , 0.07171209  , 0.07943079  , 0.03470418  , 0.112749584  , 0.13545795  , -0.06002688  , -0.16197263  , -0.112650104  , 0.062205795  , 0.021942964  , 0.0060886065  , -0.15102004  , -0.33187127  , -0.09942302  , -0.27457172  , -0.2977019  , -0.09796843  , 0.035763025  , -0.08498143  , -0.07701145  , 0.12949462  , 0.14142187  , 0.23199266  , 0.15971127  , -0.120185584  , 0.033123717  , -0.08881885  , -0.049005542  , 0.17167702  , 0.119763605  , 0.05884535  , -0.19222046  , 0.013765268  , 0.012591673  , -0.0023877798  , 0.00055946776  , 0.02813805  , -0.0027425715  , 0.027588429  , 0.07797477  , 0.019122966  , 0.01422817  , -0.010819154  , -0.013569011  , 0.0045556184  , -6.841952e-06  , 0.04460035  , 0.16814631  , -0.010739902  , 0.024830582  , -0.025323687  , -0.03426388  , 0.040796906  , 0.0029926838  , -0.038124483  , -0.048759326  , -0.05979757  , 0.0037868377  , -0.079386696  , -0.08586467  , -0.022114383  , 0.05166594  , 0.009664636  , -0.02157347  , 0.007941218  , 0.0020305715  , -0.015995359  , -0.038513873  , -0.040207524  , -0.0029835836  , 0.03468044  , 0.028246805  , 0.027964698  , -0.0066920407  , 0.0051239375  , -0.01920907  , -0.037523057  , -0.017349495  , -0.0022833839  , -0.04511683  , 0.026871888  , 0.11060598  , 0.010753935  , -0.020088114  , 0.07838542  , 0.0022908892  , -0.0015587282  , -0.09814112  , 0.042346556  , 0.15049665  , 0.036032297  , 0.013069824  , 0.12637915  , -0.017768063  , -0.045329604  , -0.14527127  , -0.016056582  , -0.03893609  , -0.050322834  , -0.058652412  , -0.075935274  , 0.017624505  , 0.06976385  , 0.18873133  , -0.022714905  , -0.040085014  , -0.053339157  , -0.062020823  , -0.054080427  , 0.022175465  , 0.08020072  , 0.1935054 );
                        u[19] = dot(x,   0.045773137  , 0.10522923  , 0.11214691  , 0.16033313  , 0.28874862  , -0.048103366  , 0.001143778  , 0.072228566  , -0.0020842582  , -0.0031920432  , 0.063870355  , 0.058062542  , -0.038186144  , -0.011206846  , 0.116399065  , 0.15861715  , -0.056866128  , -0.0070002894  , -0.10190381  , -0.038858242  , 0.08665964  , -0.037922606  , -0.003813162  , 0.009680998  , -0.06814195  , -0.06330132  , -0.10847469  , -0.11725396  , -0.052574392  , -0.024705743  , 0.056074698  , 0.1478336  , -0.056736838  , 0.17551193  , -0.05039319  , -0.056217644  , 0.1739006  , -0.055008564  , -0.1490425  , -0.12632519  , -0.14240356  , 0.15679504  , -0.13680547  , -0.10165907  , 0.13523184  , 0.05772245  , -0.0021805977  , 0.009283294  , -0.005129393  , -0.031075537  , -0.038233493  , -0.04270808  , 0.060099997  , -0.07849898  , -0.13068089  , -0.043428082  , -0.018391373  , -0.024605514  , -0.052320827  , -0.057479892  , 0.05044049  , -0.07341919  , -0.12003164  , -0.033702  , -0.022961102  , -0.029939257  , 0.014250642  , 0.019763043  , 0.070659176  , 0.019027231  , 0.107756004  , 0.15452996  , -0.10062584  , -0.052392367  , -0.06872343  , -0.06266917  , -0.0143063925  , 0.088899165  , 0.15242706  , 0.20465004  , 0.026153427  , -0.06731598  , -0.020181391  , -0.039843347  , 0.0750292  , -0.07238959  , -0.10620935  , 0.04499865  , 0.012556091  , -0.06695658  , -0.029490253  , -0.03961037  , 0.10960405  , -0.077470325  , -0.113226935  , 0.05535382  , -0.08825793  , 0.19088466  , -0.108140826  , -0.087515205  , 0.08970091  , -0.0012795181  , -0.014023104  , 0.0721667  , -0.1389501  , 0.19013432  , -0.15084064  , -0.10770194  , 0.06925861  , 0.02095264  , -0.015609484  , 0.08500678  , 0.04928944  , -0.068512656  , 0.0033162024  , -0.044916153  , 0.044843487  , -0.08657067  , -0.10006486  , -0.04286611  , 0.0494351  , -0.06637795  , 0.004089451  , -0.03519316  , 0.048290886  , -0.091491014  , -0.11189236  , -0.03860277 );
                        u[20] = dot(x,   0.00075746165  , 0.01677975  , -0.0005685602  , -0.023236388  , -0.09701198  , 0.027923314  , 0.017658893  , -0.072267555  , 0.21523891  , -0.04180048  , 0.21410564  , 0.14562628  , -0.13972932  , -0.20146161  , -0.15701984  , -0.17068681  , -0.14556518  , -0.060204823  , -0.044043664  , -0.07208773  , -0.06814012  , 0.14872466  , 0.076745674  , 0.3588828  , -0.12610261  , 0.08695209  , -0.04122654  , 0.075317055  , 0.14766307  , 0.10172562  , -0.08279201  , -0.12901825  , 0.10599449  , 0.08031032  , 0.13132884  , 0.040685315  , 0.027212985  , 0.049834844  , 0.13584584  , 0.12569933  , 0.018942192  , 0.05288007  , 0.05124143  , -0.026977722  , -0.058463126  , 0.12240157  , 0.1425359  , 0.032699585  , 0.011205005  , -0.045781143  , 0.011107227  , -0.009277985  , -0.0025374214  , 0.018607225  , -0.009747824  , 0.047605712  , 0.008559352  , -0.04548942  , 0.018712712  , 0.0034075596  , 0.016170863  , 0.019570954  , -0.011657901  , 0.007977898  , 0.036437575  , 0.011148578  , 0.015036229  , -0.032703273  , -0.117604546  , 0.002751033  , 0.009450489  , -0.07570698  , -0.08554621  , -0.026266867  , -0.105333775  , -0.14712948  , -0.19868678  , 0.11620653  , 0.09939451  , -0.041397907  , -0.00093939184  , 0.016728494  , 0.027463853  , 0.009247086  , 0.04052915  , 0.018118372  , -0.010851826  , 0.11361465  , 0.026571086  , 0.00088886026  , 0.04890054  , 0.0232081  , 0.07545964  , -0.0006952365  , -0.031718217  , 0.11063132  , 0.04385057  , 0.13574241  , 0.056188136  , -0.033104386  , -0.012937995  , 0.08889184  , 0.04657187  , -0.15623377  , 0.0030039153  , 0.1298413  , 0.027170539  , -0.038875643  , -0.010886209  , 0.13580257  , 0.07583209  , -0.12580298  , 0.07133726  , -0.046397645  , 0.057327367  , 0.01994253  , 0.080990925  , -0.04223253  , -0.052594446  , -0.07216439  , 0.08937778  , -0.03989491  , 0.066864975  , 0.016843332  , 0.06170415  , -0.051988654  , -0.07204852  , -0.08649239 );
                        u[21] = dot(x,   -0.042693287  , -0.08085908  , -0.066515274  , -0.035436388  , 0.25042206  , -0.010918278  , 0.04516418  , 0.12441651  , -0.05135845  , 0.020981489  , -0.10112129  , -0.17199995  , -0.27808437  , -0.03986145  , 0.030255813  , 0.057119854  , 0.010176397  , -0.08915246  , -0.038686384  , -0.1364843  , -0.038192563  , -0.010377882  , 0.12661234  , 0.042541165  , 0.017514352  , 0.08953124  , -0.06678523  , 0.05186396  , 0.16865097  , -0.046302285  , -0.017707  , -0.20106825  , 0.08302693  , 0.032571103  , -0.034496557  , -0.040955048  , 0.076365106  , -0.07503503  , 0.23660283  , 0.24647346  , 0.08695363  , 0.018911352  , -0.044315055  , -0.04583408  , 0.07608983  , -0.16186292  , -0.02674967  , -0.10605833  , 0.052202307  , -0.0074163536  , -0.06466406  , -0.110204816  , 0.0023208288  , -0.08117722  , 0.12799454  , -0.12399574  , 0.04265153  , -0.012251961  , -0.0773594  , -0.11682145  , -0.0035195164  , -0.071389645  , 0.1407502  , -0.06569013  , 0.03014372  , -0.026158053  , -0.0033709728  , -0.012563502  , 0.05857803  , -0.12789431  , -0.038842127  , 0.027225439  , 0.025767278  , -0.023176588  , -0.01577966  , -0.025021195  , 0.04681735  , -0.116359614  , -0.036674026  , 0.043381467  , 0.11075223  , 0.00041769916  , 0.0046131993  , -0.046227418  , 0.077154055  , -0.109906025  , 0.0837597  , -0.14282574  , 0.06626  , 0.0005180122  , -0.032879215  , -0.07537276  , 0.12223432  , -0.074269675  , 0.11760742  , -0.14664957  , 0.028014777  , -0.062093284  , -0.06665867  , -0.0015251908  , 0.09715304  , -0.0778606  , 0.058705952  , -0.0015968512  , -0.0074690795  , -0.09840195  , -0.10071132  , -0.011636273  , 0.103710584  , -0.016503742  , 0.13167241  , -0.086232886  , 0.086583175  , 0.0054065245  , -0.01701544  , -0.045122523  , 0.112258285  , -0.10997268  , 0.06947434  , 0.111914515  , 0.06946142  , 0.0014885174  , -0.017885938  , -0.035900466  , 0.0816571  , -0.10006621  , 0.0849473  , 0.06521898 );
                        u[22] = dot(x,   0.032780673  , -0.10719627  , -0.015236494  , -0.0102934325  , 0.08750567  , 0.02219311  , 0.039808486  , 0.051629055  , -0.023929533  , 0.026358048  , -0.11353638  , -0.16628607  , -0.21725015  , 0.10033668  , 0.085674554  , 0.01062305  , 0.14965336  , 0.041534774  , 0.056875896  , -0.09659354  , -0.16052373  , -0.010110865  , -0.046735633  , 0.08116628  , 0.19876449  , 0.123218775  , 0.10429628  , 0.15336704  , 0.2497804  , -0.026238622  , -0.013003189  , 0.056223605  , -0.09530132  , -0.042591523  , -0.037193336  , -0.017216787  , 0.045975164  , 0.20157322  , 0.036730032  , -0.027063603  , -0.13929504  , -0.041313667  , -0.060862575  , -0.01584985  , 0.06240398  , 0.279461  , 0.17944865  , 0.05607405  , 0.117461905  , 0.013994108  , 0.060364194  , 0.006000761  , 0.058704425  , -0.03014574  , -0.11966085  , 0.016643986  , 0.13204421  , 0.016211888  , 0.06635426  , 0.014587322  , 0.070107244  , -0.031607673  , -0.115318105  , 0.025101144  , 0.058775418  , -0.0035207332  , 0.017485168  , 0.027115224  , 0.09293685  , 0.0060438225  , -0.028539728  , -0.08064624  , 0.106381014  , 0.054319557  , 0.0665554  , 0.07657658  , 0.14035797  , -0.034501087  , -0.056875277  , -0.10020498  , -0.033824958  , -0.040523756  , -0.12281564  , -0.16021764  , -0.093573995  , 0.046125855  , -0.040649973  , 0.083766274  , -0.0076074647  , -0.066335775  , -0.09913383  , -0.14396028  , -0.05446728  , 0.046134755  , -0.04625759  , 0.08667135  , 0.08831351  , 0.12562822  , 0.070708  , 0.008755016  , 0.07005476  , 0.04722926  , -0.0087552965  , -0.053244  , 0.14370044  , 0.18619944  , 0.07939577  , -0.018102884  , 0.038281467  , -0.010123325  , -0.056958966  , -0.026562238  , -0.027404416  , -0.06432259  , -0.07576004  , -0.10997335  , -0.046947215  , 0.03110693  , -0.0484052  , -0.06726402  , -0.03690856  , -0.07109013  , -0.070242904  , -0.10549848  , -0.06320566  , 0.036206014  , -0.047285028  , -0.04143991 );
                        u[23] = dot(x,   -0.06875276  , 0.1415437  , -0.15607359  , -0.12544766  , 0.20078379  , 0.07878181  , -0.0027223888  , -0.06251286  , 0.095281005  , -0.01883335  , -0.007300799  , -0.052899037  , 0.017157532  , -0.10142006  , -0.13265169  , -0.04651479  , -0.014991461  , -0.009005092  , -0.056916054  , 0.05402476  , 0.006708886  , 0.08096882  , 0.025238296  , 0.10314675  , 0.00054075796  , -0.02034211  , -0.060276035  , -0.030578569  , -0.06012571  , 0.069665305  , -0.005242218  , 0.013011594  , -0.04564931  , -0.07610167  , -0.18107472  , -0.14433526  , -0.009877988  , 0.042052854  , 0.004129427  , 0.004844278  , 0.055607285  , -0.07792378  , -0.029282948  , 0.046888728  , 0.22980791  , -0.07855364  , -0.12537988  , 0.008655329  , 0.006650016  , 0.054961633  , -0.078833744  , 0.002468824  , 0.16352344  , 0.08399164  , -0.066411436  , -0.117740236  , 0.011914528  , 0.048344787  , -0.07922829  , -0.008213773  , 0.15647492  , 0.08403137  , -0.07520645  , -0.22517999  , 0.057833705  , -0.003563112  , -0.049947444  , -0.06509022  , 0.05731189  , -0.053246453  , -0.085332476  , -0.017480405  , -0.00063009607  , -0.07297207  , -0.10156305  , -0.109596774  , -0.0076683345  , -0.004237098  , -0.048166953  , 0.00034913534  , 0.0026875064  , 0.03836727  , -0.061728023  , -0.017810196  , 0.06294915  , 0.074460045  , -0.02147405  , 0.25324225  , 0.02678972  , 0.05257935  , -0.043436542  , -0.001423362  , 0.12099037  , 0.04303586  , -0.048214197  , 0.28042197  , 0.14736429  , -0.10643338  , -0.030029219  , -0.08067033  , -0.1459585  , -0.099964395  , -0.10614848  , 0.04011335  , 0.16232257  , -0.1180488  , 0.03190393  , -0.00011223888  , -0.06349007  , -0.14886734  , -0.17939533  , 0.08922726  , 0.026673213  , 0.11501744  , -0.06570865  , -0.0449568  , 0.06034328  , 0.1001043  , 0.019127754  , -0.038276292  , 0.027420035  , 0.11668919  , -0.07147256  , -0.053131573  , 0.0185518  , 0.09234808  , -0.001926298  , 0.004399064 );
                        u[24] = dot(x,   0.06370519  , -0.27394804  , -0.08500876  , -0.1483719  , -0.07428664  , -0.11807084  , -0.10771087  , -0.05334488  , -0.0120246075  , 0.00066222314  , -0.17056054  , -0.15608403  , 0.36690727  , -0.035647694  , 0.018991804  , 0.06080969  , 0.106487475  , 0.05597535  , -0.047520716  , 0.0048897523  , 0.07218736  , -0.029355135  , -0.032647755  , 0.0974664  , 0.09095497  , -0.025818277  , -0.042155482  , -0.06046261  , -0.05016436  , -0.017545735  , -0.021324301  , 0.05204666  , 0.16559248  , 0.055978928  , 0.021867009  , 0.06484568  , 0.0950254  , -0.08075125  , -0.07373772  , -0.07532145  , 0.106604815  , 0.04512833  , -0.07767283  , -0.07047012  , -0.06348884  , 0.002135977  , 0.08861174  , 0.106501356  , 0.090601325  , -0.023498058  , -0.03059174  , 0.013872512  , -0.04900578  , -0.011502135  , 0.02962241  , -0.0089392895  , 0.086655095  , -0.014661381  , -0.02283834  , 0.03213278  , -0.028582567  , -0.018440748  , -0.0008404247  , -0.13637239  , 0.009106217  , 0.09469839  , -0.13109946  , -0.1692765  , 0.04278782  , -0.09682093  , -0.039799824  , 0.033062454  , 0.051539976  , 0.1930782  , -0.09053195  , -0.12595432  , 0.042641178  , -0.13231699  , -0.082216844  , 0.01890089  , 0.08866238  , -0.02973018  , -0.004335988  , 0.062156003  , 0.035298288  , -0.001286169  , 0.023102207  , 0.152495  , 0.025331326  , -0.025205396  , -0.05801919  , 0.015762068  , -0.047889903  , 0.054786522  , 0.09394583  , 0.25151464  , -0.0065652397  , 0.01975202  , -0.1179946  , 0.0067757317  , 0.15384573  , 0.077685475  , 0.041370552  , -0.13394019  , -0.015075469  , 0.015290224  , -0.1555667  , -0.053655818  , 0.07579715  , 0.11000637  , 0.1006457  , -0.114712365  , 0.07544282  , -0.0552826  , -0.020266443  , 0.0735447  , 0.03654715  , 0.0070248535  , 0.03656398  , -0.08012805  , 0.06645955  , -0.070300795  , -0.02050023  , 0.06707575  , 0.05626192  , 0.004793465  , 0.02881448  , -0.07009396 );
                        u[25] = dot(x,   -0.100647904  , -0.5950169  , -0.019562393  , 0.046841748  , 0.23233932  , 0.05660154  , 0.080124356  , 0.09004818  , 0.042371854  , -0.013714972  , 0.124427654  , 0.122758314  , -0.061833534  , -0.098185465  , -0.1245364  , -0.049893666  , 0.005692145  , 0.095118515  , 0.018036114  , -0.025788032  , 0.03423235  , 0.0181607  , -0.031661928  , -0.038706325  , 0.013694332  , 0.025117045  , -0.0015204399  , -0.08836042  , -0.07783993  , 0.022677425  , -0.0057168053  , 0.018943733  , -0.020346388  , -0.033871546  , 0.020621276  , 0.012002283  , 0.0006907756  , 0.022084283  , -0.030257529  , -0.020421997  , -0.0036350274  , -0.042006824  , 0.03569337  , -0.01295526  , -0.037185714  , 0.012585116  , -0.049650222  , -0.032366455  , -0.077439874  , 0.0039027114  , -0.04901597  , -0.068254456  , 0.052253824  , 0.06724549  , -0.025555754  , 0.05434403  , -0.06421874  , 0.0031973608  , -0.028480567  , -0.05175506  , 0.08007044  , 0.060219377  , -0.018893132  , 0.102766104  , -0.071665496  , 0.27377906  , -0.025593549  , -0.023600183  , -0.10457985  , 0.023940114  , 0.0064948094  , 0.06165665  , -0.03430961  , 0.3765537  , 0.021255823  , 0.030486103  , -0.065183565  , -0.012459495  , -0.009296114  , 0.07110569  , -0.022000838  , 0.008042732  , 0.00047696318  , 0.009438079  , 0.12925534  , -0.020308616  , -0.10003548  , -0.077570334  , -0.019592015  , 0.028853694  , 0.0045493245  , -0.017229205  , 0.1510513  , 0.0029182613  , -0.0862287  , -0.07775539  , -0.023889244  , -0.06192418  , 0.050412584  , 0.017299483  , -0.04211783  , 0.039387703  , -0.00967399  , 0.04251817  , 0.044265017  , -0.016502362  , 0.11769101  , 0.043017674  , -0.03500614  , -0.0033651765  , -0.058735784  , 0.056319423  , -0.062562525  , -0.020892588  , -0.055502012  , -0.056131348  , 0.09044805  , 0.021723866  , -0.03475176  , -0.015295595  , -0.079393566  , -0.039959006  , -0.07273105  , -0.07871459  , 0.019927518  , 0.042634107  , -0.018409854  , 0.008814964 );
                        u[26] = dot(x,   0.18593235  , -0.008609797  , 0.031008229  , -0.04236876  , -0.24350664  , -0.039457094  , -0.09639107  , -0.049310613  , 0.19385655  , 0.0051279664  , 0.012375336  , -0.0617953  , -0.19586445  , 0.04402388  , -5.330026e-05  , 0.020939784  , 0.02492251  , 0.0017207663  , -0.09144573  , -0.024425682  , 0.035361573  , 0.11842477  , -0.051575664  , -0.27279025  , 0.036459677  , 0.045056205  , -0.05406911  , 0.016480176  , 0.07672794  , 0.108256325  , 0.0005010983  , 0.037535574  , 0.12057084  , -0.052622765  , -0.051202442  , -0.035382543  , 0.16400984  , -0.034810152  , -0.06578431  , 0.07034675  , 0.07792634  , -0.039487787  , -0.12287486  , -0.09479069  , 0.09780859  , 0.008455737  , -0.05031926  , 0.13680808  , 0.055590943  , -0.056812506  , -0.08028858  , -0.031328604  , -0.007397294  , 0.13621537  , -0.056007124  , 0.14172131  , 0.051203944  , -0.06404715  , -0.0720007  , -0.016977752  , 0.0059964242  , 0.1286726  , -0.035818048  , 0.23208302  , 0.15529646  , -0.010995404  , 0.00089336827  , -0.049682558  , -0.10252699  , 0.08279183  , 0.0068088155  , 0.0024734533  , 0.12888214  , 0.0038906545  , -0.02175804  , -0.066428065  , -0.08948305  , 0.08447891  , 0.0008136888  , -0.018538246  , 0.106748596  , 0.085784726  , -0.011745738  , 0.005519936  , 0.034861244  , 0.10885534  , -0.07491529  , -0.15420377  , 0.07335256  , 0.04393175  , -0.036168344  , -0.0051241135  , 0.022684151  , 0.1210249  , -0.06919325  , -0.16146247  , 0.04840514  , -0.05089884  , -0.103143685  , -0.0546848  , 0.15012273  , -0.008105614  , -0.13288578  , 0.014576076  , -0.0080197025  , -0.0786368  , -0.15213358  , -0.07241143  , 0.1366873  , -0.032565992  , -0.18845266  , 0.06296371  , 0.1175093  , 0.0041230014  , -0.016515302  , 0.024004214  , 0.054315757  , 0.122413166  , -0.046340887  , -0.0015124802  , 0.0993938  , -0.0015541124  , -0.03264618  , 0.0114589995  , 0.06443857  , 0.13320623  , -0.039864108  , 0.011616182 );
                        u[27] = dot(x,   0.00026364467  , 0.30811554  , -0.036107555  , -0.044575013  , 0.12950537  , -0.0077815517  , 0.1612534  , 0.17581576  , 0.03741947  , -0.010162803  , 0.029225288  , 0.016511515  , 0.06601919  , -0.14575692  , -0.038112905  , 0.05769774  , 0.056626014  , 0.2512725  , 0.07503764  , 0.007334067  , 0.0014985256  , -0.06825238  , -0.030841816  , -0.02326927  , 0.056120697  , 0.08867921  , 0.06573036  , -0.045967095  , -0.05422903  , -0.06611314  , -0.01578473  , 0.007575712  , 0.15011021  , -0.2023102  , 0.23024833  , 0.08778684  , 0.11279731  , -0.11496385  , -0.10394116  , -0.05202399  , 0.011137566  , -0.22221619  , 0.039264854  , -0.13007703  , -0.16850477  , 0.07216874  , 0.14020585  , 0.13994  , -0.045684356  , 0.0045908014  , -0.032390263  , -0.08898344  , -0.024462814  , -0.013464533  , -0.007162931  , 0.046502896  , -0.037199643  , 0.009558374  , -0.028484222  , -0.09957542  , -0.024970967  , -0.011707555  , 0.023940733  , 0.11987515  , -0.013600017  , -0.11909439  , -0.03389763  , -0.054055866  , 0.022673195  , -0.10628974  , -0.01643615  , 0.055788703  , 0.011064146  , -0.164913  , -0.025752708  , -0.0503395  , 0.011041864  , -0.10877597  , -0.031168379  , 0.043468382  , -0.09686285  , 0.14551881  , -0.028384255  , 0.012702781  , 0.14087419  , 0.010011041  , -0.0036296893  , -0.03757294  , -0.11042884  , 0.024801565  , -0.02182043  , 0.013916548  , 0.21927214  , 0.027296616  , 0.008315111  , -0.035382416  , -0.0046237065  , -0.12437887  , 0.032721255  , -0.09907071  , 0.036810968  , 0.046192415  , 0.022716675  , -0.08566426  , 0.053819846  , -0.018211983  , 0.076540776  , -0.047189385  , 0.108924255  , 0.015115523  , -0.0034671307  , -0.09696318  , -0.12670471  , -0.019233277  , -0.082672104  , -0.08963854  , 0.038766753  , 0.012862055  , 0.002115284  , -0.05526077  , -0.13036042  , -0.026065327  , -0.08232694  , -0.08189439  , 0.019702295  , 0.0149186505  , -0.010902902  , -0.10683426 );
                        u[28] = dot(x,   -0.0948194  , -0.13956594  , 0.036168102  , 0.036135003  , -0.21860553  , -0.0151835475  , -0.054221623  , -0.182559  , -0.033470396  , 0.0021349117  , 0.109843776  , 0.13497792  , -0.06850553  , -0.035096124  , 0.065541364  , -0.0017945517  , -0.07098011  , 0.0690369  , -0.007090631  , 0.010344852  , -0.0134978825  , -0.018213822  , 0.14798044  , 0.008023878  , -0.03612814  , 0.15567853  , 0.058241457  , 0.084730476  , 0.054574583  , -0.08377922  , 0.015553079  , -0.035385028  , -0.0735244  , -0.15550202  , 0.016974697  , -0.008300677  , 0.17688888  , -0.16951483  , -0.037039764  , 0.0759217  , -0.17887694  , -0.16722853  , -0.121297926  , -0.1451611  , -0.0022367917  , -0.038772512  , 0.08481576  , 0.17860818  , -0.018074905  , -0.024644218  , 0.026968429  , -0.020811934  , -0.063882045  , -0.07315919  , 0.03212921  , -0.08383692  , -0.014165598  , -0.02880449  , 0.045932833  , 0.0003343304  , -0.036585454  , -0.09437  , -0.030585917  , -0.23297243  , -0.08090044  , 0.09674997  , 0.064911455  , 0.10047265  , 0.1008582  , 0.021688044  , 0.08790379  , -0.019866409  , -0.12316795  , 0.12845334  , 0.032458946  , 0.0635678  , 0.0836644  , 0.052630223  , 0.08669216  , -0.008564336  , -0.06760483  , 0.092976615  , 0.0045920485  , 0.030916825  , 0.0090682  , 0.020567315  , 0.12034129  , 0.10861707  , -0.0243118  , 0.046973467  , 0.05163714  , 0.054428913  , 0.0076852655  , -0.045968637  , 0.077275805  , 0.090795256  , -0.07845162  , -0.05194508  , -0.03333265  , -0.1140375  , 0.059073053  , -0.21192884  , -0.15340523  , -0.049631678  , -0.07636591  , 0.0015913084  , -0.05409251  , -0.122273915  , 0.058765326  , -0.25637454  , -0.17243966  , -0.08162184  , -0.044217348  , -0.011246199  , 0.0046769287  , -0.03663514  , -0.07104747  , -0.0072207428  , 0.07615746  , 0.12221303  , -0.012034119  , -0.006880527  , 0.026734788  , -0.025032805  , -0.02796605  , -0.04156679  , 0.046103567  , 0.10155969 );
                        u[29] = dot(x,   0.041295107  , -0.028497135  , -0.10506715  , -0.10409905  , 0.21303539  , 0.007853537  , 0.011028981  , 0.08657631  , 0.0813848  , -0.0022920684  , -0.056869984  , -0.07810517  , 0.092603125  , -0.042677566  , -0.051118504  , 0.08870392  , -0.11258286  , -0.0072165243  , -0.099529184  , -0.026462216  , 0.048373796  , 0.081651  , 0.16612023  , -0.03212702  , -0.13387172  , -0.024717165  , -0.12635568  , -0.055796742  , -0.025949556  , 0.04795487  , 0.034641698  , -0.07522544  , -0.087220855  , -0.06984796  , 0.05541823  , 0.21973406  , -0.047826756  , -0.02024056  , -0.065267615  , -0.01213532  , -0.18426758  , -0.1157248  , -0.03711404  , 0.116901904  , -0.20479672  , 0.1243888  , 0.12342675  , 0.089461885  , 0.063317426  , 0.02264145  , 0.03599571  , 0.115512475  , 0.03756364  , -0.059791002  , 0.024140237  , 0.10518819  , 0.050674114  , 0.012530387  , 0.04979379  , 0.15662767  , 0.09167478  , -0.07484834  , -0.04261924  , -0.004287588  , 0.1075794  , 0.004545174  , -0.05343694  , -0.0846974  , 0.035220567  , -0.07131036  , -0.08425209  , 0.028927086  , 0.078886785  , -0.013994259  , -0.097266085  , -0.13058177  , -0.06644462  , -0.035620797  , -0.047276862  , 0.076723516  , -0.01808388  , 0.028639717  , -0.038267218  , -0.046526734  , -0.11749696  , 0.042680126  , 0.07971865  , -0.1748853  , -0.022140723  , -0.008218458  , -0.050697643  , -0.047867794  , -0.115924746  , 0.015507305  , 0.06662786  , -0.2127444  , -0.010685528  , 0.10323956  , -0.011222267  , 0.07622462  , -0.11794295  , -0.102936745  , -0.14535794  , -0.0037289925  , 0.008859169  , 0.16883211  , -0.031739827  , 0.0036713886  , -0.23146896  , -0.16387479  , -0.16950414  , -0.02174242  , 0.061238818  , 0.021670371  , 0.026239634  , 0.0958906  , 0.062245052  , -0.015141976  , 0.009509722  , 0.11621746  , 0.10497611  , 0.027754394  , 0.05383756  , 0.099690594  , 0.039872725  , -0.04965853  , 0.004670964  , 0.10518368 );
                        u[30] = dot(x,   -0.029161815  , 0.01115984  , -0.003355724  , 0.0073807426  , 0.046635073  , 0.0117941005  , -0.041261613  , -0.06642985  , -0.027967041  , 0.0087857945  , -0.027861716  , -0.03218223  , -0.11702601  , 0.049293105  , 0.084075615  , 0.04812551  , -0.021407958  , 0.041386627  , -0.01090508  , -0.082916565  , 0.047138754  , 0.032071676  , -0.16479795  , -0.27845508  , -0.034256082  , -0.017481979  , -0.07346099  , -0.1342286  , 0.021239683  , 0.07047023  , -0.017207645  , 0.017512595  , 0.17208767  , 0.03256582  , 0.23208226  , 0.018673256  , 0.08640832  , -0.04386842  , 0.0041327747  , 0.05141664  , 0.041381724  , -0.013019484  , 0.08293474  , -0.12415071  , -0.09938074  , 0.061789088  , -0.05084908  , -0.15205707  , 0.07401244  , 0.02107256  , 0.11420667  , -0.011173408  , 0.070802815  , -0.03746936  , -0.11585837  , 0.03931334  , 0.07010145  , 0.025119437  , 0.092477724  , -0.041283455  , 0.03900426  , -0.03703999  , -0.19595154  , -0.32786664  , 0.022126209  , -0.021330146  , 0.056064196  , 0.04273327  , -0.14436765  , -0.010114175  , -0.027952801  , -0.08040279  , 0.014819259  , -0.008915837  , 0.045175306  , 0.027406873  , -0.0956283  , -0.0023742137  , -0.03672073  , -0.098002516  , -0.07423764  , 0.009171472  , -0.049016815  , -0.054628488  , 0.008423159  , 0.06193463  , -0.015657114  , 0.09383581  , -0.11490599  , -0.042358328  , -0.05970247  , -0.050044954  , 0.060480256  , 0.0972079  , 0.015738344  , 0.13420464  , -0.020796305  , -0.032500174  , 0.093938686  , -0.03166319  , -0.068849415  , 0.12062584  , 0.034595113  , 0.0038974055  , -0.06971142  , -0.06549225  , 0.047726955  , -0.05404389  , -0.08173191  , 0.17160198  , 0.053534094  , 0.019456908  , 0.0013879251  , 0.0009881589  , 0.08512064  , -0.0034655463  , 0.08593693  , 0.015371208  , -0.0062372065  , 0.23084137  , -0.015396222  , -0.014577597  , 0.08973297  , 0.009979151  , 0.06573797  , 0.019687213  , -0.0038892496  , 0.38471645 );
                        u[31] = dot(x,   -0.19759986  , 0.052112937  , -0.16007438  , -0.15324266  , 0.079109944  , 0.008012112  , -0.3484858  , -0.084394254  , -0.09072744  , -0.0015137619  , -0.0030133817  , -0.051577233  , -0.09024993  , -0.05780115  , -0.0838746  , 0.16359185  , -0.019452121  , -0.01587476  , 0.008792304  , 0.000998011  , -0.03186547  , 0.10098847  , 0.081905946  , -0.018542917  , 0.02074295  , 0.24133731  , 0.060807746  , 0.057582848  , 0.009378267  , 0.05862453  , 0.01494308  , 0.020905511  , -0.048242014  , 0.10182866  , 0.11128043  , 0.009580457  , 0.045908976  , 0.0809104  , -0.018630201  , 0.018355388  , -0.08739952  , 0.046267748  , 0.043372896  , -0.03628119  , -0.03084409  , 0.0958387  , -0.06917848  , 0.002894856  , -0.05830381  , -0.038467385  , 0.03510813  , -0.050096683  , -0.121021904  , 0.110162385  , -0.05833226  , -0.012022227  , -0.06321351  , -0.035304874  , 0.029690742  , -0.06846029  , -0.15577096  , 0.12261094  , -0.023211477  , 0.029003344  , -0.038239166  , 0.015295013  , -0.006552267  , -0.009619503  , 0.26694676  , -0.094073564  , -0.12996043  , 0.11604601  , -0.048661202  , -0.02427382  , -0.060888972  , -0.07133677  , 0.122835055  , -0.05660476  , -0.12898108  , 0.18619604  , 0.12391536  , 0.017168092  , 0.17786956  , 0.09588207  , 0.04127226  , -0.007967674  , -0.11313178  , -0.025662377  , 0.06194884  , 0.0006309558  , 0.13939416  , 0.057177827  , -0.058933467  , 0.031952508  , -0.08544363  , -0.023824627  , -0.06923446  , -0.060082722  , 0.06827206  , -0.010277658  , -0.054655124  , 0.13069475  , -0.0148549415  , 0.004528387  , -0.058748376  , -0.026072733  , 0.1101691  , 0.040449556  , 0.0061019417  , 0.1037203  , -0.07578268  , 0.07605966  , 0.060401626  , -0.056388438  , 0.13187093  , -0.02430858  , -0.15779147  , 0.05099406  , -0.040687896  , 0.045188848  , 0.0149659775  , -0.08728754  , 0.118990876  , -0.005235605  , -0.10115171  , 0.072010145  , -0.057708845  , 0.04012269 );
                        u[32] = dot(x,   -0.017242597  , -0.08506879  , 0.06132158  , 0.07878753  , -0.14036386  , -0.16015851  , -0.13481955  , 0.15252952  , -0.19112226  , 0.011228923  , -0.1258766  , -0.09033842  , 0.092327915  , 0.04077189  , 0.14642604  , 0.107252136  , -0.15168242  , -0.044475842  , -0.11423147  , -0.042633828  , 0.09007555  , 0.1570418  , 0.06506561  , -0.05964536  , -0.08966741  , 0.05699785  , -0.07707458  , -0.105875865  , -0.021875026  , 0.1282156  , -0.0042167655  , -0.043872636  , 0.057716183  , -0.102764405  , 0.0069490266  , -0.065545656  , 0.20908971  , 0.023709118  , 0.05868856  , -0.005577211  , 0.032585215  , -0.12181437  , -0.054144695  , -0.14245065  , 0.053751837  , 0.05071426  , 0.04856991  , -0.23144877  , 0.003728777  , -0.043835416  , 0.014522342  , -0.023380926  , 0.026717963  , -0.01638452  , -0.033713475  , -0.09743983  , 0.018058969  , -0.065131076  , 0.03960269  , 0.003970212  , 0.054240312  , -0.009393609  , 0.042138025  , 0.24745719  , -0.100619994  , -0.017324805  , -0.0028366973  , 0.048970543  , -0.006841124  , -0.062186256  , -0.015745882  , -0.03489537  , -0.06420095  , 0.0037405025  , 0.041270986  , 0.08424089  , 0.008993897  , -0.08701076  , -0.039414287  , -0.046445694  , -0.09124364  , 0.108336784  , -0.021162309  , -0.0005564426  , -0.004505778  , 0.07469124  , 0.09732279  , 0.12300032  , 0.06797992  , 0.11417673  , 0.108083025  , 0.10012236  , 0.08636399  , -0.03680265  , -0.03206304  , 0.011160094  , 0.19469047  , 0.0473705  , 0.12674038  , -0.054291237  , -0.14547537  , -0.08146358  , 0.0068313247  , 0.060926896  , 0.16976218  , 0.041860197  , 0.08094202  , -0.095844634  , -0.1934103  , -0.0046916315  , 0.08017021  , 0.067773946  , -0.0016176578  , 0.018754058  , 0.031108258  , 0.03490966  , 0.019281521  , -0.050601587  , -0.06415071  , -0.0838541  , 0.03969263  , 0.028635964  , 0.054909635  , 0.04119433  , 0.038539786  , -0.08325603  , -0.096528694  , -0.20421332 );
                        u[33] = dot(x,   0.0754318  , 0.086761475  , 0.09795345  , 0.087635465  , -0.059311118  , -0.040022682  , 0.18255892  , 0.20551278  , -0.007970893  , -0.017604528  , 0.021842968  , 0.018460304  , 0.048154537  , -0.08667179  , -0.19400348  , -0.08495682  , -0.07007605  , -0.039946612  , -0.16197056  , -0.04450799  , 0.04669419  , 0.057641815  , -0.11787009  , 0.17232284  , 0.006959122  , 0.45985302  , -0.058572415  , -0.030506594  , 0.0069158515  , 0.027687527  , -0.01726252  , 0.05633429  , 0.074344285  , -0.073009275  , -0.07828156  , -0.032295667  , 0.056805488  , -0.0012071456  , 0.021717688  , 0.035171997  , 0.1227799  , -0.0486195  , -0.037632383  , -0.055764575  , 0.011038772  , -0.06291717  , -0.108504586  , -0.12673478  , 0.034505483  , -0.0013451289  , 0.023207389  , 0.10863476  , 0.007469496  , -0.0014526818  , -0.024722472  , 0.091351144  , 0.053893436  , 0.03798361  , 0.041953508  , 0.12377045  , 0.009340349  , -0.023801316  , -0.11857647  , -0.20912394  , -0.1429299  , -0.03991791  , -0.114636295  , -0.07877214  , 0.08712038  , 0.06624035  , 0.026329733  , 0.06275432  , -0.06032163  , 0.037817545  , -0.007607547  , 0.03042427  , 0.19063304  , -0.0036260576  , -0.0082063  , -0.009884383  , -0.055598263  , -0.065183274  , -0.03916548  , 0.042712726  , -0.07653306  , 0.034866896  , -0.05007229  , -0.13321415  , 0.0022610934  , -0.0065209907  , -0.0033389484  , 0.069597594  , -0.14043353  , 0.010410908  , -0.0667903  , -0.11750985  , -0.0044396427  , -0.054809276  , -0.080966994  , -0.0020423057  , 0.028094811  , 0.037890214  , 0.053025752  , 0.13032278  , 0.06219606  , 0.048239443  , -0.037084274  , -0.0019649265  , 0.009231409  , 0.0038913328  , 0.0034462293  , 0.10818628  , -0.06841499  , -0.1541981  , -0.036350608  , 0.11742921  , -0.026657637  , 0.053758044  , 0.03556238  , -0.072378725  , -0.044706605  , -0.16724439  , -0.04844432  , 0.08556401  , -0.0012403695  , 0.047729045  , 0.06749076  , 0.130352 );
                        u[34] = dot(x,   0.10450452  , -0.091525465  , -0.06389759  , -0.1710527  , -0.07030109  , 0.037381787  , -0.121005885  , -0.30008867  , 0.16437218  , 0.011522258  , 0.012230527  , -0.11473102  , -0.024224276  , 0.04278277  , 0.12190246  , 0.022546498  , -0.09802846  , -0.09996318  , -0.077144675  , 0.06933486  , -0.03768322  , -0.11653762  , -0.15713821  , 0.07068045  , -0.10396469  , -0.0356764  , -0.05807981  , 0.082591176  , 0.0018012797  , -0.10257773  , -0.04164646  , 0.07494966  , 0.13179444  , -0.0636122  , 0.093995236  , 0.019513484  , 0.041902058  , -0.010919672  , 0.044964734  , -0.011041123  , 0.062155467  , -0.08129005  , 0.013824327  , -0.04067156  , -0.084910154  , 0.059979755  , 0.05972855  , -0.1679034  , -0.08113382  , 0.034151573  , -0.1126385  , 0.014685175  , 0.016090559  , -0.051627953  , -0.0060094874  , 0.010883846  , -0.086222924  , 0.011094463  , -0.11617567  , -0.00093395787  , -0.0012014823  , -0.043127567  , 0.002752981  , -0.028815519  , 0.17832412  , 0.057298414  , 0.046447083  , -0.0015898104  , 0.26824915  , 0.055643525  , 0.14313504  , 0.07284106  , 0.10665681  , 0.004726174  , -0.023266632  , -0.07301951  , 0.14657895  , 0.12107655  , 0.17588837  , 0.18624485  , -0.10959051  , 0.0026707763  , -0.090356246  , 0.06702007  , 0.022839412  , -0.08742089  , -0.0678689  , -0.055524163  , -0.10504073  , -0.04883241  , -0.067092925  , 0.08606471  , 0.019168654  , -0.097960785  , -0.091414355  , -0.11671305  , 0.14370035  , 0.040585827  , 0.059305206  , -0.023179993  , -0.0795835  , 0.00036298827  , 0.11795258  , 0.10579689  , 0.15056218  , 0.033070445  , 0.08358817  , 0.043686435  , 0.024042325  , 0.005400532  , 0.09068728  , 0.04530866  , -0.087994576  , 0.090630405  , -0.11542784  , 0.026954573  , -0.020537274  , -0.041655242  , 0.030738663  , 0.0060161343  , -0.07412579  , 0.109102234  , -0.10339279  , 0.038091633  , 0.016107855  , -0.055452127  , 0.012583442  , 0.05845496 );
                        u[35] = dot(x,   -0.109977104  , 0.012769622  , -0.017600589  , 0.00049881585  , -0.1559552  , -0.030756304  , -0.069432996  , -0.05943165  , -0.105769634  , -0.0021661252  , 0.009450061  , 0.058659382  , 0.117105134  , 0.0112830335  , 0.010696125  , 0.11922523  , -0.008436145  , -0.08795939  , -0.06856173  , -0.037714377  , 0.067092516  , 0.037878327  , 0.1688843  , 0.12886742  , 0.008283585  , -0.14229408  , -0.04397131  , -0.048399054  , 0.014015946  , 0.031520877  , 0.023670483  , -0.025596133  , -0.02990625  , -0.035863653  , -0.09164403  , -0.05395533  , -0.07274666  , 0.1854217  , -0.021649137  , -0.1313772  , 0.10999761  , 0.0064611444  , 0.07216785  , 0.07367021  , 0.12705374  , 0.080879  , 0.10377729  , 0.2217006  , 0.011253175  , 0.038319197  , -0.07757203  , -0.09992147  , -0.059963513  , 0.014006532  , 0.039933696  , 0.27038804  , 0.023461295  , 0.028409213  , -0.053515192  , -0.06765338  , -0.004578482  , -0.002935381  , -0.07070859  , -0.21634325  , -0.16046304  , -0.061354246  , -0.037280127  , 0.010990642  , -0.10591405  , 0.032254495  , 0.013871094  , 0.08963832  , -0.04643242  , -0.044727944  , 0.08824398  , 0.1403242  , 0.13501374  , -0.080404595  , -0.08963833  , -0.039454747  , -0.03024402  , -0.030033356  , -0.030851275  , 0.017067974  , 0.13677526  , -0.035260785  , -0.061304055  , -0.19233406  , 0.074456744  , 0.0056199287  , 0.008528175  , 0.01148322  , 0.18336695  , -0.08454752  , -0.08863946  , -0.18731013  , 0.12670757  , 0.06790833  , -0.015512609  , -0.09767715  , 0.039664708  , 0.07923154  , -0.046851225  , -0.13241751  , 0.18727435  , 0.05219795  , 0.04935991  , -0.067925535  , 0.051909495  , 0.08519143  , -0.000257505  , -0.06923183  , 0.002727553  , 0.076053694  , -0.039501164  , -0.037319124  , 0.052425794  , -0.032150205  , -0.048297822  , 0.09712451  , 0.051936243  , 0.097576655  , -0.022738714  , -0.03989504  , 0.028647635  , -0.05878191  , -0.057051715  , 0.22687356 );
                        u[36] = dot(x,   0.047254696  , -0.10641007  , 0.13769092  , 0.16523986  , -0.03197139  , -0.07471512  , 0.08860563  , 0.23041654  , -0.039916582  , 0.004637213  , -0.0019069733  , 0.0036700075  , -0.08067992  , -0.104418874  , 0.07964024  , 0.11301733  , -0.013650695  , -0.0007890559  , -0.00597676  , 0.20599265  , -0.08079068  , 0.039466478  , 0.124277584  , -0.17570339  , 0.011374004  , -0.013177617  , 0.023789465  , 0.17599918  , -0.077010974  , 0.021695176  , 0.039340537  , -0.05387105  , 0.09463446  , 0.04760574  , -0.022342175  , -0.027689673  , -0.20245115  , -0.023935072  , -0.050574273  , 0.004225627  , 0.073786475  , 0.012251142  , 0.024672607  , 0.083834626  , 0.020616205  , 0.006062669  , -0.013652065  , 0.089057885  , 0.017556056  , 0.040705025  , -0.043728676  , 0.0666297  , 0.009807581  , -0.013897501  , -0.062687434  , 0.07332547  , 0.031885304  , 0.042645324  , -0.04600503  , 0.04401417  , -0.021462616  , -0.021481922  , -0.0865556  , -0.00405306  , 0.00720005  , 0.083106205  , 0.043527782  , 0.040720344  , 0.38632962  , -0.14622788  , -0.08654972  , -0.1751456  , -0.21929829  , 0.008475004  , -0.18761146  , -0.20100161  , -0.056011796  , 0.094269894  , 0.10006584  , -0.10576006  , -0.074247286  , -0.06463927  , -0.12343346  , 0.07434422  , 0.013769089  , 0.062473055  , 0.013021415  , -0.0014462221  , -0.009358618  , 0.03288548  , -0.058017127  , 0.100789405  , 0.015830519  , 0.025475096  , -0.019661784  , -0.006983719  , 0.11200847  , -0.0035952309  , 0.048124857  , 0.013202728  , 0.007598401  , -0.0032978738  , -0.0969881  , -0.13470832  , -0.0013346456  , -0.12629975  , -0.04444921  , -0.017612005  , 0.010089045  , 0.19050108  , 0.09580632  , 0.0012527278  , -0.0033230495  , 0.00833716  , -0.0898246  , -0.026816895  , -0.10886439  , 0.0059029297  , -0.042396467  , 0.10683941  , 0.01459873  , 0.03773701  , -0.062378436  , -0.008644456  , -0.059694115  , -0.014076626  , -0.06745344  , 0.040583625 );
                        u[37] = dot(x,   0.19108663  , -0.03661401  , 0.11287435  , 0.10595446  , 0.026686566  , -0.042118344  , 0.068605416  , 0.31832454  , 0.0065049855  , 0.004837954  , -0.07770455  , -0.105696574  , 0.020220732  , 0.093199015  , -0.02038142  , -0.063023806  , 0.00552296  , -0.063985154  , 0.040975366  , -0.011001371  , -0.056236763  , -0.05069243  , -0.092916474  , 0.12292393  , -0.025858307  , -0.21623993  , 0.067459755  , 0.06719795  , 0.014426336  , -0.022607224  , -0.028740339  , 0.017849794  , -0.10829131  , 0.0063980445  , 0.037047595  , 0.036236335  , 0.29891032  , 0.05335802  , 0.012029462  , 0.0008942772  , -0.10596734  , 0.01805002  , -0.062979534  , -0.10593355  , -0.09426239  , 0.050240386  , 0.0143775735  , -0.04453701  , -0.13969174  , -0.043394733  , -0.07236017  , -0.10213879  , -0.1860374  , 0.11534008  , 0.11936307  , 0.10191279  , -0.14390528  , -0.06438489  , -0.025586253  , -0.041517258  , -0.119318455  , 0.11223521  , 0.015339024  , -0.29553947  , 0.08618832  , 0.020144287  , -0.027328422  , -0.053292874  , 0.06939657  , 0.028652057  , -0.0752351  , -0.09059667  , 0.068924986  , -0.014109557  , -0.0627647  , -0.087353885  , -0.13380574  , 0.02777462  , -0.038471114  , -0.18727666  , 0.085674696  , 0.061757483  , 0.119888954  , 0.09011494  , 0.08811044  , -0.067994624  , -0.08132919  , -0.03508698  , 0.053810325  , 0.053258754  , 0.100306265  , 0.041254334  , -0.0027918408  , -0.037066646  , -0.04981639  , 0.034163542  , 0.014608497  , 0.03847995  , 0.08801841  , 0.008534252  , 0.0042266343  , -0.05178738  , -0.031386584  , 0.067817956  , 0.017614504  , 0.00898476  , 0.083693795  , -0.0013798208  , -0.034673534  , -0.0704892  , -0.059467465  , 0.052767973  , 0.023326144  , 0.11485305  , 0.06664126  , 0.000353952  , -0.074785486  , -0.01062161  , 0.007874743  , -0.12986556  , -0.010402927  , 0.11474954  , 0.044526834  , -0.014221547  , -0.074785806  , 0.025520291  , 0.08568022  , 0.14184868 );
                        u[38] = dot(x,   0.15660505  , -0.025067877  , 0.06522594  , 0.01872961  , 0.11857168  , -0.003572993  , 0.4158364  , -0.21245599  , 0.026052361  , 0.010893077  , -0.078499906  , -0.12449501  , -0.0739686  , -0.045791745  , 0.088810526  , -0.008217591  , -0.11194365  , -0.13349397  , -0.11193328  , -0.006199227  , 0.01968846  , 0.015262685  , -0.18330066  , -0.22235543  , -0.06488528  , 0.24087606  , -0.091709964  , -0.1944928  , 0.04645116  , 0.048045196  , 0.03269955  , -0.008490747  , -0.06650865  , -0.010263429  , 0.025786934  , -0.054787736  , -0.13084474  , 0.039553985  , -0.053570077  , -0.14838432  , -0.037060242  , -0.0067573036  , 0.08210492  , 0.046692725  , 0.20004377  , 0.043088697  , 0.12157373  , 0.18035373  , -0.09253537  , -0.028619705  , -0.006563134  , -0.0015608262  , -0.060327403  , 0.03051065  , 0.07343535  , -0.028551659  , -0.08916514  , -0.041274037  , -0.010671873  , -0.021736832  , -0.09464561  , 0.03360053  , 0.11151672  , 0.040936623  , 0.04311972  , 0.027426213  , -0.040251803  , -0.07053689  , -0.06844595  , -0.067691185  , 0.037208304  , -0.03798053  , 0.068577506  , 0.02980614  , -0.01969494  , -0.04791254  , 0.1117889  , -0.07899794  , 0.030899689  , -0.081231266  , 0.084192336  , 0.0066482527  , 0.14650105  , 0.104781106  , 0.030194096  , -0.10307727  , -0.020836346  , 0.081507556  , 0.056602478  , -0.0003596181  , 0.12769756  , 0.07816931  , -0.04310901  , -0.09602042  , -0.008889413  , 0.10147273  , 0.035989862  , 0.005419275  , 0.0558281  , -0.0595901  , -0.07062802  , -0.0067334604  , -0.013493681  , -0.125405  , 0.03798965  , 0.021033201  , 0.08018013  , -0.0017332949  , 0.013313462  , -0.007995577  , 0.0055994582  , -0.10202243  , 0.018485237  , -0.01938275  , 0.07129819  , 0.032738432  , -0.06963884  , -0.04403881  , 0.018560627  , 0.14878899  , -0.008374756  , -0.024580713  , 0.06124909  , 0.037097257  , -0.036096435  , -0.03285029  , -0.005177842  , -0.010853502 );
                        u[39] = dot(x,   0.097902864  , -0.019869385  , -0.006704916  , -0.07232975  , -0.14373425  , -0.08875414  , -0.19464251  , 0.14846201  , 0.0957921  , 0.017787915  , 0.0022041716  , -0.070237145  , 0.18028921  , 0.107415035  , 0.28014237  , -0.017212505  , -0.043969434  , 0.006490505  , 0.029680299  , -0.03853713  , 0.0726826  , 0.01603  , 0.039022483  , 0.16012318  , -0.0218599  , 0.24375999  , -0.025893066  , -0.1754714  , 0.016962994  , 0.0146776205  , -0.025161022  , 0.031021973  , -0.073352866  , -0.011320394  , 0.077416524  , -0.065351605  , -0.32467288  , -0.0356654  , -0.016729781  , -0.0025791654  , -0.0708147  , -0.026534287  , 0.15260018  , 0.0645454  , 0.21819863  , -0.034149133  , -0.035656556  , 0.0026796162  , -0.01251144  , -0.027477868  , 0.1175146  , -0.00038500087  , 0.1062816  , -0.028511612  , 0.013721389  , 0.03752024  , -0.008729513  , -0.024680866  , 0.08022425  , -0.06541909  , 0.050227188  , -0.021241533  , 0.011700973  , -0.048611015  , 0.11430867  , 0.051233217  , 0.018436065  , -0.020352637  , 0.17811829  , 0.026613463  , 0.026072746  , -0.06398603  , 0.115152426  , 0.022492908  , -0.021900494  , -0.0700737  , -0.27707502  , 0.013384229  , 0.023240384  , -0.08538857  , -0.004119078  , 0.041437652  , 0.015584453  , -0.11889302  , 0.09956976  , -0.040269934  , -0.027906377  , -0.12836  , -0.03240948  , -0.010383656  , 0.013937775  , -0.11974174  , 0.15520239  , -0.0062790983  , -0.0044086473  , -0.021331212  , -0.1006649  , -0.07590298  , 0.040172275  , -0.08118613  , -0.0036882204  , -0.030606778  , 0.04344549  , 0.07905416  , -0.08144999  , -0.0314349  , 0.081283435  , -0.042265978  , 0.08243772  , -0.07984284  , -0.031219836  , -0.041337512  , -0.0077815135  , -0.07023925  , 0.06417991  , -0.100670844  , 0.034605246  , -0.050583813  , 0.00668128  , -0.122055724  , -0.054085314  , -0.097562484  , 0.036495164  , -0.108409084  , -0.0057184305  , -0.012165771  , 0.059072863  , 0.04766556 );
                        memcpy(dest != NULL ? dest : x, u, sizeof(float) * 40);
                    }

                protected:
                    /**
                    * Compute dot product with varargs
                    */
                    float dot(float *x, ...) {
                        va_list w;
                        va_start(w, 128);
                        static float mean[] = {  8.018e-09 , 9.797e-09 , -9.722e-09 , -6.283e-09 , -5.71e-09 , -1.2143e-08 , 7.59e-09 , -6.377e-09 , 1.3091e-08 , 1.875e-09 , 4.301e-09 , -5.554e-09 , -3.546e-09 , 9.298e-09 , 1.2223e-08 , -1.4183e-08 , -1.824e-09 , 1.8709e-08 , 1.6653e-08 , -6.757e-09 , 9.35e-10 , -6.35e-10 , -1.2062e-08 , 9.024e-09 , 1.724e-08 , -7.558e-09 , -1.1232e-08 , -1.3699e-08 , -6.286e-09 , -2.9757e-08 , 1.521e-08 , 2.459e-09 , -4.229e-09 , 8.881e-09 , 1.291e-09 , 1.7472e-08 , -8.527e-09 , 5.295e-09 , 4.73e-10 , -2.278e-09 , -5.715e-09 , -1.3616e-08 , 1.3685e-08 , 2.311e-09 , -9.36e-10 , 3.326e-09 , 1.8163e-08 , 1.3929e-08 , -1.181e-09 , -8.367e-09 , 1.1878e-08 , -1.3476e-08 , -3.937e-09 , -2.9031e-08 , 1.0664e-08 , 1.0253e-08 , 3.755e-09 , -8.506e-09 , -8.203e-09 , -8.918e-09 , 1.391e-08 , -1.5121e-08 , -7.772e-09 , 2.3471e-08 , -1.5935e-08 , 1.569e-09 , 7.981e-09 , 3.867e-09 , -1.2223e-08 , -1.022e-08 , 4.414e-09 , -1.564e-09 , 3.712e-09 , 2.33e-08 , -6.32e-09 , 1.548e-09 , -1.7745e-08 , -1.2689e-08 , 1.077e-09 , 1.369e-09 , 6.851e-09 , -7.076e-09 , 4.183e-09 , 1.3498e-08 , 3.5126e-08 , 1.3428e-08 , 1.7611e-08 , 7.973e-09 , -1.5086e-08 , 1.0616e-08 , -6.251e-09 , 3.5041e-08 , -1.221e-09 , 1.1248e-08 , 1.1628e-08 , 3.36e-09 , 3.97e-10 , -8.586e-09 , 1.389e-08 , -8.991e-09 , -1.6971e-08 , -5.177e-09 , -2.118e-09 , 5.111e-09 , -2.018e-08 , 1.2148e-08 , 1.813e-08 , 9.631e-09 , 3.12e-09 , -1.469e-09 , -4.412e-09 , 1.361e-09 , -1.61e-10 , 6.877e-09 , -2.641e-09 , -6.883e-09 , 1.0482e-08 , 1.5855e-08 , 3.664e-09 , 5.73e-10 , 1.403e-09 , -1.3e-08 , -7.151e-09 , 5.126e-09 , -1.1404e-08 , 2.0702e-08 , -5.26e-09 , -2.126e-09  };
                        float dot = 0.0;

                        for (uint16_t i = 0; i < 128; i++) {
                            dot += (x[i] - mean[i]) * va_arg(w, double);
                        }

                        return dot;
                    }
                };
            }
        }
    }