#pragma once
#include <stdarg.h>
namespace Eloquent {
    namespace ML {
        namespace Port {
            class DecisionTree {
                public:
                    /**
                    * Predict class for features vector
                    */
                    int predict(float *x) {
                        if (x[2] <= -0.6792522668838501) {
                            if (x[10] <= -0.2934446632862091) {
                                if (x[1] <= -0.4083818793296814) {
                                    if (x[0] <= -2.685184955596924) {
                                        if (x[23] <= 0.22203191369771957) {
                                            if (x[22] <= -0.02442653849720955) {
                                                if (x[1] <= -0.9876784384250641) {
                                                    return 4;
                                                }

                                                else {
                                                    return 2;
                                                }
                                            }

                                            else {
                                                return 3;
                                            }
                                        }

                                        else {
                                            return 5;
                                        }
                                    }

                                    else {
                                        if (x[5] <= -1.444454312324524) {
                                            if (x[24] <= 1.761825978755951) {
                                                return 4;
                                            }

                                            else {
                                                return 3;
                                            }
                                        }

                                        else {
                                            if (x[26] <= -1.478341668844223) {
                                                return 1;
                                            }

                                            else {
                                                if (x[0] <= -0.8212533891201019) {
                                                    if (x[28] <= -0.028151925653219223) {
                                                        return 3;
                                                    }

                                                    else {
                                                        return 4;
                                                    }
                                                }

                                                else {
                                                    if (x[11] <= 1.1588129997253418) {
                                                        return 4;
                                                    }

                                                    else {
                                                        if (x[20] <= 0.4914865707978606) {
                                                            return 4;
                                                        }

                                                        else {
                                                            return 1;
                                                        }
                                                    }
                                                }
                                            }
                                        }
                                    }
                                }

                                else {
                                    if (x[18] <= 0.1705564334988594) {
                                        if (x[4] <= -0.22504055500030518) {
                                            if (x[11] <= -0.7857559323310852) {
                                                return 4;
                                            }

                                            else {
                                                if (x[6] <= -4.592873811721802) {
                                                    return 0;
                                                }

                                                else {
                                                    if (x[2] <= -0.7846668660640717) {
                                                        return 1;
                                                    }

                                                    else {
                                                        return 3;
                                                    }
                                                }
                                            }
                                        }

                                        else {
                                            return 2;
                                        }
                                    }

                                    else {
                                        if (x[17] <= -0.1429075337946415) {
                                            if (x[14] <= -1.2302160859107971) {
                                                return 0;
                                            }

                                            else {
                                                return 1;
                                            }
                                        }

                                        else {
                                            return 3;
                                        }
                                    }
                                }
                            }

                            else {
                                if (x[3] <= 1.2689469456672668) {
                                    if (x[1] <= -1.0252095460891724) {
                                        if (x[21] <= 0.05565749807283282) {
                                            return 0;
                                        }

                                        else {
                                            return 4;
                                        }
                                    }

                                    else {
                                        if (x[20] <= -0.4378276616334915) {
                                            if (x[1] <= 1.57752126455307) {
                                                if (x[12] <= 0.08100880775600672) {
                                                    return 0;
                                                }

                                                else {
                                                    return 3;
                                                }
                                            }

                                            else {
                                                if (x[9] <= 0.8996175229549408) {
                                                    return 1;
                                                }

                                                else {
                                                    return 2;
                                                }
                                            }
                                        }

                                        else {
                                            if (x[17] <= -0.30287472903728485) {
                                                if (x[29] <= 0.288601279258728) {
                                                    return 2;
                                                }

                                                else {
                                                    return 1;
                                                }
                                            }

                                            else {
                                                if (x[6] <= -0.2674318850040436) {
                                                    return 2;
                                                }

                                                else {
                                                    if (x[3] <= 1.218294084072113) {
                                                        if (x[10] <= -0.21941661834716797) {
                                                            if (x[23] <= -0.1406354010105133) {
                                                                return 4;
                                                            }

                                                            else {
                                                                return 1;
                                                            }
                                                        }

                                                        else {
                                                            if (x[0] <= -10.87104320526123) {
                                                                return 1;
                                                            }

                                                            else {
                                                                return 1;
                                                            }
                                                        }
                                                    }

                                                    else {
                                                        if (x[12] <= 0.09850107878446579) {
                                                            return 2;
                                                        }

                                                        else {
                                                            return 1;
                                                        }
                                                    }
                                                }
                                            }
                                        }
                                    }
                                }

                                else {
                                    if (x[25] <= 0.16631004959344864) {
                                        if (x[5] <= 0.7564769089221954) {
                                            if (x[1] <= -2.6619452238082886) {
                                                return 5;
                                            }

                                            else {
                                                if (x[5] <= -2.9464361667633057) {
                                                    if (x[19] <= 1.4447171986103058) {
                                                        return 0;
                                                    }

                                                    else {
                                                        if (x[1] <= 2.047696590423584) {
                                                            return 3;
                                                        }

                                                        else {
                                                            return 1;
                                                        }
                                                    }
                                                }

                                                else {
                                                    if (x[3] <= 5.47179114818573) {
                                                        if (x[11] <= -0.10158476140350103) {
                                                            if (x[2] <= -0.6962389647960663) {
                                                                return 1;
                                                            }

                                                            else {
                                                                return 5;
                                                            }
                                                        }

                                                        else {
                                                            return 2;
                                                        }
                                                    }

                                                    else {
                                                        return 4;
                                                    }
                                                }
                                            }
                                        }

                                        else {
                                            if (x[9] <= 0.5185414254665375) {
                                                return 1;
                                            }

                                            else {
                                                if (x[25] <= -0.1187698021531105) {
                                                    return 4;
                                                }

                                                else {
                                                    return 2;
                                                }
                                            }
                                        }
                                    }

                                    else {
                                        if (x[8] <= -0.02744787558913231) {
                                            if (x[24] <= -0.18810541555285454) {
                                                return 0;
                                            }

                                            else {
                                                return 3;
                                            }
                                        }

                                        else {
                                            if (x[10] <= 0.010902345180511475) {
                                                return 4;
                                            }

                                            else {
                                                return 2;
                                            }
                                        }
                                    }
                                }
                            }
                        }

                        else {
                            if (x[6] <= 0.08198046684265137) {
                                if (x[5] <= -1.08633154630661) {
                                    if (x[8] <= -0.2620009779930115) {
                                        if (x[4] <= 4.00596559047699) {
                                            if (x[12] <= 0.5965335071086884) {
                                                if (x[25] <= -0.012823083670809865) {
                                                    if (x[8] <= -0.7610528767108917) {
                                                        if (x[20] <= -0.05431833863258362) {
                                                            return 1;
                                                        }

                                                        else {
                                                            return 4;
                                                        }
                                                    }

                                                    else {
                                                        return 5;
                                                    }
                                                }

                                                else {
                                                    return 0;
                                                }
                                            }

                                            else {
                                                if (x[20] <= 0.3942594453692436) {
                                                    return 3;
                                                }

                                                else {
                                                    return 4;
                                                }
                                            }
                                        }

                                        else {
                                            return 2;
                                        }
                                    }

                                    else {
                                        if (x[1] <= -1.0977730751037598) {
                                            if (x[23] <= 0.17783179134130478) {
                                                if (x[10] <= -0.15999840199947357) {
                                                    if (x[7] <= 0.772983193397522) {
                                                        if (x[6] <= -0.1877612005919218) {
                                                            return 0;
                                                        }

                                                        else {
                                                            return 4;
                                                        }
                                                    }

                                                    else {
                                                        return 4;
                                                    }
                                                }

                                                else {
                                                    return 0;
                                                }
                                            }

                                            else {
                                                if (x[0] <= 3.4380184561014175) {
                                                    return 3;
                                                }

                                                else {
                                                    if (x[19] <= -0.6898496001958847) {
                                                        return 5;
                                                    }

                                                    else {
                                                        return 0;
                                                    }
                                                }
                                            }
                                        }

                                        else {
                                            if (x[23] <= 0.4957728534936905) {
                                                if (x[1] <= 4.279401540756226) {
                                                    if (x[12] <= 0.943213701248169) {
                                                        if (x[3] <= 0.918487936258316) {
                                                            if (x[12] <= 0.8312065899372101) {
                                                                return 0;
                                                            }

                                                            else {
                                                                return 0;
                                                            }
                                                        }

                                                        else {
                                                            return 3;
                                                        }
                                                    }

                                                    else {
                                                        if (x[4] <= 3.658344805240631) {
                                                            return 3;
                                                        }

                                                        else {
                                                            return 0;
                                                        }
                                                    }
                                                }

                                                else {
                                                    return 1;
                                                }
                                            }

                                            else {
                                                if (x[6] <= -0.42787395417690277) {
                                                    if (x[25] <= -0.07608550507575274) {
                                                        if (x[24] <= 0.058602139353752136) {
                                                            return 3;
                                                        }

                                                        else {
                                                            return 4;
                                                        }
                                                    }

                                                    else {
                                                        return 0;
                                                    }
                                                }

                                                else {
                                                    return 5;
                                                }
                                            }
                                        }
                                    }
                                }

                                else {
                                    if (x[8] <= -0.6942903399467468) {
                                        if (x[11] <= -0.1751858815550804) {
                                            if (x[20] <= 0.31436697393655777) {
                                                if (x[28] <= 0.10603731777518988) {
                                                    return 3;
                                                }

                                                else {
                                                    return 1;
                                                }
                                            }

                                            else {
                                                return 4;
                                            }
                                        }

                                        else {
                                            if (x[12] <= -4.171836853027344) {
                                                return 0;
                                            }

                                            else {
                                                if (x[1] <= -0.5393258631229401) {
                                                    return 4;
                                                }

                                                else {
                                                    if (x[25] <= 0.4003124386072159) {
                                                        return 2;
                                                    }

                                                    else {
                                                        if (x[18] <= -0.12078900169581175) {
                                                            return 2;
                                                        }

                                                        else {
                                                            return 1;
                                                        }
                                                    }
                                                }
                                            }
                                        }
                                    }

                                    else {
                                        if (x[10] <= 0.42635659873485565) {
                                            if (x[17] <= -0.05986810475587845) {
                                                if (x[14] <= 0.1678265705704689) {
                                                    if (x[10] <= 0.1864994317293167) {
                                                        if (x[5] <= -0.04272492416203022) {
                                                            if (x[5] <= -0.26187506318092346) {
                                                                return 3;
                                                            }

                                                            else {
                                                                return 5;
                                                            }
                                                        }

                                                        else {
                                                            if (x[8] <= 0.41170652210712433) {
                                                                return 2;
                                                            }

                                                            else {
                                                                return 1;
                                                            }
                                                        }
                                                    }

                                                    else {
                                                        if (x[3] <= 1.4432076811790466) {
                                                            return 1;
                                                        }

                                                        else {
                                                            return 2;
                                                        }
                                                    }
                                                }

                                                else {
                                                    if (x[1] <= -1.427408754825592) {
                                                        if (x[20] <= -0.18243340402841568) {
                                                            return 0;
                                                        }

                                                        else {
                                                            return 4;
                                                        }
                                                    }

                                                    else {
                                                        if (x[16] <= -0.1910143941640854) {
                                                            if (x[4] <= -0.3475624918937683) {
                                                                return 1;
                                                            }

                                                            else {
                                                                return 2;
                                                            }
                                                        }

                                                        else {
                                                            if (x[9] <= 0.5902170538902283) {
                                                                return 3;
                                                            }

                                                            else {
                                                                return 0;
                                                            }
                                                        }
                                                    }
                                                }
                                            }

                                            else {
                                                if (x[12] <= 0.10377783700823784) {
                                                    if (x[8] <= 0.6735047996044159) {
                                                        if (x[21] <= -0.010313540697097778) {
                                                            if (x[12] <= -0.05294269323348999) {
                                                                return 5;
                                                            }

                                                            else {
                                                                return 3;
                                                            }
                                                        }

                                                        else {
                                                            if (x[12] <= -0.24144399911165237) {
                                                                return 3;
                                                            }

                                                            else {
                                                                return 5;
                                                            }
                                                        }
                                                    }

                                                    else {
                                                        if (x[9] <= 0.548350989818573) {
                                                            if (x[16] <= -0.21268919110298157) {
                                                                return 5;
                                                            }

                                                            else {
                                                                return 3;
                                                            }
                                                        }

                                                        else {
                                                            if (x[1] <= -2.0558472871780396) {
                                                                return 4;
                                                            }

                                                            else {
                                                                return 0;
                                                            }
                                                        }
                                                    }
                                                }

                                                else {
                                                    if (x[7] <= 0.10506976395845413) {
                                                        if (x[20] <= 0.3455337733030319) {
                                                            if (x[21] <= 0.36647291481494904) {
                                                                return 3;
                                                            }

                                                            else {
                                                                return 5;
                                                            }
                                                        }

                                                        else {
                                                            if (x[16] <= 0.6523966789245605) {
                                                                return 3;
                                                            }

                                                            else {
                                                                return 4;
                                                            }
                                                        }
                                                    }

                                                    else {
                                                        if (x[5] <= 0.10264236479997635) {
                                                            if (x[1] <= -0.49383170902729034) {
                                                                return 5;
                                                            }

                                                            else {
                                                                return 3;
                                                            }
                                                        }

                                                        else {
                                                            if (x[2] <= -0.4459870755672455) {
                                                                return 1;
                                                            }

                                                            else {
                                                                return 3;
                                                            }
                                                        }
                                                    }
                                                }
                                            }
                                        }

                                        else {
                                            if (x[1] <= 2.100255608558655) {
                                                if (x[2] <= -0.10324024874716997) {
                                                    if (x[21] <= 0.1316534075886011) {
                                                        if (x[21] <= -0.07959824241697788) {
                                                            if (x[13] <= -0.0022586435079574585) {
                                                                return 1;
                                                            }

                                                            else {
                                                                return 0;
                                                            }
                                                        }

                                                        else {
                                                            return 2;
                                                        }
                                                    }

                                                    else {
                                                        return 5;
                                                    }
                                                }

                                                else {
                                                    if (x[16] <= -0.04610806703567505) {
                                                        if (x[22] <= -0.04449695907533169) {
                                                            if (x[18] <= -0.1718355268239975) {
                                                                return 4;
                                                            }

                                                            else {
                                                                return 3;
                                                            }
                                                        }

                                                        else {
                                                            if (x[15] <= -1.0588700473308563) {
                                                                return 3;
                                                            }

                                                            else {
                                                                return 0;
                                                            }
                                                        }
                                                    }

                                                    else {
                                                        if (x[10] <= 0.43471716344356537) {
                                                            if (x[17] <= 0.1356985606253147) {
                                                                return 0;
                                                            }

                                                            else {
                                                                return 3;
                                                            }
                                                        }

                                                        else {
                                                            return 0;
                                                        }
                                                    }
                                                }
                                            }

                                            else {
                                                return 1;
                                            }
                                        }
                                    }
                                }
                            }

                            else {
                                if (x[28] <= 0.23781419545412064) {
                                    if (x[1] <= -0.7463211119174957) {
                                        if (x[18] <= 0.12828020751476288) {
                                            if (x[8] <= 1.1320393681526184) {
                                                if (x[27] <= 0.30993857979774475) {
                                                    if (x[0] <= -10.241511821746826) {
                                                        if (x[23] <= -0.391756147146225) {
                                                            return 4;
                                                        }

                                                        else {
                                                            return 5;
                                                        }
                                                    }

                                                    else {
                                                        if (x[27] <= 0.1357959434390068) {
                                                            if (x[8] <= 0.8313739597797394) {
                                                                return 4;
                                                            }

                                                            else {
                                                                return 3;
                                                            }
                                                        }

                                                        else {
                                                            if (x[0] <= -1.9543207883834839) {
                                                                return 5;
                                                            }

                                                            else {
                                                                return 4;
                                                            }
                                                        }
                                                    }
                                                }

                                                else {
                                                    if (x[23] <= 0.19852012395858765) {
                                                        return 4;
                                                    }

                                                    else {
                                                        return 5;
                                                    }
                                                }
                                            }

                                            else {
                                                if (x[13] <= -0.095387052744627) {
                                                    if (x[24] <= 0.1660904958844185) {
                                                        if (x[15] <= -0.6402643173933029) {
                                                            return 4;
                                                        }

                                                        else {
                                                            return 3;
                                                        }
                                                    }

                                                    else {
                                                        return 5;
                                                    }
                                                }

                                                else {
                                                    if (x[27] <= 0.026141716167330742) {
                                                        return 3;
                                                    }

                                                    else {
                                                        return 4;
                                                    }
                                                }
                                            }
                                        }

                                        else {
                                            if (x[21] <= -0.035412827506661415) {
                                                if (x[28] <= 0.04832749627530575) {
                                                    if (x[14] <= 0.33200453221797943) {
                                                        if (x[16] <= 2.936142086982727) {
                                                            if (x[21] <= -0.06318218819797039) {
                                                                return 3;
                                                            }

                                                            else {
                                                                return 5;
                                                            }
                                                        }

                                                        else {
                                                            return 4;
                                                        }
                                                    }

                                                    else {
                                                        if (x[0] <= 2.460073471069336) {
                                                            if (x[26] <= -0.09485094994306564) {
                                                                return 5;
                                                            }

                                                            else {
                                                                return 3;
                                                            }
                                                        }

                                                        else {
                                                            return 4;
                                                        }
                                                    }
                                                }

                                                else {
                                                    if (x[11] <= 0.3996269404888153) {
                                                        if (x[14] <= -0.40236371755599976) {
                                                            return 3;
                                                        }

                                                        else {
                                                            return 0;
                                                        }
                                                    }

                                                    else {
                                                        if (x[9] <= 0.2203112244606018) {
                                                            if (x[6] <= 1.4503444731235504) {
                                                                return 5;
                                                            }

                                                            else {
                                                                return 3;
                                                            }
                                                        }

                                                        else {
                                                            return 4;
                                                        }
                                                    }
                                                }
                                            }

                                            else {
                                                if (x[3] <= 0.6362053453922272) {
                                                    if (x[11] <= 0.5283694863319397) {
                                                        if (x[6] <= 0.08938538655638695) {
                                                            if (x[12] <= -0.14889007806777954) {
                                                                return 4;
                                                            }

                                                            else {
                                                                return 5;
                                                            }
                                                        }

                                                        else {
                                                            if (x[1] <= -0.9057345986366272) {
                                                                return 4;
                                                            }

                                                            else {
                                                                return 0;
                                                            }
                                                        }
                                                    }

                                                    else {
                                                        if (x[26] <= -0.7710103094577789) {
                                                            return 4;
                                                        }

                                                        else {
                                                            return 5;
                                                        }
                                                    }
                                                }

                                                else {
                                                    if (x[13] <= 0.1753908134996891) {
                                                        return 5;
                                                    }

                                                    else {
                                                        return 4;
                                                    }
                                                }
                                            }
                                        }
                                    }

                                    else {
                                        if (x[8] <= 0.11163805425167084) {
                                            if (x[18] <= 0.05021192994900048) {
                                                if (x[4] <= -0.719079926609993) {
                                                    if (x[3] <= -0.4071150869131088) {
                                                        return 1;
                                                    }

                                                    else {
                                                        return 4;
                                                    }
                                                }

                                                else {
                                                    return 2;
                                                }
                                            }

                                            else {
                                                if (x[17] <= -0.13520780950784683) {
                                                    if (x[7] <= 2.9405046105384827) {
                                                        return 1;
                                                    }

                                                    else {
                                                        return 4;
                                                    }
                                                }

                                                else {
                                                    return 3;
                                                }
                                            }
                                        }

                                        else {
                                            if (x[14] <= 0.074144147336483) {
                                                if (x[29] <= 0.612952072173357) {
                                                    if (x[28] <= 0.16049417853355408) {
                                                        if (x[6] <= 0.08305995911359787) {
                                                            return 3;
                                                        }

                                                        else {
                                                            return 1;
                                                        }
                                                    }

                                                    else {
                                                        return 2;
                                                    }
                                                }

                                                else {
                                                    if (x[29] <= 1.177156150341034) {
                                                        return 2;
                                                    }

                                                    else {
                                                        return 0;
                                                    }
                                                }
                                            }

                                            else {
                                                if (x[5] <= -0.3871237337589264) {
                                                    return 0;
                                                }

                                                else {
                                                    if (x[23] <= 0.011520202737301588) {
                                                        return 2;
                                                    }

                                                    else {
                                                        if (x[19] <= 0.3390824329108) {
                                                            return 3;
                                                        }

                                                        else {
                                                            return 1;
                                                        }
                                                    }
                                                }
                                            }
                                        }
                                    }
                                }

                                else {
                                    if (x[21] <= 0.4187958240509033) {
                                        if (x[1] <= -0.42596933245658875) {
                                            if (x[18] <= 0.19879100471735) {
                                                if (x[26] <= -0.1033831462264061) {
                                                    if (x[25] <= -0.04021706059575081) {
                                                        return 5;
                                                    }

                                                    else {
                                                        if (x[14] <= -1.1186174750328064) {
                                                            return 3;
                                                        }

                                                        else {
                                                            if (x[16] <= 2.2905715107917786) {
                                                                return 0;
                                                            }

                                                            else {
                                                                return 4;
                                                            }
                                                        }
                                                    }
                                                }

                                                else {
                                                    if (x[2] <= -0.6518653333187103) {
                                                        return 2;
                                                    }

                                                    else {
                                                        if (x[0] <= -8.643852233886719) {
                                                            return 0;
                                                        }

                                                        else {
                                                            return 4;
                                                        }
                                                    }
                                                }
                                            }

                                            else {
                                                if (x[6] <= 1.2059205174446106) {
                                                    if (x[2] <= 0.0441260039806366) {
                                                        return 3;
                                                    }

                                                    else {
                                                        return 0;
                                                    }
                                                }

                                                else {
                                                    if (x[0] <= 6.532594621181488) {
                                                        return 5;
                                                    }

                                                    else {
                                                        if (x[13] <= -0.08685168623924255) {
                                                            return 1;
                                                        }

                                                        else {
                                                            return 4;
                                                        }
                                                    }
                                                }
                                            }
                                        }

                                        else {
                                            if (x[11] <= -0.007853317074477673) {
                                                return 1;
                                            }

                                            else {
                                                return 2;
                                            }
                                        }
                                    }

                                    else {
                                        if (x[2] <= 0.5922729969024658) {
                                            return 5;
                                        }

                                        else {
                                            if (x[29] <= 0.7713843956589699) {
                                                return 4;
                                            }

                                            else {
                                                if (x[12] <= -1.6434059739112854) {
                                                    return 0;
                                                }

                                                else {
                                                    return 1;
                                                }
                                            }
                                        }
                                    }
                                }
                            }
                        }
                    }

                protected:
                };
            }
        }
    }