#include <stdlib.h>
                            #include <stdint.h>
                            #include <math.h>
                            #include <string.h>
                            #pragma once
#include <stdarg.h>
namespace Eloquent {
    namespace ML {
        namespace Port {
            class PCA {
                public:
                    /**
                    * Apply dimensionality reduction
                    * @warn Will override the source vector if no dest provided!
                    */
                    void transform(float *x, float *dest = NULL) {
                        static float u[40] = { 0 };
                        u[0] = dot(x,   0.06467554  , 0.03782323  , 0.06990458  , 0.071754344  , 0.06940661  , -0.065880276  , -0.072233826  , -0.07271952  , 0.072277054  , 0.053304464  , 0.07756167  , 0.0783205  , 0.07442641  , -0.07519075  , -0.08102575  , -0.0756413  , 0.10959025  , 0.09158922  , 0.0999276  , 0.07497897  , 0.021465695  , -0.11182423  , -0.10937725  , -0.08828448  , 0.10822782  , 0.08830904  , 0.092365384  , 0.06374723  , 0.0128534585  , -0.110712446  , -0.079536416  , -0.035139576  , 0.10213018  , 0.044199873  , 0.102359235  , 0.08707959  , 0.04085684  , -0.101727344  , -0.06595471  , -0.020302424  , 0.1026092  , 0.010449228  , 0.102987304  , 0.0860387  , 0.039656453  , -0.10262231  , -0.0919876  , -0.028688276  , 0.11331012  , 0.015162003  , 0.109631024  , 0.09125546  , 0.086347304  , -0.11468894  , -0.11269746  , -0.08393015  , 0.113030784  , 0.012613086  , 0.10781261  , 0.08846353  , 0.08378203  , -0.11464902  , -0.112708494  , -0.079418704  , 0.07430869  , 0.061516184  , 0.08073002  , 0.0825208  , 0.07803122  , -0.076332815  , -0.082400024  , -0.074172914  , 0.07282377  , 0.06238482  , 0.0787001  , 0.08020029  , 0.077490136  , -0.07424233  , -0.0811524  , -0.07503571  , 0.11199142  , 0.096081905  , 0.10512894  , 0.08984002  , 0.092352785  , -0.11300421  , -0.11201584  , -0.089718945  , 0.112240925  , 0.095179036  , 0.104534805  , 0.08781427  , 0.08735421  , -0.11376855  , -0.112896994  , -0.0888158  , 0.10973028  , 0.088192165  , 0.10414713  , 0.08648253  , 0.062765874  , -0.11197002  , -0.107105464  , -0.046650324  , 0.10574172  , 0.083513536  , 0.099736206  , 0.08297014  , 0.05865884  , -0.107861266  , -0.10269728  , -0.04431084  , 0.112840846  , 0.09619543  , 0.11223219  , 0.09349372  , 0.09135652  , -0.11336963  , -0.11149805  , -0.08806334  , 0.11262225  , 0.09584714  , 0.11266459  , 0.09527067  , 0.09332393  , -0.11369258  , -0.11145616  , -0.08744019 );
                        u[1] = dot(x,   -0.15895441  , 0.019755894  , -0.15105084  , -0.14623943  , -0.13366364  , 0.15583768  , 0.15060616  , 0.13108753  , -0.15892963  , -0.0037497107  , -0.15048972  , -0.14666367  , -0.13624687  , 0.15912393  , 0.14722922  , 0.11858186  , 0.03987363  , 0.038257703  , 0.11009765  , 0.14050996  , 0.050075732  , -0.03626509  , -0.035411965  , -0.0042121075  , 0.048580624  , 0.054401454  , 0.11404186  , 0.12679598  , 0.039901607  , -0.045709133  , -0.04837954  , -0.035655193  , -0.043757603  , 0.029363178  , 0.0033568062  , 0.058555838  , 0.061805867  , 0.040773552  , 0.014995521  , -0.0036658747  , -0.0319279  , 0.03863622  , 0.017074948  , 0.07052008  , 0.06592125  , 0.029811483  , 0.018921627  , 0.0018648253  , 0.0076882695  , 0.040048353  , 0.07705053  , 0.13199793  , 0.13859773  , 0.0025905792  , 0.0042299135  , 0.016429586  , 0.01456659  , 0.039496526  , 0.08528706  , 0.13697904  , 0.14355353  , -0.0051622405  , -0.005990847  , 0.006491528  , -0.15669128  , -0.041727144  , -0.14754492  , -0.14357476  , -0.13970149  , 0.15568264  , 0.14703156  , 0.11395048  , -0.15536173  , -0.046933856  , -0.14815491  , -0.14455561  , -0.14176701  , 0.15446715  , 0.15110223  , 0.11790044  , 0.019816449  , 0.024439014  , 0.089456595  , 0.13262911  , 0.120439455  , -0.012001609  , -0.005631896  , 0.02945329  , 0.025864197  , 0.03086784  , 0.09410397  , 0.13608307  , 0.1258517  , -0.01921499  , -0.013861272  , 0.024150789  , -0.003859485  , 0.012427204  , 0.04881543  , 0.08818251  , 0.08637149  , 0.0030596235  , -0.0005249123  , 0.012142662  , 0.014846522  , 0.026222596  , 0.06703321  , 0.10086136  , 0.091388926  , -0.01870184  , -0.01875858  , 0.0054862346  , -0.011622574  , 0.012866774  , 0.057936918  , 0.12330149  , 0.121968664  , 0.024376152  , 0.024661992  , 0.0410238  , -0.010170093  , 0.013330386  , 0.055629063  , 0.121320315  , 0.117506  , 0.023622764  , 0.026754357  , 0.0397701 );
                        u[2] = dot(x,   0.06957302  , 0.27433142  , 0.07526361  , 0.07508548  , 0.03700723  , -0.05225295  , -0.0041728998  , 0.071199015  , 0.050719667  , 0.19902362  , 0.05888423  , 0.06088311  , 0.013923002  , -0.025959678  , 0.03485198  , 0.09192733  , -0.03136548  , -0.04124057  , -0.027254457  , 0.048447028  , 0.002419066  , 0.06488028  , 0.08264034  , 0.1283066  , -0.030924512  , 0.032267313  , -0.015639195  , 0.047402453  , 0.060856555  , 0.061204884  , -0.015988719  , -0.10025233  , 0.046046298  , 0.22670442  , 0.079037905  , 0.17104374  , 0.24613462  , -0.012174388  , 0.010716138  , 0.033558056  , 0.052062813  , 0.24528392  , 0.08524047  , 0.17512986  , 0.24132667  , -0.021598067  , 0.0144473  , 0.071048535  , -0.005857112  , 0.24368979  , -0.01847211  , -0.022111336  , 0.020529347  , 0.05172355  , 0.075986706  , 0.12510754  , -0.009488769  , 0.24448006  , -0.021921067  , -0.025988244  , 0.0054691522  , 0.053349815  , 0.07625358  , 0.12024235  , 0.06865568  , 0.12965955  , 0.07312701  , 0.07012173  , 0.03384517  , -0.043662433  , 0.01904336  , 0.08674794  , 0.07796436  , 0.12782875  , 0.079347365  , 0.07491416  , 0.03921318  , -0.05236993  , 0.0017206051  , 0.08022118  , -0.021899559  , -0.02550219  , -0.03505315  , -0.03418218  , -0.03919632  , 0.061556328  , 0.08315347  , 0.13100049  , -0.023040157  , -0.021264493  , -0.033830974  , -0.03257471  , -0.039717983  , 0.059969295  , 0.081459984  , 0.1320464  , 0.038068723  , 0.008332052  , 0.057399146  , 0.10101575  , 0.16188905  , -0.0024812736  , 0.029380554  , 0.08988452  , 0.03468863  , 0.0011275305  , 0.04924953  , 0.10110164  , 0.16767313  , -0.009162735  , 0.024599312  , 0.08399319  , -0.003101517  , -0.006020522  , -0.016687112  , -0.022686364  , -0.01696713  , 0.052556135  , 0.073100135  , 0.12090237  , 0.0011903112  , -0.0031537137  , -0.005843599  , 0.028115274  , -0.019642541  , 0.047874194  , 0.07043859  , 0.118106216 );
                        u[3] = dot(x,   -0.08593225  , 0.13169862  , -0.085965924  , -0.07989873  , -0.037452914  , 0.04592353  , -0.02383674  , -0.11143169  , -0.07022497  , 0.023153791  , -0.07068684  , -0.06496878  , -0.01082434  , 0.016621215  , -0.072904065  , -0.13246454  , -0.07917533  , -0.039316542  , -0.051524647  , 0.0036094463  , 0.008855362  , 0.012195294  , -0.04957162  , -0.13094115  , -0.078963116  , 0.027202616  , -0.03794227  , 0.0487042  , 0.07018564  , 0.0048326906  , -0.13395782  , -0.21444185  , -0.04278904  , 0.17431448  , -0.018616572  , 0.03403098  , 0.16028291  , -0.032194275  , -0.13148989  , -0.1763913  , -0.057200775  , 0.19218498  , -0.03143843  , 0.028844036  , 0.15445903  , 0.0034652243  , -0.10686949  , -0.21358798  , -0.08277182  , 0.18942998  , -0.06698758  , -0.055078395  , -0.002267543  , -0.0029016223  , -0.052528813  , -0.17170347  , -0.08215063  , 0.19089654  , -0.06711774  , -0.058873832  , -0.016624162  , 0.00024972632  , -0.04452306  , -0.16186169  , -0.071936935  , -0.07610468  , -0.06824004  , -0.059480745  , -0.021404494  , 0.016002659  , -0.063452445  , -0.136215  , -0.07981788  , -0.07586007  , -0.07391041  , -0.06471772  , -0.026744325  , 0.02587024  , -0.04486054  , -0.13104644  , -0.077494875  , -0.03015238  , -0.073308304  , -0.06286851  , -0.036731187  , 0.002407303  , -0.043916322  , -0.1688094  , -0.07676473  , -0.034965914  , -0.07154294  , -0.062395487  , -0.03912272  , 0.00624375  , -0.041473504  , -0.17747529  , -0.06998415  , 0.0008857269  , -0.054091465  , -0.032535914  , 0.06395858  , 0.010536986  , -0.06893223  , -0.2111903  , -0.07803514  , 0.0023600112  , -0.064757295  , -0.035131536  , 0.06708963  , 0.033731  , -0.052987516  , -0.2007847  , -0.07522436  , -0.0398714  , -0.06398501  , -0.05701947  , -0.03734226  , -0.0174408  , -0.05847105  , -0.16872159  , -0.08076629  , -0.040067576  , -0.06484361  , -0.02395926  , -0.046233874  , -0.012431597  , -0.06263862  , -0.17146173 );
                        u[4] = dot(x,   -0.067711815  , -0.05444802  , -0.06334512  , -0.06638147  , -0.09577431  , 0.06624989  , 0.08199342  , 0.08480926  , -0.06397069  , 0.026665455  , -0.05957466  , -0.06056709  , -0.085731916  , 0.066400394  , 0.06873762  , 0.06556583  , 0.0039272197  , 0.13855667  , -0.03490197  , -0.114126645  , -0.060018085  , 0.024250088  , 0.022599464  , 0.09493599  , 0.00932271  , 0.1183088  , -0.039488148  , -0.07533888  , -0.050254565  , 0.016876273  , 0.009099996  , 0.025742242  , 0.17902973  , 0.025306467  , 0.15974045  , 0.06702452  , -0.05098331  , -0.19391902  , -0.1789789  , -0.10460916  , 0.17925516  , -0.09609187  , 0.15847798  , 0.049571946  , -0.058699768  , -0.19169873  , -0.21893024  , -0.11300777  , -0.02048414  , -0.089737386  , -0.03685958  , -0.07755575  , -0.11718589  , 0.028135076  , 0.030993778  , 0.06746472  , -0.01813543  , -0.09345839  , -0.038659167  , -0.081371464  , -0.11623401  , 0.027590271  , 0.03242685  , 0.0738492  , -0.046333253  , 0.08331858  , -0.034724962  , -0.029982945  , -0.052396428  , 0.04403654  , 0.05108466  , 0.046961833  , -0.029161714  , 0.091148466  , -0.01626535  , -0.012157552  , -0.03543109  , 0.027186861  , 0.037825733  , 0.04311285  , -0.035946265  , 0.111134976  , -0.05274446  , -0.0798936  , -0.09606911  , 0.042820305  , 0.04121427  , 0.044415727  , -0.02107274  , 0.12644404  , -0.04205693  , -0.080241136  , -0.09277822  , 0.03783234  , 0.03254897  , 0.024304362  , 0.102330595  , 0.24716237  , 0.061701205  , -0.013580653  , -0.044942554  , -0.11998103  , -0.14540812  , -0.106706865  , 0.11494448  , 0.258605  , 0.06869088  , -0.015743647  , -0.0504569  , -0.14070983  , -0.16756548  , -0.1211959  , -0.042267907  , 0.11103216  , -0.05067464  , -0.08510643  , -0.1063875  , 0.035473324  , 0.030038353  , 0.045911673  , -0.04162309  , 0.1165016  , -0.047366884  , -0.09192077  , -0.09359919  , 0.03566558  , 0.028610151  , 0.041295383 );
                        u[5] = dot(x,   0.014077302  , -0.05976606  , 0.035227634  , 0.04994469  , 0.025682852  , -0.03241956  , -0.020331226  , 0.042338196  , -0.005680513  , 0.0728855  , 0.023256358  , 0.043575674  , 0.004867707  , -0.016605817  , 0.01643058  , 0.079399146  , -0.07372754  , -0.21194644  , -0.021461911  , -0.024581214  , 0.03578025  , 0.074208245  , 0.02026956  , -0.0059828865  , -0.07476331  , -0.24763903  , -0.028450608  , 0.03050576  , 0.0074425954  , 0.065859206  , 0.03344337  , 0.03244144  , -0.029764174  , -0.21348199  , 0.042394906  , 0.0759938  , -0.025431184  , 0.020085314  , -0.0982708  , -0.17892966  , -0.028008424  , -0.17632101  , 0.049768858  , 0.09013422  , -0.008645127  , 0.035436198  , -0.07811611  , -0.23502678  , -0.02652541  , -0.18561354  , 0.011183507  , 0.0518367  , 0.037515406  , 0.043126803  , 0.01921161  , -0.074804805  , -0.02746231  , -0.18084532  , 0.010591729  , 0.05227598  , 0.05039874  , 0.042639304  , 0.0179787  , -0.09229324  , 0.022211371  , 0.16460474  , 0.03885372  , 0.043737467  , 0.014455567  , -0.039483104  , 0.0131139215  , 0.08376207  , 0.01988217  , 0.15031677  , 0.02628116  , 0.0274611  , 0.00031562912  , -0.031761885  , 0.0051885825  , 0.07651695  , -0.055045664  , -0.20034026  , -0.025018282  , 0.01079872  , 0.00993274  , 0.065411076  , 0.048192035  , 0.004048397  , -0.050977044  , -0.20223188  , -0.011248821  , 0.03336979  , 0.039067633  , 0.0562923  , 0.034541726  , -0.020497655  , 0.040381137  , -0.11192243  , 0.14090447  , 0.20054986  , 0.15440403  , -0.016369151  , -0.08382657  , -0.2042633  , 0.03682361  , -0.11583556  , 0.13826124  , 0.19707182  , 0.14181882  , -0.016741905  , -0.084326185  , -0.20719579  , -0.015926844  , -0.17888904  , 0.016153757  , 0.04170557  , 0.03722101  , 0.043628193  , 0.03445807  , -0.012934869  , -0.007891869  , -0.17570262  , 0.027298477  , 0.027740974  , 0.06340694  , 0.03481432  , 0.020701012  , -0.034917768 );
                        u[6] = dot(x,   0.095338896  , -0.056094855  , 0.082271665  , 0.075335264  , 0.08550991  , -0.048859946  , -0.031914156  , 0.024076352  , 0.08007414  , -0.11512915  , 0.06331679  , 0.049109194  , 0.035639785  , -0.020813353  , 0.0036072487  , 0.054464843  , 0.041751284  , 0.011123208  , 0.06278649  , 0.1243114  , 0.3092096  , 0.011922425  , 0.012373023  , 0.0976944  , 0.03938301  , 0.034179676  , 0.14297047  , 0.2628843  , 0.32330295  , -0.03121866  , -0.21958897  , -0.25467113  , -0.005801094  , -0.00065436395  , -0.049400255  , -0.08702856  , -0.08189901  , -0.012489052  , -0.2496669  , -0.3321761  , 0.008067912  , 0.006905825  , -0.03270944  , -0.074062176  , -0.07936303  , 0.022873666  , -0.11039709  , -0.19858637  , 0.033623446  , 0.00803937  , 0.01489203  , 0.0027671969  , 0.0134399  , 0.043855652  , 0.06470349  , 0.09216691  , 0.033699516  , 0.0075631575  , 0.016962951  , 0.004253031  , 0.01923126  , 0.041900244  , 0.061480463  , 0.09210286  , 0.057771243  , -0.122716464  , 0.039615184  , 0.02820898  , 0.028759787  , 0.010410253  , 0.052952316  , 0.0833568  , 0.061765064  , -0.11649515  , 0.047833953  , 0.038498588  , 0.037295185  , 0.000440998  , 0.037243564  , 0.07500796  , 0.047739223  , 0.020792093  , 0.039240588  , 0.030667704  , 0.037861027  , 0.025183458  , 0.045001317  , 0.085182615  , 0.046428993  , 0.027000424  , 0.032907955  , 0.018250914  , 0.024663452  , 0.02364166  , 0.037256557  , 0.06503433  , -0.016783545  , -0.031506844  , -0.07139517  , -0.10704905  , -0.13260229  , 0.04913642  , 0.009276416  , -0.033343013  , -0.011370329  , -0.030811677  , -0.06323801  , -0.10888422  , -0.14031541  , 0.027030677  , -0.009188488  , -0.051800836  , 0.02976505  , 0.01496036  , 0.005835375  , -0.0036052566  , 0.0003480191  , 0.052566152  , 0.07266744  , 0.10830112  , 0.027705988  , 0.011868158  , -0.0010017585  , -0.013260477  , -0.014328815  , 0.0532611  , 0.075071655  , 0.10209665 );
                        u[7] = dot(x,   0.026743349  , 0.031607576  , 0.026144031  , 0.03462418  , 0.0861816  , 0.10007687  , 0.08485346  , 0.052846752  , 0.062103324  , 0.02655475  , 0.056944497  , 0.063337445  , 0.1283696  , 0.1079299  , 0.08063306  , 0.038743865  , 0.008929745  , 0.1434473  , 0.00649166  , -0.044739243  , -0.19168077  , 0.09237756  , 0.04354472  , 0.0029238262  , -0.011165943  , 0.1374891  , -0.062482454  , -0.089032084  , -0.17300974  , 0.11592181  , 0.13463596  , 0.09308988  , -0.044025823  , 0.05013716  , -0.05093481  , -0.039670635  , 0.0013477618  , 0.121949546  , 0.09122205  , -0.0053662495  , -0.060732573  , 0.03628852  , -0.07085902  , -0.047577463  , -0.004090787  , 0.10329388  , 0.003326744  , -0.20939484  , 0.0084203165  , 0.044822317  , 0.02826589  , 0.04656372  , 0.06542393  , 0.11451138  , 0.07951836  , -0.0697963  , 0.0021980149  , 0.04030553  , 0.024120308  , 0.041985366  , 0.058520675  , 0.113829084  , 0.081236966  , -0.074513316  , 0.080725916  , 0.02035232  , 0.08817758  , 0.10567932  , 0.15397541  , 0.094314806  , 0.06887896  , 0.03743674  , 0.072144926  , 0.022930589  , 0.08983478  , 0.11028498  , 0.15923965  , 0.088509195  , 0.07082113  , 0.028786434  , 0.032190297  , 0.17321979  , 0.033716377  , 0.049884368  , 0.08788514  , 0.100972675  , 0.07229222  , -0.04397668  , 0.019557087  , 0.16490556  , 0.022043578  , 0.04419741  , 0.07971443  , 0.09875669  , 0.06260177  , -0.071706645  , -0.06386964  , 0.038469  , -0.046569772  , -0.029088277  , -0.011475188  , 0.114668034  , 0.012286082  , -0.25705636  , -0.10687683  , 0.006348019  , -0.08751293  , -0.04961717  , -0.018806038  , 0.11221659  , 0.00019878475  , -0.2682687  , 0.035289053  , 0.18020737  , 0.06142215  , 0.0769413  , 0.103476934  , 0.11061333  , 0.08272255  , -0.0320155  , 0.025642533  , 0.17937146  , 0.051227525  , 0.076250166  , 0.09395993  , 0.11485454  , 0.07949769  , -0.0482921 );
                        u[8] = dot(x,   -0.06335741  , -0.017416803  , -0.05824758  , -0.039473385  , 0.021683916  , 0.062041815  , 0.029072536  , -0.042155135  , -0.05275307  , 0.09843331  , -0.048684172  , -0.036744382  , 0.014957888  , 0.05579051  , -0.012274459  , -0.08146039  , -0.10661237  , 0.08753178  , -0.029204467  , 0.14711425  , 0.45076966  , 0.069090724  , 0.04493172  , -0.04674698  , -0.10815158  , 0.05300991  , 0.10108168  , 0.21732867  , 0.4163346  , 0.08300984  , 0.13273542  , 0.15082814  , 0.0030073645  , -0.043055028  , 0.036041263  , 0.035489988  , -0.022020984  , 0.009571503  , 0.1127718  , 0.15532558  , -0.014638238  , -0.10547095  , 0.018901907  , 0.026217109  , -0.021761961  , 0.008674658  , 0.070908576  , 0.122246765  , -0.0858817  , -0.09975471  , -0.035161242  , -0.0015509647  , -0.012595272  , 0.044963613  , 0.015343325  , -0.052261814  , -0.09001701  , -0.103082895  , -0.03907266  , -0.006324255  , -0.015045179  , 0.050169136  , 0.024865074  , -0.042963818  , 0.00017485503  , 0.16932593  , 0.017583432  , 0.038313076  , 0.054083545  , -0.0072212517  , -0.07614709  , -0.12681618  , 0.01039384  , 0.17246668  , 0.031073423  , 0.051179774  , 0.06861515  , -0.016226718  , -0.069650106  , -0.12674806  , -0.08502006  , 0.10413295  , -0.051708877  , -0.017351752  , 0.006551148  , 0.06440722  , 0.03398167  , -0.07250937  , -0.08926359  , 0.09890052  , -0.050184485  , -0.011370632  , 0.016989432  , 0.06639031  , 0.041457057  , -0.053547498  , -0.04142482  , 0.12249104  , 0.019138508  , 0.046853215  , 0.05547845  , 0.026006913  , 0.035586063  , 0.022457052  , -0.0711046  , 0.102172256  , -0.012736597  , 0.0302356  , 0.045464106  , 0.058815103  , 0.062377572  , 0.04079684  , -0.07104706  , 0.116580576  , -0.012771603  , 0.019471982  , 0.029660378  , 0.02947356  , -0.0042383084  , -0.08881306  , -0.07602132  , 0.12195333  , -0.01492824  , 0.008131231  , 0.04179754  , 0.03309768  , -0.0047879643  , -0.07878712 );
                        u[9] = dot(x,   -0.067627065  , 0.10338138  , -0.073774226  , -0.07530976  , -0.12580676  , 0.031997137  , 0.0298809  , 0.062323622  , -0.03188961  , 0.2889957  , -0.034855936  , -0.032358337  , -0.0692487  , -0.008918109  , -0.027734797  , 0.004303245  , -0.045198668  , 0.061458446  , -0.0669664  , -0.06653559  , -0.11063947  , -0.032572728  , 0.0016829536  , 0.009015191  , -0.06011013  , 0.026765767  , -0.10870245  , -0.05885476  , -0.1281344  , -0.067714065  , -0.22030888  , -0.24728534  , -0.105753064  , -0.07067112  , -0.093653895  , -0.031832274  , -0.09541976  , 0.016509745  , -0.20814788  , -0.26579902  , -0.105606966  , -0.06447733  , -0.089196295  , -0.011118651  , -0.08820957  , 0.08289671  , 0.012508092  , -0.011343917  , -0.02244717  , -0.058292765  , -0.011592782  , 0.0354855  , 0.028381107  , -0.045674883  , -0.032382697  , 0.0273988  , -0.031594496  , -0.06160301  , -0.017864082  , 0.0320956  , 0.030219695  , -0.041598164  , -0.030638903  , 0.0406708  , 0.021503026  , 0.3531564  , 0.019946111  , 0.020788584  , -0.037192456  , -0.062273156  , -0.05307253  , -0.025548074  , 0.019822523  , 0.34140012  , 0.014483079  , 0.014081844  , -0.043151435  , -0.057199683  , -0.046424665  , -0.017045924  , -0.011091807  , 0.09298751  , -0.0033220642  , 0.035041224  , 0.017663058  , -0.05029746  , -0.038116723  , 0.008765366  , -0.03933173  , 0.07846021  , -0.028440675  , 0.021643259  , 0.001720232  , -0.035416692  , -0.02060168  , 0.035455756  , -0.07982989  , -0.032669175  , -0.054437228  , 0.03161065  , -0.040622965  , 0.0666087  , 0.0787867  , 0.14828861  , -0.106004216  , -0.067852885  , -0.07778991  , 0.012118104  , -0.07000941  , 0.11349572  , 0.13519421  , 0.16916192  , 0.002285042  , 0.13537839  , 0.009444394  , 0.042776663  , 0.027856981  , -0.057466947  , -0.05000937  , 0.0015701904  , 0.0042705685  , 0.13830313  , 0.010145295  , 0.03452794  , 0.039900158  , -0.05524102  , -0.04042059  , 0.013478011 );
                        u[10] = dot(x,   -0.004538309  , -0.2189735  , 0.008451219  , 0.018593343  , 0.12054916  , 0.023855153  , -0.03606021  , -0.11190657  , -0.043667596  , -0.27825004  , -0.033695333  , -0.02569448  , 0.088821776  , 0.06569565  , -0.03970773  , -0.10837623  , -0.05895436  , 0.08040209  , -0.010752022  , -0.09074016  , -0.10150857  , 0.04973409  , 0.04270312  , 0.02106246  , -0.06255299  , 0.02911656  , -0.072724596  , -0.061130833  , -0.13021362  , 0.015502643  , -0.09251934  , -0.12996879  , 0.0030789678  , -0.09554809  , 0.07296951  , 0.12413719  , 0.14622483  , -0.08813071  , -0.19623078  , -0.15765852  , -0.016168589  , -0.1324381  , 0.05846621  , 0.11851659  , 0.16541727  , -0.031769905  , -0.032626092  , 0.09753448  , -0.07653917  , -0.12968369  , -0.0022078329  , 0.035391003  , 0.045314897  , 0.038073227  , 0.039831765  , 0.08115394  , -0.079020575  , -0.13126096  , -0.003447266  , 0.032435093  , 0.055765938  , 0.0419346  , 0.04739122  , 0.09685283  , -0.01993868  , -0.21052365  , 0.005841647  , 0.02816358  , 0.11539254  , 0.041349314  , -0.047401182  , -0.1324207  , -0.005960035  , -0.1968717  , 0.027543923  , 0.050484795  , 0.1373222  , 0.02686712  , -0.042533413  , -0.13435869  , -0.056226995  , 0.058982905  , -0.011171129  , 0.015366855  , 0.07238428  , 0.04041455  , 0.03741745  , 0.008195181  , -0.060380872  , 0.056829784  , -0.011171825  , 0.0190393  , 0.08005662  , 0.041471947  , 0.044113915  , 0.033736076  , -0.07440533  , 0.04681749  , 0.008565863  , 0.07776873  , 0.255368  , 0.01786561  , 0.05344448  , 0.18078291  , -0.101750396  , 0.04085604  , -0.027174616  , 0.04374938  , 0.23019405  , 0.03444616  , 0.06979944  , 0.19246627  , -0.06512587  , 0.04142204  , 0.00303473  , 0.045486894  , 0.070324525  , 0.032218747  , 0.023013772  , 0.01715372  , -0.07399366  , 0.04249809  , -0.004240087  , 0.021853868  , 0.07178216  , 0.03552386  , 0.027141903  , 0.041917995 );
                        u[11] = dot(x,   0.1597729  , -0.011179431  , 0.12604992  , 0.10294708  , -0.028094409  , -0.2926321  , -0.21565622  , -0.061201993  , -0.048022714  , -0.092451744  , -0.0833762  , -0.11028699  , -0.2553632  , -0.093873136  , 0.011602711  , 0.08549376  , -0.079389304  , 0.09104431  , 0.018907363  , 0.06695835  , -0.054435182  , -0.06387093  , -0.087159276  , 0.15880246  , -0.08641999  , 0.10548463  , -0.009023624  , 0.051392455  , -0.047862925  , -0.040125515  , 0.045807645  , 0.1421841  , -0.1213047  , 0.009787265  , -0.1188369  , -0.016432168  , -0.018412903  , 0.027564704  , 0.076851785  , 0.076558486  , -0.06323542  , 0.000641051  , -0.058882415  , 0.031144062  , 0.0012000478  , -0.05590493  , -0.0812797  , -0.08354897  , -0.11664519  , 0.006682863  , -0.05331678  , 0.06683012  , 0.028276099  , -0.039086845  , -0.032606542  , 0.103544906  , -0.11599708  , 0.0036787447  , -0.04204538  , 0.07723836  , 0.039938867  , -0.041598354  , -0.038898505  , 0.09508578  , -0.0022414827  , -0.047247753  , -0.041010804  , -0.06614505  , -0.19871509  , -0.1695236  , -0.06552937  , 0.054065198  , 0.08042211  , -0.031678647  , 0.037218526  , 0.009786669  , -0.1271694  , -0.23656256  , -0.15054922  , 0.0118178865  , -0.10526901  , 0.05970073  , -0.009477452  , 0.099028274  , 0.02270292  , -0.040359695  , -0.04015722  , 0.083572514  , -0.118718565  , 0.088304855  , -0.016193781  , 0.09619749  , 0.028920213  , -0.033140406  , -0.041719932  , 0.05599548  , -0.13174619  , 0.023258926  , -0.080627814  , 0.025256317  , 0.030035121  , 0.0021607955  , -0.07196773  , -0.15452515  , -0.09494961  , 0.045532204  , -0.041095834  , 0.062403083  , 0.055623766  , 0.0041630794  , -0.073452584  , -0.15835941  , -0.14199567  , 0.07812665  , -0.07017041  , 0.07462167  , 0.052357946  , -0.010693757  , -0.011237035  , 0.08418673  , -0.13314393  , 0.083000176  , -0.06942365  , 0.0645  , 0.051297735  , -0.015477106  , -0.014751755  , 0.07519124 );
                        u[12] = dot(x,   -0.007866536  , -0.10467344  , -0.0009100962  , -0.009677674  , -0.09337471  , 0.021647332  , 0.06203134  , 0.0882689  , 0.048799574  , -0.057073005  , 0.050877646  , 0.046759788  , -0.015990349  , -0.03517209  , 0.01761224  , 0.049327657  , 0.059195053  , 0.06548606  , 0.0027466114  , -0.08645445  , 0.085622296  , -0.056689225  , -0.13000906  , 0.09243702  , 0.028640633  , 0.03521808  , -0.010272418  , 0.015036579  , 0.14872904  , -0.025082128  , 0.044226993  , 0.11946741  , -0.041440703  , -0.13601094  , -0.05537423  , 0.0588518  , 0.20968877  , 0.07262817  , 0.037832662  , -0.023839317  , -0.039633054  , -0.092784755  , -0.044121854  , 0.082146  , 0.2495343  , 0.06406638  , 0.0046008537  , -0.12463351  , 0.107838266  , -0.08558531  , -0.012294764  , -0.09320136  , -0.12715845  , -0.0735763  , -0.048419155  , 0.026695888  , 0.09840042  , -0.08906408  , -0.021613277  , -0.09115592  , -0.12347604  , -0.07135303  , -0.049506932  , 0.03824967  , 0.01028837  , 0.002476991  , 0.005756911  , -0.007974151  , -0.040427785  , 0.015905207  , 0.059647597  , 0.08254903  , -0.02010917  , -0.0047781756  , -0.02764956  , -0.039777867  , -0.07351707  , 0.041668326  , 0.07583821  , 0.093277894  , 0.13152342  , 0.12557669  , 0.017132219  , -0.072005734  , -0.11368864  , -0.11291326  , -0.089724936  , 0.017855735  , 0.08520948  , 0.10182862  , -0.036126483  , -0.12016333  , -0.17504798  , -0.07628152  , -0.061559845  , 0.016483929  , -0.038692296  , -0.16553739  , -0.09374407  , 0.0069810976  , 0.2523314  , 0.07882705  , 0.03371272  , -0.077993825  , -0.05132636  , -0.18708675  , -0.10175803  , -0.008298194  , 0.2526185  , 0.09872958  , 0.0594667  , -0.08057166  , 0.13926125  , 0.15002853  , 0.017142164  , -0.070351444  , -0.12218608  , -0.09592009  , -0.07019174  , 0.014769312  , 0.13794024  , 0.1415792  , 0.015861182  , -0.08869053  , -0.11536805  , -0.09219287  , -0.060446516  , 0.004735023 );
                        u[13] = dot(x,   -0.16989337  , 0.0144416215  , -0.20847219  , -0.23791727  , -0.16552874  , 0.19693516  , 0.23200782  , 0.10627795  , 0.028147498  , 0.02843051  , 0.0026983598  , -0.018161695  , 0.055616982  , -0.041685533  , -0.05691556  , -0.098544985  , -0.01849854  , -0.11147818  , 0.029059878  , 0.017046334  , -0.022765432  , -0.046282846  , -0.047562413  , 0.1599608  , -0.025913425  , -0.10757827  , 0.025319345  , 0.030274142  , 0.028514946  , -0.014433128  , 0.1253549  , 0.19387513  , 0.01391288  , 0.040357344  , -0.010536447  , -0.041268982  , 0.054551844  , -0.066655666  , -0.008862344  , 0.012450309  , -0.03262049  , 0.028811796  , -0.07268652  , -0.08525131  , 0.037169304  , -0.04625023  , -0.09428255  , -0.15605782  , -0.012163428  , 0.022357639  , 0.0125710005  , 0.011134235  , 0.04650814  , -0.064416185  , -0.02095999  , 0.22500615  , -0.019066554  , 0.025434848  , 0.0056959093  , 0.0056329397  , 0.03772982  , -0.054507386  , -0.0039096186  , 0.3123497  , 0.08175593  , -0.0025983804  , 0.07496222  , 0.07575827  , 0.1594958  , -0.09710808  , -0.14064132  , -0.18914968  , 0.050933734  , -0.011366851  , 0.051037088  , 0.05489207  , 0.13333483  , -0.06577486  , -0.10570673  , -0.16361399  , 0.009110433  , -0.08708707  , 0.028356265  , 0.023961632  , 0.07472493  , -0.05273091  , -0.019631905  , 0.07585215  , 0.013378678  , -0.09859128  , 0.041819207  , 0.046125926  , 0.10088838  , -0.06531918  , -0.05231026  , 0.022852961  , -0.028012993  , 0.023044452  , -0.06590315  , -0.08406371  , 0.011256456  , -0.05960219  , -0.07073332  , -0.07323832  , -0.070614785  , -0.004722344  , -0.10896586  , -0.097806886  , 0.015135096  , -0.017044317  , -0.05154507  , -0.08029121  , 0.00064221595  , -0.10348062  , 0.020198053  , 0.01667023  , 0.049630653  , -0.06625114  , -0.027301492  , 0.14988801  , -0.0027435524  , -0.09940866  , 0.018627485  , 0.022815842  , 0.04751468  , -0.065147795  , -0.015469233  , 0.17248318 );
                        u[14] = dot(x,   -0.025607636  , -0.09074947  , -0.10518977  , -0.14742333  , -0.30804542  , 0.032687306  , 0.13408315  , 0.24627648  , 0.1533886  , -0.07550154  , 0.09657085  , 0.0700492  , -0.07141946  , -0.15910909  , -0.0065565123  , 0.12505686  , 0.0020936676  , 0.052575856  , 0.013531677  , 0.028952317  , -0.0060677826  , 0.007823425  , -0.01502728  , -0.22588938  , 0.018794201  , 0.03356949  , 0.019205512  , 0.0054538194  , -0.0066565126  , -0.0051940493  , -0.022400243  , -0.07978804  , -0.0338298  , 0.04982735  , -0.11838341  , -0.18092602  , 0.053997383  , 0.03008988  , -0.0071748863  , -0.03286969  , -0.036057435  , -0.03369849  , -0.11150485  , -0.13655508  , 0.09525282  , 0.037666086  , 0.039139904  , 0.038221393  , -0.0242214  , -0.033343486  , -0.030164067  , 0.0045365454  , 0.047193367  , 0.02959154  , 0.0029580172  , -0.2065583  , -0.022635614  , -0.033878893  , -0.031594325  , -0.007128789  , 0.037880864  , 0.03356771  , 0.011167732  , -0.23362917  , 0.1859567  , -0.092574686  , 0.10901443  , 0.07363216  , -0.033730462  , -0.19040358  , -0.03404706  , 0.12387353  , 0.17420025  , -0.115157604  , 0.09495799  , 0.06605535  , -0.054549407  , -0.17802024  , -0.049970258  , 0.1254242  , -0.02424772  , -0.009069544  , -0.015316437  , 0.016548846  , -0.003904404  , 0.03150323  , 0.034219142  , -0.0082164435  , -0.01096212  , -0.002013327  , 0.011288106  , 0.046430066  , 0.024244824  , 0.013298672  , 0.021381252  , 0.0011977681  , 0.053404856  , 0.19556996  , 0.010798612  , -0.025548385  , 0.12406235  , -0.026479892  , 0.03219971  , 0.098503694  , 0.06550643  , 0.21387371  , 0.046216443  , 0.02610665  , 0.17087789  , -0.057644468  , -0.010368881  , 0.085485175  , -0.03407093  , -0.021765873  , -0.046926543  , -0.033162087  , -0.04812942  , 0.044318005  , 0.049926456  , -0.015252485  , -0.045375668  , -0.022133  , -0.05593348  , -0.043319315  , -0.03455825  , 0.051680155  , 0.04531144  , -0.035979092 );
                        u[15] = dot(x,   0.079959616  , 0.035432823  , 0.055054516  , 0.0587771  , 0.18396921  , -0.089505434  , -0.16293366  , -0.17866194  , 0.03979026  , 0.2798909  , 0.0042363075  , -0.008181756  , 0.111797  , -0.036028903  , -0.097238824  , -0.10783199  , 0.083139256  , 0.0600708  , 0.105838805  , -0.020472007  , -0.039702825  , -0.012289345  , -0.018936403  , -0.092258684  , 0.11403974  , 0.020244785  , 0.07429894  , 0.026928518  , -0.03458408  , -0.023295911  , 0.070870444  , 0.054644696  , -0.021862157  , -0.030146882  , -0.13169841  , -0.18821213  , 0.11587402  , 0.0394429  , -0.0025950773  , -0.06365471  , -0.027923696  , -0.076129116  , -0.1465683  , -0.18514717  , 0.14749841  , 0.0665896  , 0.034081142  , -0.10494449  , 0.034510586  , -0.07790908  , -0.012665688  , -0.033772912  , 0.038865335  , 0.007694102  , 0.06863663  , 0.038130432  , 0.05046312  , -0.07708611  , -0.0045631393  , -0.033143908  , 0.046875667  , 0.0026393044  , 0.07068293  , 0.093067676  , -0.053441297  , 0.13994439  , -0.103711255  , -0.121865  , -0.047645774  , 0.059354447  , -0.009645104  , -0.06728308  , -0.09430265  , 0.1344833  , -0.14149295  , -0.15685092  , -0.07736829  , 0.09335255  , 0.033294488  , -0.04127229  , 0.023646735  , -0.014008676  , 0.012885871  , 0.0055219294  , 0.08730431  , 0.008257033  , 0.062690765  , -0.022090863  , 0.07907106  , -0.006283217  , 0.055086374  , 0.030911405  , 0.12649918  , -0.02519899  , 0.022280976  , -0.06745129  , 0.06490406  , 0.18114828  , -0.055395845  , -0.13804586  , 0.16272052  , -0.01785942  , 0.035876874  , 0.031501614  , 0.10405428  , 0.22952758  , -0.009190666  , -0.09828595  , 0.20452632  , -0.056918286  , -0.007998749  , -0.013666366  , -0.013781843  , -0.08173677  , -0.065052465  , -0.07356663  , -0.015711186  , 0.033713125  , 0.09329567  , 0.11928619  , -0.014662903  , -0.0818441  , -0.07773934  , -0.1040904  , -0.037767712  , 0.03583507  , 0.10362897  , 0.12395945 );
                        u[16] = dot(x,   0.02232669  , -0.0020524873  , 0.03231654  , 0.07048135  , 0.23928244  , 0.037897386  , 0.041856647  , 0.113467805  , -0.08853648  , -0.027749311  , -0.09236672  , -0.092905864  , -0.04640131  , 0.18367824  , 0.22044805  , 0.18771906  , 0.02592613  , -0.065958776  , 0.04722955  , 0.054115873  , 0.20092204  , -0.04804565  , -0.19197688  , -0.029312726  , 0.02384315  , -0.077278346  , -0.05284629  , -0.033142842  , -0.18891913  , -0.095192745  , -0.29024777  , -0.13811284  , -0.0019947102  , -0.010010664  , -0.0467589  , -0.047588762  , 0.084676296  , -0.029705647  , 0.089736156  , 0.19795613  , 0.0077450653  , -0.052288506  , -0.05449505  , -0.06311276  , 0.093119904  , -0.09213076  , -0.043959886  , 0.15916558  , -0.017685434  , -0.055485252  , -0.027121728  , -0.04815771  , -0.04015555  , -0.00017551135  , -0.084371984  , 0.027157512  , -0.017302122  , -0.053993985  , -0.025174716  , -0.046066646  , -0.03365557  , -0.0076623354  , -0.090825826  , 0.022220198  , 0.008599593  , 0.1027124  , 0.031971157  , 0.06295097  , 0.11946163  , 0.06648325  , 0.085247524  , 0.10074337  , 0.067716464  , 0.1489497  , 0.09987606  , 0.12902723  , 0.17897668  , -0.0002647408  , 0.027041264  , 0.08695349  , -0.0093455  , -0.09671379  , -0.013881268  , 0.0013395629  , 0.063127674  , -0.0005173736  , -0.083489  , -0.023514792  , -0.0117352605  , -0.076658696  , -0.019098653  , -0.016601058  , 0.06182212  , -0.006069971  , -0.08718408  , -0.020000234  , -0.07330561  , 0.054176047  , -0.1452612  , -0.15614289  , 0.067630224  , -0.040854335  , -0.10860613  , -0.04714429  , -0.076369226  , 0.036196038  , -0.15808593  , -0.16711812  , 0.07979082  , -0.06720457  , -0.13571875  , -0.020727227  , -0.040132776  , -0.06136357  , -0.020024402  , -0.024435988  , 0.011706258  , 0.034617115  , -0.052058663  , -0.063705206  , -0.047499914  , -0.061169468  , -0.03311868  , -0.039655883  , -0.007947874  , 0.038058694  , -0.05209768  , -0.058655202 );
                        u[17] = dot(x,   -0.11352711  , 0.007846269  , -0.031999648  , 0.030124336  , 0.1376984  , 0.07634314  , 0.011126084  , 0.014762965  , 0.0025928922  , 0.106905386  , 0.09957012  , 0.16021116  , 0.24791506  , -0.063495144  , -0.06387536  , -0.01121567  , -0.10643728  , 0.035912808  , -0.076167166  , 0.08257627  , 0.28476924  , 0.017979998  , -0.087219596  , 0.027169663  , -0.10820774  , 0.05007464  , -0.14453553  , -0.08356688  , -0.19822079  , -0.0075479527  , -0.20004845  , -0.078615405  , -0.15712473  , 0.020027885  , -0.085060075  , -0.12957673  , -0.1164292  , 0.109366894  , 0.11761272  , 0.10116974  , -0.16925487  , 0.012466738  , -0.060914982  , -0.06322367  , -0.091157824  , 0.092457384  , -0.0005317357  , -0.0894974  , -0.046569537  , 0.016971458  , -0.009342214  , -0.0018969735  , 0.022080394  , -0.016898816  , -0.07984815  , 0.06650556  , -0.053243462  , 0.014473162  , -0.026233342  , -0.022919452  , -0.0062744156  , -0.006493246  , -0.060687385  , 0.107268065  , -0.022306036  , -0.10044401  , 0.03125068  , 0.0429965  , 0.075461544  , -0.012595913  , -0.0376255  , -0.020523291  , -0.12489425  , -0.18942456  , -0.08518212  , -0.073912755  , -0.046907015  , 0.09350766  , 0.051871415  , 0.034085676  , -0.05677512  , 0.051568516  , -0.04960819  , -0.07775873  , -0.09392187  , -0.0034484223  , -0.037726365  , 0.14063554  , -0.041585837  , 0.04294262  , -0.032192357  , -0.053214636  , -0.0740991  , -0.024874888  , -0.07387374  , 0.1039887  , 0.042467616  , 0.081388734  , 0.17075226  , 0.18734786  , 0.02281419  , -0.057942968  , -0.0886339  , -0.040882967  , 0.025199333  , 0.0955707  , 0.17184928  , 0.2080386  , 0.029534133  , -0.058229342  , -0.11973973  , -0.015033233  , -0.0032244457  , 0.083652206  , 0.01154557  , -0.023018876  , -0.03367162  , -0.03407097  , -0.052795015  , 0.08911981  , 0.0035379068  , 0.09023536  , 0.028351959  , 0.0022636012  , -0.0010592396  , -0.0423249  , -0.06422395  , 0.09740511 );
                        u[18] = dot(x,   -0.014941844  , 0.008634096  , 0.06801528  , 0.10760081  , 0.18085264  , -0.010927217  , 0.054996785  , 0.07482026  , 0.008725271  , 0.19480129  , 0.113071  , 0.15037653  , 0.09248313  , -0.06476163  , 0.048383314  , 0.130231  , -0.19487716  , -0.06626868  , -0.13810174  , -0.16692753  , -0.19650681  , 0.04158268  , 0.059600703  , 0.025169045  , -0.19800809  , -0.013645224  , -0.041846465  , 0.057397433  , 0.28089684  , 0.07336063  , 0.17589664  , 0.114867695  , 0.0007078858  , 0.0547042  , 0.013577695  , -0.0054399287  , 0.012907349  , -0.13270284  , -0.1321708  , -0.04752718  , -0.040452875  , -0.012902944  , -0.031032566  , -0.03303961  , -0.0027693452  , -0.08849532  , -0.088308  , 0.067947954  , -0.06664293  , -0.013772396  , -0.067023285  , -0.043576583  , 0.052890517  , -0.051855978  , -0.0973432  , -0.042594463  , -0.0810569  , -0.013601618  , -0.06959133  , -0.045066435  , 0.06744977  , -0.048866756  , -0.09342714  , -0.06341647  , -0.03608152  , -0.07059625  , 0.022269594  , 0.025718203  , 0.010417079  , -0.00377971  , 0.093553364  , 0.15778683  , -0.11132937  , -0.120908864  , -0.055713397  , -0.05212326  , -0.07317847  , 0.064445615  , 0.13234228  , 0.19982459  , -0.010734781  , -0.024886064  , -0.0030352268  , 0.008983585  , 0.1232447  , -0.06318347  , -0.089354776  , 0.042350043  , -0.014975378  , -0.009599274  , -0.0076897047  , 0.0071705575  , 0.18183142  , -0.0783774  , -0.09958986  , 0.066060595  , -0.085886255  , 0.12169978  , -0.076369174  , -0.06028181  , -0.016930455  , -0.04481475  , -0.051865123  , 0.08039314  , -0.13670114  , 0.102256924  , -0.1090255  , -0.06532287  , -0.020650158  , -0.011792128  , -0.036769014  , 0.10053499  , 0.024663668  , -0.0042753285  , 0.01693312  , -0.0016114684  , 0.122038305  , -0.083817616  , -0.10538991  , -0.06264929  , 0.03690085  , 0.0035992898  , 0.020659233  , 0.0037492095  , 0.096315935  , -0.09543391  , -0.12414419  , -0.07310584 );
                        u[19] = dot(x,   0.021466944  , -0.07235947  , 0.028674468  , 0.0039037983  , -0.114889726  , -0.013596939  , 0.049779844  , 0.01577944  , 0.14825009  , 0.28406748  , 0.18332979  , 0.16781458  , -0.047833998  , -0.15923442  , -0.08451609  , -0.06491356  , -0.05397127  , 0.04317157  , 0.10050297  , 0.17225246  , 0.29492068  , 0.0007034027  , -0.02366775  , 0.10244593  , -0.07375075  , -0.02083036  , -0.065523855  , -0.04321753  , -0.35593474  , -0.0124222925  , -0.061885733  , 0.047728222  , 0.13351506  , -0.009915708  , 0.23442532  , 0.2018291  , 0.08936029  , -0.07947321  , -0.013033764  , 0.0017233134  , 0.051932003  , -0.04711225  , 0.14221242  , 0.082490385  , 0.033979133  , 0.00495299  , 0.057157494  , 0.014939076  , -0.056324333  , -0.050555773  , 0.021009622  , 0.015750239  , -0.056337606  , 0.011762371  , 0.044395577  , 0.0089225415  , -0.05919373  , -0.048662137  , 0.028244508  , 0.023018595  , -0.049123608  , 0.009112579  , 0.039891884  , -0.014489192  , 0.004997565  , -0.0843931  , 0.007350219  , -0.029388726  , -0.12564248  , -0.0076398007  , 0.048547234  , 0.023352124  , -0.027027542  , -0.09164501  , -0.017096622  , -0.049667433  , -0.14198804  , 0.018509805  , 0.061931387  , 0.020164438  , -0.025562847  , -0.004443425  , 0.08093298  , 0.09266224  , 0.049901173  , -0.010728822  , 0.005944028  , -0.035907414  , -0.028378123  , -0.021179417  , 0.07895026  , 0.0824255  , 0.024486726  , -0.0057079485  , 0.013211226  , -0.03156193  , -0.10183966  , 0.06566245  , -0.067424394  , -0.14016612  , -0.053832475  , 0.11854929  , 0.109165765  , -0.066551685  , -0.12010968  , 0.073415056  , -0.07446894  , -0.1414813  , -0.04987782  , 0.15228117  , 0.13960743  , -0.074731186  , -0.032187834  , -0.09365151  , 0.030875377  , 0.029954206  , -0.014696754  , -0.013480395  , 0.010866721  , -0.053551015  , -0.023691967  , -0.09460873  , 0.023431376  , 0.0049690646  , -0.0068998253  , -0.013740904  , 0.0053994134  , -0.07345286 );
                        u[20] = dot(x,   0.07636833  , -0.056276258  , 0.031755175  , -0.0268822  , -0.2262349  , 0.0049475934  , -0.061788566  , -0.089454345  , 0.11788695  , 0.08697414  , 0.06202512  , 0.021163434  , -0.12530653  , 0.0120455315  , 0.014452436  , -0.086791545  , -0.0396641  , -0.0539037  , -0.05900009  , -0.14537914  , -0.2556405  , 0.11048399  , -0.010899709  , 0.27213857  , -0.014681104  , 0.03952113  , 0.07382693  , 0.01654039  , 0.25384068  , 0.042890456  , -0.2603867  , -0.26936698  , 0.05380363  , -0.03822113  , 0.053528044  , -0.0144276535  , -0.016134007  , 0.108174734  , 0.12510937  , 0.14471933  , 0.0034208363  , -0.058171682  , -0.0031041803  , -0.06979895  , -0.034626592  , 0.1571673  , 0.16968685  , 0.1728325  , 0.048318893  , -0.060555138  , 0.043736394  , 0.02965622  , -0.034036826  , 0.0432253  , -0.071819074  , 0.122299135  , 0.053966504  , -0.05942904  , 0.057377737  , 0.05042366  , -0.00864105  , 0.035417054  , -0.085634686  , 0.061157245  , 0.056283627  , -0.029403718  , 0.02334398  , 0.007184525  , -0.024969991  , 0.0720369  , 0.024171371  , -0.09896765  , 0.026766298  , -0.021409672  , 0.00085417257  , -0.0143665355  , -0.022885522  , 0.09290398  , 0.0387294  , -0.121008575  , -0.021579307  , -0.023662042  , -0.017914683  , -0.010700635  , -0.015287717  , 0.082635984  , -0.037166283  , 0.11671757  , 0.016536916  , -0.032520343  , 0.010842103  , 0.007335132  , -0.00495229  , 0.058607053  , -0.060700707  , 0.120143674  , 0.04271713  , 0.143806  , 0.041823793  , -0.021780845  , 0.079169445  , 0.07010036  , -0.048816606  , -0.19505984  , 0.028920338  , 0.14771411  , 0.009483356  , -0.052483205  , 0.058543775  , 0.06488775  , -0.059753943  , -0.13235407  , 0.024031887  , -0.06365696  , 0.03306922  , 0.03616966  , 0.029907918  , 0.04465484  , -0.066582836  , -0.109424785  , 0.038637184  , -0.056868147  , 0.038838472  , 0.020130785  , 0.030890748  , 0.033748746  , -0.08491474  , -0.09764436 );
                        u[21] = dot(x,   -0.08571415  , -0.062184386  , -0.15404063  , -0.15322185  , 0.077047125  , 0.029492855  , -0.041195113  , 0.011073758  , 0.08158518  , -0.03707549  , 0.0289233  , 0.024047194  , 0.18705547  , -0.15454969  , -0.14149345  , -0.037725113  , -0.095409624  , -0.089443505  , -0.040165916  , -0.05824087  , -0.06501039  , 0.08164573  , 0.026664464  , 0.016897358  , -0.0861251  , 0.0604681  , -0.0578333  , 0.032842483  , 0.049162157  , 0.038236286  , -0.18639904  , -0.26564908  , 0.1013214  , -0.063711874  , -0.04039869  , -0.028628567  , 0.014187698  , -0.04957251  , 0.23811515  , 0.28267354  , 0.19797702  , -0.053862892  , 0.06271956  , 0.055281352  , 0.05510317  , -0.24139912  , -0.1268406  , -0.025457246  , -0.03572827  , -0.052485082  , -0.10827198  , -0.062538706  , 0.013937359  , 0.06381593  , 0.10735084  , -0.05048547  , -0.036276042  , -0.053162973  , -0.09984036  , -0.054606106  , 0.032511223  , 0.06193988  , 0.10144089  , -0.08045844  , 0.01484354  , 0.06883874  , -0.069910616  , -0.106046945  , -0.06299386  , -0.087857224  , -0.06994221  , 0.04170825  , -0.004725305  , 0.040870737  , -0.0885149  , -0.11883249  , -0.092091344  , -0.07189054  , -0.05989607  , 0.053691562  , 0.061963767  , 0.058068547  , 0.046914574  , 0.08055667  , 0.13489327  , -0.02268748  , 0.028267553  , 0.005520487  , 0.046103265  , 0.07692423  , 0.026010754  , 0.04959186  , 0.15305257  , -0.014650073  , 0.036256507  , 0.008041723  , 0.05384235  , -0.18684232  , -0.07641798  , -0.06583832  , -0.052449033  , -0.050549924  , -0.008138175  , -0.039628595  , 0.056453414  , -0.22410457  , -0.02828388  , -0.0007198177  , 0.014313944  , -0.037977397  , -0.0018950147  , -0.058446888  , 0.037167113  , 0.085145265  , -0.029009897  , 0.010586919  , 0.10983441  , 0.025790956  , 0.07882321  , 0.06298352  , 0.033676717  , 0.08022313  , -0.041211285  , -0.014877888  , 0.057523962  , 0.03019108  , 0.08216479  , 0.050993185 );
                        u[22] = dot(x,   0.04395429  , 0.06778948  , -0.07244118  , -0.07556103  , 0.1457022  , -0.009635099  , 0.024291102  , -0.069192186  , 0.075005054  , -0.22562277  , -0.09327702  , -0.17583159  , -0.103295155  , -0.054848615  , 2.0708429e-05  , -0.06062473  , -0.010397667  , -0.0376972  , -0.0674328  , 0.04801751  , 0.23735356  , 0.08542289  , 0.09124639  , 0.2892688  , -0.0076854946  , -0.06925556  , -0.1605492  , -0.021774799  , -0.1864521  , 0.08139874  , 0.066631235  , 0.1255869  , 0.113088876  , 0.06318001  , -0.058048386  , -0.09797969  , 0.0114899  , -0.058057774  , -0.116970755  , -0.13330424  , 0.0686806  , 0.04403581  , -0.094445005  , -0.100353174  , 0.016978322  , 0.01746646  , 0.04930396  , 0.062241584  , 0.09321731  , 0.042829588  , -0.01884672  , -0.0029193952  , 0.05348965  , -0.011273338  , -0.027557984  , -0.09844828  , 0.08541407  , 0.043121904  , -0.027634392  , -0.0081176115  , 0.057031594  , -0.006587144  , -0.04460585  , -0.25609577  , 0.08283455  , 0.071111105  , -0.040255565  , -0.07613705  , 0.010426956  , -0.068518564  , -0.030920751  , -0.050803483  , 0.013212247  , 0.073923014  , -0.10838689  , -0.14050354  , -0.035013434  , -0.004327831  , 0.008787457  , -0.045756113  , 0.04784336  , -0.003347267  , -0.047563016  , -0.032258898  , 0.020851782  , 0.036958296  , 0.03771925  , 0.24374211  , 0.03677413  , -0.0064272485  , -0.053396884  , -0.023548417  , 0.048955187  , 0.03887186  , 0.05065533  , 0.32520348  , 0.11354744  , 0.06772503  , -0.029506255  , -0.0107783275  , 0.06439336  , -0.026961068  , -0.0036567086  , -0.04143782  , 0.059049055  , 0.025604649  , -0.08298813  , -0.04012696  , 0.04461271  , 0.018058456  , 0.04067964  , -0.021347325  , 0.12877983  , 0.0288864  , 0.025039041  , 0.022966294  , 0.095554076  , -0.027004965  , -0.023627724  , -0.12364676  , 0.1338352  , 0.03279175  , 0.036392014  , 0.038450856  , 0.0819121  , -0.041642014  , -0.047538646  , -0.10371875 );
                        u[23] = dot(x,   0.058362897  , 0.01925703  , -0.0042746835  , -0.03580952  , -0.19301797  , 0.022155726  , -0.06952669  , -0.16922562  , 0.03722423  , 0.4567647  , -0.024626013  , -0.019865893  , -0.034751154  , 0.112151876  , -0.01237803  , -0.024644913  , 0.019842412  , -0.030215174  , 0.008280844  , 0.081723824  , 0.04214907  , 0.04380273  , -0.046320178  , -0.014772321  , 0.011777031  , -0.10335299  , 0.014882689  , -0.009377184  , -0.04776761  , 0.05309607  , 0.057442933  , 0.12408784  , -0.029368615  , -0.0686401  , -0.16548762  , -0.13784948  , -0.010129886  , -0.040309835  , -0.12889504  , -0.05012277  , 0.09100574  , -0.0093680415  , -0.04499434  , -0.02468266  , 0.05505333  , -0.15299402  , -0.15581077  , 0.15212734  , -0.010410772  , -0.0083675105  , -0.010601666  , 0.038955607  , -0.037523136  , 0.11474301  , -0.034540024  , 0.012154599  , -0.0066142874  , -0.008740672  , -0.0022875064  , 0.044526618  , -0.033363592  , 0.10308307  , -0.055816818  , -0.068330064  , 0.044327907  , -0.14969216  , 0.0019807203  , 0.014377568  , -0.024408385  , 0.10454703  , 0.009835759  , -0.026256567  , 0.06595954  , -0.20749417  , 0.037059836  , 0.04987173  , 0.034551013  , 0.061969995  , -0.029607436  , -0.076077454  , 0.0011245244  , 0.041613813  , 0.020369068  , 0.06809675  , -0.029368365  , 0.114522666  , -0.015428918  , 0.07365989  , 0.021314587  , 0.058335904  , 0.024094272  , 0.0703802  , -0.07374137  , 0.081009574  , -0.035063162  , 0.09544136  , 0.022400524  , -0.19793934  , -0.056643657  , -0.02801778  , 0.033930764  , -0.08994083  , -0.14750755  , 0.05505067  , 0.01430489  , -0.24609981  , -0.0396801  , -0.0008012204  , 0.062865324  , -0.1389242  , -0.19995387  , 0.11329185  , 0.0064938464  , 0.095980406  , 0.02058448  , 0.05875496  , -0.05371135  , 0.14509094  , 0.004272769  , -0.07542241  , 0.015485027  , 0.103460476  , 0.011239057  , 0.043555096  , -0.04058138  , 0.13588902  , -0.0053646523  , -0.045253307 );
                        u[24] = dot(x,   -0.003443755  , -0.08776542  , -0.076078236  , -0.06170855  , 0.24065316  , -0.04015571  , 0.026788132  , 0.13250403  , -0.104282156  , 0.49660215  , -0.1995471  , -0.22154246  , -0.06075675  , 0.028763609  , 0.0996767  , 0.0912368  , 0.10094586  , 0.044037458  , 0.0002211277  , -0.07767065  , -0.034493085  , -0.071360685  , 0.052613623  , 0.06678943  , 0.09845366  , 0.04172536  , -0.0025005708  , 0.0053789923  , 0.053963926  , -0.079902165  , -0.03854195  , -0.07463565  , 0.042699177  , -0.043096416  , 0.045102008  , 0.07268718  , -0.04017982  , 0.004793239  , 0.07799206  , 0.01734177  , 0.015543344  , -0.045830548  , 0.021906514  , 0.050933708  , -0.051412594  , 0.019869244  , 0.07958025  , -0.06133463  , 0.08960341  , -0.04307747  , 0.01843356  , -0.004533514  , 0.03981725  , -0.10405276  , 0.0327252  , -0.07952374  , 0.08530876  , -0.044296265  , 0.0023197331  , -0.01577745  , 0.031017262  , -0.09435925  , 0.034445386  , -0.10743879  , 0.034446996  , -0.2484393  , -0.034938786  , -0.034762885  , 0.11216613  , -0.1415673  , -0.06631301  , -0.012322169  , 0.07357864  , -0.27242658  , -0.0064498247  , -0.0067904512  , 0.14146146  , -0.16254985  , -0.0923892  , -0.020692071  , 0.01941956  , -0.00051227125  , -0.06839241  , -0.09174127  , -0.021153424  , -0.04712593  , 0.067072146  , 0.022989623  , -0.015895745  , -0.02743461  , -0.10149576  , -0.10996403  , 0.0100802025  , -0.008504302  , 0.10671814  , 0.044216014  , 0.034088347  , 0.009842193  , 0.007927474  , 0.0666882  , 0.014697697  , 0.017116247  , 0.09031945  , -0.04502049  , 0.02799194  , 0.010823841  , -0.022852095  , 0.02631849  , -0.023588086  , 0.065010674  , 0.1604765  , -0.09575558  , 0.008809732  , -0.0066186087  , -0.04214746  , -0.03569868  , 0.04957421  , -0.06346572  , 0.046207607  , 0.026989933  , -1.5316262e-05  , -0.009400651  , -0.03360767  , -0.026514355  , 0.037053414  , -0.06288509  , 0.048909504  , 0.019091798 );
                        u[25] = dot(x,   -0.06601914  , -0.055429433  , -0.09247226  , -0.090693496  , 0.077060185  , 0.026773743  , 0.035058625  , 0.04272436  , -0.01923801  , -0.007949885  , -0.007043138  , 0.051475514  , 0.43126735  , -0.067648314  , -0.11204323  , 0.009194064  , 0.10159494  , 0.13642141  , 0.10997618  , 0.021253698  , -0.13080576  , -0.07243407  , -0.17902751  , 0.12071861  , 0.11290032  , 0.06926087  , 0.12641804  , 0.05584635  , 0.024328887  , -0.038341515  , 0.00077812053  , 0.14646856  , -0.048076354  , -0.03559869  , 0.038104035  , 0.09831383  , 0.053456295  , 0.12155924  , -0.050529275  , -0.10127093  , 0.0032740533  , 0.005102468  , 0.093578145  , 0.099200375  , 0.050669726  , 0.09686817  , 0.017596018  , 0.06486788  , -0.032059167  , 0.008267866  , -0.0019181599  , 0.01931763  , 0.033463825  , 0.043151237  , -0.11257449  , 0.0022174348  , -0.012881514  , 0.0075073913  , 0.022349158  , 0.03706705  , 0.055564813  , 0.034112617  , -0.13401344  , -0.11577727  , -0.08355355  , 0.039358426  , -0.10387927  , -0.0984795  , 0.01392248  , -0.009129711  , -0.019324152  , 0.08457751  , 0.025162974  , 0.1018456  , 0.014070574  , 0.023956593  , 0.08750741  , -0.10429813  , -0.09238468  , 0.059956484  , -0.092104554  , -0.02361134  , -0.03362732  , 0.034052987  , 0.03830127  , 0.025223438  , -0.11197943  , 0.20464435  , -0.07987896  , -0.016384264  , -0.028248224  , 0.0121259745  , 0.0019494671  , 0.03692636  , -0.101344824  , 0.2605293  , -0.029175548  , -0.07965339  , -0.023349296  , -0.08336155  , -0.10273772  , 0.137252  , 0.032219958  , -0.03758941  , 0.09885243  , 0.0065086633  , 0.09698751  , -0.026760932  , -0.06389788  , 0.04505193  , -0.054485112  , 0.021208256  , -0.15147746  , -0.020285143  , -0.10632471  , -0.052026004  , -0.05633715  , 0.10037631  , -0.022639304  , -0.1446628  , -0.15038311  , -0.0377629  , -0.11499299  , -0.07040571  , -0.096075274  , 0.100573815  , -0.032932732  , -0.09540201 );
                        u[26] = dot(x,   0.032205395  , -0.0033674233  , 0.0037397773  , 0.062692165  , 0.29233846  , 0.10037079  , 0.22629285  , 0.16552968  , 0.12192724  , 0.021971684  , 0.05016332  , 0.0041480632  , -0.3624613  , -0.026516128  , -0.063874476  , -0.07449218  , 0.020869905  , 0.024863284  , 0.08537125  , -0.075893685  , 0.0061746333  , 0.08616151  , -0.109178364  , -0.073378205  , 0.042871367  , 0.0021700494  , -0.022511784  , 0.07451598  , -0.057598047  , 0.11912009  , 0.017115386  , 0.04714288  , 0.038946044  , -0.031865735  , 0.009093205  , -0.061413694  , -0.016227435  , 0.117982954  , -0.01652546  , -0.039524745  , 0.08011015  , 0.020907007  , 0.077435635  , 0.00905748  , 0.01890003  , 0.08613774  , -0.03235529  , -0.042681597  , -0.0018951086  , 0.021958778  , -0.032764055  , -0.087667406  , 0.098780185  , 0.08571205  , -0.07871283  , 0.08976053  , 0.009611349  , 0.02147585  , -0.029518522  , -0.09140981  , 0.110863134  , 0.09274383  , -0.030248627  , 0.23192923  , 0.07626281  , -0.030492267  , 0.024344461  , 0.0038951014  , -0.2268653  , 0.027387947  , -0.028118627  , -0.054096173  , 0.092441544  , -0.045409847  , 0.04631512  , 0.031041414  , -0.14247571  , 0.010058797  , -0.02794447  , -0.10053213  , -0.030644897  , 0.050633658  , -0.05930472  , -0.09823186  , 0.077500895  , 0.040102646  , -0.10595666  , -0.06518579  , -0.016482968  , 0.024558587  , -0.04913824  , -0.09683296  , 0.20292799  , 0.05872226  , -0.106833905  , -0.09075811  , 0.110493146  , -0.106728554  , 0.09300394  , -0.008469885  , -0.04059616  , 0.08484281  , 0.006418103  , 0.034818113  , 0.14070453  , -0.10429345  , 0.13304862  , 0.029428264  , -0.0027146556  , 0.06638982  , -0.029342018  , 0.091600955  , -0.024814423  , 0.03774789  , -0.05776085  , -0.10605317  , 0.12748523  , 0.040035654  , -0.09683601  , -0.08967154  , -0.04363888  , 0.034441125  , -0.072731495  , -0.112175584  , 0.031705223  , 0.06596409  , -0.08662939  , -0.08038713 );
                        u[27] = dot(x,   0.1687518  , -0.017678713  , -0.09191008  , -0.1609927  , -0.027522853  , -0.0644607  , -0.12806444  , 0.052822653  , 0.14369407  , -0.0091610905  , -0.104181744  , -0.1511966  , 0.22460917  , -0.002916202  , -0.054779783  , 0.1602585  , 0.018304318  , 0.0075271237  , -0.1382041  , 0.013985859  , 0.07045872  , 0.07514028  , -0.037684184  , -0.1940467  , -0.006834388  , 0.00316555  , -0.10711576  , -0.03328625  , 0.0036055786  , 0.081410885  , 0.017452084  , 0.052285764  , 0.09215898  , 0.019826174  , 0.04905617  , 0.17762908  , 0.0016547805  , 0.01455234  , -0.08640504  , -0.008489355  , -0.000106617765  , 0.0035265416  , -0.071282156  , 0.056718268  , -0.07076988  , 0.12506579  , 0.018799292  , 0.06336554  , 0.06877771  , 0.0022819464  , -0.06339055  , 0.059930976  , 0.009947266  , 0.07212534  , -0.06595974  , 0.15458876  , 0.051696356  , 0.0028526292  , -0.061716314  , 0.077474825  , 0.030655447  , 0.071534656  , -0.04700853  , 0.26338175  , 0.16254812  , -0.028909067  , -0.105332725  , -0.16637316  , 0.04930194  , -0.028877858  , -0.080648825  , 0.09732041  , 0.15744072  , -0.015042723  , -0.13011794  , -0.1877752  , -0.03691529  , -0.023436483  , -0.07635506  , 0.13890602  , 0.10652641  , 0.0020598597  , -0.027330967  , 0.0021521016  , -0.03458114  , 0.06209122  , -0.08420823  , -0.18885039  , 0.02611972  , -0.033009082  , -0.09300146  , -0.03249018  , -0.103283264  , 0.109584816  , -0.043274924  , -0.18463062  , 0.012077425  , 0.067050315  , -0.077865556  , 0.08051132  , 0.00059624284  , 0.080056004  , -0.07685856  , -0.008645716  , -0.015490895  , 0.08287762  , -0.118504204  , 0.027011149  , -0.06084878  , 0.053259205  , -0.11985246  , 0.0571526  , 0.121407755  , -0.031521987  , -0.01776189  , 0.09183906  , 0.052599434  , 0.07144836  , -0.05794011  , -0.007607391  , 0.10955467  , -0.0444001  , -0.021630349  , 0.089820065  , 0.06846498  , 0.07600723  , -0.05496756  , -0.02408883 );
                        u[28] = dot(x,   -0.07356696  , -0.05567268  , -0.06321588  , -0.046709705  , 0.032446664  , 0.0364745  , -0.072790384  , -0.13880418  , 0.09030484  , -0.0057988437  , 0.08579323  , 0.055804227  , -0.2201478  , -0.06910769  , -0.00891374  , 0.04195702  , 0.011821177  , 0.15970667  , -0.011286456  , -0.02109539  , 0.015913319  , 0.012659378  , 0.008265028  , -0.28421763  , 0.0082662925  , 0.08851476  , -0.011039478  , -0.033075523  , 0.03548725  , -0.008068568  , 0.0037163862  , -0.0048175445  , 0.02195167  , -0.07271989  , 0.20412837  , 0.16911012  , 0.092132  , -0.09713946  , -0.05774989  , 0.07756518  , -0.17837922  , 0.0017927092  , -0.0068553295  , -0.024296297  , 0.0019530676  , 0.1160639  , 0.05400104  , 0.07375008  , 0.07003149  , 0.0027365303  , 0.06022946  , -0.0072375303  , 0.09125035  , -0.032687716  , -0.106357224  , 0.019676361  , 0.06532704  , 0.0028602884  , 0.054066516  , -0.014000297  , 0.098378256  , -0.048314873  , -0.18710735  , -0.26486522  , 0.044493638  , 0.03381054  , 0.042285953  , 0.025465094  , 0.04230392  , -0.012420201  , -0.0060172104  , -0.03966825  , -0.024930447  , 0.06379597  , -0.029734882  , -0.046657808  , -0.028601605  , 0.048675377  , 0.012472343  , -0.035261814  , -0.039592694  , 0.08957648  , -0.06772567  , -0.07768694  , 0.014082871  , 0.07682029  , 0.014646  , 0.08494901  , -0.09295072  , -0.021593664  , -0.08710002  , -0.08832067  , 0.059355535  , 0.09121755  , 0.038871497  , 0.107736856  , -0.0858497  , -0.14228046  , 0.0017024681  , -0.074234135  , -0.05034112  , -0.024265317  , -0.13219991  , -0.05851527  , -0.106632605  , -0.09224582  , -0.032134213  , -0.09711412  , -0.06755825  , -0.062274646  , -0.17818396  , -0.04017539  , 0.010553905  , -0.021694595  , 0.0043080235  , -0.06653619  , 0.051690154  , 0.05794958  , 0.030979132  , 0.27604014  , 0.004338174  , -0.04195803  , 0.016078271  , -0.050467018  , 0.037078653  , 0.04981435  , 0.019008033  , 0.3518944 );
                        u[29] = dot(x,   0.012708351  , -0.054687418  , 0.0150910895  , 0.012966319  , -0.03741736  , 0.026440296  , -0.12347305  , -0.07108275  , -0.015511811  , 0.012682583  , -0.029776644  , -0.03554548  , -0.028900692  , 0.120440565  , 0.02114641  , -0.013583632  , -0.044661205  , -0.17521432  , -0.07935149  , -0.037700437  , 0.016804682  , 0.032204855  , -0.22016951  , -0.11336918  , -0.04569736  , -0.021548208  , -0.07064035  , -0.058160726  , 0.048066244  , 0.07743931  , -0.033196215  , 0.057143383  , 0.08238107  , 0.09932147  , -0.042858053  , -0.055024017  , 0.03406478  , 0.12523684  , 0.13537486  , 0.06745063  , 0.18622792  , -0.038656574  , 0.10674233  , 0.09603787  , 0.120704345  , -0.060858507  , -0.23857121  , -0.35360372  , 0.037381053  , -0.037186015  , 0.03687969  , 0.07173251  , 0.10017004  , 0.015078494  , -0.10149169  , -0.012507836  , 0.032464437  , -0.038224597  , 0.013613403  , 0.043824647  , 0.054173227  , 0.02387764  , -0.13360302  , -0.19720018  , 0.016540188  , -0.016695067  , 0.015417867  , 0.022156473  , -0.07095145  , 0.09393062  , 0.0017021445  , -0.028218744  , 0.030888826  , 0.01191101  , 0.054715373  , 0.06790826  , -0.003715564  , 0.06635738  , -0.009755069  , -0.06272581  , 0.015314093  , -0.13703401  , -0.015961148  , -0.010040481  , -0.07463062  , -0.0014463522  , -0.09215779  , 0.07598696  , 0.018232694  , -0.041293323  , -0.02221126  , -0.0023121838  , -0.105197534  , 0.010394915  , -0.089779735  , 0.09543243  , 0.042195488  , 0.20803712  , -0.020718427  , -0.0074520647  , -0.09291665  , 0.16418613  , 0.12992865  , 0.13154148  , -0.007835406  , 0.11027501  , -0.03203253  , -0.011542107  , -0.09264614  , 0.2212579  , 0.14457361  , 0.15901908  , 0.023362508  , 0.014298397  , 0.035870958  , 0.07129328  , -0.00076023693  , 0.03144108  , -0.021382833  , 0.07326878  , 0.010979569  , 0.014143899  , 0.019155646  , 0.047857508  , 0.0065951757  , 0.045364466  , -0.0013263397  , 0.24725327 );
                        u[30] = dot(x,   0.11053948  , -0.08895949  , 0.03109933  , 0.05542189  , 0.13837725  , 0.07418669  , 0.29496413  , 0.13534454  , 0.1221947  , 0.009451131  , 0.041385863  , 0.090011805  , 0.07146265  , 0.013656155  , -0.14609164  , -0.16273734  , -0.02208976  , -0.05635232  , -0.005221365  , -0.08470334  , 0.01893643  , -0.014294216  , 0.04675807  , 0.162265  , -0.032067236  , 0.025346681  , -0.029990625  , 0.035780244  , 0.008774246  , -0.033985287  , -0.009120728  , -0.02769936  , -0.16958699  , -0.040760577  , -0.1780877  , 0.1092057  , 0.013659928  , 0.007160475  , 0.027555618  , 0.025034046  , -0.07523252  , -0.003591002  , -0.05705402  , 0.1559133  , 0.032450296  , -0.07884718  , -0.003994561  , 0.04529491  , 0.079139136  , -0.0012932142  , 0.048866477  , 0.126843  , 0.051651385  , -0.06956703  , 0.07685354  , 0.050011057  , 0.08079213  , -0.0018243899  , 0.075041614  , 0.18822299  , 0.12242503  , -0.099694684  , -0.030840075  , -0.16225277  , 0.015995609  , -0.015003058  , -0.08241601  , -0.07560062  , -0.25339442  , 0.12257792  , 0.03753614  , -0.016678752  , 0.10266128  , 0.07494121  , 0.043034315  , 0.061779298  , -0.064792044  , 0.014221406  , 0.0025081488  , -0.11423951  , -0.022249494  , -0.0613506  , -0.046879277  , -0.07996342  , -0.16783221  , 0.002732276  , 0.07659946  , -0.099039204  , 0.0057380204  , -0.0110611785  , -0.05854927  , -0.0952348  , -0.19224887  , -0.026021086  , 0.06920845  , -0.100309454  , -0.09429244  , 0.04402643  , -0.15546519  , 0.048419677  , -0.011639321  , -0.114562675  , -0.052897368  , 0.0644688  , -0.012718563  , 0.11394179  , -0.11976318  , -0.01440356  , -0.09534907  , -0.23082405  , -0.11338769  , -0.014103178  , -0.019489387  , -0.017096214  , -0.04878559  , 0.08774023  , 0.07588757  , 0.016595721  , 0.07582998  , -0.044926554  , 0.029423703  , -0.008024122  , -0.046001706  , 0.04528186  , 0.0032048025  , -0.0015910444  , 0.11605992  , 0.06680333 );
                        u[31] = dot(x,   -0.21313804  , -0.091994226  , -0.16134898  , -0.09833188  , 0.25478783  , 0.050875407  , -0.15821724  , -0.03238261  , -0.12195688  , 0.03503749  , -0.046501327  , -0.035352618  , -0.072028264  , 0.022738786  , -0.0951051  , 0.066568606  , -0.05987575  , -0.10228834  , 0.0826224  , -0.12111644  , 0.030283434  , 0.1601919  , 0.11877323  , 0.07838854  , -0.04072265  , 0.020252824  , 0.020569744  , 0.0038119813  , -0.028901955  , 0.14197604  , 0.060256943  , -0.026009459  , -0.16848846  , 0.077808626  , 0.016547598  , -0.02792983  , 0.027746195  , 0.12925988  , -0.045092624  , -0.074370004  , -0.096662715  , 0.018829765  , 0.0639678  , -0.0039917915  , 0.048387635  , 0.06495361  , -0.0062891888  , 0.12905955  , -0.020477984  , 0.016315378  , 0.11052412  , -0.07367208  , -0.1452916  , 0.08572699  , 0.04100316  , 0.060253635  , -0.024356898  , 0.017100772  , 0.1260423  , -0.04235911  , -0.12618753  , 0.08540962  , 0.0036863547  , -0.10281902  , -0.05777337  , -0.01436823  , -0.013968359  , -0.0024668386  , -0.19050813  , -0.04916981  , -0.122582585  , 0.08621614  , 0.05961602  , 0.0076833805  , 0.07894923  , 0.088220134  , -0.01594937  , -0.15082984  , -0.20506504  , 0.049073927  , 0.12737104  , -0.009459606  , 0.23037858  , 0.031210486  , 0.0013294865  , -0.017233027  , -0.040874343  , -0.040834054  , 0.11431248  , 0.017395467  , 0.19636852  , -0.022920556  , -0.07161158  , -0.0057334327  , -0.02440888  , -0.063513465  , -0.099344335  , 0.07133056  , 0.027036252  , -0.05034042  , 0.009609314  , 0.07186987  , -0.047418676  , -0.016112303  , -0.04090129  , 0.09981106  , 0.08996508  , -0.050419617  , -0.01710668  , -0.0059271334  , -0.10729263  , 0.0026431705  , 0.08909624  , -0.015779922  , 0.20936157  , -0.011543298  , -0.063091554  , 0.004922981  , -0.033363722  , 0.038805034  , 0.07989062  , -0.03086182  , 0.2030504  , -0.011831562  , -0.07953022  , 0.011484301  , -0.033122838  , 0.06693553 );
                        u[32] = dot(x,   -0.025963787  , -0.050709657  , 0.17619555  , 0.23342112  , -0.14596927  , -0.15617178  , 0.10267972  , 0.38561335  , -0.21923278  , 0.023531692  , -0.043372184  , 0.043947827  , 0.042737406  , -0.096842185  , -0.091790095  , 0.06807984  , -0.04100809  , 0.010067337  , -0.13753587  , 0.0016768301  , 0.09192879  , 0.18875697  , 0.07665181  , -0.07269865  , 0.057539456  , 0.34405538  , -0.052912824  , -0.027582018  , -0.042058263  , 0.14277746  , 0.026862487  , -0.028883422  , 0.07002829  , -0.027977837  , -0.063321814  , -0.058023855  , 0.021181015  , -0.0087778885  , -0.03354903  , 0.018984763  , 0.07772339  , -0.0006674233  , -0.051084172  , -0.06247574  , 0.020653702  , -0.014464683  , -0.048274525  , 0.0068529113  , 0.08543439  , -0.0018285158  , 0.042552844  , 0.02959867  , -0.0027599435  , 0.024634287  , -0.05360046  , 0.054009266  , 0.11245054  , -0.0004782126  , 0.066300556  , 0.047643203  , 0.008734958  , 0.007569627  , -0.0879751  , -0.0151054  , -0.25383124  , -0.027158106  , -0.07198207  , -0.010833877  , 0.046844713  , -0.072401494  , -0.09358728  , -0.056344427  , -0.22828437  , 0.049414035  , -0.03823723  , 0.020273784  , 0.078012444  , -0.07674039  , -0.09026735  , -0.18224595  , -0.008078363  , -0.0026907253  , -0.030473692  , 0.020275401  , 0.005725548  , 0.111016326  , 0.032572653  , -0.003955945  , 0.083953165  , 0.07189192  , 0.039837193  , 0.06523427  , 0.00997143  , 0.067190215  , -0.012305774  , 0.0061390446  , 0.04269007  , -0.08766059  , -0.010509842  , -0.022708487  , 0.050396618  , 0.007098545  , -0.08037271  , -0.03703993  , 0.023594057  , -0.06568212  , -0.05402049  , -0.07203605  , 0.01581981  , 0.08557089  , -0.0028757458  , 0.044704136  , 0.028774787  , -0.13347521  , 0.014588703  , 0.025310745  , -0.024475351  , 0.03475993  , -0.03940643  , -0.02222178  , 0.043559324  , -0.14323087  , 0.019370105  , 0.016974505  , 0.0024767176  , 0.022480993  , -0.04089462  , 0.034815412 );
                        u[33] = dot(x,   0.15095092  , 0.25486487  , 0.07005139  , 0.01793404  , 0.011110018  , -0.009124246  , 0.17113194  , 0.06786099  , 0.004790804  , -0.04893774  , -0.058566064  , -0.09965049  , 0.14236751  , 0.038353823  , 0.01929069  , 0.11006353  , -0.14653847  , -0.15826504  , -0.028154235  , 0.007961956  , -0.028092682  , -0.011994907  , -0.05557536  , 0.058097858  , -0.13077673  , -0.1011081  , -0.028920937  , 0.07170197  , -0.025198106  , -0.006226103  , 0.012724798  , 0.00026655156  , 0.06253242  , -0.084338784  , 0.07613896  , -0.025641568  , 0.01354787  , 0.0740081  , -0.04792873  , -0.113670245  , 0.0745483  , -0.024562795  , 0.059760965  , -0.05869731  , -0.004848947  , 0.11844831  , 0.15175082  , 0.13584028  , -0.030972727  , -0.022185268  , -0.015687559  , -0.008300537  , -0.109453864  , -0.050096083  , 0.032479335  , 0.24273776  , -0.022338951  , -0.023452498  , 0.0071567916  , 0.012260903  , -0.088512756  , -0.06809966  , -0.10898009  , -0.31154317  , 0.03814377  , -0.0026953858  , -0.010215317  , -0.025199298  , 0.026486505  , 0.0009789305  , -0.028006183  , -0.011416173  , 0.03225901  , -0.13046712  , -0.027264334  , -0.051596303  , 0.009298478  , 0.012852007  , -0.0021404652  , -0.0874539  , -0.14771466  , 0.04580306  , -0.024022873  , 0.10088032  , 0.049087778  , -0.019896384  , -0.017627744  , -0.16862744  , -0.06141811  , 0.014162883  , 0.030721605  , 0.112636  , 0.05117118  , -0.08165509  , -0.06680904  , -0.19824232  , 0.13837866  , -0.012408246  , 0.051780395  , -0.12947343  , 0.005898241  , 0.030860387  , -0.011289952  , -0.054663815  , 0.17555043  , -0.02729811  , 0.09890871  , -0.0742945  , 0.0605853  , 0.047012072  , 0.023732478  , -0.042389277  , -0.082161084  , 0.13908431  , -0.019352691  , 0.011922689  , -0.07402049  , -0.021676665  , 0.007068912  , 0.09287262  , -0.021231992  , 0.17593455  , 0.009802956  , 0.014035609  , -0.059299447  , -0.057795726  , 0.011541047  , 0.283035 );
                        u[34] = dot(x,   0.09720771  , 0.1404052  , -0.032242004  , -0.07210364  , 0.08813743  , -0.040898692  , -0.023516469  , 0.021409402  , 0.052582007  , -0.012556674  , -0.07019746  , -0.15182973  , -0.011821062  , 0.010308303  , 0.101797536  , -0.0039816843  , -0.22841527  , -0.117608786  , -0.014578081  , -0.06826205  , -0.002933116  , 0.10444616  , -0.11239395  , -0.0066286293  , -0.161117  , 0.24768038  , -0.010002434  , 0.022400316  , 0.0011655311  , 0.06609399  , -0.0045430423  , 0.01194034  , -0.029655669  , -0.14697523  , 0.1331235  , 0.05587077  , 0.17110322  , -0.04337877  , 0.050985657  , 0.037523687  , -0.12795879  , -0.051256806  , -0.006711493  , -0.08531879  , 0.122433096  , 0.050696693  , 0.046075795  , -0.23662093  , 0.009812076  , -0.05208214  , 0.1438705  , 0.07525134  , 0.03175541  , -0.068497285  , -0.04222383  , -0.19183755  , 0.013679449  , -0.05125476  , 0.15644203  , 0.08780658  , 0.038081933  , -0.06688528  , 0.029015677  , 0.17922069  , 0.11433971  , 0.026587766  , 0.003300704  , -0.00989923  , 0.080264166  , -0.033070493  , 0.0036762387  , -0.03398363  , 0.087821424  , -0.042606436  , -0.032731425  , -0.055080313  , -0.0176863  , -0.0004412047  , 0.03806592  , 0.035716143  , -0.113042176  , 0.10347888  , 0.056753643  , 0.004162616  , -0.11484836  , 0.056073364  , 0.10028941  , 0.12973127  , -0.029182496  , 0.03642786  , 0.14256187  , 0.076322585  , -0.09223042  , -0.03918678  , -0.009428208  , -0.001092322  , 0.03445974  , -0.11397174  , 0.058241393  , -0.1517866  , -0.11373598  , -0.110052645  , 0.03541089  , 0.16556811  , 0.058940638  , -0.032220915  , 0.07490063  , -0.13450949  , -0.08325142  , -0.16784243  , -0.027512603  , 0.08218005  , -0.06972495  , -0.027310986  , 0.0565321  , 0.009367098  , -0.11012112  , 0.01794277  , 0.04427251  , -0.05372082  , -0.02878893  , -0.02203493  , 0.07743934  , 0.0029457724  , -0.090668194  , -0.014284657  , 0.009622482  , -0.20745482 );
                        u[35] = dot(x,   -0.14291456  , -0.1786272  , -0.092549264  , -0.109922655  , -0.13678192  , -0.009329845  , -0.062104438  , -0.37034526  , -0.022285804  , 0.043835446  , 0.04133821  , 0.05086122  , -0.05183231  , -0.045681156  , 0.023130149  , 0.00758358  , -0.09571591  , -0.09736756  , -0.1462201  , -0.051866394  , 0.14382234  , 0.07754339  , 0.04874995  , 0.06641539  , -0.017162163  , 0.21702026  , -0.13064773  , 0.048394453  , -0.08224211  , 0.042076528  , 0.04102884  , 0.02733394  , 0.023939842  , -0.053492457  , -0.094733745  , 0.0007075624  , 0.02638883  , 0.0801768  , 0.004463342  , -0.104622796  , 0.0850085  , 0.041767426  , -0.012370462  , 0.041147288  , 0.038056906  , 0.06933259  , 0.13157092  , 0.030903814  , 0.060145166  , 0.043085463  , -0.060447525  , -0.014711835  , 0.05896939  , -0.07163683  , -0.013054624  , 0.04255251  , 0.07590849  , 0.042699713  , -0.033400927  , 0.02576565  , 0.12114883  , -0.08571295  , -0.01224675  , 0.07309409  , -0.13021274  , -0.059246857  , -0.021529369  , 0.021176158  , -0.05451067  , 0.060661983  , 0.17960219  , 0.15532266  , 0.0049325633  , 0.05934983  , 0.14978279  , 0.19645353  , 0.26955646  , -0.06682404  , 0.03378468  , 0.1890906  , -0.0911802  , 0.013898839  , -0.11046471  , -0.029981196  , 0.0077734967  , -0.017737297  , 0.011907298  , -0.061886996  , 0.029237589  , 0.007752815  , -0.042233933  , 0.00956864  , 0.07309942  , -0.09187225  , -0.04874972  , -0.164827  , 0.13972126  , -0.051276904  , -0.031640343  , -0.045175068  , -0.021209102  , -0.0144250775  , 0.026394932  , -0.009185895  , 0.22531816  , 0.013075857  , 0.021117264  , -0.040995516  , -0.0216882  , -0.049110543  , 0.02603587  , -0.024006512  , -0.0430973  , -0.01509943  , -0.11584048  , 0.0113555705  , 0.093332894  , -0.048249852  , -0.018865867  , 0.082986325  , 0.018615542  , -0.011809195  , -0.09395846  , 0.0061844313  , 0.061124124  , -0.09016665  , -0.06396733  , -0.019196006 );
                        u[36] = dot(x,   0.08806803  , -0.075695045  , 0.016083619  , -0.022105167  , 0.17921446  , 0.088202395  , 0.27397415  , -0.15395506  , 0.12457382  , 0.03916317  , 0.029704561  , -0.052814133  , -0.22260053  , -0.10122888  , -0.038629886  , -0.09384635  , -0.03541312  , -0.05438439  , -0.07812341  , 0.016849566  , -0.07026635  , -0.03059194  , -0.20572475  , -0.011706879  , 0.023697963  , 0.43950418  , -0.010163596  , 0.051825177  , 0.030070657  , -0.013066179  , 0.0007177939  , 0.05720227  , 0.020920806  , 0.05551461  , -0.011071775  , -0.09420949  , -0.13709143  , -0.03696885  , -0.050657798  , -0.038398635  , 0.030221097  , 0.016546369  , 0.020282289  , -0.018028717  , -0.089949846  , -0.049484633  , -0.042951006  , 0.09733547  , -0.09942139  , 0.015562659  , -0.038767546  , 0.055453073  , -0.070057295  , 0.059521675  , 0.047731582  , 0.02177385  , -0.09859959  , 0.016278686  , -0.050954856  , 0.018742435  , -0.14233561  , 0.06371016  , 0.048627563  , -0.09603763  , 0.0753716  , 0.050664358  , -0.017576382  , -0.065903366  , 0.18953995  , -0.03060253  , 0.032368105  , 0.0019478132  , 0.018027317  , 0.058647793  , -0.08462294  , -0.12917003  , 0.18954755  , 0.047557004  , 0.07474871  , 0.09054749  , 0.106936164  , -0.07288757  , 0.096558675  , 0.120366566  , -0.02416674  , -0.11393284  , -0.1187709  , -0.043280855  , 0.0018310295  , -0.03855183  , 0.026813071  , 0.057265688  , -0.17169091  , -0.030561468  , -0.03145733  , 0.027802678  , -0.05619736  , -0.058078468  , 0.009872962  , 0.08213166  , 0.066596426  , 0.048959065  , 0.04188552  , -0.015078015  , -0.0460081  , -0.015747026  , 0.03536897  , 0.13592942  , 0.095778346  , 0.04378529  , 0.0146316765  , -0.007363818  , -0.009712151  , -0.12149582  , 0.016709626  , 0.060249716  , -0.09009668  , -0.0024608045  , 0.032492053  , 0.03581157  , -0.07118775  , -0.14443696  , -0.01562538  , 0.05563189  , -0.03137132  , 0.03901653  , 0.04609025  , 0.06563537 );
                        u[37] = dot(x,   0.14651223  , -0.24175462  , 0.05779753  , 0.013888  , -0.24278526  , -0.11316168  , -0.16461475  , 0.20253558  , 0.055266816  , 0.064365886  , -0.04104288  , -0.10195629  , 0.05280092  , 0.11054241  , 0.09527038  , -0.11663756  , -0.013164764  , -0.034920625  , -0.07040626  , -0.061058767  , 0.10750222  , -0.021585403  , -0.07252936  , 0.112087056  , -0.012872714  , 0.09824903  , -0.06766129  , -0.040639922  , -0.0075158905  , 0.0060067107  , -0.009178178  , 0.055238552  , -0.10224537  , 0.025995117  , 0.089226454  , 0.08428048  , 0.060993493  , 0.0014852673  , 0.0054064034  , 0.005036649  , -0.16443065  , 0.06458439  , -0.023008186  , -0.0406499  , -0.024026025  , 0.068812154  , 0.03634923  , -0.12490364  , -0.110078335  , 0.062067617  , -0.08883514  , -0.14864634  , -0.024463048  , 0.077160016  , 0.1194418  , 0.06726167  , -0.1139783  , 0.06273133  , -0.06274497  , -0.1201635  , 0.037686635  , 0.08282412  , 0.07097424  , -0.15913641  , 0.042333048  , -0.011891759  , -0.050827537  , -0.06788221  , 0.045863844  , 0.1233141  , 0.09003402  , -0.0149041945  , 0.11864648  , 0.08678294  , 0.0035712016  , -0.00019351112  , 0.06982777  , 0.026377434  , 0.019545047  , -0.12991406  , 0.12478433  , 0.045407195  , 0.05176027  , -0.039185096  , 0.2054052  , -0.13954979  , -0.09869209  , -0.040609423  , 0.041877445  , -0.020431513  , 0.015592117  , -0.08284873  , 0.18152922  , -0.06223208  , -0.03602897  , 0.051215157  , -0.021342097  , -0.05604836  , 0.10482647  , 0.031851895  , -0.06270253  , -0.07056594  , 0.017155357  , 0.13702847  , 0.018155556  , 0.0010906507  , 0.119244166  , 0.031074353  , -0.042754292  , -0.15301512  , -0.08468049  , 0.010157417  , 0.0667778  , -0.0078299325  , 0.04054363  , -0.06046162  , 0.067586325  , -0.097808406  , -0.02568432  , -0.21807757  , -0.011160837  , -0.054854125  , -0.008124911  , -0.07155007  , 0.0046984493  , -0.028475089  , 0.08294344  , 0.16037561 );
                        u[38] = dot(x,   0.024035005  , 0.10739804  , 0.020333689  , -0.034643684  , -0.115229875  , 0.018441968  , 0.04833758  , -0.18099828  , -0.05976948  , -0.00950791  , -0.029827854  , -0.047027383  , 0.30633685  , 0.17035213  , 0.08056498  , 0.044365607  , 0.011905298  , -0.03881638  , 0.03324539  , -0.0641732  , 0.06131063  , 0.01778632  , -0.11104962  , 0.118094586  , 0.051271103  , 0.32454616  , -0.045024447  , 0.020269785  , -0.027451852  , 0.020740869  , 0.0069804015  , 0.0343912  , 0.05492282  , 0.03949092  , 0.0673769  , -0.18402927  , -0.14549592  , -0.088653535  , -0.044697873  , 0.003510955  , 0.032576833  , -0.002450852  , 0.08170046  , -0.090800725  , -0.092552535  , -0.07311035  , -0.06454733  , 0.068642505  , 0.094581105  , -0.002459748  , 0.14214149  , -0.009148235  , 0.07065498  , -0.07873721  , -0.03161779  , 0.00014825782  , 0.09057754  , -0.0024300811  , 0.08829425  , -0.088518895  , 0.013695195  , -0.06675211  , -0.009007773  , 0.012544083  , 0.048475772  , 0.008275664  , 0.097715884  , 0.0641572  , -0.11708967  , 0.024417603  , -0.023918316  , 0.04469723  , 0.11426339  , -0.026019406  , 0.11380754  , 0.05610723  , -0.3870917  , -0.034250066  , -0.054759823  , 0.028230708  , -0.028863873  , -0.024309846  , -0.029232236  , -0.11486516  , 0.028039232  , 0.008570561  , 0.019399129  , -0.16068333  , -0.110460475  , -0.073975675  , -0.07557902  , -0.12811469  , 0.09725123  , 0.08136943  , 0.09402214  , 0.00889582  , -0.13197035  , -0.066969134  , 0.015291162  , -0.010711185  , 0.1046301  , 0.04830749  , 0.07549035  , 0.022005294  , -0.122803904  , -0.06983263  , 0.03334926  , 0.028518016  , 0.15227003  , 0.012079325  , 0.0262781  , -0.04464917  , 0.004838129  , -0.073701836  , 0.07431766  , -0.083231926  , 0.0907452  , -0.026256679  , 0.0056385635  , -0.014432915  , -0.043393116  , -0.09655405  , 0.060542133  , -0.06548914  , 0.05862736  , 0.005279012  , 0.037276983  , 0.029340668 );
                        u[39] = dot(x,   0.030745443  , 0.4920006  , -0.033941448  , -0.07428183  , -0.07579566  , -0.024201294  , -0.06521914  , 0.06473867  , 0.020578472  , -0.06171425  , 0.007572945  , 0.020005945  , -0.071033046  , -0.07234176  , -0.2304212  , -0.063131124  , 0.0049923914  , 0.11911334  , 0.012313427  , -0.015984457  , 0.034215875  , -0.018490044  , -0.008304086  , 0.03829681  , -0.04348502  , -0.0064777844  , 6.7765606e-05  , -0.09687352  , 0.042277686  , -0.0017077965  , -0.034411173  , 0.009032772  , 0.039821573  , -0.076141335  , 0.03921316  , -0.058008935  , -0.09921251  , -0.03144517  , 0.018578408  , 0.06167583  , -0.012786143  , -0.07881318  , 0.025947884  , 0.00042293154  , -0.055801567  , -0.010423441  , -0.05801256  , -0.07687636  , 0.026802888  , -0.07943065  , 0.06309791  , 0.015173983  , 0.05539239  , -0.017314706  , -0.027248593  , -0.0032933208  , 0.011836355  , -0.07874083  , 0.010039599  , -0.059493512  , -0.029880274  , 0.005052  , 0.01341953  , -0.0046115234  , -0.0695731  , -0.021120159  , -0.080775216  , -0.06921906  , -0.24949479  , 0.06526188  , 0.061724074  , 0.1943187  , 0.0093614645  , -0.11383569  , -0.026354816  , 0.000831241  , 0.50962734  , 0.00736864  , 0.015863828  , 0.007180337  , 0.032941736  , 0.06427933  , 0.0197934  , -0.10431417  , 0.017559605  , 0.006608561  , -0.0058675106  , 0.008775922  , -0.07710889  , -0.06601255  , -0.03228164  , -0.066417396  , 0.084359884  , 0.061683632  , 0.022686368  , -0.020206397  , -0.09287078  , -0.040076185  , -0.05803321  , -0.026009362  , 0.001600864  , 0.06372069  , 0.0845513  , 0.10551628  , -0.07243705  , 0.07564967  , 0.0009831681  , 0.08568965  , 0.12517874  , -0.02975047  , -0.07592282  , -0.026516393  , 0.052728772  , -0.036627203  , 0.08079768  , -0.040098373  , 0.008862549  , -0.019667523  , -0.0030570924  , -0.101728745  , 0.024256429  , -0.05659783  , 0.062878944  , -0.028938163  , 0.0411558  , -0.0061274194  , 0.0021341979  , 0.061411552 );
                        memcpy(dest != NULL ? dest : x, u, sizeof(float) * 40);
                    }

                protected:
                    /**
                    * Compute dot product with varargs
                    */
                    float dot(float *x, ...) {
                        va_list w;
                        va_start(w, 128);
                        static float mean[] = {  8.68e-09 , 8.945e-09 , -8.136e-09 , -2.432e-09 , 9.486e-09 , -2.36e-10 , 1.486e-09 , 3.694e-09 , -3.254e-09 , 2.785e-09 , -1.3752e-08 , 2.85e-09 , 4.368e-09 , -1.1931e-08 , 1.5936e-08 , -1.1639e-08 , 2.6291e-08 , 6.181e-09 , 8.926e-09 , 1.84e-09 , 3.57e-10 , -7.044e-09 , -6.243e-09 , 9.677e-09 , 5.909e-09 , 2.1345e-08 , 1.1499e-08 , 2.3778e-08 , 4.063e-09 , -1.1918e-08 , -1.1302e-08 , 9.24e-10 , -5.978e-09 , 3.712e-09 , -8.324e-09 , -1.939e-09 , -2.159e-09 , 2.89e-10 , 1.1409e-08 , 1.2977e-08 , 4.617e-09 , -7.633e-09 , -4.837e-09 , 2.614e-09 , -4.18e-10 , -8.613e-09 , 1.3085e-08 , 3.412e-09 , 7.39e-10 , 6.394e-09 , -2.322e-09 , 9.115e-09 , -8.565e-09 , 5.244e-09 , 3.763e-09 , -1.606e-09 , -2.82e-09 , -5.079e-09 , -1.6852e-08 , 7.668e-09 , -1.5576e-08 , -3.332e-09 , -9.363e-09 , -2.054e-09 , -1.0172e-08 , 9.941e-09 , -1.28e-09 , 6.37e-10 , -4.424e-09 , -4.39e-10 , 3.615e-09 , 1.0972e-08 , -6.513e-09 , -4.799e-09 , 4.328e-09 , 1.607e-09 , 6.261e-09 , -8.27e-09 , 6.551e-09 , 5.528e-09 , -5.48e-10 , -3.31e-09 , -1.1462e-08 , -1.0863e-08 , -1.5442e-08 , 4.511e-09 , 6.299e-09 , -2.4717e-08 , 1.7692e-08 , 1.8201e-08 , -1.1806e-08 , -2.36e-10 , 1.0204e-08 , 1.9869e-08 , 1.152e-09 , 8.2e-11 , 1.9957e-08 , -4.51e-09 , 1.853e-09 , -1.5383e-08 , -6.781e-09 , 8.934e-09 , 5.86e-09 , -1.789e-09 , 5.95e-10 , -1.474e-08 , -7.919e-09 , -4.767e-09 , 3.04e-09 , 7.89e-09 , -2.07e-09 , -1.9011e-08 , -8.05e-09 , 1.623e-09 , -1.732e-08 , -1.2435e-08 , 2.3766e-08 , 1.2301e-08 , -1.18e-08 , -5.485e-09 , -7.451e-09 , 1.966e-09 , 9.39e-09 , 4.981e-09 , 4.0247e-08 , -1.6653e-08 , 7.116e-09 , 1.5522e-08  };
                        float dot = 0.0;

                        for (uint16_t i = 0; i < 128; i++) {
                            dot += (x[i] - mean[i]) * va_arg(w, double);
                        }

                        return dot;
                    }
                };
            }
        }
    }