#include <stdlib.h>
                            #include <stdint.h>
                            #include <math.h>
                            #include <string.h>
                            #pragma once
#include <stdarg.h>
namespace Eloquent {
    namespace ML {
        namespace Port {
            class PCA {
                public:
                    /**
                    * Apply dimensionality reduction
                    * @warn Will override the source vector if no dest provided!
                    */
                    void transform(float *x, float *dest = NULL) {
                        static float u[40] = { 0 };
                        u[0] = dot(x,   0.06484417  , 0.03803634  , 0.06975122  , 0.07151129  , 0.06874592  , -0.06556196  , -0.07184893  , -0.07212064  , 0.0724518  , 0.054196257  , 0.07744549  , 0.07784492  , 0.0678197  , -0.07477511  , -0.080305904  , -0.07459909  , 0.10970204  , 0.09175313  , 0.10020634  , 0.07540351  , 0.021549784  , -0.11180785  , -0.10808534  , -0.08435616  , 0.108362675  , 0.08850907  , 0.09266378  , 0.06392814  , 0.013126359  , -0.11083661  , -0.0820146  , -0.035370633  , 0.10228258  , 0.044297297  , 0.10277507  , 0.087684855  , 0.041181706  , -0.101791725  , -0.06577303  , -0.020110048  , 0.10280669  , 0.010583123  , 0.103418514  , 0.086644076  , 0.04002238  , -0.1025142  , -0.091776825  , -0.028223852  , 0.113659136  , 0.015280858  , 0.11003716  , 0.09171014  , 0.08681492  , -0.11481126  , -0.11289001  , -0.0819698  , 0.11338835  , 0.012740455  , 0.108231194  , 0.088955395  , 0.08435758  , -0.11478399  , -0.11276238  , -0.074494235  , 0.07457792  , 0.06264275  , 0.08068504  , 0.0824653  , 0.077546306  , -0.07599205  , -0.08172342  , -0.07336737  , 0.07320999  , 0.063548625  , 0.07874166  , 0.08024537  , 0.07723299  , -0.07395426  , -0.08045413  , -0.07426726  , 0.112184875  , 0.09634672  , 0.10545391  , 0.09025206  , 0.09256796  , -0.11295589  , -0.11207295  , -0.08885452  , 0.112447  , 0.09550677  , 0.10492624  , 0.08831418  , 0.08769763  , -0.11374449  , -0.112944305  , -0.08767336  , 0.11015596  , 0.08856375  , 0.10479643  , 0.08725741  , 0.06336631  , -0.1121452  , -0.10723572  , -0.04546244  , 0.10626166  , 0.08409206  , 0.100420214  , 0.08378057  , 0.0592211  , -0.10811722  , -0.10290253  , -0.04368248  , 0.11319644  , 0.096540816  , 0.11259744  , 0.09386751  , 0.09171183  , -0.11342548  , -0.111709476  , -0.08723278  , 0.11301556  , 0.09619441  , 0.11308423  , 0.09574115  , 0.09372876  , -0.11373229  , -0.111635156  , -0.08636035 );
                        u[1] = dot(x,   -0.16030893  , 0.018230034  , -0.15275273  , -0.14780995  , -0.13306867  , 0.15680112  , 0.15241234  , 0.13216971  , -0.16002414  , -0.005982081  , -0.15201521  , -0.14714777  , -0.122991376  , 0.15988132  , 0.14814529  , 0.11982239  , 0.03930849  , 0.03611962  , 0.109544896  , 0.13981627  , 0.049821544  , -0.037451606  , -0.03730749  , -0.008006996  , 0.04799173  , 0.05231644  , 0.11336291  , 0.12502563  , 0.03928801  , -0.04683047  , -0.05059255  , -0.036598332  , -0.04572288  , 0.02731077  , 0.0008521222  , 0.056242023  , 0.060101345  , 0.042272687  , 0.015598945  , -0.004006533  , -0.03359167  , 0.037890725  , 0.014862021  , 0.06844755  , 0.06448609  , 0.030986136  , 0.019822136  , 0.0011076373  , 0.0071870172  , 0.03917405  , 0.07656181  , 0.13158621  , 0.1380723  , 0.0015757984  , 0.0026378538  , 0.012783039  , 0.014096211  , 0.038695168  , 0.08469034  , 0.13649282  , 0.14319319  , -0.006300944  , -0.007849378  , 0.0023006855  , -0.15798773  , -0.045299146  , -0.14919613  , -0.1452912  , -0.13989958  , 0.15654  , 0.14885843  , 0.11511482  , -0.15668766  , -0.05072962  , -0.1497372  , -0.14617017  , -0.14241934  , 0.15528272  , 0.15258853  , 0.11973979  , 0.019503893  , 0.022584116  , 0.08912292  , 0.1323288  , 0.12058056  , -0.013341246  , -0.0077425074  , 0.025822734  , 0.025521971  , 0.028675409  , 0.0936581  , 0.13563605  , 0.12569764  , -0.02046185  , -0.015859049  , 0.019964863  , -0.0055004675  , 0.009467448  , 0.046638716  , 0.086441465  , 0.08483724  , 0.0038459296  , -0.00020804645  , 0.010484651  , 0.013288291  , 0.023494598  , 0.0648546  , 0.0987871  , 0.089693956  , -0.017622044  , -0.01792998  , 0.004201389  , -0.012071258  , 0.010543024  , 0.057549316  , 0.12298899  , 0.122093745  , 0.023484007  , 0.02319514  , 0.03765285  , -0.010532806  , 0.010909317  , 0.05511453  , 0.12074572  , 0.11714436  , 0.022722417  , 0.025421146  , 0.0365098 );
                        u[2] = dot(x,   0.061201993  , 0.28044212  , 0.06708072  , 0.06673575  , 0.030993404  , -0.046621725  , -0.0021670342  , 0.06899394  , 0.04326175  , 0.20269151  , 0.051736657  , 0.053036187  , 0.007991991  , -0.02240784  , 0.031578105  , 0.08687361  , -0.033836823  , -0.040031847  , -0.028567376  , 0.048852  , 0.0025878483  , 0.063288145  , 0.078688525  , 0.11968295  , -0.0330784  , 0.036851037  , -0.016346645  , 0.04813961  , 0.06272204  , 0.05936308  , -0.022747925  , -0.11065776  , 0.045448337  , 0.23619853  , 0.07915592  , 0.17279264  , 0.25379816  , -0.01785879  , 0.0041443747  , 0.028136322  , 0.050292745  , 0.2539581  , 0.08401446  , 0.17589054  , 0.24836569  , -0.025062446  , 0.008736119  , 0.06521561  , -0.0100926235  , 0.25234532  , -0.021427777  , -0.02486078  , 0.020159729  , 0.050048307  , 0.07356901  , 0.11990034  , -0.013517028  , 0.25314394  , -0.024951898  , -0.029141782  , 0.0038724267  , 0.051854145  , 0.07486798  , 0.11505144  , 0.061415773  , 0.12640518  , 0.06658923  , 0.064000614  , 0.030228164  , -0.040763587  , 0.0152010545  , 0.08047053  , 0.070523754  , 0.12446725  , 0.07258534  , 0.068671025  , 0.036021464  , -0.049162615  , -0.0008803039  , 0.074013025  , -0.02537997  , -0.024705518  , -0.037869874  , -0.03718844  , -0.041308112  , 0.06030425  , 0.08134565  , 0.12629321  , -0.026384171  , -0.020506395  , -0.03651226  , -0.035477202  , -0.0416724  , 0.05887575  , 0.07925653  , 0.12709856  , 0.034662336  , 0.011565681  , 0.053723373  , 0.0976002  , 0.16359182  , -0.0051247333  , 0.02674965  , 0.08591702  , 0.031287342  , 0.0048014424  , 0.0454568  , 0.09787872  , 0.16968769  , -0.010856453  , 0.022284176  , 0.08024583  , -0.007880506  , -0.006582729  , -0.02038392  , -0.02595625  , -0.019649874  , 0.050875552  , 0.07069662  , 0.1164549  , -0.0040191533  , -0.003511064  , -0.009763779  , 0.026166897  , -0.022303296  , 0.046537556  , 0.068226375  , 0.113674656 );
                        u[3] = dot(x,   -0.08164192  , 0.11880979  , -0.081896126  , -0.07521683  , -0.033886578  , 0.04278225  , -0.02633959  , -0.11555918  , -0.06606025  , 0.015082111  , -0.06684879  , -0.059194297  , -0.0026536158  , 0.013806361  , -0.07337139  , -0.13322423  , -0.08010006  , -0.04692336  , -0.05008166  , 0.0031078723  , 0.010846885  , 0.015211685  , -0.052522022  , -0.13673192  , -0.08023309  , 0.016455237  , -0.03709082  , 0.050624125  , 0.06965722  , 0.008674683  , -0.13454984  , -0.21367021  , -0.0475621  , 0.15741824  , -0.023731446  , 0.025525482  , 0.1468597  , -0.023316015  , -0.13122165  , -0.1836507  , -0.061170872  , 0.17786394  , -0.03525156  , 0.021964798  , 0.14209558  , 0.011931342  , -0.105202414  , -0.22398785  , -0.08135827  , 0.17486387  , -0.06450704  , -0.050228447  , -5.3330743e-05  , -0.00026910682  , -0.053765975  , -0.1840717  , -0.080666214  , 0.17646328  , -0.0642902  , -0.053660203  , -0.012530118  , 0.0025655336  , -0.04743648  , -0.1769962  , -0.06892752  , -0.08058254  , -0.06613006  , -0.05748096  , -0.020988801  , 0.015277136  , -0.060571328  , -0.13441265  , -0.07760462  , -0.08064943  , -0.07251863  , -0.06353911  , -0.02759649  , 0.025951983  , -0.042110026  , -0.12990515  , -0.0767708  , -0.036757976  , -0.07137115  , -0.05828861  , -0.03230649  , 0.004716309  , -0.044979185  , -0.17800628  , -0.0760169  , -0.04155731  , -0.06927757  , -0.05722631  , -0.033894837  , 0.008138258  , -0.041995  , -0.1873956  , -0.069955714  , -0.008519479  , -0.051628977  , -0.030544098  , 0.05989107  , 0.016786225  , -0.07077083  , -0.22497089  , -0.078354925  , -0.007565304  , -0.0618659  , -0.0328199  , 0.06295312  , 0.0397612  , -0.054609805  , -0.21352486  , -0.07241952  , -0.04508279  , -0.06019045  , -0.051902693  , -0.032479744  , -0.015313835  , -0.05886797  , -0.17885503  , -0.077784166  , -0.04542181  , -0.061063435  , -0.021320362  , -0.041236438  , -0.010574947  , -0.0645163  , -0.18251073 );
                        u[4] = dot(x,   -0.07309721  , -0.05508675  , -0.06826931  , -0.070875235  , -0.0955992  , 0.07280078  , 0.0859775  , 0.08501082  , -0.06676919  , 0.02744222  , -0.062380057  , -0.06453779  , -0.08349368  , 0.07085709  , 0.068318605  , 0.06286148  , 0.0026273848  , 0.1339256  , -0.035756484  , -0.11432478  , -0.05869277  , 0.025552994  , 0.022522377  , 0.092703246  , 0.007913887  , 0.11354859  , -0.0397684  , -0.07490613  , -0.050087173  , 0.017344663  , 0.0072286483  , 0.022597264  , 0.1771987  , 0.022769064  , 0.15986161  , 0.0672011  , -0.049756415  , -0.19520032  , -0.18467632  , -0.11310464  , 0.17691813  , -0.096661456  , 0.15747519  , 0.049475815  , -0.057521403  , -0.19121797  , -0.22365682  , -0.123608716  , -0.022201769  , -0.090601295  , -0.03680144  , -0.07742122  , -0.11606911  , 0.029264314  , 0.030248404  , 0.06165768  , -0.01975666  , -0.094169386  , -0.03828503  , -0.0810331  , -0.11509716  , 0.028830357  , 0.0325196  , 0.06789063  , -0.04884564  , 0.084131524  , -0.036495816  , -0.031073997  , -0.049024485  , 0.048364833  , 0.051273607  , 0.04283107  , -0.032793913  , 0.091712065  , -0.019125355  , -0.014329115  , -0.03356528  , 0.032432154  , 0.039253008  , 0.038993653  , -0.037080284  , 0.10754041  , -0.05303408  , -0.08037089  , -0.09455364  , 0.04383937  , 0.040651444  , 0.038565636  , -0.02199315  , 0.12207804  , -0.041762095  , -0.08004901  , -0.09100573  , 0.03873774  , 0.03126795  , 0.016535824  , 0.1006408  , 0.24425663  , 0.061970383  , -0.013092309  , -0.043032255  , -0.119578734  , -0.14728674  , -0.11229143  , 0.11205004  , 0.25547883  , 0.06774118  , -0.015880728  , -0.048914738  , -0.13892959  , -0.16889325  , -0.12722307  , -0.04323478  , 0.107092656  , -0.050231945  , -0.08496092  , -0.105602436  , 0.035919297  , 0.028876524  , 0.04066747  , -0.042765956  , 0.112586394  , -0.04687118  , -0.09157883  , -0.09227275  , 0.036179762  , 0.027311424  , 0.035851426 );
                        u[5] = dot(x,   -0.014386928  , 0.055988453  , -0.03554284  , -0.050667886  , -0.021324955  , 0.036054723  , 0.022685321  , -0.04538892  , 0.007664374  , -0.08081041  , -0.021834463  , -0.042617653  , -0.00041419506  , 0.018126817  , -0.020475904  , -0.08602278  , 0.074416965  , 0.2133301  , 0.024904925  , 0.028703349  , -0.015992653  , -0.074543394  , -0.025836395  , 0.014056181  , 0.07450226  , 0.2515749  , 0.03644003  , -0.010670293  , 0.01573145  , -0.06952575  , -0.05739969  , -0.059572943  , 0.02604017  , 0.21414922  , -0.04674994  , -0.08328414  , 0.022886613  , -0.022991017  , 0.067655735  , 0.13748024  , 0.023355577  , 0.17692795  , -0.05496732  , -0.09762706  , 0.005504503  , -0.032000113  , 0.060089145  , 0.19968908  , 0.025947023  , 0.18624018  , -0.0119180335  , -0.054370534  , -0.037287053  , -0.0416334  , -0.017384123  , 0.083821125  , 0.02664284  , 0.18146671  , -0.010986973  , -0.05426119  , -0.049033936  , -0.04068504  , -0.014275856  , 0.105451465  , -0.021745494  , -0.17655593  , -0.038276896  , -0.043279607  , -0.009486959  , 0.043685384  , -0.0113383075  , -0.0903551  , -0.020616625  , -0.16092879  , -0.026288377  , -0.027456392  , 0.0030094783  , 0.036644403  , -0.0024579188  , -0.081522785  , 0.056598045  , 0.20275982  , 0.026394157  , -0.011430507  , -0.0069228183  , -0.06572532  , -0.047985923  , -0.00022503073  , 0.052508015  , 0.20428196  , 0.012218271  , -0.034932025  , -0.03736877  , -0.056325745  , -0.035684362  , 0.020826584  , -0.04547479  , 0.11253737  , -0.14821556  , -0.21035916  , -0.16112563  , 0.019981528  , 0.08031852  , 0.18815957  , -0.04275096  , 0.11670284  , -0.14676699  , -0.20845856  , -0.15008311  , 0.020824602  , 0.08017295  , 0.18856981  , 0.0155333085  , 0.1797925  , -0.017710384  , -0.04474878  , -0.03812554  , -0.043005597  , -0.033469427  , 0.021712316  , 0.0071370592  , 0.17621307  , -0.029365897  , -0.0315306  , -0.06586031  , -0.033839002  , -0.018464677  , 0.04307808 );
                        u[6] = dot(x,   0.0943353  , -0.059919823  , 0.08387721  , 0.07886896  , 0.08938056  , -0.048386354  , -0.028554313  , 0.028850965  , 0.07704539  , -0.10311999  , 0.06441392  , 0.057159107  , 0.051538963  , -0.020123638  , 0.0009208224  , 0.06082068  , 0.03478392  , -0.00651657  , 0.06246347  , 0.12080464  , 0.31406525  , 0.0179407  , 0.005916915  , 0.08337213  , 0.032206535  , 0.012320889  , 0.14165288  , 0.26715037  , 0.32626894  , -0.023814324  , -0.21778926  , -0.25159118  , -0.00909846  , -0.021752475  , -0.045597803  , -0.07925753  , -0.08462813  , -0.013155595  , -0.259635  , -0.34480637  , 0.0048549734  , -0.012070543  , -0.02846172  , -0.065214016  , -0.08031009  , 0.024434177  , -0.11578508  , -0.21010496  , 0.031019012  , -0.011697477  , 0.015899459  , 0.0073784813  , 0.01717098  , 0.047780484  , 0.06826909  , 0.08981491  , 0.030883953  , -0.011791646  , 0.017728062  , 0.008807587  , 0.02342794  , 0.045852426  , 0.065532185  , 0.09021402  , 0.0582734  , -0.100979745  , 0.042574424  , 0.032213178  , 0.03282812  , 0.008322557  , 0.05301876  , 0.09042809  , 0.062138405  , -0.096081644  , 0.049513225  , 0.040836804  , 0.03983935  , -0.0012181317  , 0.036917675  , 0.081938855  , 0.043273896  , 0.004384444  , 0.037059806  , 0.03115303  , 0.03888664  , 0.030894093  , 0.050836395  , 0.08810025  , 0.04220358  , 0.010013273  , 0.031641483  , 0.020475557  , 0.02788533  , 0.028723037  , 0.041722577  , 0.067331575  , -0.013893331  , -0.039461154  , -0.058905415  , -0.08759763  , -0.117126286  , 0.045635585  , 0.004978957  , -0.035662238  , -0.008934349  , -0.039245058  , -0.051451426  , -0.090403706  , -0.12692422  , 0.023292288  , -0.013307603  , -0.05562654  , 0.027678447  , 0.00022579309  , 0.0068551325  , -2.1569576e-05  , 0.0031548452  , 0.056929305  , 0.07727038  , 0.111421816  , 0.026095508  , -0.002821759  , 0.0005886861  , -0.01178193  , -0.008473992  , 0.057137363  , 0.07962821  , 0.10396834 );
                        u[7] = dot(x,   0.03012386  , 0.025086518  , 0.029986922  , 0.04059261  , 0.10274421  , 0.097947575  , 0.079093955  , 0.04465404  , 0.061993122  , 0.0251938  , 0.056204267  , 0.06152967  , 0.112085335  , 0.112835094  , 0.087556966  , 0.03925223  , 0.0015938877  , 0.14984915  , 0.0054339836  , -0.024154218  , -0.13822156  , 0.10364516  , 0.059027307  , -0.002161597  , -0.017360598  , 0.14109091  , -0.047253672  , -0.064817585  , -0.12580223  , 0.12577586  , 0.14885831  , 0.10528775  , -0.037443183  , 0.049383875  , -0.04221103  , -0.035898846  , -0.0013222822  , 0.11983336  , 0.10863027  , 0.021881746  , -0.056740988  , 0.027169324  , -0.064302534  , -0.045545645  , -0.006585124  , 0.10051713  , 0.0152955195  , -0.18113087  , 0.0023590566  , 0.03591913  , 0.026998164  , 0.047500666  , 0.065922156  , 0.12380861  , 0.0854363  , -0.08531631  , -0.0037949528  , 0.031260703  , 0.0227869  , 0.042354424  , 0.05571158  , 0.12280703  , 0.08506066  , -0.09523009  , 0.08288033  , 0.024943456  , 0.09091064  , 0.10973944  , 0.16425113  , 0.09444895  , 0.06813713  , 0.032770447  , 0.07610134  , 0.02964364  , 0.094460905  , 0.11618478  , 0.16959526  , 0.08628462  , 0.06739482  , 0.026399657  , 0.024585083  , 0.17710403  , 0.028653696  , 0.048654124  , 0.08873885  , 0.11446207  , 0.08208626  , -0.052085232  , 0.012727065  , 0.1693495  , 0.018217597  , 0.044131134  , 0.08237315  , 0.11114374  , 0.07414599  , -0.07382195  , -0.06243847  , 0.05648095  , -0.039131835  , -0.023903368  , -0.005930313  , 0.11290369  , 0.012985198  , -0.24909517  , -0.10726598  , 0.023622409  , -0.08200711  , -0.04503762  , -0.014154751  , 0.10914335  , 0.00067897205  , -0.2588504  , 0.02935638  , 0.184033  , 0.061734878  , 0.079202116  , 0.10569404  , 0.12105519  , 0.08954777  , -0.043719754  , 0.019177223  , 0.1837545  , 0.051051136  , 0.0771196  , 0.09891961  , 0.12533674  , 0.084497295  , -0.06045143 );
                        u[8] = dot(x,   -0.06544508  , -0.026761638  , -0.060538284  , -0.043863747  , 0.011672621  , 0.0511207  , 0.01725182  , -0.049789768  , -0.057929087  , 0.08043772  , -0.053966712  , -0.04116809  , 0.011320008  , 0.045773536  , -0.01308419  , -0.08494071  , -0.106659815  , 0.07119141  , -0.026637428  , 0.1524126  , 0.468324  , 0.06120883  , 0.041452568  , -0.05296357  , -0.10515757  , 0.03825417  , 0.110261805  , 0.2244112  , 0.43229264  , 0.0729668  , 0.12093623  , 0.14404938  , 0.014294454  , -0.042611435  , 0.04643283  , 0.040390164  , -0.017403195  , -0.0036551952  , 0.116326995  , 0.17241831  , -0.0028387795  , -0.10480871  , 0.030915625  , 0.03143577  , -0.016472109  , -0.0051657166  , 0.0735075  , 0.1506631  , -0.08558035  , -0.10019201  , -0.036907867  , -0.0069990726  , -0.01982541  , 0.03433418  , 0.006907285  , -0.048182048  , -0.08860883  , -0.10293937  , -0.040831774  , -0.012292717  , -0.023053646  , 0.03951805  , 0.01569891  , -0.042355586  , -0.00921934  , 0.1504832  , 0.007114701  , 0.025439365  , 0.03723001  , -0.014334171  , -0.080049574  , -0.13232471  , 0.0013864145  , 0.15420623  , 0.02016406  , 0.03762438  , 0.05021583  , -0.022356203  , -0.074068375  , -0.13088523  , -0.08843159  , 0.08290164  , -0.056017425  , -0.024189956  , -0.0038728933  , 0.056441605  , 0.027995428  , -0.067961864  , -0.09026836  , 0.07946481  , -0.051911082  , -0.016507253  , 0.009093242  , 0.05788734  , 0.036628325  , -0.04573852  , -0.030219533  , 0.12294848  , 0.027296618  , 0.048186537  , 0.05841255  , 0.012160959  , 0.031860374  , 0.041710824  , -0.05525348  , 0.10689125  , 0.0003615328  , 0.034858864  , 0.051281832  , 0.04414046  , 0.058252726  , 0.062257703  , -0.07432363  , 0.09340188  , -0.01874226  , 0.010043707  , 0.018269137  , 0.019885583  , -0.011802607  , -0.08695911  , -0.07848536  , 0.099229515  , -0.019737037  , -0.0003456459  , 0.03064355  , 0.022861624  , -0.013281436  , -0.07612687 );
                        u[9] = dot(x,   -0.073307544  , 0.07095363  , -0.07764856  , -0.08013128  , -0.12103478  , 0.039922368  , 0.038926657  , 0.05405308  , -0.036976214  , 0.25053072  , -0.038816046  , -0.041145682  , -0.06891308  , -0.0033328026  , -0.039493933  , -0.012609617  , -0.063559465  , 0.077481166  , -0.070691146  , -0.07023285  , -0.11071142  , -0.023112109  , 0.00015606731  , 0.026158515  , -0.08108758  , 0.03574366  , -0.11819191  , -0.06064146  , -0.1327569  , -0.055533268  , -0.2018679  , -0.22902547  , -0.110870235  , -0.082027785  , -0.08579065  , -0.014909313  , -0.07256996  , 0.0113724265  , -0.22093345  , -0.27648586  , -0.11818774  , -0.08287496  , -0.087634884  , 0.0031467485  , -0.06373409  , 0.086176485  , 0.008528019  , -0.016482364  , -0.04028312  , -0.07594516  , -0.013185815  , 0.043247856  , 0.038118754  , -0.04126353  , -0.029633516  , 0.040389445  , -0.050634682  , -0.07967124  , -0.020382581  , 0.038672972  , 0.04145303  , -0.035373747  , -0.024307119  , 0.05854808  , 0.024753084  , 0.32732219  , 0.028495468  , 0.0317319  , -0.019634658  , -0.06492974  , -0.068670414  , -0.05270781  , 0.024523538  , 0.31711254  , 0.025924474  , 0.02826764  , -0.021610722  , -0.06111934  , -0.06102984  , -0.044728965  , -0.025657568  , 0.10751469  , -0.005720185  , 0.039679773  , 0.031304073  , -0.043429058  , -0.03285848  , 0.011030266  , -0.056117136  , 0.092743866  , -0.031107029  , 0.028556447  , 0.019032689  , -0.028307486  , -0.016237825  , 0.03675038  , -0.09748116  , -0.020797674  , -0.054261196  , 0.044554316  , -0.00046633015  , 0.07334156  , 0.0836476  , 0.1483305  , -0.13110697  , -0.059393227  , -0.08565065  , 0.020690816  , -0.031943846  , 0.12683874  , 0.14361775  , 0.16984716  , -0.011448625  , 0.14851901  , 0.011153854  , 0.05384977  , 0.045513157  , -0.05513867  , -0.049626347  , 0.0075109415  , -0.010694574  , 0.15280709  , 0.011549151  , 0.04362534  , 0.057545483  , -0.052909408  , -0.040155176  , 0.021442622 );
                        u[10] = dot(x,   0.0055858777  , -0.22711284  , 0.017870665  , 0.028954849  , 0.14187638  , 0.02006958  , -0.03917545  , -0.1259573  , -0.039966874  , -0.30499226  , -0.031101642  , -0.019311612  , 0.09786501  , 0.06781228  , -0.038710978  , -0.114315465  , -0.0473739  , 0.06958117  , 0.0014848683  , -0.086766765  , -0.092354886  , 0.051778447  , 0.030170793  , 0.014301489  , -0.049193665  , 0.022207102  , -0.058807686  , -0.05356  , -0.11505451  , 0.024237543  , -0.05944157  , -0.09277312  , 0.01344776  , -0.091684066  , 0.07731947  , 0.124019995  , 0.16423051  , -0.08753864  , -0.16935576  , -0.1254692  , -0.0048011863  , -0.12667342  , 0.06324897  , 0.116959594  , 0.1846337  , -0.03966011  , -0.03577919  , 0.09154122  , -0.067860335  , -0.12485742  , -0.00039814666  , 0.029089544  , 0.042006772  , 0.04174205  , 0.04267732  , 0.0830868  , -0.06881248  , -0.125927  , -0.0013190856  , 0.026140748  , 0.04985746  , 0.04491561  , 0.051023155  , 0.10073832  , -0.025874363  , -0.24466258  , -0.002039581  , 0.020524764  , 0.11942794  , 0.05370825  , -0.0381013  , -0.1338141  , -0.012801649  , -0.22934975  , 0.018764082  , 0.0416416  , 0.13859677  , 0.039678875  , -0.03288863  , -0.13388662  , -0.049175177  , 0.043903437  , -0.011396952  , 0.008199534  , 0.06838509  , 0.044409417  , 0.040775664  , 0.0063315877  , -0.04904072  , 0.043508872  , -0.008072495  , 0.013023995  , 0.07817836  , 0.04361153  , 0.04465609  , 0.028417766  , -0.06279321  , 0.0463243  , 0.0120063415  , 0.07337964  , 0.27039215  , 0.007877993  , 0.04190408  , 0.15857925  , -0.08609193  , 0.045786846  , -0.020017346  , 0.041615505  , 0.24924253  , 0.017935678  , 0.05020146  , 0.1655935  , -0.060757793  , 0.020554775  , 0.0002908616  , 0.036912747  , 0.06324425  , 0.037672002  , 0.028233401  , 0.02155135  , -0.06999266  , 0.02094234  , -0.0076874066  , 0.012764436  , 0.063935176  , 0.040822722  , 0.03235998  , 0.04456859 );
                        u[11] = dot(x,   0.16122766  , -0.015771376  , 0.1315012  , 0.107214235  , -0.030019285  , -0.2876469  , -0.21647348  , -0.0615168  , -0.04744876  , -0.10918992  , -0.08160016  , -0.12767033  , -0.30377096  , -0.08615546  , 0.015669119  , 0.08322469  , -0.0663334  , 0.09029675  , 0.019037284  , 0.08113175  , -0.027756032  , -0.06151199  , -0.05810254  , 0.20308873  , -0.072719015  , 0.10611843  , -0.0010970547  , 0.041797664  , -0.04399494  , -0.043387998  , 0.05331725  , 0.15293014  , -0.11143643  , 0.012846551  , -0.10886486  , -0.011762832  , -0.0124272965  , 0.028702281  , 0.07488704  , 0.07162036  , -0.054562464  , 0.00486543  , -0.050341193  , 0.03246366  , 0.004847365  , -0.054339755  , -0.081678614  , -0.09050861  , -0.110897176  , 0.010527704  , -0.04830934  , 0.06490617  , 0.026325073  , -0.034450836  , -0.029513458  , 0.0959656  , -0.1098895  , 0.0077309655  , -0.037750013  , 0.07460956  , 0.039419994  , -0.03676206  , -0.034075998  , 0.08645358  , -0.002845935  , -0.066196226  , -0.03586544  , -0.060102697  , -0.19426937  , -0.1599705  , -0.064430475  , 0.053535927  , 0.080414355  , -0.04907011  , 0.043701176  , 0.017472165  , -0.11734819  , -0.22833812  , -0.14975038  , 0.001954423  , -0.10137086  , 0.054680113  , -0.007554864  , 0.09516512  , 0.021945788  , -0.03593609  , -0.037006725  , 0.07779056  , -0.11373713  , 0.084257126  , -0.013658362  , 0.09245251  , 0.028564967  , -0.028019967  , -0.038919404  , 0.049338248  , -0.124018855  , 0.022228962  , -0.075419135  , 0.022997215  , 0.029109161  , 0.004463252  , -0.07116994  , -0.15914097  , -0.08667301  , 0.045962382  , -0.03635879  , 0.058135163  , 0.05479545  , 0.004569779  , -0.07396179  , -0.1651232  , -0.13883775  , 0.07039892  , -0.0678912  , 0.07066148  , 0.050822407  , -0.0060877227  , -0.009143406  , 0.0715736  , -0.13066626  , 0.07466735  , -0.06745842  , 0.061319258  , 0.046160556  , -0.010267283  , -0.012539394  , 0.06287046 );
                        u[12] = dot(x,   -0.011871008  , -0.10214121  , -0.0029003574  , -0.01107297  , -0.09319218  , 0.028251892  , 0.06631596  , 0.0932808  , 0.05165539  , -0.05239866  , 0.05635273  , 0.05201302  , -0.0088193305  , -0.03468617  , 0.018807583  , 0.049561355  , 0.057906345  , 0.06317515  , 0.0041566696  , -0.08448747  , 0.089472085  , -0.055513404  , -0.12726712  , 0.09529437  , 0.027001316  , 0.03414416  , -0.00693835  , 0.017251197  , 0.15345418  , -0.023998277  , 0.04420607  , 0.12494187  , -0.042407937  , -0.13246074  , -0.05384554  , 0.05714262  , 0.20978437  , 0.07822013  , 0.053182565  , -0.010530735  , -0.043431267  , -0.08973459  , -0.046391573  , 0.07693921  , 0.24596934  , 0.06806997  , 0.0053098346  , -0.1384591  , 0.10740424  , -0.08272197  , -0.011850092  , -0.09530088  , -0.12886901  , -0.07278059  , -0.047536243  , 0.028860252  , 0.097851336  , -0.08608632  , -0.02066559  , -0.09231566  , -0.12365603  , -0.07037978  , -0.047170665  , 0.046882432  , 0.012235216  , 0.005832259  , 0.009745358  , -0.003536671  , -0.035474576  , 0.017370109  , 0.059671335  , 0.08191901  , -0.02009608  , -0.0010577055  , -0.025038987  , -0.03643224  , -0.068612486  , 0.04478265  , 0.07809886  , 0.09467823  , 0.13186517  , 0.12255986  , 0.019443646  , -0.07262735  , -0.11220688  , -0.112581596  , -0.089344196  , 0.019190032  , 0.08604793  , 0.09919307  , -0.033434127  , -0.12038574  , -0.17371981  , -0.076518506  , -0.06335606  , 0.012417456  , -0.038390994  , -0.16210249  , -0.09228533  , 0.0042167427  , 0.24851523  , 0.078149214  , 0.028928539  , -0.0946374  , -0.051411506  , -0.18377236  , -0.101302765  , -0.011308646  , 0.24860716  , 0.09725833  , 0.052460533  , -0.101164006  , 0.13955998  , 0.1457146  , 0.01862223  , -0.071128026  , -0.120158575  , -0.09608638  , -0.06957301  , 0.01850556  , 0.13838923  , 0.13737576  , 0.017829772  , -0.08844016  , -0.11475232  , -0.09229038  , -0.059572645  , 0.0071942597 );
                        u[13] = dot(x,   -0.15864415  , 0.031732444  , -0.18705349  , -0.20863126  , -0.09859734  , 0.1913279  , 0.19018672  , 0.06677025  , 0.015149193  , 0.05214823  , -0.0042081997  , -0.024109034  , 0.052234635  , -0.012699712  , -0.048344508  , -0.12507494  , -0.013742022  , -0.11931648  , 0.03514006  , 0.021587493  , -0.011397182  , -0.037664976  , -0.032096956  , 0.16388203  , -0.01959843  , -0.11385727  , 0.02979049  , 0.025579076  , 0.023092441  , -0.011316203  , 0.11705012  , 0.20021075  , 0.012418067  , 0.033593096  , -0.007967727  , -0.04040013  , 0.046655793  , -0.054340865  , 0.025665024  , 0.043553904  , -0.03406039  , 0.030868446  , -0.07066744  , -0.08677019  , 0.027960366  , -0.041841734  , -0.09861661  , -0.18791407  , -0.008660631  , 0.023919921  , 0.016885424  , 0.009566395  , 0.048946656  , -0.056258727  , -0.018055042  , 0.2379834  , -0.014032319  , 0.027267016  , 0.009376385  , 0.0035971808  , 0.03731128  , -0.04592168  , 0.009071871  , 0.35990086  , 0.059566457  , 0.009641764  , 0.06061408  , 0.06689968  , 0.1703723  , -0.059054635  , -0.133345  , -0.21314585  , 0.025500434  , -0.00014114109  , 0.033221863  , 0.040946487  , 0.14195977  , -0.02559746  , -0.090211324  , -0.18422186  , 0.010331593  , -0.08890487  , 0.027743954  , 0.016789272  , 0.07785083  , -0.043114256  , -0.013875095  , 0.0691886  , 0.019740783  , -0.102391675  , 0.0445456  , 0.040812798  , 0.108305044  , -0.05876848  , -0.056193814  , 0.0011229991  , -0.023894235  , 0.012469535  , -0.05770306  , -0.078817286  , 0.006316802  , -0.064983584  , -0.08161663  , -0.09871529  , -0.06641093  , -0.013246503  , -0.10234742  , -0.09429586  , 0.009713578  , -0.023281157  , -0.06706844  , -0.1201396  , 0.0017252883  , -0.11212652  , 0.021368427  , 0.015870046  , 0.057099774  , -0.059745662  , -0.026615756  , 0.15724488  , -0.0012247119  , -0.107652016  , 0.02014973  , 0.022403492  , 0.054095022  , -0.059705075  , -0.013233245  , 0.17503655 );
                        u[14] = dot(x,   -0.048401553  , -0.0902493  , -0.12615477  , -0.17350477  , -0.33254752  , 0.04566999  , 0.14870967  , 0.24907489  , 0.14981507  , -0.06478877  , 0.100929484  , 0.09354991  , 0.017263472  , -0.17048736  , -0.02173346  , 0.11659113  , -0.012291862  , 0.04076352  , 0.024472483  , 0.019679086  , -0.031698998  , -0.0026613625  , -0.051362343  , -0.23106074  , 0.003841083  , 0.02428115  , 0.02504779  , 0.023606563  , 0.0029415386  , -0.0058853664  , -0.012703929  , -0.061354667  , -0.035460874  , 0.05215445  , -0.11690452  , -0.18274133  , 0.06065432  , 0.020511141  , 0.004334779  , -0.013763741  , -0.03805689  , -0.035374727  , -0.11319664  , -0.14223287  , 0.100063816  , 0.019833963  , 0.018344378  , 0.020510007  , -0.03654426  , -0.035572473  , -0.03327961  , 0.0050158496  , 0.047466524  , 0.02045889  , 0.003037114  , -0.16056281  , -0.03509209  , -0.03584547  , -0.033566225  , -0.005319309  , 0.039944597  , 0.025347346  , 0.009590564  , -0.17956209  , 0.1811639  , -0.09767142  , 0.10993449  , 0.0735609  , -0.032768685  , -0.20089571  , -0.0504457  , 0.10973991  , 0.16713087  , -0.123042956  , 0.09422855  , 0.063600816  , -0.05134177  , -0.18623534  , -0.063671924  , 0.10905489  , -0.029943507  , -0.017772635  , -0.009186612  , 0.025023919  , 0.0065514497  , 0.0179948  , 0.027465334  , 0.009047628  , -0.014104153  , -0.00961532  , 0.019709572  , 0.056706235  , 0.037179522  , -0.0027190032  , 0.009537958  , 0.013488498  , 0.04110475  , 0.20169708  , -0.0022197023  , -0.04082154  , 0.123742394  , -0.03336278  , 0.019753203  , 0.081866734  , 0.05259243  , 0.2207893  , 0.03324609  , 0.014175332  , 0.17564143  , -0.06181953  , -0.023737136  , 0.07053021  , -0.04385699  , -0.031805094  , -0.046971917  , -0.028287195  , -0.041359883  , 0.034394417  , 0.04748324  , 0.018500028  , -0.055065237  , -0.032023665  , -0.056684468  , -0.039457053  , -0.029187687  , 0.04183219  , 0.045673862  , 0.0027012108 );
                        u[15] = dot(x,   0.083444074  , 0.040107742  , 0.07873637  , 0.09194768  , 0.19922525  , -0.11482119  , -0.18113774  , -0.1550598  , 0.0023816137  , 0.27193573  , -0.0052432055  , 0.037568856  , 0.27758873  , -0.02400762  , -0.07347597  , -0.069568634  , 0.04253605  , 0.06131794  , 0.09971832  , -0.04201211  , -0.07890891  , -0.01989123  , -0.09158152  , -0.20398378  , 0.06846815  , 0.032462798  , 0.06203174  , 0.05708648  , -0.0126219215  , -0.016111653  , 0.03314492  , 0.025687916  , -0.04790269  , -0.031298332  , -0.13448328  , -0.17031023  , 0.079074614  , 0.052106477  , 0.041976865  , -0.009977553  , -0.039661422  , -0.07299732  , -0.13048801  , -0.1522683  , 0.11216493  , 0.04979493  , 0.010143777  , -0.11361397  , 0.007892527  , -0.073059775  , -0.028236909  , -0.033326037  , 0.030787654  , 0.0035409231  , 0.05033088  , 0.057244886  , 0.021772524  , -0.07310302  , -0.019892957  , -0.0316229  , 0.039812777  , -0.0008383756  , 0.05919018  , 0.13412127  , -0.08000171  , 0.15218607  , -0.115315594  , -0.13104567  , -0.07768734  , 0.05832417  , -0.00013762916  , -0.03100935  , -0.11189422  , 0.14443448  , -0.14718878  , -0.16061768  , -0.11235247  , 0.08663752  , 0.03591633  , -0.0025453826  , 0.0036394738  , 0.0015906298  , 0.005043856  , 0.00793152  , 0.06943851  , -0.0016105098  , 0.043523103  , -0.013419637  , 0.05093045  , 0.013975518  , 0.039827745  , 0.027325151  , 0.10610548  , -0.03002731  , 0.0032109674  , -0.07160689  , 0.044434756  , 0.16124181  , -0.04345082  , -0.10300987  , 0.12825179  , -0.020608008  , 0.017237712  , 0.02014243  , 0.087176725  , 0.20883814  , 0.008334781  , -0.057611942  , 0.17051384  , -0.056489162  , -0.026848711  , -0.023843963  , -0.035005882  , -0.04739646  , -0.07375562  , -0.065722615  , -0.01413947  , 0.028515529  , 0.07773349  , 0.13803148  , -0.033586893  , -0.045219414  , -0.0836855  , -0.09303447  , -0.033126995  , 0.029322864  , 0.08651378  , 0.13478462 );
                        u[16] = dot(x,   -0.060235027  , -0.002752974  , -0.0080342805  , 0.020427568  , 0.022457898  , 0.006237898  , 0.032251116  , 0.10487586  , -0.10068774  , -0.070665106  , -0.009989619  , 0.16725639  , 0.5720195  , 0.026853971  , 0.05152844  , 0.14136527  , -0.14521417  , -0.027612863  , -0.038169146  , -0.05953027  , -0.09376074  , -0.022446997  , -0.24467584  , -0.25860813  , -0.16388947  , 0.021479541  , -0.054510675  , 0.08148073  , 0.07212911  , 0.024511015  , -0.11089088  , -0.069415756  , -0.077259965  , 0.0043136314  , -0.0043260404  , 0.06047128  , -0.08992777  , -0.0052291383  , 0.09699034  , 0.17051001  , -0.034906026  , 0.012638103  , 0.049309395  , 0.10135423  , -0.088013485  , -0.101429045  , -0.11376544  , 0.019669557  , -0.094049774  , 0.016596058  , -0.04751125  , 0.0065832706  , -0.016406853  , -0.014633769  , -0.070812695  , 0.10595172  , -0.10267126  , 0.014626273  , -0.0506797  , 0.0048251883  , -0.018742284  , -0.013667976  , -0.06778039  , 0.11660906  , -0.055426504  , -0.028532362  , -0.004083539  , 0.01590381  , -0.008099212  , -0.018067097  , 0.016737264  , 0.1126791  , -0.029319093  , -0.045558542  , 0.014007594  , 0.030098625  , -0.016875254  , -0.036552258  , -0.0056419754  , 0.11165417  , -0.059081636  , 0.021572085  , -0.023128971  , 0.010958024  , -0.030667685  , -0.036951598  , -0.08448861  , 0.061903067  , -0.08571448  , 0.036341704  , -0.045993973  , -0.008083231  , -0.04309563  , -0.026401207  , -0.08105331  , 0.05296559  , -0.0883083  , -0.07400075  , 0.0047490583  , 0.088214405  , -0.095077544  , -0.031399056  , -0.09743429  , -0.031089518  , -0.08856384  , -0.08389474  , 0.011982372  , 0.09732006  , -0.09493702  , -0.02860017  , -0.105393894  , -0.004356131  , -0.06006298  , 0.0860711  , -0.011171271  , 0.034198266  , 0.018818822  , -0.017708512  , -0.0629218  , 0.055296708  , -0.055424508  , 0.08748486  , -0.0055184215  , 0.04433459  , 0.024908032  , -0.020825831  , -0.06526122  , 0.058878202 );
                        u[17] = dot(x,   0.039546188  , 0.014889814  , 0.04188088  , 0.08083616  , 0.26737937  , 0.027536668  , 0.061208256  , 0.108780615  , -0.08621911  , -0.020086087  , -0.1050479  , -0.12761362  , -0.12889923  , 0.18168171  , 0.21283506  , 0.19871415  , 0.03726136  , -0.067216  , 0.0385625  , 0.047794227  , 0.18775779  , -0.051049393  , -0.17119649  , -0.017156042  , 0.034579396  , -0.08966994  , -0.049154762  , -0.02921803  , -0.17057426  , -0.08470268  , -0.18909116  , -0.064806685  , 0.007631352  , -0.0013589372  , -0.051619492  , -0.04869089  , 0.10431412  , -0.0630312  , 0.0053932974  , 0.117035754  , 0.009718601  , -0.04281115  , -0.07366527  , -0.07609262  , 0.10905023  , -0.095535785  , -0.04612647  , 0.17942558  , -0.00819612  , -0.04674783  , -0.029347392  , -0.05136103  , -0.029539471  , -0.006983814  , -0.0856281  , -0.005970947  , -0.008292196  , -0.044875942  , -0.024417114  , -0.04608078  , -0.02064903  , -0.015629075  , -0.09960052  , -0.042275414  , 0.015708607  , 0.110150605  , 0.02951706  , 0.058144864  , 0.119684555  , 0.06189277  , 0.09312799  , 0.11634652  , 0.075348556  , 0.1589241  , 0.098637775  , 0.12538551  , 0.18206461  , -0.007381074  , 0.030949596  , 0.09462625  , -0.0011998574  , -0.10221679  , -0.0125207  , 0.0054707006  , 0.080003485  , -0.00248883  , -0.08179793  , -0.037577175  , -0.0066137095  , -0.08493881  , -0.020401115  , -0.013518771  , 0.07959069  , -0.0074532996  , -0.07991728  , -0.018239558  , -0.07485002  , 0.056500655  , -0.16899203  , -0.18192016  , 0.06941204  , -0.045305565  , -0.09810888  , -0.002694636  , -0.07947521  , 0.037750322  , -0.18465044  , -0.19439675  , 0.07757538  , -0.07394767  , -0.12283882  , 0.022481557  , -0.030432237  , -0.06896267  , -0.021061055  , -0.029167714  , 0.012940104  , 0.030822253  , -0.05256785  , -0.08648976  , -0.03802778  , -0.069332115  , -0.03479449  , -0.042632885  , -0.004667261  , 0.033507913  , -0.053018507  , -0.073721945 );
                        u[18] = dot(x,   -0.06350957  , 0.011514036  , -0.008684313  , 0.04609493  , 0.12968083  , 0.07819276  , 0.038898557  , -0.0050401916  , 0.025882034  , 0.076962486  , 0.073791586  , 0.0659071  , -0.043245077  , -0.026843542  , -0.06645233  , -0.053855516  , -0.02257066  , 0.056061395  , -0.030440152  , 0.16588934  , 0.43734926  , 0.015768997  , -0.085273616  , 0.11258531  , -0.024740933  , 0.029518833  , -0.15226069  , -0.13506049  , -0.36327818  , -0.025595115  , -0.2076715  , -0.060618456  , -0.12482599  , 0.018998804  , -0.058701996  , -0.1214287  , -0.089628264  , 0.1270617  , 0.08192562  , 0.043812413  , -0.15603894  , 0.01791037  , -0.06019308  , -0.08073146  , -0.072387286  , 0.15247074  , 0.06337075  , -0.068238005  , -0.008413624  , 0.020810755  , 0.02543243  , 0.004173647  , 0.004233283  , 0.0010122794  , -0.06673714  , 0.033959422  , -0.0110463295  , 0.019158017  , 0.011020491  , -0.013978715  , -0.021071548  , 0.010425589  , -0.042767987  , 0.08382017  , 0.011321637  , -0.08785213  , 0.045328785  , 0.05545392  , 0.0829628  , 0.012852844  , -0.031464994  , -0.06615927  , -0.07350092  , -0.1514558  , -0.049626097  , -0.039604142  , -0.009212914  , 0.09897841  , 0.04535349  , -0.029609067  , -0.047810588  , 0.031866845  , -0.04511095  , -0.08710685  , -0.11795526  , 0.031819288  , -0.010199917  , 0.11682468  , -0.027502382  , 0.016439382  , -0.023557011  , -0.059794825  , -0.106614396  , 0.0119871665  , -0.0432802  , 0.08444614  , 0.066310376  , 0.09252584  , 0.17714639  , 0.1626281  , 0.051474825  , -0.02948197  , -0.054648932  , -0.04973409  , 0.052671127  , 0.11041105  , 0.16936937  , 0.1697933  , 0.048786703  , -0.0373971  , -0.08747929  , -0.030719358  , 0.0044025416  , 0.043830607  , 0.02066441  , -0.028436527  , -0.06035934  , -0.007977771  , -0.038584754  , 0.03662968  , 0.007358203  , 0.049581956  , 0.035507016  , -0.004649686  , -0.024116987  , -0.013440563  , -0.050012413  , 0.042496547 );
                        u[19] = dot(x,   -0.014748812  , -0.008929087  , 0.057267126  , 0.09285409  , 0.16193147  , -0.0003245686  , 0.041586574  , 0.03694206  , 0.07425181  , 0.28535643  , 0.16012856  , 0.14913659  , -0.049107756  , -0.116679564  , 0.020168288  , 0.05606107  , -0.19902475  , -0.051316425  , -0.14110945  , -0.11135497  , -0.062095243  , 0.06850695  , 0.14441587  , 0.21261583  , -0.19887213  , -0.013348974  , -0.078953326  , 0.001244138  , 0.16937312  , 0.06751887  , 0.104058385  , 0.09687317  , 0.027269235  , 0.05505706  , 0.04786807  , -0.010172449  , 0.006275281  , -0.11302491  , -0.111389056  , -0.04648442  , -0.056580085  , -0.021333346  , -0.03003832  , -0.05971006  , -0.01401116  , -0.017904392  , -0.015060703  , 0.04788772  , -0.044632517  , -0.022922209  , -0.03749342  , -0.028631847  , 0.057267953  , -0.059139483  , -0.09412503  , -0.04280382  , -0.059964985  , -0.022447959  , -0.04931001  , -0.04072493  , 0.05516511  , -0.05355492  , -0.09102381  , -0.085912526  , -0.010639836  , -0.12678267  , 0.033000097  , 0.025140366  , 0.016672013  , -0.01274334  , 0.07479365  , 0.090285085  , -0.1311516  , -0.19593923  , -0.09148588  , -0.09720137  , -0.09767415  , 0.099699184  , 0.15131071  , 0.13648418  , -0.013706726  , -0.015888594  , -0.005227401  , -0.008494938  , 0.101527445  , -0.04955193  , -0.06622044  , 0.10901079  , -0.0055511757  , -0.014320918  , 0.0019044896  , 0.0041618664  , 0.16938862  , -0.073221266  , -0.086210944  , 0.1281423  , -0.05371046  , 0.18703632  , -0.032300632  , -0.041151114  , 0.011266566  , -0.024154196  , -0.024632366  , 0.020932935  , -0.12447408  , 0.1689354  , -0.08383465  , -0.058774475  , 0.00018375093  , 0.029405715  , 0.007957271  , 0.043719906  , 0.0497407  , -0.025235463  , 0.041024394  , 0.0013587048  , 0.115719795  , -0.10030352  , -0.106426306  , -0.090714954  , 0.06693971  , -0.014836448  , 0.049975503  , 0.008065228  , 0.10383602  , -0.11549689  , -0.13114624  , -0.09197857 );
                        u[20] = dot(x,   0.011489106  , -0.08588519  , -0.002400816  , -0.036027502  , -0.13631958  , -0.020740263  , 0.032837912  , 0.01406722  , 0.12008121  , 0.22748838  , 0.14388387  , 0.15718876  , 0.09965244  , -0.14558221  , -0.10842455  , -0.054770965  , -0.03189051  , 0.03635636  , 0.13450985  , 0.1693386  , 0.24650384  , -0.017546056  , -0.096000575  , 0.0036893205  , -0.053491596  , -0.014403936  , -0.042749505  , -0.015183783  , -0.34907785  , -0.022317626  , -0.09034618  , 0.0021930998  , 0.14335768  , -0.034019437  , 0.22699662  , 0.22750667  , 0.09866373  , -0.07801925  , 0.040719498  , 0.061089937  , 0.10441691  , -0.053732418  , 0.17335878  , 0.1274536  , 0.051255282  , -0.056960195  , 0.016694168  , 0.0069390945  , -0.066461876  , -0.056877393  , 0.004784091  , 0.01314587  , -0.069884986  , 0.03128339  , 0.08184757  , 0.031748842  , -0.06580898  , -0.05501805  , 0.017596154  , 0.025890844  , -0.05517702  , 0.025280302  , 0.07087936  , 0.0075285286  , -0.011556682  , -0.04083737  , -0.022390636  , -0.057514  , -0.14515789  , -0.010243283  , 0.034256596  , 0.040447563  , -0.001088244  , -0.025975341  , -0.002799338  , -0.03339366  , -0.119643524  , -0.024128793  , 0.017447773  , 0.025035026  , -0.018688211  , 0.00085076207  , 0.09175131  , 0.11940006  , 0.065717846  , -0.014689202  , 0.01197722  , -0.07016077  , -0.027313918  , -0.008666042  , 0.08239391  , 0.09715255  , 0.022806427  , -0.0016277676  , 0.027815389  , -0.07250152  , -0.1085052  , -0.014780321  , -0.100025944  , -0.16128974  , -0.08481009  , 0.12205451  , 0.11009137  , -0.06989059  , -0.10433686  , -0.0066879243  , -0.082304105  , -0.14785339  , -0.0637013  , 0.14313796  , 0.13412607  , -0.084905975  , -0.054683913  , -0.07957874  , 0.008600622  , 0.034494203  , -0.017673993  , 0.013498095  , 0.04630311  , -0.014162811  , -0.050049588  , -0.08441687  , -0.004494713  , 0.0019056065  , -0.021278597  , 0.01828343  , 0.04954416  , -0.034335125 );
                        u[21] = dot(x,   0.10103875  , -0.05133927  , 0.060203385  , -0.008835977  , -0.2702543  , -0.0040878206  , -0.024010003  , -0.09982131  , 0.07809209  , 0.06488351  , 0.03709865  , 0.036733214  , 0.016615115  , 0.06457966  , -0.009557002  , -0.056491014  , 0.012883217  , -0.0193353  , 0.0132631175  , -0.09405562  , -0.24155287  , 0.06315588  , -0.19137764  , 0.18461353  , 0.03357124  , 0.03567894  , 0.112021394  , 0.03684951  , 0.18372612  , 0.028562034  , -0.21773462  , -0.19337334  , 0.026467063  , -0.040384095  , 0.06694493  , 0.028972743  , -0.00212464  , 0.13548823  , 0.057182115  , 0.08085802  , -0.008936999  , -0.046263367  , 0.022474352  , -0.03407677  , -0.026048183  , 0.19357014  , 0.1767287  , 0.21048912  , 0.037469782  , -0.048692618  , 0.06743529  , 0.05661162  , -0.04994312  , 0.05889709  , -0.10252466  , 0.15919597  , 0.04905906  , -0.047341708  , 0.08452428  , 0.07798836  , -0.028895264  , 0.044744447  , -0.12046636  , 0.09843631  , 0.02677584  , -0.0028084384  , 0.009051113  , 0.002958431  , -0.042291783  , 0.116267174  , 0.048516355  , -0.07295348  , 0.054592267  , 0.041089762  , 0.04839661  , 0.042874146  , 0.013388135  , 0.080778874  , 0.019655498  , -0.118937634  , -0.058365032  , -0.046449453  , -0.020818  , 0.007975169  , -0.041175403  , 0.104469165  , -0.06406068  , 0.13889256  , -0.015044793  , -0.05006979  , 0.009662054  , 0.01998124  , -0.06161055  , 0.08108339  , -0.08387975  , 0.1482585  , 0.008666411  , 0.12537822  , 0.028375525  , -0.043964785  , 0.05294942  , 0.113855265  , -0.048548955  , -0.19276157  , 0.030834638  , 0.1504923  , 0.02144636  , -0.071928985  , 0.030594071  , 0.073805116  , -0.08385481  , -0.11011306  , -0.039620575  , -0.08844109  , 0.009568172  , 0.03368323  , -0.026804185  , 0.095108435  , -0.067966454  , -0.13921256  , -0.024041485  , -0.08382134  , 0.012162398  , 0.013193503  , -0.022792498  , 0.0869226  , -0.0844593  , -0.12038549 );
                        u[22] = dot(x,   -0.03839055  , -0.0010703703  , -0.14996119  , -0.1540383  , 0.10535866  , 0.042370085  , 0.0028684267  , -0.083337694  , 0.102616124  , -0.13959612  , -0.025560917  , -0.06361068  , 0.10383568  , -0.12561108  , -0.16627367  , -0.09039162  , -0.057045087  , -0.08634601  , -0.042732902  , -0.018566173  , 0.033860404  , 0.11608554  , -0.045759633  , 0.2397304  , -0.041178524  , 0.02550416  , -0.09453058  , 0.023512082  , -0.046439018  , 0.0834614  , -0.12894136  , -0.15564048  , 0.100942165  , -0.0341025  , -0.116638735  , -0.14015462  , 0.004279973  , -0.026567634  , 0.11832563  , 0.14986737  , 0.1913926  , -0.019173708  , -0.008303357  , -0.032619342  , 0.066707924  , -0.16979733  , -0.07722886  , 0.05572488  , 0.018239317  , -0.017968345  , -0.083699405  , -0.040035702  , 0.03633234  , 0.078516304  , 0.042578973  , -0.08064966  , 0.02050067  , -0.018631568  , -0.077969655  , -0.03631688  , 0.05119162  , 0.07582464  , 0.027562156  , -0.1884929  , 0.043477632  , 0.108601995  , -0.07908132  , -0.117949046  , -0.04008704  , -0.061085  , -0.06850692  , -0.024408493  , 0.0060675847  , 0.09006436  , -0.11003982  , -0.1424923  , -0.07236531  , -0.031287163  , -0.05071942  , -0.018972116  , 0.05371455  , 0.038120884  , 0.007156428  , 0.053728644  , 0.10506455  , 0.03528968  , 0.023258498  , 0.228234  , 0.053531386  , 0.060812507  , 0.0013782305  , 0.038920537  , 0.1278511  , 0.031449005  , 0.027824787  , 0.28685626  , 0.11991978  , -0.1364484  , -0.059492722  , -0.06310414  , 0.009628812  , -0.05785895  , -0.041874003  , -0.07217092  , 0.11520965  , -0.18276589  , -0.029550886  , -0.016181346  , 0.060959693  , -0.052338243  , -0.03656886  , -0.043664966  , 0.06945099  , 0.09219071  , -0.018364882  , 0.016714508  , 0.10877981  , 0.054646585  , 0.042261414  , -0.08068468  , 0.07062436  , 0.09170191  , -0.024620794  , -0.00072219287  , 0.05980847  , 0.050337646  , 0.027654702  , -0.07147723 );
                        u[23] = dot(x,   0.039119817  , -0.019269746  , 0.014379034  , -0.009883034  , -0.1545292  , 0.023354527  , -0.068212844  , -0.10613283  , 0.020620339  , 0.5641914  , -0.0009859822  , -0.008463893  , -0.1318385  , 0.106897645  , -0.0032547293  , -0.009504001  , 0.0031713473  , -0.034165535  , -0.0067401277  , 0.032040767  , -0.020424979  , 0.038402695  , -0.008480375  , -0.09075993  , -0.0032639736  , -0.059606545  , 0.03223472  , -0.019161727  , 0.03311098  , 0.031724233  , 0.011265818  , 0.011399438  , -0.044754017  , -0.09091387  , -0.14416963  , -0.12514022  , -0.026778081  , -0.026943866  , -0.039740406  , 0.035735026  , 0.07750106  , -0.033648573  , -0.019533698  , -0.0077298754  , 0.03919487  , -0.1679365  , -0.16574928  , 0.10007973  , -0.02178649  , -0.031972542  , -0.012550351  , 0.017053645  , -0.03883524  , 0.09782275  , -0.0063915676  , 0.03068562  , -0.019881414  , -0.032707002  , -0.008005664  , 0.019508606  , -0.040115442  , 0.08872631  , -0.019283285  , 0.0010301418  , 0.03574631  , -0.19406578  , 0.025211953  , 0.040791467  , -0.018542256  , 0.09476112  , 0.0048854756  , -0.02300309  , 0.051975235  , -0.26616696  , 0.050786465  , 0.06660119  , 0.032067593  , 0.06030835  , -0.025667023  , -0.06347715  , 0.0071816533  , 0.055230815  , 0.028107248  , 0.050486926  , -0.021170199  , 0.086025804  , -0.008910909  , -0.05276133  , 0.024533942  , 0.065160275  , 0.030213585  , 0.051198017  , -0.0489182  , 0.056318346  , -0.029905608  , -0.067665406  , 0.011646068  , -0.20809346  , -0.029508635  , -0.00323438  , 0.029244617  , -0.09523889  , -0.13500683  , 0.06444949  , -0.0008357773  , -0.25605395  , -0.014739332  , 0.024054723  , 0.05750743  , -0.1308243  , -0.17582108  , 0.1072451  , 0.0013219533  , 0.09588916  , 0.021807339  , 0.039394412  , -0.043832082  , 0.12025628  , 0.016703524  , 0.012390463  , 0.00724603  , 0.10339192  , 0.011344981  , 0.023004195  , -0.033807814  , 0.11563349  , 0.014483877  , 0.027815748 );
                        u[24] = dot(x,   0.011567505  , -0.0076695443  , 0.060029462  , 0.07905954  , 0.023243025  , 0.050649762  , 0.064860776  , 0.059339173  , 0.121141165  , -0.20353504  , 0.15986474  , 0.088269785  , -0.36709416  , -0.058194283  , -0.105755225  , -0.064509936  , -0.12896013  , -0.10666279  , -0.08512158  , -0.08566395  , -0.04171894  , 0.12178367  , -0.026071664  , -0.11095117  , -0.11567892  , 0.07502585  , -0.056999736  , -0.027973825  , 0.09638855  , 0.08204242  , -0.0989057  , -0.28076863  , 0.030399712  , -0.008195695  , 0.019081043  , -0.044933338  , -0.028786534  , 0.025684943  , 0.16036466  , 0.2015335  , 0.03470668  , -0.019183429  , 0.033655412  , -0.01927401  , -0.016858086  , -0.029836064  , -0.040712465  , -0.01809761  , -0.045044255  , -0.021072594  , -0.044589102  , -0.060445793  , 0.009331263  , 0.0633641  , 0.035404667  , 0.11203138  , -0.047492307  , -0.020487139  , -0.04861259  , -0.06586661  , 0.0041442616  , 0.06430191  , 0.057662576  , 0.2224281  , 0.041892268  , 0.08528343  , 0.06726738  , 0.05028699  , -0.108480014  , 0.057122514  , 0.029897342  , 0.006158742  , -0.019100547  , 0.06502733  , 0.0038312504  , -0.0113147795  , -0.12635201  , 0.10842803  , 0.08148686  , 0.027324878  , 0.034105513  , 0.025388902  , 0.029674701  , -0.009275094  , 0.070659466  , -0.008276208  , -0.040873658  , -0.2747257  , 0.04407114  , 0.027596595  , 0.040902328  , -0.0038186489  , 0.12459095  , -0.015840724  , -0.06299549  , -0.35983706  , 0.027857184  , -0.005981121  , 0.049213737  , 0.009686011  , -0.0006663423  , -0.015715955  , -0.03754146  , 0.016666029  , -0.0041489573  , -0.029369425  , 0.04184443  , 0.027050486  , 0.02410375  , -0.00095232733  , -0.052045286  , 0.0124901375  , 0.046821322  , 0.0032900358  , 0.02792646  , -0.010178542  , 0.09271839  , -0.011195325  , -0.027685428  , 0.12118779  , 0.039830025  , 0.005453716  , 0.018896542  , -0.019621337  , 0.0636227  , 0.0027690923  , -0.009009739  , 0.101268575 );
                        u[25] = dot(x,   -0.060518064  , -0.13138516  , -0.085191585  , -0.043547384  , 0.32133362  , 0.013045846  , 0.10986111  , 0.18575478  , -0.08468968  , 0.35899892  , -0.12112959  , -0.137398  , -0.09235838  , -0.032375548  , -0.029477635  , 0.06294927  , 0.080345355  , 0.0367021  , 0.021125572  , -0.13864292  , -0.13212866  , -0.05041745  , -0.08486099  , 0.060069844  , 0.09254769  , 0.14053036  , 0.03124223  , 0.030009434  , 0.11885154  , -0.066906475  , -0.11526864  , -0.23067124  , 0.021852963  , -0.068149306  , 0.077842735  , 0.08811136  , -0.037142348  , 0.07660464  , 0.19343105  , 0.12282832  , 0.023535622  , -0.05952504  , 0.08754732  , 0.08331102  , -0.04336519  , 0.037940692  , 0.08078506  , -0.0789407  , 0.047955856  , -0.05622899  , 0.0003047765  , -0.046159368  , 0.04817418  , -0.06646555  , 0.03904443  , -0.049149033  , 0.052570786  , -0.05758263  , -0.0028562096  , -0.04722092  , 0.054089773  , -0.058580283  , 0.052858695  , -0.0068870536  , 0.00123564  , -0.17396119  , -0.032570526  , -0.031925928  , 0.059932552  , -0.13057908  , -0.07125859  , 0.014772825  , 0.06092578  , -0.17847236  , 0.018773623  , 0.019387595  , 0.10815281  , -0.16729744  , -0.10212494  , -0.0018960501  , 0.00039611556  , 0.0018172917  , -0.05390264  , -0.08834951  , 0.030793177  , -0.06017169  , 0.02689663  , -0.03676709  , -0.024310153  , -0.01956391  , -0.079322375  , -0.11641558  , 0.086734414  , -0.01709461  , 0.06216668  , -0.033955988  , 0.03416794  , -0.033999413  , 0.040939413  , 0.03978099  , -0.031195063  , 0.05738116  , 0.10401094  , -0.05843646  , 0.07559  , -0.0015504856  , 0.06243026  , 0.039243557  , -0.03758665  , 0.071900584  , 0.1369161  , -0.107447736  , -0.042792395  , -0.01642806  , -0.07192188  , -0.07838413  , 0.07042333  , -0.04374078  , 0.043510135  , 0.04606306  , -0.05856198  , -0.025084455  , -0.07153973  , -0.08019401  , 0.02530641  , -0.03121602  , 0.05571772  , 0.025154214 );
                        u[26] = dot(x,   -0.15699191  , -0.0102161635  , 0.0062688477  , 0.08870913  , 0.15441298  , 0.12615517  , 0.13147637  , 0.0440352  , -0.0004914792  , -0.053029347  , 0.17363831  , 0.20202436  , -0.11058007  , -0.058319207  , -0.07880808  , -0.11801452  , 0.05324707  , 0.12898862  , 0.18311873  , 0.010341505  , -0.105544604  , -0.055974763  , -0.03209707  , 0.064289734  , 0.07453456  , 0.007841176  , 0.15585753  , 0.046279456  , -0.0009263778  , -0.024842655  , 0.055138905  , 0.1565651  , -0.115127936  , -0.041558463  , 0.006393122  , -0.055903666  , 0.047734287  , 0.10550657  , -0.04149661  , -0.08380273  , -0.02064897  , 0.028341416  , 0.12252697  , 0.030591434  , 0.095684856  , 0.024958847  , -0.06872858  , -0.04357415  , -0.11377477  , 0.030942954  , 0.0026828796  , -0.07836057  , 0.06494355  , 0.059260823  , -0.08408517  , -0.038402744  , -0.08873045  , 0.030185213  , 0.019352688  , -0.08143955  , 0.069898196  , 0.05753892  , -0.06687359  , -0.02014831  , -0.115671836  , 0.06655081  , 0.035348225  , 0.07272158  , -0.114549145  , 0.07548299  , 0.044875722  , 0.010008272  , -0.055268206  , 0.08140785  , 0.110880226  , 0.15271568  , -0.0022925779  , 0.0162419  , 0.0055167763  , -0.029491672  , -0.123673305  , 0.027986445  , -0.002850205  , -0.011421666  , 0.10093478  , -0.0066548814  , -0.109240115  , 0.10331303  , -0.06750019  , 0.03164749  , 0.044943806  , 0.00066519354  , 0.17213051  , -0.024203653  , -0.13583012  , 0.104037225  , -0.015050782  , -0.1767671  , 0.08218604  , -0.10575676  , -0.10902749  , 0.06154345  , 0.029833952  , 0.062072165  , 0.09756931  , -0.11563418  , 0.21499899  , -0.0017313331  , -0.017196016  , -0.020524172  , -0.06312604  , 0.094458774  , -0.18036276  , 0.028485887  , -0.0739286  , -0.14919421  , -0.033458814  , 0.053452898  , -0.04465799  , -0.09413026  , -0.18809873  , 0.019574642  , -0.09086367  , -0.15916406  , -0.10263799  , 0.070722796  , -0.04331357  , -0.06215929 );
                        u[27] = dot(x,   -0.096338  , 0.020984229  , 0.116494186  , 0.12547356  , -0.16344705  , -0.009291485  , 0.037523642  , -0.12021255  , -0.17793778  , -0.004492791  , 0.054580357  , 0.1097381  , -0.008035117  , 0.04511432  , 0.032642804  , -0.06811533  , -0.072594464  , -0.1015955  , 0.023001174  , 0.0018899485  , -0.077632464  , -0.0993561  , -0.017578196  , 0.19777991  , -0.06424881  , 0.03983928  , 0.073002405  , -0.01641885  , 0.058460448  , -0.13075905  , -0.06386518  , -0.21473718  , -0.10496449  , -0.006347026  , -0.065589935  , -0.11645217  , -0.023966417  , -0.07371307  , 0.16451344  , 0.11392495  , -0.03568841  , -0.033990197  , 0.0038539213  , -0.047406446  , 0.013785963  , -0.18480566  , 0.007663787  , -0.06565752  , -0.069847584  , -0.03435231  , 0.054665625  , 0.003391984  , -0.09416932  , -0.10824323  , 0.15966095  , -0.16031995  , -0.064830855  , -0.03435727  , 0.051924195  , -0.0048967223  , -0.109714344  , -0.10950382  , 0.1455461  , -0.17314011  , -0.1497015  , 0.0390982  , 0.081351705  , 0.1397898  , 0.08299701  , 0.036550336  , 0.09745635  , -0.046900716  , -0.15814348  , 0.018415801  , 0.07839778  , 0.1300969  , 0.10001411  , 0.043589547  , 0.10232047  , -0.053583406  , -0.047833223  , -0.042939767  , 0.07581993  , 0.06049205  , -0.030288303  , -0.09578004  , 0.15329865  , 0.07813319  , 0.018468661  , 0.01470361  , 0.12606505  , 0.09207332  , -0.04496068  , -0.15415134  , 0.10593864  , 0.04298413  , -0.06180085  , 0.036390014  , 0.022556562  , -0.019073658  , 0.034554727  , -0.14484262  , 0.07094686  , 0.003969469  , -0.06732925  , 0.013715311  , 0.021018995  , -0.0022816092  , 0.061746154  , -0.10646065  , 0.13645847  , -0.099003635  , -0.07347892  , -0.004181321  , 0.05119798  , 0.008314458  , -0.10927194  , -0.09961205  , 0.11928447  , 0.05221935  , -0.051171415  , 0.01481664  , 0.061845887  , 0.010397157  , -0.06320121  , -0.1140644  , 0.11911676  , 0.01582807 );
                        u[28] = dot(x,   0.10471457  , 0.07788734  , 0.08081112  , 0.07432757  , -0.02605571  , -0.016180819  , 0.057808544  , 0.07032519  , -0.061308816  , 0.013147511  , -0.112041496  , -0.090282016  , 0.08307797  , 0.16656744  , 0.1480822  , -0.027537277  , -0.015465286  , -0.17895648  , 0.04659784  , -0.021478869  , 0.019078178  , 0.008829346  , -0.12245296  , 0.038042843  , -0.01831932  , -0.18887067  , -0.0390026  , 0.06466692  , -0.0691434  , 0.07510098  , -0.004700862  , 0.07014952  , 0.0896734  , 0.093822956  , -0.11879458  , -0.19976734  , -0.071016684  , 0.107440636  , 0.06016804  , -0.071348146  , 0.25315148  , -0.0015890831  , 0.06772346  , 0.002299159  , 0.031016488  , -0.08588789  , -0.1039663  , -0.20345652  , -0.034296397  , -0.0023592666  , -0.040962238  , -0.030280707  , -0.010428176  , 0.026860124  , 0.024822013  , -0.020319628  , -0.03365963  , -0.0028720899  , -0.052076958  , -0.04736486  , -0.026051018  , 0.051994525  , 0.11129813  , 0.22762097  , 0.043406505  , -0.059762683  , 0.033035014  , 0.037226014  , -0.18599366  , 0.04192477  , 0.025691526  , -0.044410598  , 0.08629912  , -0.101588815  , 0.08509394  , 0.08972996  , -0.08569782  , -0.0030094334  , 0.011888971  , -0.069101065  , 0.008220136  , -0.07797626  , 0.0043140007  , -0.004680298  , -0.007857595  , -0.051226858  , -0.042464633  , 0.0065696514  , 0.053403843  , 0.0048152264  , 0.029059764  , 0.025170641  , 0.027111433  , -0.049313214  , -0.054232325  , 0.0029310922  , 0.14596507  , 0.1665978  , 0.057401467  , 0.0458327  , 0.016146585  , 0.092244126  , 0.17792352  , 0.070804745  , 0.10367455  , 0.04376298  , 0.039783817  , 0.05527828  , 0.04102143  , 0.19442922  , 0.25861305  , 0.08626905  , 0.008040465  , 0.06391799  , 0.012072473  , 0.026935175  , 0.02915823  , -0.069365926  , -0.077272594  , -0.19835646  , -0.0026157496  , 0.08523276  , -0.0019777527  , 0.02030067  , 0.0155001925  , -0.047688905  , -0.05931753  , -0.2280362 );
                        u[29] = dot(x,   0.048558783  , -0.018310247  , 0.059618164  , 0.07029316  , -0.029754413  , 0.009895298  , 0.018316723  , -0.035174556  , 0.035558775  , -0.0035710402  , -0.0021818741  , -0.0038637451  , -0.11992254  , 0.07284001  , 0.07563777  , -0.049158882  , -0.04612763  , -0.061309025  , -0.033469014  , -0.059647806  , 0.03777525  , 0.02599985  , -0.16712171  , -0.17770644  , -0.048502862  , -0.018027984  , -0.07028053  , -0.0086247865  , 0.0134020625  , 0.0577191  , -0.018419614  , 0.03629775  , 0.08335016  , 0.00665662  , 0.05775389  , 0.022016197  , 0.078134164  , 0.013270157  , 0.08817499  , 0.09263269  , 0.059775315  , -0.02811139  , 0.058714632  , 0.031111041  , 0.09363733  , -0.014447817  , -0.14073513  , -0.28163338  , 0.099311076  , -0.0262371  , 0.08720361  , 0.059098717  , 0.13544272  , -0.06121372  , -0.10920413  , -0.008727891  , 0.09807797  , -0.026966758  , 0.084359474  , 0.060929846  , 0.1376981  , -0.06537444  , -0.20672594  , -0.36771655  , 0.03794355  , -0.008135255  , 0.042090356  , 0.037535563  , -0.11584919  , 0.07387819  , 0.030991884  , -0.12630002  , 0.007989771  , 0.023646526  , 0.039149128  , 0.039584253  , -0.07736151  , 0.083957456  , 0.043524235  , -0.19684787  , -0.07874908  , -0.046747938  , -0.099498495  , -0.09350004  , -0.08864616  , 0.06039921  , 0.006933585  , 0.10978756  , -0.066815354  , -0.029400026  , -0.08303195  , -0.06581635  , -0.04131696  , 0.05308445  , -0.0028702377  , 0.16543756  , 0.010723871  , 0.06856845  , -0.012223818  , -0.06314564  , -0.07761412  , 0.04954012  , 0.04162073  , 0.10496732  , -0.039384384  , 0.014668814  , -0.058559105  , -0.090671256  , -0.095090896  , 0.09060221  , 0.057286777  , 0.080435194  , 0.0010217177  , 0.020021593  , 0.015086525  , 0.017400825  , 0.0629025  , 0.023507642  , 0.010983381  , 0.1697098  , 0.008709524  , 0.02108968  , 0.020478375  , 0.0068550794  , 0.042261805  , 0.015094609  , 0.025803018  , 0.3715693 );
                        u[30] = dot(x,   0.039432444  , 0.14609735  , 0.08599125  , 0.07767173  , -0.1278886  , -0.07761255  , 0.04216308  , -0.019900383  , -0.036798008  , -0.02285239  , -0.03370177  , -0.029311646  , -0.070666656  , 0.005127165  , 0.22606246  , 0.08075366  , 0.009832033  , 0.12045852  , 0.079625584  , 0.026868396  , 0.002887718  , -0.021535808  , -0.0184609  , -0.29602978  , 0.010536511  , -0.058377426  , -0.0059806793  , 0.071718  , -0.061437037  , -0.008685121  , -0.0041441596  , -0.039661106  , 0.1605053  , -0.058792245  , 0.19120444  , -0.041338988  , -0.02269079  , -0.17023806  , -0.072440565  , -0.0017078341  , -0.026663188  , 0.00783201  , -0.017134849  , -0.1747726  , -0.08544595  , 0.053805556  , 0.15577431  , 0.12560861  , 0.016739521  , 0.006665904  , -0.0023913423  , -0.10800426  , 0.012051728  , -0.059948757  , -0.019598331  , -0.06183354  , 0.01414521  , 0.007047704  , -0.025458608  , -0.15014255  , -0.025361301  , -0.048330963  , 0.05219893  , 0.13268353  , 0.05375013  , -0.001601645  , 0.11181235  , 0.09104508  , -0.003002274  , -0.102669194  , 0.013475393  , -0.13068746  , -0.061829645  , -0.08446232  , -0.026343558  , -0.059177283  , -0.13313203  , 0.01576216  , 0.08513659  , -0.14296502  , -0.066985615  , 0.13342726  , -0.070076734  , -0.042383857  , 0.10853947  , 0.039750867  , 0.10354206  , 0.15607165  , -0.085483536  , 0.019530717  , -0.046554156  , -0.0103019485  , 0.24031925  , 0.043733127  , 0.099214986  , 0.14983816  , 0.06059217  , -0.14950022  , 0.11909703  , -0.040044677  , 0.06514398  , -0.069524236  , -0.03637688  , -0.15511024  , -0.03867921  , -0.20322397  , 0.019792547  , -0.042503256  , 0.09125232  , 0.037198693  , 0.06425239  , -0.13733047  , 0.006091364  , 0.0325622  , -0.005588422  , -0.119999215  , 0.047139723  , -0.05747986  , -0.011263402  , 0.092821375  , -0.009500342  , 0.041034307  , 0.015757442  , -0.07427072  , 0.07102883  , -0.059271496  , -0.048097245  , -0.061139036 );
                        u[31] = dot(x,   0.16329092  , 0.00034983127  , 0.06743605  , 0.07923214  , 0.07598385  , 0.03794888  , 0.3471975  , 0.15829274  , 0.14854932  , -0.0025251403  , 0.023982897  , 0.08004636  , 0.10189397  , 0.0087408405  , -0.017301334  , -0.17771263  , 0.012676139  , 0.024178606  , 0.07777241  , -0.04781413  , 0.014648354  , -0.06594606  , 0.06813312  , 0.099567905  , -0.01562305  , -0.12940855  , -0.018922117  , 0.11067491  , -0.051399402  , -0.061878037  , 0.014212639  , -0.0015411985  , -0.09366697  , -0.06840875  , -0.14570835  , 0.06785051  , -0.032251514  , -0.061760027  , -0.038170807  , -0.039268248  , -0.04641491  , 0.021389857  , -0.081741944  , 0.07898228  , -0.03002999  , -0.05887318  , 0.10836626  , 0.14895155  , 0.06680548  , 0.02344798  , 0.00055109366  , 0.067548685  , 0.055220824  , -0.10240605  , 0.09473593  , 0.06977068  , 0.06918832  , 0.02278368  , 0.022395324  , 0.1186325  , 0.1261387  , -0.12554148  , 0.03141997  , -0.0059002056  , 0.06307917  , -0.026689194  , -0.040036406  , -0.044781897  , -0.28040507  , 0.085771434  , 0.097636536  , -0.057580926  , 0.10651317  , 0.017198753  , 0.037008688  , 0.0401918  , -0.13249962  , 0.018409623  , 0.07712008  , -0.1571908  , -0.08698306  , 0.011486123  , -0.12034862  , -0.11024627  , -0.10524351  , 0.009743042  , 0.12320513  , -0.07187696  , -0.047835264  , 0.008128553  , -0.11387506  , -0.10764491  , -0.054040395  , -0.024977239  , 0.111971535  , -0.09143367  , -0.02102509  , -0.026600035  , -0.10101757  , 0.05555853  , 0.043967567  , -0.16488238  , -0.056185734  , -0.011310234  , 0.029728081  , 0.012279462  , -0.10256684  , -0.005207157  , -0.031671498  , -0.22833887  , -0.05692847  , -0.08870931  , -0.04482508  , 0.036184408  , -0.10465644  , 0.030337384  , 0.13123375  , -0.030645868  , 0.0491376  , -0.07775545  , 0.00812455  , 0.059804972  , -0.09088487  , 0.0074668126  , 0.04871605  , -0.05399168  , 0.07726547  , -0.09001824 );
                        u[32] = dot(x,   -0.14705168  , -0.06367332  , 0.043932218  , 0.15102227  , 0.03353667  , -0.08944126  , 0.034493286  , 0.27976593  , -0.24189813  , 0.017671376  , -0.06784773  , 0.05653089  , 0.0733896  , -0.023297248  , -0.01712499  , 0.055568278  , -0.0750681  , -0.06835464  , 0.020594634  , -0.10598533  , 0.10322106  , 0.24913652  , 0.19579886  , -0.0404762  , 0.009553284  , 0.17718375  , -0.030876841  , 0.028750222  , -0.088362545  , 0.20325157  , 0.039693996  , -0.044347722  , -0.06243045  , 0.01464093  , -0.06723309  , -0.0816372  , 0.030459024  , 0.053232465  , -0.046052568  , -0.043554734  , 0.004546858  , 0.012051491  , 0.00108591  , -0.045098756  , 0.05885522  , -0.0012642345  , -0.01510197  , 0.113362715  , 0.08947434  , 0.010292349  , 0.13889799  , -0.024372146  , -0.064588316  , 0.022793982  , -0.0054679485  , 0.06381892  , 0.109646186  , 0.011379925  , 0.15878393  , 0.003830109  , -0.034283012  , 0.007532102  , -0.047531698  , -0.01804799  , -0.2230942  , -0.034911055  , -0.05005815  , 0.012413046  , -0.24968444  , -0.08121122  , -0.10977825  , -0.03733535  , -0.10976178  , 0.027539412  , 0.061903533  , 0.12009508  , -0.04977276  , -0.17394531  , -0.17996539  , -0.20061298  , 0.029713864  , 0.0053410684  , 0.08117801  , -0.024663648  , -0.008982347  , 0.08897462  , 0.06406323  , -0.011720222  , 0.12622978  , 0.07774335  , 0.13294007  , -0.0066224313  , 0.0047401516  , 0.037090994  , 0.021269241  , 0.016905194  , -0.02812486  , -0.011456931  , 0.0043866048  , -0.0569492  , 0.051981702  , 0.0098941885  , -0.090467006  , -0.074859515  , -0.010946619  , 0.001068037  , 0.00024124133  , -0.109958544  , 0.00064222765  , 0.032250218  , -0.03772856  , -0.0061645587  , 0.06616702  , -0.081512354  , 0.13579145  , -0.010384347  , -0.0079794545  , 0.0044475025  , -0.053127013  , 0.019780958  , 0.090161204  , -0.08716058  , 0.14293802  , -0.019015037  , -0.03931135  , -0.011446715  , -0.058717996  , -0.0052287644 );
                        u[33] = dot(x,   -0.018038135  , 0.18284628  , -0.1372506  , -0.16666909  , 0.20535302  , 0.07742351  , -0.063167155  , -0.15162173  , 0.046345502  , -0.03596985  , -0.04071117  , -0.096327566  , 0.068611935  , 0.08733579  , 0.08802449  , 0.07367672  , -0.12033111  , -0.13587645  , 0.1546214  , -0.076522864  , -0.044175636  , -0.0034655281  , 0.013514949  , 0.11279572  , -0.15023285  , -0.23839724  , 0.021478862  , 0.077681206  , -0.025286794  , 0.010426941  , 0.011879117  , -0.012327924  , -0.07911095  , -0.01815586  , 0.11347685  , -0.027645214  , 0.011052566  , 0.09667227  , -0.03222128  , -0.11065825  , -0.06064814  , -0.010199622  , 0.11543953  , -0.033434875  , 0.018162504  , 0.11476594  , 0.13006851  , 0.15347385  , -0.04624085  , -0.008827892  , 0.080609374  , -0.053790055  , -0.12844297  , -0.02915502  , 0.06667833  , 0.17017269  , -0.05925656  , -0.010145302  , 0.07181915  , -0.054544613  , -0.121747024  , -0.030467035  , -0.033812895  , -0.2503795  , 0.1275475  , 0.005012282  , 0.040429994  , -0.0010472094  , -0.11159246  , -0.01103895  , -0.040511288  , 0.01112376  , 0.16209215  , -0.11798444  , 0.045212645  , -0.0033063567  , -0.1328691  , -0.046118964  , -0.06769394  , 0.02372635  , -0.05272173  , 0.051084146  , 0.10652033  , 0.027272183  , 0.016688375  , -0.052725594  , -0.0065597096  , -0.1019599  , -0.04225613  , -0.013569961  , 0.098261215  , -0.0028959338  , 0.029123364  , -0.073600024  , -0.013800406  , -0.124866426  , 0.0046142554  , 0.046466853  , 0.06644086  , -0.1194467  , -0.0059231273  , 0.02933748  , -0.009100581  , -0.037719943  , 0.05946316  , 0.039281283  , 0.14203173  , -0.07181074  , 0.03422138  , -0.03553035  , -0.035641093  , -0.07102549  , -0.022548543  , 0.15381658  , 0.11349603  , -0.03272071  , -0.033973273  , -0.030554509  , 0.0125394175  , 0.097064726  , 0.011431487  , 0.17381789  , 0.13218589  , -0.026775941  , -0.08531308  , -0.050632693  , 0.012544876  , 0.19069499 );
                        u[34] = dot(x,   -0.06693571  , -0.12759005  , -0.11071429  , -0.07789053  , 0.17584959  , 0.07928775  , -0.106195115  , -0.14322765  , 0.049844474  , 0.021409491  , 0.0064536827  , -0.0025964233  , -0.12496005  , 0.08490401  , 0.019663956  , -0.045158483  , 0.059439998  , 0.023212425  , 0.1426093  , -0.08290131  , -0.034211718  , -0.002801529  , -0.057329465  , -0.15075997  , 0.0026958445  , -0.09747222  , 0.04852097  , -0.03039743  , 0.045261033  , 0.018440407  , -0.0015357888  , -0.04598606  , -0.14569744  , 0.08451365  , 0.04981224  , 0.07399848  , 0.021743225  , -0.058869794  , 0.029948339  , 0.09498092  , -0.18612891  , 0.0028832273  , 0.0027235486  , 0.046856638  , 0.019248718  , -0.06268274  , -0.08784194  , -0.060135398  , -0.007709435  , -0.0004935098  , 0.09168386  , -0.022936786  , 0.023124453  , 0.042648427  , 0.019629797  , -0.23747033  , -0.035602584  , 0.0005748764  , 0.06069133  , -0.04311621  , -0.011320809  , 0.06301618  , 0.1395078  , 0.20592687  , 0.12868738  , 0.023271197  , 0.056453973  , 0.017029949  , -0.19494514  , 0.0067615667  , -0.039163973  , -0.030510936  , 0.13232026  , 0.050065834  , 0.042755667  , 0.011246184  , -0.21922174  , -0.013127503  , -0.051910102  , 0.01515627  , 0.17036618  , -0.00700768  , 0.15558052  , -0.07594587  , -0.058841173  , -0.019739958  , 0.03779808  , 0.19923864  , 0.039124824  , -0.0327641  , 0.0631467  , -0.12627149  , -0.08954537  , 0.04886279  , 0.094347626  , 0.18121521  , -0.19875526  , 0.08335781  , -0.007916733  , 0.0737768  , -0.03871242  , -0.033922326  , 0.0014405859  , 0.037052326  , -0.23459676  , 0.07217392  , -0.035773247  , 0.031051192  , -0.089487344  , -0.10328143  , -0.06932177  , 0.0082308985  , 0.10297029  , -0.032261584  , 0.13946114  , -0.029155444  , 0.027139956  , 0.01003315  , 0.030692315  , -0.02422501  , 0.041864555  , -0.061301656  , 0.113487564  , -0.029042497  , -0.00992097  , 0.050299283  , 0.03537899  , -0.17879781 );
                        u[35] = dot(x,   -0.05006852  , -0.061726466  , -0.10941877  , -0.15134282  , -0.117576845  , -0.04135118  , -0.18133381  , -0.24886924  , 0.020670053  , 0.0156210195  , -0.0065291002  , -0.03339216  , 0.054204807  , 0.047381192  , 0.14370263  , 0.04176644  , -0.18646483  , -0.116565354  , -0.09836573  , -0.089491785  , 0.13107398  , 0.10635042  , 0.06660354  , 0.0062548467  , -0.10418347  , 0.23221904  , -0.10688691  , 0.017096294  , -0.056325745  , 0.04484037  , -0.016518615  , 0.02180652  , -0.013408095  , -0.13156167  , 0.021259358  , 0.08410813  , 0.1503325  , 0.027457766  , 0.049457416  , -0.01958445  , -0.047139768  , -0.00519243  , -0.020119168  , 0.0047987993  , 0.11731124  , 0.09345174  , 0.13696484  , -0.14227621  , 0.06587107  , -0.0043967706  , 0.036200427  , 0.0058520855  , 0.11462269  , -0.09968043  , -0.045834508  , -0.11230225  , 0.07342976  , -0.004556645  , 0.04863435  , 0.028633293  , 0.14712928  , -0.10828043  , 0.018332692  , 0.21696205  , -0.0055640424  , -0.036050286  , -0.00139837  , 0.025915245  , -0.076145485  , 0.06400487  , 0.11497718  , 0.07483291  , 0.096644275  , 0.014219001  , 0.11827793  , 0.14494717  , 0.09170978  , -0.042857125  , 0.0111370515  , 0.14076447  , -0.12618501  , 0.0864633  , -0.06757667  , -0.066127  , -0.030460706  , 0.02380261  , 0.08501432  , 0.09831792  , 0.011598803  , 0.027581548  , 0.031161  , 0.006572894  , 0.072308734  , -0.09274504  , -0.039103493  , -0.12246844  , 0.11716125  , -0.09795758  , 0.0041034934  , -0.11774134  , -0.105607055  , -0.0960013  , 0.031238535  , 0.09018887  , 0.18437898  , -0.012366564  , 0.044941463  , -0.123243615  , -0.10253913  , -0.1719278  , -0.022510657  , 0.019912355  , -0.05152607  , -0.012375244  , -0.05791881  , -0.018942205  , 0.04244671  , -0.026485844  , 0.015241507  , -0.010340486  , 0.018446885  , -0.0059468793  , -0.030157087  , -0.02563497  , 0.015692992  , -0.07411369  , -0.032551017  , -0.15430634 );
                        u[36] = dot(x,   -0.20901126  , -0.2872478  , -0.07181937  , -0.045952164  , -0.15508123  , 0.03172046  , -0.15383126  , -0.30190566  , -0.07502628  , 0.047301583  , 0.0659054  , 0.1435709  , 0.026230704  , 0.048248127  , 0.014271051  , 0.016158024  , 0.15105565  , 0.03607681  , -0.0145634655  , -0.016865127  , 0.08672523  , -0.05441232  , 0.092497654  , 0.004860462  , 0.11667524  , -0.15995373  , -0.06448627  , 0.0053036413  , -0.040129613  , -0.034172412  , 0.00014505499  , -0.028187126  , 0.0077634505  , 0.12634906  , -0.09725642  , -0.031956088  , -0.09836906  , 0.051610336  , 0.00052426814  , -0.040843964  , 0.07859426  , 0.07160338  , 0.0039104186  , 0.06480464  , -0.07025024  , -0.013183681  , 0.02219263  , 0.1604921  , 0.04188447  , 0.072395556  , -0.112377204  , -0.11976749  , 0.027330065  , 0.00455708  , 0.036438268  , 0.100453496  , 0.035196  , 0.07144615  , -0.11728708  , -0.11212711  , 0.054606352  , 0.0048803957  , 0.007910028  , -0.08693124  , -0.12154785  , -0.050631966  , 0.039918598  , 0.063694336  , -0.19376695  , 0.06740329  , 0.0843776  , 0.07720997  , -0.027770488  , 0.08503677  , 0.14629614  , 0.18082343  , 0.051094066  , -0.037045714  , -0.031348705  , 0.0625847  , 0.07317084  , -0.073670514  , -0.07305264  , -0.0647283  , 0.11477443  , -0.062397905  , -0.040524557  , -0.054842174  , 0.026028542  , -0.044318087  , -0.13280344  , -0.1195554  , 0.13998044  , -0.0012916304  , 0.03290312  , 0.018348044  , -0.004347717  , 0.09513113  , -0.038402617  , 0.09384114  , 0.06714369  , 0.05901875  , -0.015683262  , -0.12289581  , 0.0011495511  , 0.035742056  , -0.04689856  , 0.06908143  , 0.033128038  , 0.07208302  , 0.026041852  , -0.10578132  , 0.07126916  , 0.03675897  , -0.05462316  , -0.042732786  , 0.17125228  , -0.053574096  , -0.034040205  , 0.10345974  , 0.053517703  , 0.027324837  , -0.057679307  , -0.026558269  , 0.13453755  , -0.040749438  , -0.030842215  , 0.15287691 );
                        u[37] = dot(x,   -0.10905172  , 0.31859177  , -0.02215423  , 0.023365473  , -0.026409315  , -0.011912308  , -0.10223599  , 0.055358004  , -0.13257341  , -0.07924551  , 0.0038649724  , 0.083711304  , -0.074957885  , -0.057229754  , -0.31815434  , 0.10242416  , 0.07001942  , 0.0999947  , 0.031033082  , 0.05021456  , -0.02395435  , -0.018395953  , 0.025788328  , -0.024206948  , -0.02728365  , -0.4802636  , 0.04080256  , -0.1103401  , 0.053132992  , -0.018834673  , 0.025289945  , -0.12802106  , 0.00041696787  , -0.07598952  , -0.037073787  , 0.11314659  , 0.08313764  , 0.050907504  , 0.06974384  , 0.05593845  , 0.018670952  , -0.08413742  , -0.024824347  , 0.092721805  , 0.07217153  , 0.018488454  , 0.01210486  , -0.03388009  , 0.096789606  , -0.08022164  , 0.009266682  , 0.020384185  , 0.033457357  , -0.0327419  , -0.067303516  , -0.08868783  , 0.09007228  , -0.08207328  , 0.0034003532  , 0.03126188  , 0.048253186  , -0.036223903  , -0.03142697  , 0.123844415  , -0.120577686  , -0.03843598  , -0.019646753  , 0.03939716  , -0.035801224  , -0.012447623  , -0.06450593  , 0.09444867  , -0.12801318  , -0.12178169  , -0.011990171  , 0.048163876  , 0.10506452  , -0.0021129146  , -0.05882417  , 0.050469246  , -0.0830684  , 0.009663199  , -0.06731717  , -0.03185277  , -0.041814838  , 0.14748152  , 0.12763707  , 0.114709154  , 0.010476548  , 0.021895638  , -0.01385982  , 0.038116843  , 0.06101604  , 0.045348585  , 0.02187169  , -0.07992212  , 0.053069137  , 0.11893448  , -0.08037603  , -0.050193712  , -0.07357899  , 0.006332378  , -0.034265097  , -0.03142931  , 0.018606389  , 0.07649098  , -0.099860385  , -0.068443745  , -0.08054153  , 0.026919993  , -0.008929834  , 0.023129374  , 0.006478621  , 0.12642877  , -0.03506219  , 0.002197469  , -0.01471631  , 0.08150306  , 0.022834565  , 0.06944044  , 0.08965833  , 0.16926856  , 0.0120939575  , 0.016571572  , 0.013227981  , 0.0138712  , -0.044233155  , -0.10675743 );
                        u[38] = dot(x,   -0.10054544  , -0.11107915  , -0.061586246  , -0.0062015257  , 0.27242926  , 0.11210251  , 0.18921386  , -0.21983959  , 0.060059432  , -0.00044791968  , 0.060704008  , 0.08936379  , -0.17661744  , -0.11684083  , 0.14046699  , 0.020169191  , -0.051115356  , -0.12169429  , -0.012351995  , 0.030221881  , -0.08130209  , 0.017326621  , 0.07293547  , -0.25299594  , -0.0003811507  , 0.062486064  , 0.011450113  , 0.12356592  , -0.034214523  , -0.0023018261  , 0.024299012  , 0.015194008  , 0.02719519  , 0.025611512  , -0.13445586  , -0.027717138  , -0.016020775  , 0.05999133  , -0.024601325  , -0.116772905  , 0.1524944  , -0.0012974093  , 0.028036848  , 0.105036914  , 0.054855473  , -0.045219775  , 0.022659166  , 0.19947827  , 0.020808436  , 0.0023299376  , -0.023119684  , 0.09876237  , -0.059234235  , -0.041750792  , -0.05446655  , -0.051957052  , 0.030802384  , 0.0007998907  , 0.0015817211  , 0.13596182  , -0.027083  , -0.058678906  , -0.025338324  , 0.08808692  , 0.016746582  , 0.021428276  , 0.017994156  , 0.01712918  , 0.054367386  , -0.102725446  , -0.005043156  , -0.08507614  , -0.06780473  , 0.02163889  , -0.023699712  , -0.02133749  , -0.0009154033  , -0.0156512  , 0.051813573  , 0.032636244  , -0.055462528  , -0.10616592  , 0.0033267222  , 0.14312112  , -0.15403853  , 0.00936384  , 0.020388983  , 0.16943058  , 0.043323923  , 0.03645554  , 0.036175687  , 0.12954904  , -0.20836778  , -0.06667592  , -0.03845445  , -0.026408654  , 0.0760076  , 0.069847  , -0.05881225  , 0.013093338  , 0.004205286  , 0.0518034  , -0.038531784  , -0.196224  , 0.057172313  , -0.009691423  , -0.06598145  , -0.0012228208  , -0.031231442  , 0.14248979  , 0.10281821  , -0.03304844  , -0.082221426  , 0.023179574  , -0.10248602  , 0.082899384  , -0.07681505  , 0.057030153  , 0.030799955  , 0.27137196  , -0.011956147  , 0.069003075  , -0.0652576  , 0.07483684  , -0.070679165  , 0.00069779373  , -0.07791245  , -0.104285166 );
                        u[39] = dot(x,   0.13673839  , 0.16383097  , 0.031763285  , -0.027841266  , 0.0031144181  , -0.012823322  , 0.21369733  , -0.0703161  , 0.05764594  , 0.008938386  , -0.044738848  , -0.07181488  , -0.07018317  , -0.08898405  , -0.09405992  , -0.1356546  , -0.058119614  , -0.009164245  , -0.048716314  , -0.01957487  , 0.026977643  , -0.010667519  , -0.032039296  , -0.19756728  , -0.08309709  , 0.04111506  , -0.050958764  , -0.038266893  , 0.028490243  , 0.021875542  , 0.015007963  , 0.03936607  , 0.023014277  , -0.01985034  , 0.043704096  , -0.01871383  , -0.04482497  , 0.0017726821  , -0.03216115  , -0.041771397  , -0.032404035  , -0.016436778  , 0.004952582  , -0.0025138615  , -0.022175279  , 0.06367637  , 0.038140927  , 0.0089811515  , -0.05132381  , -0.016765604  , -0.022767406  , -0.021888465  , -0.03369666  , 0.019272467  , 0.011138305  , -0.06736542  , -0.06674469  , -0.016678797  , -0.047904205  , -0.058028806  , -0.09321125  , 0.03305097  , 0.058096085  , -0.0030821818  , -0.047656566  , -0.023809426  , -0.1186449  , -0.13428691  , -0.37520275  , 0.047366586  , 0.10225307  , 0.14682993  , 0.050302025  , -0.017825602  , -0.019722138  , -0.001400074  , 0.62236345  , -0.03290781  , 0.039845  , -0.07927446  , 0.09870605  , 0.031783856  , 0.092345156  , 0.026608806  , 0.060414027  , -0.08775948  , -0.05416536  , 0.1082356  , -0.03213553  , -0.06370579  , 0.015296506  , 0.0009055606  , -0.015167602  , -0.01889473  , -0.006097218  , 0.12471615  , -0.022805955  , -0.014359131  , -0.008580129  , -0.008488425  , -0.016519122  , 0.04291252  , 0.031073494  , 0.0057920762  , -0.00027104485  , 0.07071989  , 0.032676753  , 0.07695774  , 0.05587815  , -0.022505643  , -0.06576933  , -0.059096314  , 0.063809305  , 0.0014127824  , 0.077859454  , 0.019462688  , -0.022429155  , -0.057124525  , -0.02400274  , 0.10355859  , 0.027233852  , -0.020424163  , 0.05410323  , 0.021809421  , 0.01037331  , -0.03952713  , -0.035751596  , 0.042708095 );
                        memcpy(dest != NULL ? dest : x, u, sizeof(float) * 40);
                    }

                protected:
                    /**
                    * Compute dot product with varargs
                    */
                    float dot(float *x, ...) {
                        va_list w;
                        va_start(w, 128);
                        static float mean[] = {  1.0613e-08 , 3.08e-09 , -1.6323e-08 , 6.098e-09 , 2.3375e-08 , -6.047e-09 , 8.415e-09 , -1.0873e-08 , -7.874e-09 , 2.3217e-08 , 4.127e-09 , -3.854e-09 , -1.1425e-08 , 2.057e-09 , -1.612e-09 , 7.579e-09 , -8.859e-09 , -3.131e-09 , 5.978e-09 , 2.7049e-08 , 7.236e-09 , -6.138e-09 , 1.677e-09 , -1.3578e-08 , -1.387e-09 , 1.5935e-08 , 4.874e-09 , 1.9275e-08 , -1.2537e-08 , 7.456e-09 , 6.561e-09 , -5.963e-09 , 2.28e-10 , -8.452e-09 , -3.232e-09 , 1.3766e-08 , -5.802e-09 , 4.325e-09 , 2.2137e-08 , -7.31e-10 , 8.94e-09 , 1.4598e-08 , 2.303e-09 , -4.826e-09 , 1.3227e-08 , -2.28e-10 , 4.323e-09 , 1.318e-09 , -2.5608e-08 , -3.532e-09 , 2.673e-09 , -1.958e-09 , 1.505e-09 , 1.0375e-08 , -4.93e-10 , 2.0557e-08 , -1.5614e-08 , -8.988e-09 , 1.5474e-08 , -1.0137e-08 , -9.293e-09 , -5.394e-09 , 8.52e-10 , 9.62e-09 , 8.223e-09 , -1.0766e-08 , -5.449e-09 , 6.505e-09 , 3.756e-09 , 8.533e-09 , -1.37e-10 , -6.235e-09 , 9.049e-09 , 1.3541e-08 , -1.093e-09 , 6.697e-09 , -1.6361e-08 , 1.0529e-08 , -2.895e-09 , 2.7991e-08 , 6.149e-09 , -3.077e-09 , 7.451e-09 , 1.7968e-08 , -6.21e-10 , -8.254e-09 , -7.39e-10 , 1.5624e-08 , 1.6524e-08 , -1.1778e-08 , 7.611e-09 , 1.5597e-08 , 9.592e-09 , -1.462e-09 , -1.0873e-08 , 2.2454e-08 , 4.826e-09 , -2.2e-09 , -1.7317e-08 , -2.57e-09 , 1.3514e-08 , -8.822e-09 , -1.6862e-08 , -1.1187e-08 , 1.0873e-08 , 1.026e-09 , -5.881e-09 , -2.881e-09 , -2.875e-09 , -2.121e-09 , 2.662e-09 , 7.767e-09 , -1.4569e-08 , -6.6e-11 , -8.468e-09 , -1.2479e-08 , 1.32e-10 , -6.128e-09 , -7.831e-09 , 9.293e-09 , -2.57e-10 , -7.807e-09 , -1.225e-08 , -1.4897e-08 , 6.969e-09 , -8.865e-09 , 2.507e-09 , 1.2919e-08  };
                        float dot = 0.0;

                        for (uint16_t i = 0; i < 128; i++) {
                            dot += (x[i] - mean[i]) * va_arg(w, double);
                        }

                        return dot;
                    }
                };
            }
        }
    }